
        <?xml version="1.0"?>
        <MethodSetup Method="BDT::bdt">
        <GeneralInfo>
        <Info name="TMVA Release" value=""/>
        <Info name="ROOT Release" value=""/>
        <Info name="Creator" value="mlglue"/>
        <Info name="Date" value=""/>
        <Info name="Host" value=""/>
        <Info name="Dir" value=""/>
        <Info name="Training events" value="-1"/>
        <Info name="TrainingTime" value="-1"/>
        <Info name="AnalysisType" value="Classification"/>
        </GeneralInfo>
        <Options>
        <Option name="NTrees" modified="Yes">100</Option>
        <Option name="MaxDepth" modified="Yes">4</Option>
        <Option name="BoostType" modified="Yes">Grad</Option>
        <Option name="Shrinkage" modified="Yes">0.05</Option>
        <Option name="UseNvars" modified="Yes">13</Option>
        </Options>

        <Variables NVar="13">
        <Variable VarIndex="0" Expression="lep1_conePt" Label="lep1_conePt" Title="lep1_conePt" Unit="" Internal="lep1_conePt" Type="F" Min="0.0000000000000000000000000000000000000000000000000000000000000000E+00" Max="0.0000000000000000000000000000000000000000000000000000000000000000E+00"/>
<Variable VarIndex="1" Expression="lep2_conePt" Label="lep2_conePt" Title="lep2_conePt" Unit="" Internal="lep2_conePt" Type="F" Min="0.0000000000000000000000000000000000000000000000000000000000000000E+00" Max="0.0000000000000000000000000000000000000000000000000000000000000000E+00"/>
<Variable VarIndex="2" Expression="mindr_lep1_jet" Label="mindr_lep1_jet" Title="mindr_lep1_jet" Unit="" Internal="mindr_lep1_jet" Type="F" Min="0.0000000000000000000000000000000000000000000000000000000000000000E+00" Max="0.0000000000000000000000000000000000000000000000000000000000000000E+00"/>
<Variable VarIndex="3" Expression="mindr_lep2_jet" Label="mindr_lep2_jet" Title="mindr_lep2_jet" Unit="" Internal="mindr_lep2_jet" Type="F" Min="0.0000000000000000000000000000000000000000000000000000000000000000E+00" Max="0.0000000000000000000000000000000000000000000000000000000000000000E+00"/>
<Variable VarIndex="4" Expression="mT_lep2" Label="mT_lep2" Title="mT_lep2" Unit="" Internal="mT_lep2" Type="F" Min="0.0000000000000000000000000000000000000000000000000000000000000000E+00" Max="0.0000000000000000000000000000000000000000000000000000000000000000E+00"/>
<Variable VarIndex="5" Expression="mT_lep1" Label="mT_lep1" Title="mT_lep1" Unit="" Internal="mT_lep1" Type="F" Min="0.0000000000000000000000000000000000000000000000000000000000000000E+00" Max="0.0000000000000000000000000000000000000000000000000000000000000000E+00"/>
<Variable VarIndex="6" Expression="max_lep_eta" Label="max_lep_eta" Title="max_lep_eta" Unit="" Internal="max_lep_eta" Type="F" Min="0.0000000000000000000000000000000000000000000000000000000000000000E+00" Max="0.0000000000000000000000000000000000000000000000000000000000000000E+00"/>
<Variable VarIndex="7" Expression="avg_dr_jet" Label="avg_dr_jet" Title="avg_dr_jet" Unit="" Internal="avg_dr_jet" Type="F" Min="0.0000000000000000000000000000000000000000000000000000000000000000E+00" Max="0.0000000000000000000000000000000000000000000000000000000000000000E+00"/>
<Variable VarIndex="8" Expression="ptmiss" Label="ptmiss" Title="ptmiss" Unit="" Internal="ptmiss" Type="F" Min="0.0000000000000000000000000000000000000000000000000000000000000000E+00" Max="0.0000000000000000000000000000000000000000000000000000000000000000E+00"/>
<Variable VarIndex="9" Expression="tau_pt" Label="tau_pt" Title="tau_pt" Unit="" Internal="tau_pt" Type="F" Min="0.0000000000000000000000000000000000000000000000000000000000000000E+00" Max="0.0000000000000000000000000000000000000000000000000000000000000000E+00"/>
<Variable VarIndex="10" Expression="dr_leps" Label="dr_leps" Title="dr_leps" Unit="" Internal="dr_leps" Type="F" Min="0.0000000000000000000000000000000000000000000000000000000000000000E+00" Max="0.0000000000000000000000000000000000000000000000000000000000000000E+00"/>
<Variable VarIndex="11" Expression="mTauTauVis1" Label="mTauTauVis1" Title="mTauTauVis1" Unit="" Internal="mTauTauVis1" Type="F" Min="0.0000000000000000000000000000000000000000000000000000000000000000E+00" Max="0.0000000000000000000000000000000000000000000000000000000000000000E+00"/>
<Variable VarIndex="12" Expression="mTauTauVis2" Label="mTauTauVis2" Title="mTauTauVis2" Unit="" Internal="mTauTauVis2" Type="F" Min="0.0000000000000000000000000000000000000000000000000000000000000000E+00" Max="0.0000000000000000000000000000000000000000000000000000000000000000E+00"/>

        </Variables>

        <Classes NClass="2">
        <Class Name="Background" Index="0"/>
<Class Name="Signal" Index="1"/>

        </Classes>

        <Targets NTrgt="0">
        
        </Targets>

        <Transformations NTransformations="0"/>
        <MVAPdfs/>
        <Weights NTrees="100" AnalysisType="1">
        <BinaryTree type="DecisionTree" boostWeight="0.0" itree="0">
    <Node pos="c" depth="1" NCoef="0"     IVar="1" Cut="     5.323660E+01" cType="1"     res="     0.000000E+00" rms="0.0"     purity="0.00000000E+00" nType="0">
        <Node pos="l" depth="2" NCoef="0"     IVar="6" Cut="     1.526860E+00" cType="1"     res="     0.000000E+00" rms="0.0"     purity="0.00000000E+00" nType="0">
            <Node pos="l" depth="3" NCoef="0"     IVar="0" Cut="     7.664210E+01" cType="1"     res="     0.000000E+00" rms="0.0"     purity="0.00000000E+00" nType="0">
                <Node pos="l" depth="4" NCoef="0"     IVar="7" Cut="     7.754630E-01" cType="1"     res="     0.000000E+00" rms="0.0"     purity="0.00000000E+00" nType="0">
                    <Node pos="l" depth="5" NCoef="0"     IVar="-1" Cut="     0.000000E+00" cType="1"     res="    -1.416180E-02" rms="0.0e-00"     purity="0.00000000E+00" nType="-99">
                    </Node>
                    <Node pos="r" depth="5" NCoef="0"     IVar="-1" Cut="     0.000000E+00" cType="1"     res="     1.362570E-02" rms="0.0e-00"     purity="0.00000000E+00" nType="-99">
                    </Node>
                </Node>
                <Node pos="r" depth="4" NCoef="0"     IVar="10" Cut="     6.067280E-01" cType="1"     res="     0.000000E+00" rms="0.0"     purity="0.00000000E+00" nType="0">
                    <Node pos="l" depth="5" NCoef="0"     IVar="-1" Cut="     0.000000E+00" cType="1"     res="     2.485360E-02" rms="0.0e-00"     purity="0.00000000E+00" nType="-99">
                    </Node>
                    <Node pos="r" depth="5" NCoef="0"     IVar="-1" Cut="     0.000000E+00" cType="1"     res="    -1.234090E-02" rms="0.0e-00"     purity="0.00000000E+00" nType="-99">
                    </Node>
                </Node>
            </Node>
            <Node pos="r" depth="3" NCoef="0"     IVar="1" Cut="     3.562880E+01" cType="1"     res="     0.000000E+00" rms="0.0"     purity="0.00000000E+00" nType="0">
                <Node pos="l" depth="4" NCoef="0"     IVar="10" Cut="     3.232620E+00" cType="1"     res="     0.000000E+00" rms="0.0"     purity="0.00000000E+00" nType="0">
                    <Node pos="l" depth="5" NCoef="0"     IVar="-1" Cut="     0.000000E+00" cType="1"     res="    -9.672250E-03" rms="0.0e-00"     purity="0.00000000E+00" nType="-99">
                    </Node>
                    <Node pos="r" depth="5" NCoef="0"     IVar="-1" Cut="     0.000000E+00" cType="1"     res="    -4.177450E-02" rms="0.0e-00"     purity="0.00000000E+00" nType="-99">
                    </Node>
                </Node>
                <Node pos="r" depth="4" NCoef="0"     IVar="10" Cut="     3.643030E+00" cType="1"     res="     0.000000E+00" rms="0.0"     purity="0.00000000E+00" nType="0">
                    <Node pos="l" depth="5" NCoef="0"     IVar="-1" Cut="     0.000000E+00" cType="1"     res="    -3.246060E-02" rms="0.0e-00"     purity="0.00000000E+00" nType="-99">
                    </Node>
                    <Node pos="r" depth="5" NCoef="0"     IVar="-1" Cut="     0.000000E+00" cType="1"     res="    -6.624690E-02" rms="0.0e-00"     purity="0.00000000E+00" nType="-99">
                    </Node>
                </Node>
            </Node>
        </Node>
        <Node pos="r" depth="2" NCoef="0"     IVar="6" Cut="     1.248210E+00" cType="1"     res="     0.000000E+00" rms="0.0"     purity="0.00000000E+00" nType="0">
            <Node pos="l" depth="3" NCoef="0"     IVar="0" Cut="     1.519430E+02" cType="1"     res="     0.000000E+00" rms="0.0"     purity="0.00000000E+00" nType="0">
                <Node pos="l" depth="4" NCoef="0"     IVar="10" Cut="     4.510430E-01" cType="1"     res="     0.000000E+00" rms="0.0"     purity="0.00000000E+00" nType="0">
                    <Node pos="l" depth="5" NCoef="0"     IVar="-1" Cut="     0.000000E+00" cType="1"     res="     3.816050E-02" rms="0.0e-00"     purity="0.00000000E+00" nType="-99">
                    </Node>
                    <Node pos="r" depth="5" NCoef="0"     IVar="-1" Cut="     0.000000E+00" cType="1"     res="    -1.713850E-02" rms="0.0e-00"     purity="0.00000000E+00" nType="-99">
                    </Node>
                </Node>
                <Node pos="r" depth="4" NCoef="0"     IVar="2" Cut="     1.101620E+00" cType="1"     res="     0.000000E+00" rms="0.0"     purity="0.00000000E+00" nType="0">
                    <Node pos="l" depth="5" NCoef="0"     IVar="-1" Cut="     0.000000E+00" cType="1"     res="    -2.716610E-02" rms="0.0e-00"     purity="0.00000000E+00" nType="-99">
                    </Node>
                    <Node pos="r" depth="5" NCoef="0"     IVar="-1" Cut="     0.000000E+00" cType="1"     res="    -5.557050E-02" rms="0.0e-00"     purity="0.00000000E+00" nType="-99">
                    </Node>
                </Node>
            </Node>
            <Node pos="r" depth="3" NCoef="0"     IVar="0" Cut="     1.363000E+02" cType="1"     res="     0.000000E+00" rms="0.0"     purity="0.00000000E+00" nType="0">
                <Node pos="l" depth="4" NCoef="0"     IVar="10" Cut="     5.450000E-01" cType="1"     res="     0.000000E+00" rms="0.0"     purity="0.00000000E+00" nType="0">
                    <Node pos="l" depth="5" NCoef="0"     IVar="-1" Cut="     0.000000E+00" cType="1"     res="     2.474370E-02" rms="0.0e-00"     purity="0.00000000E+00" nType="-99">
                    </Node>
                    <Node pos="r" depth="5" NCoef="0"     IVar="-1" Cut="     0.000000E+00" cType="1"     res="    -4.358030E-02" rms="0.0e-00"     purity="0.00000000E+00" nType="-99">
                    </Node>
                </Node>
                <Node pos="r" depth="4" NCoef="0"     IVar="9" Cut="     4.303770E+01" cType="1"     res="     0.000000E+00" rms="0.0"     purity="0.00000000E+00" nType="0">
                    <Node pos="l" depth="5" NCoef="0"     IVar="-1" Cut="     0.000000E+00" cType="1"     res="    -6.579350E-02" rms="0.0e-00"     purity="0.00000000E+00" nType="-99">
                    </Node>
                    <Node pos="r" depth="5" NCoef="0"     IVar="-1" Cut="     0.000000E+00" cType="1"     res="    -4.115390E-02" rms="0.0e-00"     purity="0.00000000E+00" nType="-99">
                    </Node>
                </Node>
            </Node>
        </Node>
    </Node>
</BinaryTree>
<BinaryTree type="DecisionTree" boostWeight="0.0" itree="1">
    <Node pos="c" depth="1" NCoef="0"     IVar="0" Cut="     9.107310E+01" cType="1"     res="     0.000000E+00" rms="0.0"     purity="0.00000000E+00" nType="0">
        <Node pos="l" depth="2" NCoef="0"     IVar="6" Cut="     1.553210E+00" cType="1"     res="     0.000000E+00" rms="0.0"     purity="0.00000000E+00" nType="0">
            <Node pos="l" depth="3" NCoef="0"     IVar="10" Cut="     9.347310E-01" cType="1"     res="     0.000000E+00" rms="0.0"     purity="0.00000000E+00" nType="0">
                <Node pos="l" depth="4" NCoef="0"     IVar="7" Cut="     6.554950E-01" cType="1"     res="     0.000000E+00" rms="0.0"     purity="0.00000000E+00" nType="0">
                    <Node pos="l" depth="5" NCoef="0"     IVar="-1" Cut="     0.000000E+00" cType="1"     res="     6.171180E-03" rms="0.0e-00"     purity="0.00000000E+00" nType="-99">
                    </Node>
                    <Node pos="r" depth="5" NCoef="0"     IVar="-1" Cut="     0.000000E+00" cType="1"     res="     2.957600E-02" rms="0.0e-00"     purity="0.00000000E+00" nType="-99">
                    </Node>
                </Node>
                <Node pos="r" depth="4" NCoef="0"     IVar="1" Cut="     3.681930E+01" cType="1"     res="     0.000000E+00" rms="0.0"     purity="0.00000000E+00" nType="0">
                    <Node pos="l" depth="5" NCoef="0"     IVar="-1" Cut="     0.000000E+00" cType="1"     res="     1.042190E-02" rms="0.0e-00"     purity="0.00000000E+00" nType="-99">
                    </Node>
                    <Node pos="r" depth="5" NCoef="0"     IVar="-1" Cut="     0.000000E+00" cType="1"     res="    -9.511970E-03" rms="0.0e-00"     purity="0.00000000E+00" nType="-99">
                    </Node>
                </Node>
            </Node>
            <Node pos="r" depth="3" NCoef="0"     IVar="1" Cut="     3.562880E+01" cType="1"     res="     0.000000E+00" rms="0.0"     purity="0.00000000E+00" nType="0">
                <Node pos="l" depth="4" NCoef="0"     IVar="10" Cut="     3.231540E+00" cType="1"     res="     0.000000E+00" rms="0.0"     purity="0.00000000E+00" nType="0">
                    <Node pos="l" depth="5" NCoef="0"     IVar="-1" Cut="     0.000000E+00" cType="1"     res="    -4.313770E-03" rms="0.0e-00"     purity="0.00000000E+00" nType="-99">
                    </Node>
                    <Node pos="r" depth="5" NCoef="0"     IVar="-1" Cut="     0.000000E+00" cType="1"     res="    -3.870940E-02" rms="0.0e-00"     purity="0.00000000E+00" nType="-99">
                    </Node>
                </Node>
                <Node pos="r" depth="4" NCoef="0"     IVar="10" Cut="     8.652900E-01" cType="1"     res="     0.000000E+00" rms="0.0"     purity="0.00000000E+00" nType="0">
                    <Node pos="l" depth="5" NCoef="0"     IVar="-1" Cut="     0.000000E+00" cType="1"     res="    -4.105550E-04" rms="0.0e-00"     purity="0.00000000E+00" nType="-99">
                    </Node>
                    <Node pos="r" depth="5" NCoef="0"     IVar="-1" Cut="     0.000000E+00" cType="1"     res="    -3.540390E-02" rms="0.0e-00"     purity="0.00000000E+00" nType="-99">
                    </Node>
                </Node>
            </Node>
        </Node>
        <Node pos="r" depth="2" NCoef="0"     IVar="6" Cut="     1.459710E+00" cType="1"     res="     0.000000E+00" rms="0.0"     purity="0.00000000E+00" nType="0">
            <Node pos="l" depth="3" NCoef="0"     IVar="0" Cut="     1.774040E+02" cType="1"     res="     0.000000E+00" rms="0.0"     purity="0.00000000E+00" nType="0">
                <Node pos="l" depth="4" NCoef="0"     IVar="1" Cut="     6.716930E+01" cType="1"     res="     0.000000E+00" rms="0.0"     purity="0.00000000E+00" nType="0">
                    <Node pos="l" depth="5" NCoef="0"     IVar="-1" Cut="     0.000000E+00" cType="1"     res="    -1.006510E-02" rms="0.0e-00"     purity="0.00000000E+00" nType="-99">
                    </Node>
                    <Node pos="r" depth="5" NCoef="0"     IVar="-1" Cut="     0.000000E+00" cType="1"     res="    -2.917820E-02" rms="0.0e-00"     purity="0.00000000E+00" nType="-99">
                    </Node>
                </Node>
                <Node pos="r" depth="4" NCoef="0"     IVar="2" Cut="     1.038850E+00" cType="1"     res="     0.000000E+00" rms="0.0"     purity="0.00000000E+00" nType="0">
                    <Node pos="l" depth="5" NCoef="0"     IVar="-1" Cut="     0.000000E+00" cType="1"     res="    -2.619720E-02" rms="0.0e-00"     purity="0.00000000E+00" nType="-99">
                    </Node>
                    <Node pos="r" depth="5" NCoef="0"     IVar="-1" Cut="     0.000000E+00" cType="1"     res="    -5.561800E-02" rms="0.0e-00"     purity="0.00000000E+00" nType="-99">
                    </Node>
                </Node>
            </Node>
            <Node pos="r" depth="3" NCoef="0"     IVar="9" Cut="     4.032300E+01" cType="1"     res="     0.000000E+00" rms="0.0"     purity="0.00000000E+00" nType="0">
                <Node pos="l" depth="4" NCoef="0"     IVar="12" Cut="     6.985340E+01" cType="1"     res="     0.000000E+00" rms="0.0"     purity="0.00000000E+00" nType="0">
                    <Node pos="l" depth="5" NCoef="0"     IVar="-1" Cut="     0.000000E+00" cType="1"     res="    -4.541590E-02" rms="0.0e-00"     purity="0.00000000E+00" nType="-99">
                    </Node>
                    <Node pos="r" depth="5" NCoef="0"     IVar="-1" Cut="     0.000000E+00" cType="1"     res="    -6.465200E-02" rms="0.0e-00"     purity="0.00000000E+00" nType="-99">
                    </Node>
                </Node>
                <Node pos="r" depth="4" NCoef="0"     IVar="12" Cut="     1.083790E+02" cType="1"     res="     0.000000E+00" rms="0.0"     purity="0.00000000E+00" nType="0">
                    <Node pos="l" depth="5" NCoef="0"     IVar="-1" Cut="     0.000000E+00" cType="1"     res="    -1.820840E-02" rms="0.0e-00"     purity="0.00000000E+00" nType="-99">
                    </Node>
                    <Node pos="r" depth="5" NCoef="0"     IVar="-1" Cut="     0.000000E+00" cType="1"     res="    -5.309230E-02" rms="0.0e-00"     purity="0.00000000E+00" nType="-99">
                    </Node>
                </Node>
            </Node>
        </Node>
    </Node>
</BinaryTree>
<BinaryTree type="DecisionTree" boostWeight="0.0" itree="2">
    <Node pos="c" depth="1" NCoef="0"     IVar="1" Cut="     5.323660E+01" cType="1"     res="     0.000000E+00" rms="0.0"     purity="0.00000000E+00" nType="0">
        <Node pos="l" depth="2" NCoef="0"     IVar="6" Cut="     1.629710E+00" cType="1"     res="     0.000000E+00" rms="0.0"     purity="0.00000000E+00" nType="0">
            <Node pos="l" depth="3" NCoef="0"     IVar="0" Cut="     7.664210E+01" cType="1"     res="     0.000000E+00" rms="0.0"     purity="0.00000000E+00" nType="0">
                <Node pos="l" depth="4" NCoef="0"     IVar="10" Cut="     1.141080E+00" cType="1"     res="     0.000000E+00" rms="0.0"     purity="0.00000000E+00" nType="0">
                    <Node pos="l" depth="5" NCoef="0"     IVar="-1" Cut="     0.000000E+00" cType="1"     res="     2.593560E-02" rms="0.0e-00"     purity="0.00000000E+00" nType="-99">
                    </Node>
                    <Node pos="r" depth="5" NCoef="0"     IVar="-1" Cut="     0.000000E+00" cType="1"     res="     2.980220E-03" rms="0.0e-00"     purity="0.00000000E+00" nType="-99">
                    </Node>
                </Node>
                <Node pos="r" depth="4" NCoef="0"     IVar="10" Cut="     6.067280E-01" cType="1"     res="     0.000000E+00" rms="0.0"     purity="0.00000000E+00" nType="0">
                    <Node pos="l" depth="5" NCoef="0"     IVar="-1" Cut="     0.000000E+00" cType="1"     res="     2.341290E-02" rms="0.0e-00"     purity="0.00000000E+00" nType="-99">
                    </Node>
                    <Node pos="r" depth="5" NCoef="0"     IVar="-1" Cut="     0.000000E+00" cType="1"     res="    -1.210150E-02" rms="0.0e-00"     purity="0.00000000E+00" nType="-99">
                    </Node>
                </Node>
            </Node>
            <Node pos="r" depth="3" NCoef="0"     IVar="1" Cut="     3.562640E+01" cType="1"     res="     0.000000E+00" rms="0.0"     purity="0.00000000E+00" nType="0">
                <Node pos="l" depth="4" NCoef="0"     IVar="10" Cut="     3.232730E+00" cType="1"     res="     0.000000E+00" rms="0.0"     purity="0.00000000E+00" nType="0">
                    <Node pos="l" depth="5" NCoef="0"     IVar="-1" Cut="     0.000000E+00" cType="1"     res="    -9.641940E-03" rms="0.0e-00"     purity="0.00000000E+00" nType="-99">
                    </Node>
                    <Node pos="r" depth="5" NCoef="0"     IVar="-1" Cut="     0.000000E+00" cType="1"     res="    -3.998160E-02" rms="0.0e-00"     purity="0.00000000E+00" nType="-99">
                    </Node>
                </Node>
                <Node pos="r" depth="4" NCoef="0"     IVar="9" Cut="     3.860970E+01" cType="1"     res="     0.000000E+00" rms="0.0"     purity="0.00000000E+00" nType="0">
                    <Node pos="l" depth="5" NCoef="0"     IVar="-1" Cut="     0.000000E+00" cType="1"     res="    -3.847540E-02" rms="0.0e-00"     purity="0.00000000E+00" nType="-99">
                    </Node>
                    <Node pos="r" depth="5" NCoef="0"     IVar="-1" Cut="     0.000000E+00" cType="1"     res="    -1.883170E-02" rms="0.0e-00"     purity="0.00000000E+00" nType="-99">
                    </Node>
                </Node>
            </Node>
        </Node>
        <Node pos="r" depth="2" NCoef="0"     IVar="6" Cut="     1.248210E+00" cType="1"     res="     0.000000E+00" rms="0.0"     purity="0.00000000E+00" nType="0">
            <Node pos="l" depth="3" NCoef="0"     IVar="0" Cut="     1.202170E+02" cType="1"     res="     0.000000E+00" rms="0.0"     purity="0.00000000E+00" nType="0">
                <Node pos="l" depth="4" NCoef="0"     IVar="10" Cut="     6.647760E-01" cType="1"     res="     0.000000E+00" rms="0.0"     purity="0.00000000E+00" nType="0">
                    <Node pos="l" depth="5" NCoef="0"     IVar="-1" Cut="     0.000000E+00" cType="1"     res="     2.913600E-02" rms="0.0e-00"     purity="0.00000000E+00" nType="-99">
                    </Node>
                    <Node pos="r" depth="5" NCoef="0"     IVar="-1" Cut="     0.000000E+00" cType="1"     res="    -1.267070E-02" rms="0.0e-00"     purity="0.00000000E+00" nType="-99">
                    </Node>
                </Node>
                <Node pos="r" depth="4" NCoef="0"     IVar="10" Cut="     1.202550E+00" cType="1"     res="     0.000000E+00" rms="0.0"     purity="0.00000000E+00" nType="0">
                    <Node pos="l" depth="5" NCoef="0"     IVar="-1" Cut="     0.000000E+00" cType="1"     res="    -5.444910E-02" rms="0.0e-00"     purity="0.00000000E+00" nType="-99">
                    </Node>
                    <Node pos="r" depth="5" NCoef="0"     IVar="-1" Cut="     0.000000E+00" cType="1"     res="    -2.769030E-02" rms="0.0e-00"     purity="0.00000000E+00" nType="-99">
                    </Node>
                </Node>
            </Node>
            <Node pos="r" depth="3" NCoef="0"     IVar="0" Cut="     1.349890E+02" cType="1"     res="     0.000000E+00" rms="0.0"     purity="0.00000000E+00" nType="0">
                <Node pos="l" depth="4" NCoef="0"     IVar="10" Cut="     5.450000E-01" cType="1"     res="     0.000000E+00" rms="0.0"     purity="0.00000000E+00" nType="0">
                    <Node pos="l" depth="5" NCoef="0"     IVar="-1" Cut="     0.000000E+00" cType="1"     res="     2.477470E-02" rms="0.0e-00"     purity="0.00000000E+00" nType="-99">
                    </Node>
                    <Node pos="r" depth="5" NCoef="0"     IVar="-1" Cut="     0.000000E+00" cType="1"     res="    -3.959000E-02" rms="0.0e-00"     purity="0.00000000E+00" nType="-99">
                    </Node>
                </Node>
                <Node pos="r" depth="4" NCoef="0"     IVar="9" Cut="     3.448880E+01" cType="1"     res="     0.000000E+00" rms="0.0"     purity="0.00000000E+00" nType="0">
                    <Node pos="l" depth="5" NCoef="0"     IVar="-1" Cut="     0.000000E+00" cType="1"     res="    -6.134840E-02" rms="0.0e-00"     purity="0.00000000E+00" nType="-99">
                    </Node>
                    <Node pos="r" depth="5" NCoef="0"     IVar="-1" Cut="     0.000000E+00" cType="1"     res="    -4.170370E-02" rms="0.0e-00"     purity="0.00000000E+00" nType="-99">
                    </Node>
                </Node>
            </Node>
        </Node>
    </Node>
</BinaryTree>
<BinaryTree type="DecisionTree" boostWeight="0.0" itree="3">
    <Node pos="c" depth="1" NCoef="0"     IVar="1" Cut="     5.065760E+01" cType="1"     res="     0.000000E+00" rms="0.0"     purity="0.00000000E+00" nType="0">
        <Node pos="l" depth="2" NCoef="0"     IVar="6" Cut="     1.527160E+00" cType="1"     res="     0.000000E+00" rms="0.0"     purity="0.00000000E+00" nType="0">
            <Node pos="l" depth="3" NCoef="0"     IVar="0" Cut="     7.939520E+01" cType="1"     res="     0.000000E+00" rms="0.0"     purity="0.00000000E+00" nType="0">
                <Node pos="l" depth="4" NCoef="0"     IVar="7" Cut="     7.754630E-01" cType="1"     res="     0.000000E+00" rms="0.0"     purity="0.00000000E+00" nType="0">
                    <Node pos="l" depth="5" NCoef="0"     IVar="-1" Cut="     0.000000E+00" cType="1"     res="    -1.441690E-02" rms="0.0e-00"     purity="0.00000000E+00" nType="-99">
                    </Node>
                    <Node pos="r" depth="5" NCoef="0"     IVar="-1" Cut="     0.000000E+00" cType="1"     res="     1.253890E-02" rms="0.0e-00"     purity="0.00000000E+00" nType="-99">
                    </Node>
                </Node>
                <Node pos="r" depth="4" NCoef="0"     IVar="10" Cut="     6.262500E-01" cType="1"     res="     0.000000E+00" rms="0.0"     purity="0.00000000E+00" nType="0">
                    <Node pos="l" depth="5" NCoef="0"     IVar="-1" Cut="     0.000000E+00" cType="1"     res="     2.213850E-02" rms="0.0e-00"     purity="0.00000000E+00" nType="-99">
                    </Node>
                    <Node pos="r" depth="5" NCoef="0"     IVar="-1" Cut="     0.000000E+00" cType="1"     res="    -1.017320E-02" rms="0.0e-00"     purity="0.00000000E+00" nType="-99">
                    </Node>
                </Node>
            </Node>
            <Node pos="r" depth="3" NCoef="0"     IVar="0" Cut="     4.609020E+01" cType="1"     res="     0.000000E+00" rms="0.0"     purity="0.00000000E+00" nType="0">
                <Node pos="l" depth="4" NCoef="0"     IVar="10" Cut="     2.548320E+00" cType="1"     res="     0.000000E+00" rms="0.0"     purity="0.00000000E+00" nType="0">
                    <Node pos="l" depth="5" NCoef="0"     IVar="-1" Cut="     0.000000E+00" cType="1"     res="     6.583940E-03" rms="0.0e-00"     purity="0.00000000E+00" nType="-99">
                    </Node>
                    <Node pos="r" depth="5" NCoef="0"     IVar="-1" Cut="     0.000000E+00" cType="1"     res="    -1.873720E-02" rms="0.0e-00"     purity="0.00000000E+00" nType="-99">
                    </Node>
                </Node>
                <Node pos="r" depth="4" NCoef="0"     IVar="9" Cut="     3.860970E+01" cType="1"     res="     0.000000E+00" rms="0.0"     purity="0.00000000E+00" nType="0">
                    <Node pos="l" depth="5" NCoef="0"     IVar="-1" Cut="     0.000000E+00" cType="1"     res="    -3.048500E-02" rms="0.0e-00"     purity="0.00000000E+00" nType="-99">
                    </Node>
                    <Node pos="r" depth="5" NCoef="0"     IVar="-1" Cut="     0.000000E+00" cType="1"     res="    -9.191000E-03" rms="0.0e-00"     purity="0.00000000E+00" nType="-99">
                    </Node>
                </Node>
            </Node>
        </Node>
        <Node pos="r" depth="2" NCoef="0"     IVar="6" Cut="     1.248210E+00" cType="1"     res="     0.000000E+00" rms="0.0"     purity="0.00000000E+00" nType="0">
            <Node pos="l" depth="3" NCoef="0"     IVar="0" Cut="     1.145570E+02" cType="1"     res="     0.000000E+00" rms="0.0"     purity="0.00000000E+00" nType="0">
                <Node pos="l" depth="4" NCoef="0"     IVar="10" Cut="     6.647760E-01" cType="1"     res="     0.000000E+00" rms="0.0"     purity="0.00000000E+00" nType="0">
                    <Node pos="l" depth="5" NCoef="0"     IVar="-1" Cut="     0.000000E+00" cType="1"     res="     2.968840E-02" rms="0.0e-00"     purity="0.00000000E+00" nType="-99">
                    </Node>
                    <Node pos="r" depth="5" NCoef="0"     IVar="-1" Cut="     0.000000E+00" cType="1"     res="    -1.023500E-02" rms="0.0e-00"     purity="0.00000000E+00" nType="-99">
                    </Node>
                </Node>
                <Node pos="r" depth="4" NCoef="0"     IVar="10" Cut="     1.204930E+00" cType="1"     res="     0.000000E+00" rms="0.0"     purity="0.00000000E+00" nType="0">
                    <Node pos="l" depth="5" NCoef="0"     IVar="-1" Cut="     0.000000E+00" cType="1"     res="    -5.034710E-02" rms="0.0e-00"     purity="0.00000000E+00" nType="-99">
                    </Node>
                    <Node pos="r" depth="5" NCoef="0"     IVar="-1" Cut="     0.000000E+00" cType="1"     res="    -2.506850E-02" rms="0.0e-00"     purity="0.00000000E+00" nType="-99">
                    </Node>
                </Node>
            </Node>
            <Node pos="r" depth="3" NCoef="0"     IVar="0" Cut="     1.461660E+02" cType="1"     res="     0.000000E+00" rms="0.0"     purity="0.00000000E+00" nType="0">
                <Node pos="l" depth="4" NCoef="0"     IVar="10" Cut="     5.449910E-01" cType="1"     res="     0.000000E+00" rms="0.0"     purity="0.00000000E+00" nType="0">
                    <Node pos="l" depth="5" NCoef="0"     IVar="-1" Cut="     0.000000E+00" cType="1"     res="     2.369010E-02" rms="0.0e-00"     purity="0.00000000E+00" nType="-99">
                    </Node>
                    <Node pos="r" depth="5" NCoef="0"     IVar="-1" Cut="     0.000000E+00" cType="1"     res="    -3.775650E-02" rms="0.0e-00"     purity="0.00000000E+00" nType="-99">
                    </Node>
                </Node>
                <Node pos="r" depth="4" NCoef="0"     IVar="10" Cut="     2.615240E-01" cType="1"     res="     0.000000E+00" rms="0.0"     purity="0.00000000E+00" nType="0">
                    <Node pos="l" depth="5" NCoef="0"     IVar="-1" Cut="     0.000000E+00" cType="1"     res="     5.443720E-02" rms="0.0e-00"     purity="0.00000000E+00" nType="-99">
                    </Node>
                    <Node pos="r" depth="5" NCoef="0"     IVar="-1" Cut="     0.000000E+00" cType="1"     res="    -5.523900E-02" rms="0.0e-00"     purity="0.00000000E+00" nType="-99">
                    </Node>
                </Node>
            </Node>
        </Node>
    </Node>
</BinaryTree>
<BinaryTree type="DecisionTree" boostWeight="0.0" itree="4">
    <Node pos="c" depth="1" NCoef="0"     IVar="0" Cut="     8.632270E+01" cType="1"     res="     0.000000E+00" rms="0.0"     purity="0.00000000E+00" nType="0">
        <Node pos="l" depth="2" NCoef="0"     IVar="6" Cut="     1.351100E+00" cType="1"     res="     0.000000E+00" rms="0.0"     purity="0.00000000E+00" nType="0">
            <Node pos="l" depth="3" NCoef="0"     IVar="10" Cut="     9.664380E-01" cType="1"     res="     0.000000E+00" rms="0.0"     purity="0.00000000E+00" nType="0">
                <Node pos="l" depth="4" NCoef="0"     IVar="2" Cut="     1.719490E+00" cType="1"     res="     0.000000E+00" rms="0.0"     purity="0.00000000E+00" nType="0">
                    <Node pos="l" depth="5" NCoef="0"     IVar="-1" Cut="     0.000000E+00" cType="1"     res="     3.283390E-02" rms="0.0e-00"     purity="0.00000000E+00" nType="-99">
                    </Node>
                    <Node pos="r" depth="5" NCoef="0"     IVar="-1" Cut="     0.000000E+00" cType="1"     res="     1.542680E-02" rms="0.0e-00"     purity="0.00000000E+00" nType="-99">
                    </Node>
                </Node>
                <Node pos="r" depth="4" NCoef="0"     IVar="7" Cut="     5.498400E-01" cType="1"     res="     0.000000E+00" rms="0.0"     purity="0.00000000E+00" nType="0">
                    <Node pos="l" depth="5" NCoef="0"     IVar="-1" Cut="     0.000000E+00" cType="1"     res="    -2.047230E-02" rms="0.0e-00"     purity="0.00000000E+00" nType="-99">
                    </Node>
                    <Node pos="r" depth="5" NCoef="0"     IVar="-1" Cut="     0.000000E+00" cType="1"     res="     5.543490E-03" rms="0.0e-00"     purity="0.00000000E+00" nType="-99">
                    </Node>
                </Node>
            </Node>
            <Node pos="r" depth="3" NCoef="0"     IVar="1" Cut="     3.447090E+01" cType="1"     res="     0.000000E+00" rms="0.0"     purity="0.00000000E+00" nType="0">
                <Node pos="l" depth="4" NCoef="0"     IVar="10" Cut="     3.232730E+00" cType="1"     res="     0.000000E+00" rms="0.0"     purity="0.00000000E+00" nType="0">
                    <Node pos="l" depth="5" NCoef="0"     IVar="-1" Cut="     0.000000E+00" cType="1"     res="     6.883930E-04" rms="0.0e-00"     purity="0.00000000E+00" nType="-99">
                    </Node>
                    <Node pos="r" depth="5" NCoef="0"     IVar="-1" Cut="     0.000000E+00" cType="1"     res="    -3.040670E-02" rms="0.0e-00"     purity="0.00000000E+00" nType="-99">
                    </Node>
                </Node>
                <Node pos="r" depth="4" NCoef="0"     IVar="10" Cut="     1.140620E+00" cType="1"     res="     0.000000E+00" rms="0.0"     purity="0.00000000E+00" nType="0">
                    <Node pos="l" depth="5" NCoef="0"     IVar="-1" Cut="     0.000000E+00" cType="1"     res="    -9.833380E-04" rms="0.0e-00"     purity="0.00000000E+00" nType="-99">
                    </Node>
                    <Node pos="r" depth="5" NCoef="0"     IVar="-1" Cut="     0.000000E+00" cType="1"     res="    -2.746920E-02" rms="0.0e-00"     purity="0.00000000E+00" nType="-99">
                    </Node>
                </Node>
            </Node>
        </Node>
        <Node pos="r" depth="2" NCoef="0"     IVar="6" Cut="     1.459710E+00" cType="1"     res="     0.000000E+00" rms="0.0"     purity="0.00000000E+00" nType="0">
            <Node pos="l" depth="3" NCoef="0"     IVar="0" Cut="     1.774040E+02" cType="1"     res="     0.000000E+00" rms="0.0"     purity="0.00000000E+00" nType="0">
                <Node pos="l" depth="4" NCoef="0"     IVar="1" Cut="     6.716860E+01" cType="1"     res="     0.000000E+00" rms="0.0"     purity="0.00000000E+00" nType="0">
                    <Node pos="l" depth="5" NCoef="0"     IVar="-1" Cut="     0.000000E+00" cType="1"     res="    -7.514220E-03" rms="0.0e-00"     purity="0.00000000E+00" nType="-99">
                    </Node>
                    <Node pos="r" depth="5" NCoef="0"     IVar="-1" Cut="     0.000000E+00" cType="1"     res="    -2.475890E-02" rms="0.0e-00"     purity="0.00000000E+00" nType="-99">
                    </Node>
                </Node>
                <Node pos="r" depth="4" NCoef="0"     IVar="2" Cut="     1.118150E+00" cType="1"     res="     0.000000E+00" rms="0.0"     purity="0.00000000E+00" nType="0">
                    <Node pos="l" depth="5" NCoef="0"     IVar="-1" Cut="     0.000000E+00" cType="1"     res="    -2.330090E-02" rms="0.0e-00"     purity="0.00000000E+00" nType="-99">
                    </Node>
                    <Node pos="r" depth="5" NCoef="0"     IVar="-1" Cut="     0.000000E+00" cType="1"     res="    -5.089140E-02" rms="0.0e-00"     purity="0.00000000E+00" nType="-99">
                    </Node>
                </Node>
            </Node>
            <Node pos="r" depth="3" NCoef="0"     IVar="9" Cut="     4.032300E+01" cType="1"     res="     0.000000E+00" rms="0.0"     purity="0.00000000E+00" nType="0">
                <Node pos="l" depth="4" NCoef="0"     IVar="12" Cut="     5.213870E+01" cType="1"     res="     0.000000E+00" rms="0.0"     purity="0.00000000E+00" nType="0">
                    <Node pos="l" depth="5" NCoef="0"     IVar="-1" Cut="     0.000000E+00" cType="1"     res="    -3.402470E-02" rms="0.0e-00"     purity="0.00000000E+00" nType="-99">
                    </Node>
                    <Node pos="r" depth="5" NCoef="0"     IVar="-1" Cut="     0.000000E+00" cType="1"     res="    -5.328050E-02" rms="0.0e-00"     purity="0.00000000E+00" nType="-99">
                    </Node>
                </Node>
                <Node pos="r" depth="4" NCoef="0"     IVar="12" Cut="     9.276190E+01" cType="1"     res="     0.000000E+00" rms="0.0"     purity="0.00000000E+00" nType="0">
                    <Node pos="l" depth="5" NCoef="0"     IVar="-1" Cut="     0.000000E+00" cType="1"     res="    -1.196100E-02" rms="0.0e-00"     purity="0.00000000E+00" nType="-99">
                    </Node>
                    <Node pos="r" depth="5" NCoef="0"     IVar="-1" Cut="     0.000000E+00" cType="1"     res="    -4.249760E-02" rms="0.0e-00"     purity="0.00000000E+00" nType="-99">
                    </Node>
                </Node>
            </Node>
        </Node>
    </Node>
</BinaryTree>
<BinaryTree type="DecisionTree" boostWeight="0.0" itree="5">
    <Node pos="c" depth="1" NCoef="0"     IVar="1" Cut="     5.355340E+01" cType="1"     res="     0.000000E+00" rms="0.0"     purity="0.00000000E+00" nType="0">
        <Node pos="l" depth="2" NCoef="0"     IVar="6" Cut="     1.629710E+00" cType="1"     res="     0.000000E+00" rms="0.0"     purity="0.00000000E+00" nType="0">
            <Node pos="l" depth="3" NCoef="0"     IVar="0" Cut="     1.169840E+02" cType="1"     res="     0.000000E+00" rms="0.0"     purity="0.00000000E+00" nType="0">
                <Node pos="l" depth="4" NCoef="0"     IVar="10" Cut="     1.107280E+00" cType="1"     res="     0.000000E+00" rms="0.0"     purity="0.00000000E+00" nType="0">
                    <Node pos="l" depth="5" NCoef="0"     IVar="-1" Cut="     0.000000E+00" cType="1"     res="     2.198020E-02" rms="0.0e-00"     purity="0.00000000E+00" nType="-99">
                    </Node>
                    <Node pos="r" depth="5" NCoef="0"     IVar="-1" Cut="     0.000000E+00" cType="1"     res="    -1.197830E-04" rms="0.0e-00"     purity="0.00000000E+00" nType="-99">
                    </Node>
                </Node>
                <Node pos="r" depth="4" NCoef="0"     IVar="2" Cut="     1.517830E+00" cType="1"     res="     0.000000E+00" rms="0.0"     purity="0.00000000E+00" nType="0">
                    <Node pos="l" depth="5" NCoef="0"     IVar="-1" Cut="     0.000000E+00" cType="1"     res="    -9.066490E-03" rms="0.0e-00"     purity="0.00000000E+00" nType="-99">
                    </Node>
                    <Node pos="r" depth="5" NCoef="0"     IVar="-1" Cut="     0.000000E+00" cType="1"     res="    -2.767790E-02" rms="0.0e-00"     purity="0.00000000E+00" nType="-99">
                    </Node>
                </Node>
            </Node>
            <Node pos="r" depth="3" NCoef="0"     IVar="0" Cut="     5.013680E+01" cType="1"     res="     0.000000E+00" rms="0.0"     purity="0.00000000E+00" nType="0">
                <Node pos="l" depth="4" NCoef="0"     IVar="10" Cut="     2.548320E+00" cType="1"     res="     0.000000E+00" rms="0.0"     purity="0.00000000E+00" nType="0">
                    <Node pos="l" depth="5" NCoef="0"     IVar="-1" Cut="     0.000000E+00" cType="1"     res="     2.087320E-03" rms="0.0e-00"     purity="0.00000000E+00" nType="-99">
                    </Node>
                    <Node pos="r" depth="5" NCoef="0"     IVar="-1" Cut="     0.000000E+00" cType="1"     res="    -1.909080E-02" rms="0.0e-00"     purity="0.00000000E+00" nType="-99">
                    </Node>
                </Node>
                <Node pos="r" depth="4" NCoef="0"     IVar="9" Cut="     3.315230E+01" cType="1"     res="     0.000000E+00" rms="0.0"     purity="0.00000000E+00" nType="0">
                    <Node pos="l" depth="5" NCoef="0"     IVar="-1" Cut="     0.000000E+00" cType="1"     res="    -3.270450E-02" rms="0.0e-00"     purity="0.00000000E+00" nType="-99">
                    </Node>
                    <Node pos="r" depth="5" NCoef="0"     IVar="-1" Cut="     0.000000E+00" cType="1"     res="    -1.442030E-02" rms="0.0e-00"     purity="0.00000000E+00" nType="-99">
                    </Node>
                </Node>
            </Node>
        </Node>
        <Node pos="r" depth="2" NCoef="0"     IVar="6" Cut="     1.359940E+00" cType="1"     res="     0.000000E+00" rms="0.0"     purity="0.00000000E+00" nType="0">
            <Node pos="l" depth="3" NCoef="0"     IVar="0" Cut="     1.274650E+02" cType="1"     res="     0.000000E+00" rms="0.0"     purity="0.00000000E+00" nType="0">
                <Node pos="l" depth="4" NCoef="0"     IVar="10" Cut="     5.614820E-01" cType="1"     res="     0.000000E+00" rms="0.0"     purity="0.00000000E+00" nType="0">
                    <Node pos="l" depth="5" NCoef="0"     IVar="-1" Cut="     0.000000E+00" cType="1"     res="     3.039370E-02" rms="0.0e-00"     purity="0.00000000E+00" nType="-99">
                    </Node>
                    <Node pos="r" depth="5" NCoef="0"     IVar="-1" Cut="     0.000000E+00" cType="1"     res="    -1.323090E-02" rms="0.0e-00"     purity="0.00000000E+00" nType="-99">
                    </Node>
                </Node>
                <Node pos="r" depth="4" NCoef="0"     IVar="2" Cut="     1.106710E+00" cType="1"     res="     0.000000E+00" rms="0.0"     purity="0.00000000E+00" nType="0">
                    <Node pos="l" depth="5" NCoef="0"     IVar="-1" Cut="     0.000000E+00" cType="1"     res="    -1.946660E-02" rms="0.0e-00"     purity="0.00000000E+00" nType="-99">
                    </Node>
                    <Node pos="r" depth="5" NCoef="0"     IVar="-1" Cut="     0.000000E+00" cType="1"     res="    -4.185890E-02" rms="0.0e-00"     purity="0.00000000E+00" nType="-99">
                    </Node>
                </Node>
            </Node>
            <Node pos="r" depth="3" NCoef="0"     IVar="12" Cut="     9.140240E+01" cType="1"     res="     0.000000E+00" rms="0.0"     purity="0.00000000E+00" nType="0">
                <Node pos="l" depth="4" NCoef="0"     IVar="9" Cut="     3.762730E+01" cType="1"     res="     0.000000E+00" rms="0.0"     purity="0.00000000E+00" nType="0">
                    <Node pos="l" depth="5" NCoef="0"     IVar="-1" Cut="     0.000000E+00" cType="1"     res="    -3.993770E-02" rms="0.0e-00"     purity="0.00000000E+00" nType="-99">
                    </Node>
                    <Node pos="r" depth="5" NCoef="0"     IVar="-1" Cut="     0.000000E+00" cType="1"     res="    -1.509610E-02" rms="0.0e-00"     purity="0.00000000E+00" nType="-99">
                    </Node>
                </Node>
                <Node pos="r" depth="4" NCoef="0"     IVar="9" Cut="     4.707680E+01" cType="1"     res="     0.000000E+00" rms="0.0"     purity="0.00000000E+00" nType="0">
                    <Node pos="l" depth="5" NCoef="0"     IVar="-1" Cut="     0.000000E+00" cType="1"     res="    -5.670670E-02" rms="0.0e-00"     purity="0.00000000E+00" nType="-99">
                    </Node>
                    <Node pos="r" depth="5" NCoef="0"     IVar="-1" Cut="     0.000000E+00" cType="1"     res="    -3.818010E-02" rms="0.0e-00"     purity="0.00000000E+00" nType="-99">
                    </Node>
                </Node>
            </Node>
        </Node>
    </Node>
</BinaryTree>
<BinaryTree type="DecisionTree" boostWeight="0.0" itree="6">
    <Node pos="c" depth="1" NCoef="0"     IVar="0" Cut="     1.121300E+02" cType="1"     res="     0.000000E+00" rms="0.0"     purity="0.00000000E+00" nType="0">
        <Node pos="l" depth="2" NCoef="0"     IVar="6" Cut="     1.351080E+00" cType="1"     res="     0.000000E+00" rms="0.0"     purity="0.00000000E+00" nType="0">
            <Node pos="l" depth="3" NCoef="0"     IVar="1" Cut="     4.712460E+01" cType="1"     res="     0.000000E+00" rms="0.0"     purity="0.00000000E+00" nType="0">
                <Node pos="l" depth="4" NCoef="0"     IVar="7" Cut="     4.743420E-01" cType="1"     res="     0.000000E+00" rms="0.0"     purity="0.00000000E+00" nType="0">
                    <Node pos="l" depth="5" NCoef="0"     IVar="-1" Cut="     0.000000E+00" cType="1"     res="    -1.155290E-02" rms="0.0e-00"     purity="0.00000000E+00" nType="-99">
                    </Node>
                    <Node pos="r" depth="5" NCoef="0"     IVar="-1" Cut="     0.000000E+00" cType="1"     res="     1.215210E-02" rms="0.0e-00"     purity="0.00000000E+00" nType="-99">
                    </Node>
                </Node>
                <Node pos="r" depth="4" NCoef="0"     IVar="10" Cut="     6.649440E-01" cType="1"     res="     0.000000E+00" rms="0.0"     purity="0.00000000E+00" nType="0">
                    <Node pos="l" depth="5" NCoef="0"     IVar="-1" Cut="     0.000000E+00" cType="1"     res="     2.725440E-02" rms="0.0e-00"     purity="0.00000000E+00" nType="-99">
                    </Node>
                    <Node pos="r" depth="5" NCoef="0"     IVar="-1" Cut="     0.000000E+00" cType="1"     res="    -1.019440E-02" rms="0.0e-00"     purity="0.00000000E+00" nType="-99">
                    </Node>
                </Node>
            </Node>
            <Node pos="r" depth="3" NCoef="0"     IVar="1" Cut="     3.711460E+01" cType="1"     res="     0.000000E+00" rms="0.0"     purity="0.00000000E+00" nType="0">
                <Node pos="l" depth="4" NCoef="0"     IVar="10" Cut="     3.232620E+00" cType="1"     res="     0.000000E+00" rms="0.0"     purity="0.00000000E+00" nType="0">
                    <Node pos="l" depth="5" NCoef="0"     IVar="-1" Cut="     0.000000E+00" cType="1"     res="    -2.249710E-03" rms="0.0e-00"     purity="0.00000000E+00" nType="-99">
                    </Node>
                    <Node pos="r" depth="5" NCoef="0"     IVar="-1" Cut="     0.000000E+00" cType="1"     res="    -2.981610E-02" rms="0.0e-00"     purity="0.00000000E+00" nType="-99">
                    </Node>
                </Node>
                <Node pos="r" depth="4" NCoef="0"     IVar="10" Cut="     6.860090E-01" cType="1"     res="     0.000000E+00" rms="0.0"     purity="0.00000000E+00" nType="0">
                    <Node pos="l" depth="5" NCoef="0"     IVar="-1" Cut="     0.000000E+00" cType="1"     res="     9.934640E-03" rms="0.0e-00"     purity="0.00000000E+00" nType="-99">
                    </Node>
                    <Node pos="r" depth="5" NCoef="0"     IVar="-1" Cut="     0.000000E+00" cType="1"     res="    -2.774330E-02" rms="0.0e-00"     purity="0.00000000E+00" nType="-99">
                    </Node>
                </Node>
            </Node>
        </Node>
        <Node pos="r" depth="2" NCoef="0"     IVar="6" Cut="     1.484950E+00" cType="1"     res="     0.000000E+00" rms="0.0"     purity="0.00000000E+00" nType="0">
            <Node pos="l" depth="3" NCoef="0"     IVar="1" Cut="     7.855780E+01" cType="1"     res="     0.000000E+00" rms="0.0"     purity="0.00000000E+00" nType="0">
                <Node pos="l" depth="4" NCoef="0"     IVar="9" Cut="     3.027770E+01" cType="1"     res="     0.000000E+00" rms="0.0"     purity="0.00000000E+00" nType="0">
                    <Node pos="l" depth="5" NCoef="0"     IVar="-1" Cut="     0.000000E+00" cType="1"     res="    -2.405870E-02" rms="0.0e-00"     purity="0.00000000E+00" nType="-99">
                    </Node>
                    <Node pos="r" depth="5" NCoef="0"     IVar="-1" Cut="     0.000000E+00" cType="1"     res="    -5.793100E-03" rms="0.0e-00"     purity="0.00000000E+00" nType="-99">
                    </Node>
                </Node>
                <Node pos="r" depth="4" NCoef="0"     IVar="10" Cut="     9.487000E-01" cType="1"     res="     0.000000E+00" rms="0.0"     purity="0.00000000E+00" nType="0">
                    <Node pos="l" depth="5" NCoef="0"     IVar="-1" Cut="     0.000000E+00" cType="1"     res="    -5.737240E-02" rms="0.0e-00"     purity="0.00000000E+00" nType="-99">
                    </Node>
                    <Node pos="r" depth="5" NCoef="0"     IVar="-1" Cut="     0.000000E+00" cType="1"     res="    -2.851770E-02" rms="0.0e-00"     purity="0.00000000E+00" nType="-99">
                    </Node>
                </Node>
            </Node>
            <Node pos="r" depth="3" NCoef="0"     IVar="9" Cut="     4.095380E+01" cType="1"     res="     0.000000E+00" rms="0.0"     purity="0.00000000E+00" nType="0">
                <Node pos="l" depth="4" NCoef="0"     IVar="12" Cut="     7.715810E+01" cType="1"     res="     0.000000E+00" rms="0.0"     purity="0.00000000E+00" nType="0">
                    <Node pos="l" depth="5" NCoef="0"     IVar="-1" Cut="     0.000000E+00" cType="1"     res="    -4.090500E-02" rms="0.0e-00"     purity="0.00000000E+00" nType="-99">
                    </Node>
                    <Node pos="r" depth="5" NCoef="0"     IVar="-1" Cut="     0.000000E+00" cType="1"     res="    -5.929180E-02" rms="0.0e-00"     purity="0.00000000E+00" nType="-99">
                    </Node>
                </Node>
                <Node pos="r" depth="4" NCoef="0"     IVar="12" Cut="     1.083790E+02" cType="1"     res="     0.000000E+00" rms="0.0"     purity="0.00000000E+00" nType="0">
                    <Node pos="l" depth="5" NCoef="0"     IVar="-1" Cut="     0.000000E+00" cType="1"     res="    -1.380290E-02" rms="0.0e-00"     purity="0.00000000E+00" nType="-99">
                    </Node>
                    <Node pos="r" depth="5" NCoef="0"     IVar="-1" Cut="     0.000000E+00" cType="1"     res="    -4.754660E-02" rms="0.0e-00"     purity="0.00000000E+00" nType="-99">
                    </Node>
                </Node>
            </Node>
        </Node>
    </Node>
</BinaryTree>
<BinaryTree type="DecisionTree" boostWeight="0.0" itree="7">
    <Node pos="c" depth="1" NCoef="0"     IVar="0" Cut="     9.108850E+01" cType="1"     res="     0.000000E+00" rms="0.0"     purity="0.00000000E+00" nType="0">
        <Node pos="l" depth="2" NCoef="0"     IVar="6" Cut="     1.733840E+00" cType="1"     res="     0.000000E+00" rms="0.0"     purity="0.00000000E+00" nType="0">
            <Node pos="l" depth="3" NCoef="0"     IVar="10" Cut="     1.107880E+00" cType="1"     res="     0.000000E+00" rms="0.0"     purity="0.00000000E+00" nType="0">
                <Node pos="l" depth="4" NCoef="0"     IVar="1" Cut="     2.694590E+01" cType="1"     res="     0.000000E+00" rms="0.0"     purity="0.00000000E+00" nType="0">
                    <Node pos="l" depth="5" NCoef="0"     IVar="-1" Cut="     0.000000E+00" cType="1"     res="     3.916450E-02" rms="0.0e-00"     purity="0.00000000E+00" nType="-99">
                    </Node>
                    <Node pos="r" depth="5" NCoef="0"     IVar="-1" Cut="     0.000000E+00" cType="1"     res="     1.445440E-02" rms="0.0e-00"     purity="0.00000000E+00" nType="-99">
                    </Node>
                </Node>
                <Node pos="r" depth="4" NCoef="0"     IVar="1" Cut="     3.558470E+01" cType="1"     res="     0.000000E+00" rms="0.0"     purity="0.00000000E+00" nType="0">
                    <Node pos="l" depth="5" NCoef="0"     IVar="-1" Cut="     0.000000E+00" cType="1"     res="     6.962870E-03" rms="0.0e-00"     purity="0.00000000E+00" nType="-99">
                    </Node>
                    <Node pos="r" depth="5" NCoef="0"     IVar="-1" Cut="     0.000000E+00" cType="1"     res="    -9.112280E-03" rms="0.0e-00"     purity="0.00000000E+00" nType="-99">
                    </Node>
                </Node>
            </Node>
            <Node pos="r" depth="3" NCoef="0"     IVar="1" Cut="     3.562640E+01" cType="1"     res="     0.000000E+00" rms="0.0"     purity="0.00000000E+00" nType="0">
                <Node pos="l" depth="4" NCoef="0"     IVar="10" Cut="     2.083080E+00" cType="1"     res="     0.000000E+00" rms="0.0"     purity="0.00000000E+00" nType="0">
                    <Node pos="l" depth="5" NCoef="0"     IVar="-1" Cut="     0.000000E+00" cType="1"     res="     3.014690E-03" rms="0.0e-00"     purity="0.00000000E+00" nType="-99">
                    </Node>
                    <Node pos="r" depth="5" NCoef="0"     IVar="-1" Cut="     0.000000E+00" cType="1"     res="    -1.880890E-02" rms="0.0e-00"     purity="0.00000000E+00" nType="-99">
                    </Node>
                </Node>
                <Node pos="r" depth="4" NCoef="0"     IVar="10" Cut="     3.652830E+00" cType="1"     res="     0.000000E+00" rms="0.0"     purity="0.00000000E+00" nType="0">
                    <Node pos="l" depth="5" NCoef="0"     IVar="-1" Cut="     0.000000E+00" cType="1"     res="    -2.604730E-02" rms="0.0e-00"     purity="0.00000000E+00" nType="-99">
                    </Node>
                    <Node pos="r" depth="5" NCoef="0"     IVar="-1" Cut="     0.000000E+00" cType="1"     res="    -5.640540E-02" rms="0.0e-00"     purity="0.00000000E+00" nType="-99">
                    </Node>
                </Node>
            </Node>
        </Node>
        <Node pos="r" depth="2" NCoef="0"     IVar="6" Cut="     1.222740E+00" cType="1"     res="     0.000000E+00" rms="0.0"     purity="0.00000000E+00" nType="0">
            <Node pos="l" depth="3" NCoef="0"     IVar="0" Cut="     1.774800E+02" cType="1"     res="     0.000000E+00" rms="0.0"     purity="0.00000000E+00" nType="0">
                <Node pos="l" depth="4" NCoef="0"     IVar="10" Cut="     4.480420E-01" cType="1"     res="     0.000000E+00" rms="0.0"     purity="0.00000000E+00" nType="0">
                    <Node pos="l" depth="5" NCoef="0"     IVar="-1" Cut="     0.000000E+00" cType="1"     res="     3.602710E-02" rms="0.0e-00"     purity="0.00000000E+00" nType="-99">
                    </Node>
                    <Node pos="r" depth="5" NCoef="0"     IVar="-1" Cut="     0.000000E+00" cType="1"     res="    -1.190400E-02" rms="0.0e-00"     purity="0.00000000E+00" nType="-99">
                    </Node>
                </Node>
                <Node pos="r" depth="4" NCoef="0"     IVar="2" Cut="     1.130020E+00" cType="1"     res="     0.000000E+00" rms="0.0"     purity="0.00000000E+00" nType="0">
                    <Node pos="l" depth="5" NCoef="0"     IVar="-1" Cut="     0.000000E+00" cType="1"     res="    -1.805510E-02" rms="0.0e-00"     purity="0.00000000E+00" nType="-99">
                    </Node>
                    <Node pos="r" depth="5" NCoef="0"     IVar="-1" Cut="     0.000000E+00" cType="1"     res="    -4.431780E-02" rms="0.0e-00"     purity="0.00000000E+00" nType="-99">
                    </Node>
                </Node>
            </Node>
            <Node pos="r" depth="3" NCoef="0"     IVar="9" Cut="     4.588880E+01" cType="1"     res="     0.000000E+00" rms="0.0"     purity="0.00000000E+00" nType="0">
                <Node pos="l" depth="4" NCoef="0"     IVar="12" Cut="     6.987960E+01" cType="1"     res="     0.000000E+00" rms="0.0"     purity="0.00000000E+00" nType="0">
                    <Node pos="l" depth="5" NCoef="0"     IVar="-1" Cut="     0.000000E+00" cType="1"     res="    -3.112430E-02" rms="0.0e-00"     purity="0.00000000E+00" nType="-99">
                    </Node>
                    <Node pos="r" depth="5" NCoef="0"     IVar="-1" Cut="     0.000000E+00" cType="1"     res="    -4.831760E-02" rms="0.0e-00"     purity="0.00000000E+00" nType="-99">
                    </Node>
                </Node>
                <Node pos="r" depth="4" NCoef="0"     IVar="12" Cut="     1.099020E+02" cType="1"     res="     0.000000E+00" rms="0.0"     purity="0.00000000E+00" nType="0">
                    <Node pos="l" depth="5" NCoef="0"     IVar="-1" Cut="     0.000000E+00" cType="1"     res="    -6.992100E-03" rms="0.0e-00"     purity="0.00000000E+00" nType="-99">
                    </Node>
                    <Node pos="r" depth="5" NCoef="0"     IVar="-1" Cut="     0.000000E+00" cType="1"     res="    -3.992440E-02" rms="0.0e-00"     purity="0.00000000E+00" nType="-99">
                    </Node>
                </Node>
            </Node>
        </Node>
    </Node>
</BinaryTree>
<BinaryTree type="DecisionTree" boostWeight="0.0" itree="8">
    <Node pos="c" depth="1" NCoef="0"     IVar="1" Cut="     4.720940E+01" cType="1"     res="     0.000000E+00" rms="0.0"     purity="0.00000000E+00" nType="0">
        <Node pos="l" depth="2" NCoef="0"     IVar="6" Cut="     1.629710E+00" cType="1"     res="     0.000000E+00" rms="0.0"     purity="0.00000000E+00" nType="0">
            <Node pos="l" depth="3" NCoef="0"     IVar="0" Cut="     5.258080E+01" cType="1"     res="     0.000000E+00" rms="0.0"     purity="0.00000000E+00" nType="0">
                <Node pos="l" depth="4" NCoef="0"     IVar="7" Cut="     7.940830E-01" cType="1"     res="     0.000000E+00" rms="0.0"     purity="0.00000000E+00" nType="0">
                    <Node pos="l" depth="5" NCoef="0"     IVar="-1" Cut="     0.000000E+00" cType="1"     res="    -1.078210E-02" rms="0.0e-00"     purity="0.00000000E+00" nType="-99">
                    </Node>
                    <Node pos="r" depth="5" NCoef="0"     IVar="-1" Cut="     0.000000E+00" cType="1"     res="     1.638160E-02" rms="0.0e-00"     purity="0.00000000E+00" nType="-99">
                    </Node>
                </Node>
                <Node pos="r" depth="4" NCoef="0"     IVar="10" Cut="     8.388850E-01" cType="1"     res="     0.000000E+00" rms="0.0"     purity="0.00000000E+00" nType="0">
                    <Node pos="l" depth="5" NCoef="0"     IVar="-1" Cut="     0.000000E+00" cType="1"     res="     1.899930E-02" rms="0.0e-00"     purity="0.00000000E+00" nType="-99">
                    </Node>
                    <Node pos="r" depth="5" NCoef="0"     IVar="-1" Cut="     0.000000E+00" cType="1"     res="    -4.484350E-03" rms="0.0e-00"     purity="0.00000000E+00" nType="-99">
                    </Node>
                </Node>
            </Node>
            <Node pos="r" depth="3" NCoef="0"     IVar="10" Cut="     3.376660E+00" cType="1"     res="     0.000000E+00" rms="0.0"     purity="0.00000000E+00" nType="0">
                <Node pos="l" depth="4" NCoef="0"     IVar="9" Cut="     3.868960E+01" cType="1"     res="     0.000000E+00" rms="0.0"     purity="0.00000000E+00" nType="0">
                    <Node pos="l" depth="5" NCoef="0"     IVar="-1" Cut="     0.000000E+00" cType="1"     res="    -1.842730E-02" rms="0.0e-00"     purity="0.00000000E+00" nType="-99">
                    </Node>
                    <Node pos="r" depth="5" NCoef="0"     IVar="-1" Cut="     0.000000E+00" cType="1"     res="     3.262670E-04" rms="0.0e-00"     purity="0.00000000E+00" nType="-99">
                    </Node>
                </Node>
                <Node pos="r" depth="4" NCoef="0"     IVar="11" Cut="     2.453400E+01" cType="1"     res="     0.000000E+00" rms="0.0"     purity="0.00000000E+00" nType="0">
                    <Node pos="l" depth="5" NCoef="0"     IVar="-1" Cut="     0.000000E+00" cType="1"     res="     3.426760E-02" rms="0.0e-00"     purity="0.00000000E+00" nType="-99">
                    </Node>
                    <Node pos="r" depth="5" NCoef="0"     IVar="-1" Cut="     0.000000E+00" cType="1"     res="    -4.048910E-02" rms="0.0e-00"     purity="0.00000000E+00" nType="-99">
                    </Node>
                </Node>
            </Node>
        </Node>
        <Node pos="r" depth="2" NCoef="0"     IVar="6" Cut="     1.248210E+00" cType="1"     res="     0.000000E+00" rms="0.0"     purity="0.00000000E+00" nType="0">
            <Node pos="l" depth="3" NCoef="0"     IVar="0" Cut="     1.650220E+02" cType="1"     res="     0.000000E+00" rms="0.0"     purity="0.00000000E+00" nType="0">
                <Node pos="l" depth="4" NCoef="0"     IVar="10" Cut="     4.510170E-01" cType="1"     res="     0.000000E+00" rms="0.0"     purity="0.00000000E+00" nType="0">
                    <Node pos="l" depth="5" NCoef="0"     IVar="-1" Cut="     0.000000E+00" cType="1"     res="     3.258210E-02" rms="0.0e-00"     purity="0.00000000E+00" nType="-99">
                    </Node>
                    <Node pos="r" depth="5" NCoef="0"     IVar="-1" Cut="     0.000000E+00" cType="1"     res="    -1.060240E-02" rms="0.0e-00"     purity="0.00000000E+00" nType="-99">
                    </Node>
                </Node>
                <Node pos="r" depth="4" NCoef="0"     IVar="2" Cut="     1.101620E+00" cType="1"     res="     0.000000E+00" rms="0.0"     purity="0.00000000E+00" nType="0">
                    <Node pos="l" depth="5" NCoef="0"     IVar="-1" Cut="     0.000000E+00" cType="1"     res="    -1.789560E-02" rms="0.0e-00"     purity="0.00000000E+00" nType="-99">
                    </Node>
                    <Node pos="r" depth="5" NCoef="0"     IVar="-1" Cut="     0.000000E+00" cType="1"     res="    -4.280920E-02" rms="0.0e-00"     purity="0.00000000E+00" nType="-99">
                    </Node>
                </Node>
            </Node>
            <Node pos="r" depth="3" NCoef="0"     IVar="0" Cut="     1.476280E+02" cType="1"     res="     0.000000E+00" rms="0.0"     purity="0.00000000E+00" nType="0">
                <Node pos="l" depth="4" NCoef="0"     IVar="10" Cut="     5.314350E-01" cType="1"     res="     0.000000E+00" rms="0.0"     purity="0.00000000E+00" nType="0">
                    <Node pos="l" depth="5" NCoef="0"     IVar="-1" Cut="     0.000000E+00" cType="1"     res="     2.434480E-02" rms="0.0e-00"     purity="0.00000000E+00" nType="-99">
                    </Node>
                    <Node pos="r" depth="5" NCoef="0"     IVar="-1" Cut="     0.000000E+00" cType="1"     res="    -2.904200E-02" rms="0.0e-00"     purity="0.00000000E+00" nType="-99">
                    </Node>
                </Node>
                <Node pos="r" depth="4" NCoef="0"     IVar="2" Cut="     1.241580E+00" cType="1"     res="     0.000000E+00" rms="0.0"     purity="0.00000000E+00" nType="0">
                    <Node pos="l" depth="5" NCoef="0"     IVar="-1" Cut="     0.000000E+00" cType="1"     res="    -3.599640E-02" rms="0.0e-00"     purity="0.00000000E+00" nType="-99">
                    </Node>
                    <Node pos="r" depth="5" NCoef="0"     IVar="-1" Cut="     0.000000E+00" cType="1"     res="    -5.322610E-02" rms="0.0e-00"     purity="0.00000000E+00" nType="-99">
                    </Node>
                </Node>
            </Node>
        </Node>
    </Node>
</BinaryTree>
<BinaryTree type="DecisionTree" boostWeight="0.0" itree="9">
    <Node pos="c" depth="1" NCoef="0"     IVar="1" Cut="     6.327600E+01" cType="1"     res="     0.000000E+00" rms="0.0"     purity="0.00000000E+00" nType="0">
        <Node pos="l" depth="2" NCoef="0"     IVar="6" Cut="     1.406230E+00" cType="1"     res="     0.000000E+00" rms="0.0"     purity="0.00000000E+00" nType="0">
            <Node pos="l" depth="3" NCoef="0"     IVar="0" Cut="     5.107990E+01" cType="1"     res="     0.000000E+00" rms="0.0"     purity="0.00000000E+00" nType="0">
                <Node pos="l" depth="4" NCoef="0"     IVar="7" Cut="     7.966370E-01" cType="1"     res="     0.000000E+00" rms="0.0"     purity="0.00000000E+00" nType="0">
                    <Node pos="l" depth="5" NCoef="0"     IVar="-1" Cut="     0.000000E+00" cType="1"     res="    -1.100800E-02" rms="0.0e-00"     purity="0.00000000E+00" nType="-99">
                    </Node>
                    <Node pos="r" depth="5" NCoef="0"     IVar="-1" Cut="     0.000000E+00" cType="1"     res="     1.854730E-02" rms="0.0e-00"     purity="0.00000000E+00" nType="-99">
                    </Node>
                </Node>
                <Node pos="r" depth="4" NCoef="0"     IVar="10" Cut="     8.021170E-01" cType="1"     res="     0.000000E+00" rms="0.0"     purity="0.00000000E+00" nType="0">
                    <Node pos="l" depth="5" NCoef="0"     IVar="-1" Cut="     0.000000E+00" cType="1"     res="     1.834520E-02" rms="0.0e-00"     purity="0.00000000E+00" nType="-99">
                    </Node>
                    <Node pos="r" depth="5" NCoef="0"     IVar="-1" Cut="     0.000000E+00" cType="1"     res="    -5.071700E-03" rms="0.0e-00"     purity="0.00000000E+00" nType="-99">
                    </Node>
                </Node>
            </Node>
            <Node pos="r" depth="3" NCoef="0"     IVar="1" Cut="     3.511330E+01" cType="1"     res="     0.000000E+00" rms="0.0"     purity="0.00000000E+00" nType="0">
                <Node pos="l" depth="4" NCoef="0"     IVar="10" Cut="     1.149580E+00" cType="1"     res="     0.000000E+00" rms="0.0"     purity="0.00000000E+00" nType="0">
                    <Node pos="l" depth="5" NCoef="0"     IVar="-1" Cut="     0.000000E+00" cType="1"     res="     1.543090E-02" rms="0.0e-00"     purity="0.00000000E+00" nType="-99">
                    </Node>
                    <Node pos="r" depth="5" NCoef="0"     IVar="-1" Cut="     0.000000E+00" cType="1"     res="    -1.011470E-02" rms="0.0e-00"     purity="0.00000000E+00" nType="-99">
                    </Node>
                </Node>
                <Node pos="r" depth="4" NCoef="0"     IVar="9" Cut="     3.694730E+01" cType="1"     res="     0.000000E+00" rms="0.0"     purity="0.00000000E+00" nType="0">
                    <Node pos="l" depth="5" NCoef="0"     IVar="-1" Cut="     0.000000E+00" cType="1"     res="    -2.681770E-02" rms="0.0e-00"     purity="0.00000000E+00" nType="-99">
                    </Node>
                    <Node pos="r" depth="5" NCoef="0"     IVar="-1" Cut="     0.000000E+00" cType="1"     res="    -1.195990E-02" rms="0.0e-00"     purity="0.00000000E+00" nType="-99">
                    </Node>
                </Node>
            </Node>
        </Node>
        <Node pos="r" depth="2" NCoef="0"     IVar="6" Cut="     8.976700E-01" cType="1"     res="     0.000000E+00" rms="0.0"     purity="0.00000000E+00" nType="0">
            <Node pos="l" depth="3" NCoef="0"     IVar="10" Cut="     1.526790E+00" cType="1"     res="     0.000000E+00" rms="0.0"     purity="0.00000000E+00" nType="0">
                <Node pos="l" depth="4" NCoef="0"     IVar="10" Cut="     2.513910E-01" cType="1"     res="     0.000000E+00" rms="0.0"     purity="0.00000000E+00" nType="0">
                    <Node pos="l" depth="5" NCoef="0"     IVar="-1" Cut="     0.000000E+00" cType="1"     res="     4.320810E-02" rms="0.0e-00"     purity="0.00000000E+00" nType="-99">
                    </Node>
                    <Node pos="r" depth="5" NCoef="0"     IVar="-1" Cut="     0.000000E+00" cType="1"     res="    -3.361940E-02" rms="0.0e-00"     purity="0.00000000E+00" nType="-99">
                    </Node>
                </Node>
                <Node pos="r" depth="4" NCoef="0"     IVar="12" Cut="     1.106260E+02" cType="1"     res="     0.000000E+00" rms="0.0"     purity="0.00000000E+00" nType="0">
                    <Node pos="l" depth="5" NCoef="0"     IVar="-1" Cut="     0.000000E+00" cType="1"     res="    -7.561560E-04" rms="0.0e-00"     purity="0.00000000E+00" nType="-99">
                    </Node>
                    <Node pos="r" depth="5" NCoef="0"     IVar="-1" Cut="     0.000000E+00" cType="1"     res="    -3.155090E-02" rms="0.0e-00"     purity="0.00000000E+00" nType="-99">
                    </Node>
                </Node>
            </Node>
            <Node pos="r" depth="3" NCoef="0"     IVar="11" Cut="     1.098650E+02" cType="1"     res="     0.000000E+00" rms="0.0"     purity="0.00000000E+00" nType="0">
                <Node pos="l" depth="4" NCoef="0"     IVar="12" Cut="     8.840250E+01" cType="1"     res="     0.000000E+00" rms="0.0"     purity="0.00000000E+00" nType="0">
                    <Node pos="l" depth="5" NCoef="0"     IVar="-1" Cut="     0.000000E+00" cType="1"     res="    -1.927210E-02" rms="0.0e-00"     purity="0.00000000E+00" nType="-99">
                    </Node>
                    <Node pos="r" depth="5" NCoef="0"     IVar="-1" Cut="     0.000000E+00" cType="1"     res="    -3.920470E-02" rms="0.0e-00"     purity="0.00000000E+00" nType="-99">
                    </Node>
                </Node>
                <Node pos="r" depth="4" NCoef="0"     IVar="9" Cut="     4.063050E+01" cType="1"     res="     0.000000E+00" rms="0.0"     purity="0.00000000E+00" nType="0">
                    <Node pos="l" depth="5" NCoef="0"     IVar="-1" Cut="     0.000000E+00" cType="1"     res="    -4.839230E-02" rms="0.0e-00"     purity="0.00000000E+00" nType="-99">
                    </Node>
                    <Node pos="r" depth="5" NCoef="0"     IVar="-1" Cut="     0.000000E+00" cType="1"     res="    -2.299780E-02" rms="0.0e-00"     purity="0.00000000E+00" nType="-99">
                    </Node>
                </Node>
            </Node>
        </Node>
    </Node>
</BinaryTree>
<BinaryTree type="DecisionTree" boostWeight="0.0" itree="10">
    <Node pos="c" depth="1" NCoef="0"     IVar="0" Cut="     1.121300E+02" cType="1"     res="     0.000000E+00" rms="0.0"     purity="0.00000000E+00" nType="0">
        <Node pos="l" depth="2" NCoef="0"     IVar="6" Cut="     1.557990E+00" cType="1"     res="     0.000000E+00" rms="0.0"     purity="0.00000000E+00" nType="0">
            <Node pos="l" depth="3" NCoef="0"     IVar="7" Cut="     4.701790E-01" cType="1"     res="     0.000000E+00" rms="0.0"     purity="0.00000000E+00" nType="0">
                <Node pos="l" depth="4" NCoef="0"     IVar="9" Cut="     3.409590E+01" cType="1"     res="     0.000000E+00" rms="0.0"     purity="0.00000000E+00" nType="0">
                    <Node pos="l" depth="5" NCoef="0"     IVar="-1" Cut="     0.000000E+00" cType="1"     res="    -2.666900E-02" rms="0.0e-00"     purity="0.00000000E+00" nType="-99">
                    </Node>
                    <Node pos="r" depth="5" NCoef="0"     IVar="-1" Cut="     0.000000E+00" cType="1"     res="     4.852810E-03" rms="0.0e-00"     purity="0.00000000E+00" nType="-99">
                    </Node>
                </Node>
                <Node pos="r" depth="4" NCoef="0"     IVar="1" Cut="     4.351420E+01" cType="1"     res="     0.000000E+00" rms="0.0"     purity="0.00000000E+00" nType="0">
                    <Node pos="l" depth="5" NCoef="0"     IVar="-1" Cut="     0.000000E+00" cType="1"     res="     1.016320E-02" rms="0.0e-00"     purity="0.00000000E+00" nType="-99">
                    </Node>
                    <Node pos="r" depth="5" NCoef="0"     IVar="-1" Cut="     0.000000E+00" cType="1"     res="    -4.151680E-03" rms="0.0e-00"     purity="0.00000000E+00" nType="-99">
                    </Node>
                </Node>
            </Node>
            <Node pos="r" depth="3" NCoef="0"     IVar="1" Cut="     3.562880E+01" cType="1"     res="     0.000000E+00" rms="0.0"     purity="0.00000000E+00" nType="0">
                <Node pos="l" depth="4" NCoef="0"     IVar="10" Cut="     2.098290E+00" cType="1"     res="     0.000000E+00" rms="0.0"     purity="0.00000000E+00" nType="0">
                    <Node pos="l" depth="5" NCoef="0"     IVar="-1" Cut="     0.000000E+00" cType="1"     res="     5.512620E-03" rms="0.0e-00"     purity="0.00000000E+00" nType="-99">
                    </Node>
                    <Node pos="r" depth="5" NCoef="0"     IVar="-1" Cut="     0.000000E+00" cType="1"     res="    -1.415180E-02" rms="0.0e-00"     purity="0.00000000E+00" nType="-99">
                    </Node>
                </Node>
                <Node pos="r" depth="4" NCoef="0"     IVar="10" Cut="     3.643030E+00" cType="1"     res="     0.000000E+00" rms="0.0"     purity="0.00000000E+00" nType="0">
                    <Node pos="l" depth="5" NCoef="0"     IVar="-1" Cut="     0.000000E+00" cType="1"     res="    -2.197350E-02" rms="0.0e-00"     purity="0.00000000E+00" nType="-99">
                    </Node>
                    <Node pos="r" depth="5" NCoef="0"     IVar="-1" Cut="     0.000000E+00" cType="1"     res="    -5.096480E-02" rms="0.0e-00"     purity="0.00000000E+00" nType="-99">
                    </Node>
                </Node>
            </Node>
        </Node>
        <Node pos="r" depth="2" NCoef="0"     IVar="2" Cut="     1.247360E+00" cType="1"     res="     0.000000E+00" rms="0.0"     purity="0.00000000E+00" nType="0">
            <Node pos="l" depth="3" NCoef="0"     IVar="12" Cut="     8.598240E+01" cType="1"     res="     0.000000E+00" rms="0.0"     purity="0.00000000E+00" nType="0">
                <Node pos="l" depth="4" NCoef="0"     IVar="9" Cut="     3.220440E+01" cType="1"     res="     0.000000E+00" rms="0.0"     purity="0.00000000E+00" nType="0">
                    <Node pos="l" depth="5" NCoef="0"     IVar="-1" Cut="     0.000000E+00" cType="1"     res="    -1.885350E-02" rms="0.0e-00"     purity="0.00000000E+00" nType="-99">
                    </Node>
                    <Node pos="r" depth="5" NCoef="0"     IVar="-1" Cut="     0.000000E+00" cType="1"     res="     1.551910E-03" rms="0.0e-00"     purity="0.00000000E+00" nType="-99">
                    </Node>
                </Node>
                <Node pos="r" depth="4" NCoef="0"     IVar="9" Cut="     5.067250E+01" cType="1"     res="     0.000000E+00" rms="0.0"     purity="0.00000000E+00" nType="0">
                    <Node pos="l" depth="5" NCoef="0"     IVar="-1" Cut="     0.000000E+00" cType="1"     res="    -4.129380E-02" rms="0.0e-00"     purity="0.00000000E+00" nType="-99">
                    </Node>
                    <Node pos="r" depth="5" NCoef="0"     IVar="-1" Cut="     0.000000E+00" cType="1"     res="    -1.447200E-02" rms="0.0e-00"     purity="0.00000000E+00" nType="-99">
                    </Node>
                </Node>
            </Node>
            <Node pos="r" depth="3" NCoef="0"     IVar="0" Cut="     1.885370E+02" cType="1"     res="     0.000000E+00" rms="0.0"     purity="0.00000000E+00" nType="0">
                <Node pos="l" depth="4" NCoef="0"     IVar="10" Cut="     4.202750E-01" cType="1"     res="     0.000000E+00" rms="0.0"     purity="0.00000000E+00" nType="0">
                    <Node pos="l" depth="5" NCoef="0"     IVar="-1" Cut="     0.000000E+00" cType="1"     res="     3.920140E-02" rms="0.0e-00"     purity="0.00000000E+00" nType="-99">
                    </Node>
                    <Node pos="r" depth="5" NCoef="0"     IVar="-1" Cut="     0.000000E+00" cType="1"     res="    -3.060710E-02" rms="0.0e-00"     purity="0.00000000E+00" nType="-99">
                    </Node>
                </Node>
                <Node pos="r" depth="4" NCoef="0"     IVar="10" Cut="     2.182600E-01" cType="1"     res="     0.000000E+00" rms="0.0"     purity="0.00000000E+00" nType="0">
                    <Node pos="l" depth="5" NCoef="0"     IVar="-1" Cut="     0.000000E+00" cType="1"     res="     7.933150E-02" rms="0.0e-00"     purity="0.00000000E+00" nType="-99">
                    </Node>
                    <Node pos="r" depth="5" NCoef="0"     IVar="-1" Cut="     0.000000E+00" cType="1"     res="    -4.952800E-02" rms="0.0e-00"     purity="0.00000000E+00" nType="-99">
                    </Node>
                </Node>
            </Node>
        </Node>
    </Node>
</BinaryTree>
<BinaryTree type="DecisionTree" boostWeight="0.0" itree="11">
    <Node pos="c" depth="1" NCoef="0"     IVar="0" Cut="     1.121300E+02" cType="1"     res="     0.000000E+00" rms="0.0"     purity="0.00000000E+00" nType="0">
        <Node pos="l" depth="2" NCoef="0"     IVar="6" Cut="     1.351080E+00" cType="1"     res="     0.000000E+00" rms="0.0"     purity="0.00000000E+00" nType="0">
            <Node pos="l" depth="3" NCoef="0"     IVar="7" Cut="     4.577940E-01" cType="1"     res="     0.000000E+00" rms="0.0"     purity="0.00000000E+00" nType="0">
                <Node pos="l" depth="4" NCoef="0"     IVar="9" Cut="     3.409590E+01" cType="1"     res="     0.000000E+00" rms="0.0"     purity="0.00000000E+00" nType="0">
                    <Node pos="l" depth="5" NCoef="0"     IVar="-1" Cut="     0.000000E+00" cType="1"     res="    -2.444010E-02" rms="0.0e-00"     purity="0.00000000E+00" nType="-99">
                    </Node>
                    <Node pos="r" depth="5" NCoef="0"     IVar="-1" Cut="     0.000000E+00" cType="1"     res="     5.538330E-03" rms="0.0e-00"     purity="0.00000000E+00" nType="-99">
                    </Node>
                </Node>
                <Node pos="r" depth="4" NCoef="0"     IVar="10" Cut="     7.868920E-01" cType="1"     res="     0.000000E+00" rms="0.0"     purity="0.00000000E+00" nType="0">
                    <Node pos="l" depth="5" NCoef="0"     IVar="-1" Cut="     0.000000E+00" cType="1"     res="     2.473050E-02" rms="0.0e-00"     purity="0.00000000E+00" nType="-99">
                    </Node>
                    <Node pos="r" depth="5" NCoef="0"     IVar="-1" Cut="     0.000000E+00" cType="1"     res="     2.737130E-03" rms="0.0e-00"     purity="0.00000000E+00" nType="-99">
                    </Node>
                </Node>
            </Node>
            <Node pos="r" depth="3" NCoef="0"     IVar="1" Cut="     3.512880E+01" cType="1"     res="     0.000000E+00" rms="0.0"     purity="0.00000000E+00" nType="0">
                <Node pos="l" depth="4" NCoef="0"     IVar="10" Cut="     3.170500E+00" cType="1"     res="     0.000000E+00" rms="0.0"     purity="0.00000000E+00" nType="0">
                    <Node pos="l" depth="5" NCoef="0"     IVar="-1" Cut="     0.000000E+00" cType="1"     res="     4.769140E-04" rms="0.0e-00"     purity="0.00000000E+00" nType="-99">
                    </Node>
                    <Node pos="r" depth="5" NCoef="0"     IVar="-1" Cut="     0.000000E+00" cType="1"     res="    -2.405290E-02" rms="0.0e-00"     purity="0.00000000E+00" nType="-99">
                    </Node>
                </Node>
                <Node pos="r" depth="4" NCoef="0"     IVar="12" Cut="     1.090160E+02" cType="1"     res="     0.000000E+00" rms="0.0"     purity="0.00000000E+00" nType="0">
                    <Node pos="l" depth="5" NCoef="0"     IVar="-1" Cut="     0.000000E+00" cType="1"     res="    -1.734790E-02" rms="0.0e-00"     purity="0.00000000E+00" nType="-99">
                    </Node>
                    <Node pos="r" depth="5" NCoef="0"     IVar="-1" Cut="     0.000000E+00" cType="1"     res="    -3.749960E-02" rms="0.0e-00"     purity="0.00000000E+00" nType="-99">
                    </Node>
                </Node>
            </Node>
        </Node>
        <Node pos="r" depth="2" NCoef="0"     IVar="6" Cut="     1.484950E+00" cType="1"     res="     0.000000E+00" rms="0.0"     purity="0.00000000E+00" nType="0">
            <Node pos="l" depth="3" NCoef="0"     IVar="2" Cut="     1.192110E+00" cType="1"     res="     0.000000E+00" rms="0.0"     purity="0.00000000E+00" nType="0">
                <Node pos="l" depth="4" NCoef="0"     IVar="12" Cut="     1.078990E+02" cType="1"     res="     0.000000E+00" rms="0.0"     purity="0.00000000E+00" nType="0">
                    <Node pos="l" depth="5" NCoef="0"     IVar="-1" Cut="     0.000000E+00" cType="1"     res="    -6.797520E-03" rms="0.0e-00"     purity="0.00000000E+00" nType="-99">
                    </Node>
                    <Node pos="r" depth="5" NCoef="0"     IVar="-1" Cut="     0.000000E+00" cType="1"     res="    -3.431200E-02" rms="0.0e-00"     purity="0.00000000E+00" nType="-99">
                    </Node>
                </Node>
                <Node pos="r" depth="4" NCoef="0"     IVar="0" Cut="     1.826190E+02" cType="1"     res="     0.000000E+00" rms="0.0"     purity="0.00000000E+00" nType="0">
                    <Node pos="l" depth="5" NCoef="0"     IVar="-1" Cut="     0.000000E+00" cType="1"     res="    -1.979560E-02" rms="0.0e-00"     purity="0.00000000E+00" nType="-99">
                    </Node>
                    <Node pos="r" depth="5" NCoef="0"     IVar="-1" Cut="     0.000000E+00" cType="1"     res="    -4.132750E-02" rms="0.0e-00"     purity="0.00000000E+00" nType="-99">
                    </Node>
                </Node>
            </Node>
            <Node pos="r" depth="3" NCoef="0"     IVar="9" Cut="     4.095380E+01" cType="1"     res="     0.000000E+00" rms="0.0"     purity="0.00000000E+00" nType="0">
                <Node pos="l" depth="4" NCoef="0"     IVar="12" Cut="     7.715810E+01" cType="1"     res="     0.000000E+00" rms="0.0"     purity="0.00000000E+00" nType="0">
                    <Node pos="l" depth="5" NCoef="0"     IVar="-1" Cut="     0.000000E+00" cType="1"     res="    -3.392130E-02" rms="0.0e-00"     purity="0.00000000E+00" nType="-99">
                    </Node>
                    <Node pos="r" depth="5" NCoef="0"     IVar="-1" Cut="     0.000000E+00" cType="1"     res="    -5.095950E-02" rms="0.0e-00"     purity="0.00000000E+00" nType="-99">
                    </Node>
                </Node>
                <Node pos="r" depth="4" NCoef="0"     IVar="12" Cut="     1.283590E+02" cType="1"     res="     0.000000E+00" rms="0.0"     purity="0.00000000E+00" nType="0">
                    <Node pos="l" depth="5" NCoef="0"     IVar="-1" Cut="     0.000000E+00" cType="1"     res="    -1.143610E-02" rms="0.0e-00"     purity="0.00000000E+00" nType="-99">
                    </Node>
                    <Node pos="r" depth="5" NCoef="0"     IVar="-1" Cut="     0.000000E+00" cType="1"     res="    -4.419960E-02" rms="0.0e-00"     purity="0.00000000E+00" nType="-99">
                    </Node>
                </Node>
            </Node>
        </Node>
    </Node>
</BinaryTree>
<BinaryTree type="DecisionTree" boostWeight="0.0" itree="12">
    <Node pos="c" depth="1" NCoef="0"     IVar="1" Cut="     6.327600E+01" cType="1"     res="     0.000000E+00" rms="0.0"     purity="0.00000000E+00" nType="0">
        <Node pos="l" depth="2" NCoef="0"     IVar="6" Cut="     1.219620E+00" cType="1"     res="     0.000000E+00" rms="0.0"     purity="0.00000000E+00" nType="0">
            <Node pos="l" depth="3" NCoef="0"     IVar="7" Cut="     5.196240E-01" cType="1"     res="     0.000000E+00" rms="0.0"     purity="0.00000000E+00" nType="0">
                <Node pos="l" depth="4" NCoef="0"     IVar="9" Cut="     3.619740E+01" cType="1"     res="     0.000000E+00" rms="0.0"     purity="0.00000000E+00" nType="0">
                    <Node pos="l" depth="5" NCoef="0"     IVar="-1" Cut="     0.000000E+00" cType="1"     res="    -1.989430E-02" rms="0.0e-00"     purity="0.00000000E+00" nType="-99">
                    </Node>
                    <Node pos="r" depth="5" NCoef="0"     IVar="-1" Cut="     0.000000E+00" cType="1"     res="     4.722850E-03" rms="0.0e-00"     purity="0.00000000E+00" nType="-99">
                    </Node>
                </Node>
                <Node pos="r" depth="4" NCoef="0"     IVar="0" Cut="     7.732470E+01" cType="1"     res="     0.000000E+00" rms="0.0"     purity="0.00000000E+00" nType="0">
                    <Node pos="l" depth="5" NCoef="0"     IVar="-1" Cut="     0.000000E+00" cType="1"     res="     1.172350E-02" rms="0.0e-00"     purity="0.00000000E+00" nType="-99">
                    </Node>
                    <Node pos="r" depth="5" NCoef="0"     IVar="-1" Cut="     0.000000E+00" cType="1"     res="    -8.772030E-04" rms="0.0e-00"     purity="0.00000000E+00" nType="-99">
                    </Node>
                </Node>
            </Node>
            <Node pos="r" depth="3" NCoef="0"     IVar="0" Cut="     5.016490E+01" cType="1"     res="     0.000000E+00" rms="0.0"     purity="0.00000000E+00" nType="0">
                <Node pos="l" depth="4" NCoef="0"     IVar="7" Cut="     2.107080E-01" cType="1"     res="     0.000000E+00" rms="0.0"     purity="0.00000000E+00" nType="0">
                    <Node pos="l" depth="5" NCoef="0"     IVar="-1" Cut="     0.000000E+00" cType="1"     res="    -1.859790E-02" rms="0.0e-00"     purity="0.00000000E+00" nType="-99">
                    </Node>
                    <Node pos="r" depth="5" NCoef="0"     IVar="-1" Cut="     0.000000E+00" cType="1"     res="     5.132670E-03" rms="0.0e-00"     purity="0.00000000E+00" nType="-99">
                    </Node>
                </Node>
                <Node pos="r" depth="4" NCoef="0"     IVar="9" Cut="     3.187400E+01" cType="1"     res="     0.000000E+00" rms="0.0"     purity="0.00000000E+00" nType="0">
                    <Node pos="l" depth="5" NCoef="0"     IVar="-1" Cut="     0.000000E+00" cType="1"     res="    -2.168230E-02" rms="0.0e-00"     purity="0.00000000E+00" nType="-99">
                    </Node>
                    <Node pos="r" depth="5" NCoef="0"     IVar="-1" Cut="     0.000000E+00" cType="1"     res="    -7.645490E-03" rms="0.0e-00"     purity="0.00000000E+00" nType="-99">
                    </Node>
                </Node>
            </Node>
        </Node>
        <Node pos="r" depth="2" NCoef="0"     IVar="6" Cut="     8.976700E-01" cType="1"     res="     0.000000E+00" rms="0.0"     purity="0.00000000E+00" nType="0">
            <Node pos="l" depth="3" NCoef="0"     IVar="10" Cut="     1.526790E+00" cType="1"     res="     0.000000E+00" rms="0.0"     purity="0.00000000E+00" nType="0">
                <Node pos="l" depth="4" NCoef="0"     IVar="10" Cut="     2.513910E-01" cType="1"     res="     0.000000E+00" rms="0.0"     purity="0.00000000E+00" nType="0">
                    <Node pos="l" depth="5" NCoef="0"     IVar="-1" Cut="     0.000000E+00" cType="1"     res="     4.175940E-02" rms="0.0e-00"     purity="0.00000000E+00" nType="-99">
                    </Node>
                    <Node pos="r" depth="5" NCoef="0"     IVar="-1" Cut="     0.000000E+00" cType="1"     res="    -3.066660E-02" rms="0.0e-00"     purity="0.00000000E+00" nType="-99">
                    </Node>
                </Node>
                <Node pos="r" depth="4" NCoef="0"     IVar="12" Cut="     1.106260E+02" cType="1"     res="     0.000000E+00" rms="0.0"     purity="0.00000000E+00" nType="0">
                    <Node pos="l" depth="5" NCoef="0"     IVar="-1" Cut="     0.000000E+00" cType="1"     res="     7.485550E-04" rms="0.0e-00"     purity="0.00000000E+00" nType="-99">
                    </Node>
                    <Node pos="r" depth="5" NCoef="0"     IVar="-1" Cut="     0.000000E+00" cType="1"     res="    -2.763270E-02" rms="0.0e-00"     purity="0.00000000E+00" nType="-99">
                    </Node>
                </Node>
            </Node>
            <Node pos="r" depth="3" NCoef="0"     IVar="11" Cut="     8.942090E+01" cType="1"     res="     0.000000E+00" rms="0.0"     purity="0.00000000E+00" nType="0">
                <Node pos="l" depth="4" NCoef="0"     IVar="12" Cut="     7.833440E+01" cType="1"     res="     0.000000E+00" rms="0.0"     purity="0.00000000E+00" nType="0">
                    <Node pos="l" depth="5" NCoef="0"     IVar="-1" Cut="     0.000000E+00" cType="1"     res="    -1.081980E-02" rms="0.0e-00"     purity="0.00000000E+00" nType="-99">
                    </Node>
                    <Node pos="r" depth="5" NCoef="0"     IVar="-1" Cut="     0.000000E+00" cType="1"     res="    -3.223050E-02" rms="0.0e-00"     purity="0.00000000E+00" nType="-99">
                    </Node>
                </Node>
                <Node pos="r" depth="4" NCoef="0"     IVar="9" Cut="     3.365120E+01" cType="1"     res="     0.000000E+00" rms="0.0"     purity="0.00000000E+00" nType="0">
                    <Node pos="l" depth="5" NCoef="0"     IVar="-1" Cut="     0.000000E+00" cType="1"     res="    -4.223290E-02" rms="0.0e-00"     purity="0.00000000E+00" nType="-99">
                    </Node>
                    <Node pos="r" depth="5" NCoef="0"     IVar="-1" Cut="     0.000000E+00" cType="1"     res="    -2.254200E-02" rms="0.0e-00"     purity="0.00000000E+00" nType="-99">
                    </Node>
                </Node>
            </Node>
        </Node>
    </Node>
</BinaryTree>
<BinaryTree type="DecisionTree" boostWeight="0.0" itree="13">
    <Node pos="c" depth="1" NCoef="0"     IVar="1" Cut="     6.716800E+01" cType="1"     res="     0.000000E+00" rms="0.0"     purity="0.00000000E+00" nType="0">
        <Node pos="l" depth="2" NCoef="0"     IVar="6" Cut="     1.639420E+00" cType="1"     res="     0.000000E+00" rms="0.0"     purity="0.00000000E+00" nType="0">
            <Node pos="l" depth="3" NCoef="0"     IVar="6" Cut="     8.966140E-01" cType="1"     res="     0.000000E+00" rms="0.0"     purity="0.00000000E+00" nType="0">
                <Node pos="l" depth="4" NCoef="0"     IVar="7" Cut="     5.275080E-01" cType="1"     res="     0.000000E+00" rms="0.0"     purity="0.00000000E+00" nType="0">
                    <Node pos="l" depth="5" NCoef="0"     IVar="-1" Cut="     0.000000E+00" cType="1"     res="    -1.036390E-02" rms="0.0e-00"     purity="0.00000000E+00" nType="-99">
                    </Node>
                    <Node pos="r" depth="5" NCoef="0"     IVar="-1" Cut="     0.000000E+00" cType="1"     res="     1.079850E-02" rms="0.0e-00"     purity="0.00000000E+00" nType="-99">
                    </Node>
                </Node>
                <Node pos="r" depth="4" NCoef="0"     IVar="0" Cut="     3.969460E+01" cType="1"     res="     0.000000E+00" rms="0.0"     purity="0.00000000E+00" nType="0">
                    <Node pos="l" depth="5" NCoef="0"     IVar="-1" Cut="     0.000000E+00" cType="1"     res="     1.661700E-02" rms="0.0e-00"     purity="0.00000000E+00" nType="-99">
                    </Node>
                    <Node pos="r" depth="5" NCoef="0"     IVar="-1" Cut="     0.000000E+00" cType="1"     res="    -6.823470E-03" rms="0.0e-00"     purity="0.00000000E+00" nType="-99">
                    </Node>
                </Node>
            </Node>
            <Node pos="r" depth="3" NCoef="0"     IVar="0" Cut="     5.013680E+01" cType="1"     res="     0.000000E+00" rms="0.0"     purity="0.00000000E+00" nType="0">
                <Node pos="l" depth="4" NCoef="0"     IVar="2" Cut="     1.449230E+00" cType="1"     res="     0.000000E+00" rms="0.0"     purity="0.00000000E+00" nType="0">
                    <Node pos="l" depth="5" NCoef="0"     IVar="-1" Cut="     0.000000E+00" cType="1"     res="     7.240450E-03" rms="0.0e-00"     purity="0.00000000E+00" nType="-99">
                    </Node>
                    <Node pos="r" depth="5" NCoef="0"     IVar="-1" Cut="     0.000000E+00" cType="1"     res="    -1.314270E-02" rms="0.0e-00"     purity="0.00000000E+00" nType="-99">
                    </Node>
                </Node>
                <Node pos="r" depth="4" NCoef="0"     IVar="9" Cut="     3.879830E+01" cType="1"     res="     0.000000E+00" rms="0.0"     purity="0.00000000E+00" nType="0">
                    <Node pos="l" depth="5" NCoef="0"     IVar="-1" Cut="     0.000000E+00" cType="1"     res="    -2.491360E-02" rms="0.0e-00"     purity="0.00000000E+00" nType="-99">
                    </Node>
                    <Node pos="r" depth="5" NCoef="0"     IVar="-1" Cut="     0.000000E+00" cType="1"     res="    -8.496150E-03" rms="0.0e-00"     purity="0.00000000E+00" nType="-99">
                    </Node>
                </Node>
            </Node>
        </Node>
        <Node pos="r" depth="2" NCoef="0"     IVar="6" Cut="     1.586640E+00" cType="1"     res="     0.000000E+00" rms="0.0"     purity="0.00000000E+00" nType="0">
            <Node pos="l" depth="3" NCoef="0"     IVar="0" Cut="     1.818020E+02" cType="1"     res="     0.000000E+00" rms="0.0"     purity="0.00000000E+00" nType="0">
                <Node pos="l" depth="4" NCoef="0"     IVar="10" Cut="     4.186140E-01" cType="1"     res="     0.000000E+00" rms="0.0"     purity="0.00000000E+00" nType="0">
                    <Node pos="l" depth="5" NCoef="0"     IVar="-1" Cut="     0.000000E+00" cType="1"     res="     3.375060E-02" rms="0.0e-00"     purity="0.00000000E+00" nType="-99">
                    </Node>
                    <Node pos="r" depth="5" NCoef="0"     IVar="-1" Cut="     0.000000E+00" cType="1"     res="    -1.656080E-02" rms="0.0e-00"     purity="0.00000000E+00" nType="-99">
                    </Node>
                </Node>
                <Node pos="r" depth="4" NCoef="0"     IVar="10" Cut="     8.955920E-01" cType="1"     res="     0.000000E+00" rms="0.0"     purity="0.00000000E+00" nType="0">
                    <Node pos="l" depth="5" NCoef="0"     IVar="-1" Cut="     0.000000E+00" cType="1"     res="    -5.522790E-02" rms="0.0e-00"     purity="0.00000000E+00" nType="-99">
                    </Node>
                    <Node pos="r" depth="5" NCoef="0"     IVar="-1" Cut="     0.000000E+00" cType="1"     res="    -2.695580E-02" rms="0.0e-00"     purity="0.00000000E+00" nType="-99">
                    </Node>
                </Node>
            </Node>
            <Node pos="r" depth="3" NCoef="0"     IVar="10" Cut="     3.523490E-01" cType="1"     res="     0.000000E+00" rms="0.0"     purity="0.00000000E+00" nType="0">
                <Node pos="l" depth="4" NCoef="0"     IVar="5" Cut="     2.567190E+02" cType="1"     res="     0.000000E+00" rms="0.0"     purity="0.00000000E+00" nType="0">
                    <Node pos="l" depth="5" NCoef="0"     IVar="-1" Cut="     0.000000E+00" cType="1"     res="     5.891970E-02" rms="0.0e-00"     purity="0.00000000E+00" nType="-99">
                    </Node>
                    <Node pos="r" depth="5" NCoef="0"     IVar="-1" Cut="     0.000000E+00" cType="1"     res="    -4.281600E-02" rms="0.0e-00"     purity="0.00000000E+00" nType="-99">
                    </Node>
                </Node>
                <Node pos="r" depth="4" NCoef="0"     IVar="11" Cut="     7.839640E+01" cType="1"     res="     0.000000E+00" rms="0.0"     purity="0.00000000E+00" nType="0">
                    <Node pos="l" depth="5" NCoef="0"     IVar="-1" Cut="     0.000000E+00" cType="1"     res="    -2.557770E-02" rms="0.0e-00"     purity="0.00000000E+00" nType="-99">
                    </Node>
                    <Node pos="r" depth="5" NCoef="0"     IVar="-1" Cut="     0.000000E+00" cType="1"     res="    -4.136820E-02" rms="0.0e-00"     purity="0.00000000E+00" nType="-99">
                    </Node>
                </Node>
            </Node>
        </Node>
    </Node>
</BinaryTree>
<BinaryTree type="DecisionTree" boostWeight="0.0" itree="14">
    <Node pos="c" depth="1" NCoef="0"     IVar="0" Cut="     8.632270E+01" cType="1"     res="     0.000000E+00" rms="0.0"     purity="0.00000000E+00" nType="0">
        <Node pos="l" depth="2" NCoef="0"     IVar="10" Cut="     1.107880E+00" cType="1"     res="     0.000000E+00" rms="0.0"     purity="0.00000000E+00" nType="0">
            <Node pos="l" depth="3" NCoef="0"     IVar="1" Cut="     2.689730E+01" cType="1"     res="     0.000000E+00" rms="0.0"     purity="0.00000000E+00" nType="0">
                <Node pos="l" depth="4" NCoef="0"     IVar="3" Cut="     2.870360E+00" cType="1"     res="     0.000000E+00" rms="0.0"     purity="0.00000000E+00" nType="0">
                    <Node pos="l" depth="5" NCoef="0"     IVar="-1" Cut="     0.000000E+00" cType="1"     res="     3.464610E-02" rms="0.0e-00"     purity="0.00000000E+00" nType="-99">
                    </Node>
                    <Node pos="r" depth="5" NCoef="0"     IVar="-1" Cut="     0.000000E+00" cType="1"     res="    -2.816340E-02" rms="0.0e-00"     purity="0.00000000E+00" nType="-99">
                    </Node>
                </Node>
                <Node pos="r" depth="4" NCoef="0"     IVar="10" Cut="     7.994810E-01" cType="1"     res="     0.000000E+00" rms="0.0"     purity="0.00000000E+00" nType="0">
                    <Node pos="l" depth="5" NCoef="0"     IVar="-1" Cut="     0.000000E+00" cType="1"     res="     1.888060E-02" rms="0.0e-00"     purity="0.00000000E+00" nType="-99">
                    </Node>
                    <Node pos="r" depth="5" NCoef="0"     IVar="-1" Cut="     0.000000E+00" cType="1"     res="     3.673040E-03" rms="0.0e-00"     purity="0.00000000E+00" nType="-99">
                    </Node>
                </Node>
            </Node>
            <Node pos="r" depth="3" NCoef="0"     IVar="6" Cut="     1.058730E+00" cType="1"     res="     0.000000E+00" rms="0.0"     purity="0.00000000E+00" nType="0">
                <Node pos="l" depth="4" NCoef="0"     IVar="7" Cut="     4.603440E-01" cType="1"     res="     0.000000E+00" rms="0.0"     purity="0.00000000E+00" nType="0">
                    <Node pos="l" depth="5" NCoef="0"     IVar="-1" Cut="     0.000000E+00" cType="1"     res="    -1.365020E-02" rms="0.0e-00"     purity="0.00000000E+00" nType="-99">
                    </Node>
                    <Node pos="r" depth="5" NCoef="0"     IVar="-1" Cut="     0.000000E+00" cType="1"     res="     8.802930E-03" rms="0.0e-00"     purity="0.00000000E+00" nType="-99">
                    </Node>
                </Node>
                <Node pos="r" depth="4" NCoef="0"     IVar="1" Cut="     3.044440E+01" cType="1"     res="     0.000000E+00" rms="0.0"     purity="0.00000000E+00" nType="0">
                    <Node pos="l" depth="5" NCoef="0"     IVar="-1" Cut="     0.000000E+00" cType="1"     res="     1.630860E-03" rms="0.0e-00"     purity="0.00000000E+00" nType="-99">
                    </Node>
                    <Node pos="r" depth="5" NCoef="0"     IVar="-1" Cut="     0.000000E+00" cType="1"     res="    -1.445560E-02" rms="0.0e-00"     purity="0.00000000E+00" nType="-99">
                    </Node>
                </Node>
            </Node>
        </Node>
        <Node pos="r" depth="2" NCoef="0"     IVar="12" Cut="     1.090200E+02" cType="1"     res="     0.000000E+00" rms="0.0"     purity="0.00000000E+00" nType="0">
            <Node pos="l" depth="3" NCoef="0"     IVar="9" Cut="     3.527610E+01" cType="1"     res="     0.000000E+00" rms="0.0"     purity="0.00000000E+00" nType="0">
                <Node pos="l" depth="4" NCoef="0"     IVar="11" Cut="     1.068190E+02" cType="1"     res="     0.000000E+00" rms="0.0"     purity="0.00000000E+00" nType="0">
                    <Node pos="l" depth="5" NCoef="0"     IVar="-1" Cut="     0.000000E+00" cType="1"     res="    -1.402750E-02" rms="0.0e-00"     purity="0.00000000E+00" nType="-99">
                    </Node>
                    <Node pos="r" depth="5" NCoef="0"     IVar="-1" Cut="     0.000000E+00" cType="1"     res="    -3.183620E-02" rms="0.0e-00"     purity="0.00000000E+00" nType="-99">
                    </Node>
                </Node>
                <Node pos="r" depth="4" NCoef="0"     IVar="6" Cut="     1.476010E+00" cType="1"     res="     0.000000E+00" rms="0.0"     purity="0.00000000E+00" nType="0">
                    <Node pos="l" depth="5" NCoef="0"     IVar="-1" Cut="     0.000000E+00" cType="1"     res="     4.247140E-03" rms="0.0e-00"     purity="0.00000000E+00" nType="-99">
                    </Node>
                    <Node pos="r" depth="5" NCoef="0"     IVar="-1" Cut="     0.000000E+00" cType="1"     res="    -1.060230E-02" rms="0.0e-00"     purity="0.00000000E+00" nType="-99">
                    </Node>
                </Node>
            </Node>
            <Node pos="r" depth="3" NCoef="0"     IVar="9" Cut="     3.433780E+01" cType="1"     res="     0.000000E+00" rms="0.0"     purity="0.00000000E+00" nType="0">
                <Node pos="l" depth="4" NCoef="0"     IVar="10" Cut="     3.579310E-01" cType="1"     res="     0.000000E+00" rms="0.0"     purity="0.00000000E+00" nType="0">
                    <Node pos="l" depth="5" NCoef="0"     IVar="-1" Cut="     0.000000E+00" cType="1"     res="     1.331290E-02" rms="0.0e-00"     purity="0.00000000E+00" nType="-99">
                    </Node>
                    <Node pos="r" depth="5" NCoef="0"     IVar="-1" Cut="     0.000000E+00" cType="1"     res="    -4.574260E-02" rms="0.0e-00"     purity="0.00000000E+00" nType="-99">
                    </Node>
                </Node>
                <Node pos="r" depth="4" NCoef="0"     IVar="12" Cut="     1.851180E+02" cType="1"     res="     0.000000E+00" rms="0.0"     purity="0.00000000E+00" nType="0">
