
    <?xml version="1.0"?>
    <MethodSetup Method="BDT::bdt">
    <GeneralInfo>
    <Info name="TMVA Release" value="4.2.0 [262656]"/>
    <Info name="ROOT Release" value="6.02/05 [393733]"/>
    <Info name="Creator" value="joosep"/>
    <Info name="Date" value="Sun May 31 01:31:49 2015"/>
    <Info name="Host" value="Linux cmsbuild13.cern.ch 2.6.32-504.8.1.el6.x86_64 #1 SMP Wed Jan 28 08:50:46 CET 2015 x86_64 x86_64 x86_64 GNU/Linux"/>
    <Info name="Dir" value="/home/joosep/btv/CMSSW_7_4_0/src/RecoBTag/CMSCSTagger"/>
    <Info name="Training events" value="1692351"/>
    <Info name="TrainingTime" value="7.82964582e+03"/>
    <Info name="AnalysisType" value="Classification"/>
    </GeneralInfo>
    <Options>
    <Option name="V" modified="Yes">False</Option>
    <Option name="VerbosityLevel" modified="Yes">Fatal</Option>
    <Option name="VarTransform" modified="No">None</Option>
    <Option name="H" modified="Yes">False</Option>
    <Option name="CreateMVAPdfs" modified="No">False</Option>
    <Option name="IgnoreNegWeightsInTraining" modified="No">False</Option>
    <Option name="NTrees" modified="Yes">800</Option>
    <Option name="MaxDepth" modified="Yes">3</Option>
    <Option name="MinNodeSize" modified="No">5%</Option>
    <Option name="nCuts" modified="Yes">50</Option>
    <Option name="BoostType" modified="Yes">Grad</Option>
    <Option name="AdaBoostR2Loss" modified="No">quadratic</Option>
    <Option name="UseBaggedBoost" modified="Yes">False</Option>
    <Option name="Shrinkage" modified="Yes">0.01</Option>
    <Option name="AdaBoostBeta" modified="No">5.000000e-01</Option>
    <Option name="UseRandomisedTrees" modified="No">False</Option>
    <Option name="UseNvars" modified="Yes">sqrt</Option>
    <Option name="UsePoissonNvars" modified="No">True</Option>
    <Option name="BaggedSampleFraction" modified="No">6.000000e-01</Option>
    <Option name="UseYesNoLeaf" modified="No">False</Option>
    <Option name="NegWeightTreatment" modified="No">ignorenegweightsintraining</Option>
    <Option name="Css" modified="No">1.000000e+00</Option>
    <Option name="Cts_sb" modified="No">1.000000e+00</Option>
    <Option name="Ctb_ss" modified="No">1.000000e+00</Option>
    <Option name="Cbb" modified="No">1.000000e+00</Option>
    <Option name="NodePurityLimit" modified="No">5.000000e-01</Option>
    <Option name="SeparationType" modified="No">giniindex</Option>
    <Option name="DoBoostMonitor" modified="Yes">False</Option>
    <Option name="UseFisherCuts" modified="No">False</Option>
    <Option name="MinLinCorrForFisher" modified="No">8.000000e-01</Option>
    <Option name="UseExclusiveVars" modified="No">False</Option>
    <Option name="DoPreselection" modified="No">False</Option>
    <Option name="SigToBkgFraction" modified="No">1.000000e+00</Option>
    <Option name="PruneMethod" modified="No">nopruning</Option>
    <Option name="PruneStrength" modified="No">0.000000e+00</Option>
    <Option name="PruningValFraction" modified="No">5.000000e-01</Option>
    <Option name="nEventsMin" modified="No">0</Option>
    <Option name="UseBaggedGrad" modified="No">False</Option>
    <Option name="GradBaggingFraction" modified="No">6.000000e-01</Option>
    <Option name="UseNTrainEvents" modified="No">0</Option>
    <Option name="NNodesMax" modified="No">0</Option>
    </Options>
    <Variables NVar="7">
    <Variable VarIndex="0" Expression="ht" Label="ht" Title="ht" Unit="" Internal="ht" Type="F" Min="1.8322407531738281E+02" Max="3.9636616210937500E+03"/>
<Variable VarIndex="1" Expression="tt_deltaR" Label="tt_deltaR" Title="tt_deltaR" Unit="" Internal="tt_deltaR" Type="F" Min="3.6983442306518555E-01" Max="4.9719038009643555E+00"/>
<Variable VarIndex="2" Expression="tt_visiblemass" Label="tt_visiblemass" Title="tt_visiblemass" Unit="" Internal="tt_visiblemass" Type="F" Min="9.6911659240722656E+00" Max="7.4173022460937500E+02"/>
<Variable VarIndex="3" Expression="tt_sumpt" Label="tt_sumpt" Title="tt_sumpt" Unit="" Internal="tt_sumpt" Type="F" Min="2.4265216290950775E-01" Max="6.6633917236328125E+02"/>
<Variable VarIndex="4" Expression="jet_deltaRmax" Label="jet_deltaRmax" Title="jet_deltaRmax" Unit="" Internal="jet_deltaRmax" Type="F" Min="5.5284267663955688E-01" Max="5.6881847381591797E+00"/>
<Variable VarIndex="5" Expression="jet_deltaRavg" Label="jet_deltaRavg" Title="jet_deltaRavg" Unit="" Internal="jet_deltaRavg" Type="F" Min="4.9400725960731506E-01" Max="4.0468153953552246E+00"/>
<Variable VarIndex="6" Expression="njets_inclusive" Label="njets_inclusive" Title="njets_inclusive" Unit="" Internal="njets_inclusive" Type="F" Min="3.0000000000000000E+00" Max="1.3000000000000000E+01"/>

    </Variables>
    <Classes NClass="2">
    <Class Name="Signal" Index="0"/>
    <Class Name="Background" Index="1"/>
    </Classes>
    <Transformations NTransformations="0"/>
    <MVAPdfs/>
    <Weights NTrees="800" AnalysisType="1">
    <BinaryTree type="DecisionTree" boostWeight="1.0" itree="0">
<Node pos="s" depth="0" NCoef="0" IVar="3" Cut="5.7552696228027344E+01" cType="1" res="1.8742410565511072E-19" rms="0.0" purity="0.249999947858" nType="0">
  <Node pos="l" depth="1" NCoef="0" IVar="1" Cut="1.8728380203247070E+00" cType="1" res="1.0254807733829374E-03" rms="0.0" purity="0.23136708863" nType="0">
    <Node pos="l" depth="2" NCoef="0" IVar="2" Cut="4.6050430297851562E+01" cType="1" res="-7.2724332765975613E-04" rms="0.0" purity="0.240553302215" nType="0">
      <Node pos="l" depth="3" NCoef="0" IVar="-1" Cut="0.0000000000000000E+00" cType="1" res="-5.0796034189390243E-03" rms="0.0e-00" purity="0.22125333129" nType="-99">
      </Node>
      <Node pos="r" depth="3" NCoef="0" IVar="-1" Cut="0.0000000000000000E+00" cType="1" res="-7.1917105074111303E-04" rms="0.0e-00" purity="0.249414325608" nType="-99">
      </Node>
    </Node>
    <Node pos="r" depth="2" NCoef="0" IVar="4" Cut="3.2989206314086914E+00" cType="1" res="1.4134200175422657E-03" rms="0.0" purity="0.214570349843" nType="0">
      <Node pos="l" depth="3" NCoef="0" IVar="-1" Cut="0.0000000000000000E+00" cType="1" res="6.6573499161847608E-03" rms="0.0e-00" purity="0.200856527633" nType="-99">
      </Node>
      <Node pos="r" depth="3" NCoef="0" IVar="-1" Cut="0.0000000000000000E+00" cType="1" res="4.3730674694427464E-03" rms="0.0e-00" purity="0.228817951787" nType="-99">
      </Node>
    </Node>
  </Node>
  <Node pos="r" depth="1" NCoef="0" IVar="5" Cut="2.2471766471862793E+00" cType="1" res="-3.8799339773668169E-04" rms="0.0" purity="0.247300075239" nType="0">
    <Node pos="l" depth="2" NCoef="0" IVar="1" Cut="1.1102737188339233E+00" cType="1" res="-2.0106179448546734E-04" rms="0.0" purity="0.249269022992" nType="0">
      <Node pos="l" depth="3" NCoef="0" IVar="-1" Cut="0.0000000000000000E+00" cType="1" res="-5.8930927146346812E-03" rms="0.0e-00" purity="0.211322983951" nType="-99">
      </Node>
      <Node pos="r" depth="3" NCoef="0" IVar="-1" Cut="0.0000000000000000E+00" cType="1" res="3.9135016632417495E-03" rms="0.0e-00" purity="0.233042313791" nType="-99">
      </Node>
    </Node>
    <Node pos="r" depth="2" NCoef="0" IVar="3" Cut="9.6088928222656250E+01" cType="1" res="-6.6195515069456456E-04" rms="0.0" purity="0.242169690868" nType="0">
      <Node pos="l" depth="3" NCoef="0" IVar="-1" Cut="0.0000000000000000E+00" cType="1" res="-1.1636292711302873E-03" rms="0.0e-00" purity="0.248477753188" nType="-99">
      </Node>
      <Node pos="r" depth="3" NCoef="0" IVar="-1" Cut="0.0000000000000000E+00" cType="1" res="-3.7581239171917986E-03" rms="0.0e-00" purity="0.234249971301" nType="-99">
      </Node>
    </Node>
  </Node>
</Node>
</BinaryTree>
<BinaryTree type="DecisionTree" boostWeight="1.0" itree="1">
<Node pos="s" depth="0" NCoef="0" IVar="6" Cut="4.5000000000000000E+00" cType="1" res="-1.4749222827453140E-11" rms="0.0" purity="0.249528751507" nType="0">
  <Node pos="l" depth="1" NCoef="0" IVar="3" Cut="6.7695159912109375E+01" cType="1" res="3.5646623364381735E-04" rms="0.0" purity="0.247296790128" nType="0">
    <Node pos="l" depth="2" NCoef="0" IVar="1" Cut="1.8710989952087402E+00" cType="1" res="1.0653798845348191E-03" rms="0.0" purity="0.229269720944" nType="0">
      <Node pos="l" depth="3" NCoef="0" IVar="-1" Cut="0.0000000000000000E+00" cType="1" res="-1.6667516787263192E-03" rms="0.0e-00" purity="0.246724881791" nType="-99">
      </Node>
      <Node pos="r" depth="3" NCoef="0" IVar="-1" Cut="0.0000000000000000E+00" cType="1" res="6.4083816291901925E-03" rms="0.0e-00" purity="0.203687138027" nType="-99">
      </Node>
    </Node>
    <Node pos="r" depth="2" NCoef="0" IVar="2" Cut="7.8169097900390625E+01" cType="1" res="-1.0042203676647639E-04" rms="0.0" purity="0.249445891649" nType="0">
      <Node pos="l" depth="3" NCoef="0" IVar="-1" Cut="0.0000000000000000E+00" cType="1" res="-4.7594861720881860E-03" rms="0.0e-00" purity="0.224228799509" nType="-99">
      </Node>
      <Node pos="r" depth="3" NCoef="0" IVar="-1" Cut="0.0000000000000000E+00" cType="1" res="7.1586678335156702E-03" rms="0.0e-00" purity="0.19307967263" nType="-99">
      </Node>
    </Node>
  </Node>
  <Node pos="r" depth="1" NCoef="0" IVar="6" Cut="5.5000000000000000E+00" cType="1" res="-5.2480374920984868E-04" rms="0.0" purity="0.244592621871" nType="0">
    <Node pos="l" depth="2" NCoef="0" IVar="3" Cut="4.6931369781494141E+01" cType="1" res="-2.4811840302983875E-04" rms="0.0" purity="0.248441830948" nType="0">
      <Node pos="l" depth="3" NCoef="0" IVar="-1" Cut="0.0000000000000000E+00" cType="1" res="4.4430689995564199E-03" rms="0.0e-00" purity="0.227568196573" nType="-99">
      </Node>
      <Node pos="r" depth="3" NCoef="0" IVar="-1" Cut="0.0000000000000000E+00" cType="1" res="-2.1286883475177191E-03" rms="0.0e-00" purity="0.244508736021" nType="-99">
      </Node>
    </Node>
    <Node pos="r" depth="2" NCoef="0" IVar="2" Cut="7.4798957824707031E+01" cType="1" res="-8.4853425453533223E-04" rms="0.0" purity="0.236633408206" nType="0">
      <Node pos="l" depth="3" NCoef="0" IVar="-1" Cut="0.0000000000000000E+00" cType="1" res="-7.1681910437403889E-03" rms="0.0e-00" purity="0.192146827708" nType="-99">
      </Node>
      <Node pos="r" depth="3" NCoef="0" IVar="-1" Cut="0.0000000000000000E+00" cType="1" res="3.7368144458531228E-03" rms="0.0e-00" purity="0.234288419429" nType="-99">
      </Node>
    </Node>
  </Node>
</Node>
</BinaryTree>
<BinaryTree type="DecisionTree" boostWeight="1.0" itree="2">
<Node pos="s" depth="0" NCoef="0" IVar="2" Cut="7.2451004028320312E+01" cType="1" res="-8.5615049082559397E-12" rms="0.0" purity="0.248911354284" nType="0">
  <Node pos="l" depth="1" NCoef="0" IVar="0" Cut="5.5280847167968750E+02" cType="1" res="-1.1217207934931094E-03" rms="0.0" purity="0.226458283976" nType="0">
    <Node pos="l" depth="2" NCoef="0" IVar="4" Cut="3.5516142845153809E+00" cType="1" res="-7.5135777896000806E-04" rms="0.0" purity="0.239020843231" nType="0">
      <Node pos="l" depth="3" NCoef="0" IVar="-1" Cut="0.0000000000000000E+00" cType="1" res="-2.3625807816225332E-03" rms="0.0e-00" purity="0.242857384548" nType="-99">
      </Node>
      <Node pos="r" depth="3" NCoef="0" IVar="-1" Cut="0.0000000000000000E+00" cType="1" res="-4.8798513956572137E-03" rms="0.0e-00" purity="0.222594145907" nType="-99">
      </Node>
    </Node>
    <Node pos="r" depth="2" NCoef="0" IVar="6" Cut="4.5000000000000000E+00" cType="1" res="-1.4898128490833909E-03" rms="0.0" purity="0.20914040902" nType="0">
      <Node pos="l" depth="3" NCoef="0" IVar="-1" Cut="0.0000000000000000E+00" cType="1" res="-4.2274902863574555E-03" rms="0.0e-00" purity="0.229055917308" nType="-99">
      </Node>
      <Node pos="r" depth="3" NCoef="0" IVar="-1" Cut="0.0000000000000000E+00" cType="1" res="-6.9790061057865447E-03" rms="0.0e-00" purity="0.194300701189" nType="-99">
      </Node>
    </Node>
  </Node>
  <Node pos="r" depth="1" NCoef="0" IVar="4" Cut="3.3622441291809082E+00" cType="1" res="1.4357439419422670E-03" rms="0.0" purity="0.212372518707" nType="0">
    <Node pos="l" depth="2" NCoef="0" IVar="1" Cut="1.0394072532653809E+00" cType="1" res="1.6954580239480544E-03" rms="0.0" purity="0.197594357563" nType="0">
      <Node pos="l" depth="3" NCoef="0" IVar="-1" Cut="0.0000000000000000E+00" cType="1" res="2.2880916059692721E-03" rms="0.0e-00" purity="0.243910859084" nType="-99">
      </Node>
      <Node pos="r" depth="3" NCoef="0" IVar="-1" Cut="0.0000000000000000E+00" cType="1" res="7.4364037045706564E-03" rms="0.0e-00" purity="0.187108294079" nType="-99">
      </Node>
    </Node>
    <Node pos="r" depth="2" NCoef="0" IVar="6" Cut="5.5000000000000000E+00" cType="1" res="1.0511939618986009E-03" rms="0.0" purity="0.229849573838" nType="0">
      <Node pos="l" depth="3" NCoef="0" IVar="-1" Cut="0.0000000000000000E+00" cType="1" res="4.8482093941311019E-03" rms="0.0e-00" purity="0.223354926021" nType="-99">
      </Node>
      <Node pos="r" depth="3" NCoef="0" IVar="-1" Cut="0.0000000000000000E+00" cType="1" res="2.6821756071499035E-03" rms="0.0e-00" purity="0.241556748059" nType="-99">
      </Node>
    </Node>
  </Node>
</Node>
</BinaryTree>
<BinaryTree type="DecisionTree" boostWeight="1.0" itree="3">
<Node pos="s" depth="0" NCoef="0" IVar="2" Cut="7.2451004028320312E+01" cType="1" res="2.2369875316492067E-11" rms="0.0" purity="0.248259747254" nType="0">
  <Node pos="l" depth="1" NCoef="0" IVar="4" Cut="3.5525503158569336E+00" cType="1" res="-1.1105038119330396E-03" rms="0.0" purity="0.226377205132" nType="0">
    <Node pos="l" depth="2" NCoef="0" IVar="6" Cut="4.5000000000000000E+00" cType="1" res="-8.7948180407575053E-04" rms="0.0" purity="0.234796727604" nType="0">
      <Node pos="l" depth="3" NCoef="0" IVar="-1" Cut="0.0000000000000000E+00" cType="1" res="-2.6567725203591368E-03" rms="0.0e-00" purity="0.240964975447" nType="-99">
      </Node>
      <Node pos="r" depth="3" NCoef="0" IVar="-1" Cut="0.0000000000000000E+00" cType="1" res="-5.3449024539315472E-03" rms="0.0e-00" purity="0.216260860749" nType="-99">
      </Node>
    </Node>
    <Node pos="r" depth="2" NCoef="0" IVar="3" Cut="8.1798004150390625E+01" cType="1" res="-1.5647040184582493E-03" rms="0.0" purity="0.20429108179" nType="0">
      <Node pos="l" depth="3" NCoef="0" IVar="-1" Cut="0.0000000000000000E+00" cType="1" res="-3.1170181493749083E-03" rms="0.0e-00" purity="0.238156637876" nType="-99">
      </Node>
      <Node pos="r" depth="3" NCoef="0" IVar="-1" Cut="0.0000000000000000E+00" cType="1" res="-8.7345162305696288E-03" rms="0.0e-00" purity="0.162172587757" nType="-99">
      </Node>
    </Node>
  </Node>
  <Node pos="r" depth="1" NCoef="0" IVar="0" Cut="5.7872216796875000E+02" cType="1" res="1.4213868625978551E-03" rms="0.0" purity="0.212289659865" nType="0">
    <Node pos="l" depth="2" NCoef="0" IVar="5" Cut="2.5164012908935547E+00" cType="1" res="1.7310386175277746E-03" rms="0.0" purity="0.194329237898" nType="0">
      <Node pos="l" depth="3" NCoef="0" IVar="-1" Cut="0.0000000000000000E+00" cType="1" res="7.3399897470696213E-03" rms="0.0e-00" purity="0.187504623097" nType="-99">
      </Node>
      <Node pos="r" depth="3" NCoef="0" IVar="-1" Cut="0.0000000000000000E+00" cType="1" res="5.2648936326220343E-03" rms="0.0e-00" purity="0.217791485871" nType="-99">
      </Node>
    </Node>
    <Node pos="r" depth="2" NCoef="0" IVar="2" Cut="1.2543038940429688E+02" cType="1" res="1.0324572404940128E-03" rms="0.0" purity="0.230018152623" nType="0">
      <Node pos="l" depth="3" NCoef="0" IVar="-1" Cut="0.0000000000000000E+00" cType="1" res="5.1610930305638191E-03" rms="0.0e-00" purity="0.219145822464" nType="-99">
      </Node>
      <Node pos="r" depth="3" NCoef="0" IVar="-1" Cut="0.0000000000000000E+00" cType="1" res="-3.7381321598905209E-03" rms="0.0e-00" purity="0.235192915536" nType="-99">
      </Node>
    </Node>
  </Node>
</Node>
</BinaryTree>
<BinaryTree type="DecisionTree" boostWeight="1.0" itree="4">
<Node pos="s" depth="0" NCoef="0" IVar="6" Cut="4.5000000000000000E+00" cType="1" res="4.2038249514070011E-11" rms="0.0" purity="0.247577769519" nType="0">
  <Node pos="l" depth="1" NCoef="0" IVar="0" Cut="4.6523623657226562E+02" cType="1" res="3.4751362456266415E-04" rms="0.0" purity="0.245502666103" nType="0">
    <Node pos="l" depth="2" NCoef="0" IVar="1" Cut="1.4140437841415405E+00" cType="1" res="5.1565412543037935E-04" rms="0.0" purity="0.242783715411" nType="0">
      <Node pos="l" depth="3" NCoef="0" IVar="-1" Cut="0.0000000000000000E+00" cType="1" res="-5.6585002355189588E-03" rms="0.0e-00" purity="0.212303894758" nType="-99">
      </Node>
      <Node pos="r" depth="3" NCoef="0" IVar="-1" Cut="0.0000000000000000E+00" cType="1" res="5.5074798345887011E-03" rms="0.0e-00" purity="0.213657108852" nType="-99">
      </Node>
    </Node>
    <Node pos="r" depth="2" NCoef="0" IVar="2" Cut="7.1885696411132812E+01" cType="1" res="1.9346668373402162E-04" rms="0.0" purity="0.247111367487" nType="0">
      <Node pos="l" depth="3" NCoef="0" IVar="-1" Cut="0.0000000000000000E+00" cType="1" res="-3.9357502652950750E-03" rms="0.0e-00" purity="0.230980049384" nType="-99">
      </Node>
      <Node pos="r" depth="3" NCoef="0" IVar="-1" Cut="0.0000000000000000E+00" cType="1" res="5.7703096719033337E-03" rms="0.0e-00" purity="0.210356034731" nType="-99">
      </Node>
    </Node>
  </Node>
  <Node pos="r" depth="1" NCoef="0" IVar="3" Cut="4.6478050231933594E+01" cType="1" res="-5.1162322301638065E-04" rms="0.0" purity="0.242818518557" nType="0">
    <Node pos="l" depth="2" NCoef="0" IVar="3" Cut="2.0738059997558594E+01" cType="1" res="9.8212726145004885E-04" rms="0.0" purity="0.231333336025" nType="0">
      <Node pos="l" depth="3" NCoef="0" IVar="-1" Cut="0.0000000000000000E+00" cType="1" res="6.2678031816576583E-03" rms="0.0e-00" purity="0.2047335146" nType="-99">
      </Node>
      <Node pos="r" depth="3" NCoef="0" IVar="-1" Cut="0.0000000000000000E+00" cType="1" res="3.2386690307555626E-03" rms="0.0e-00" purity="0.236861018778" nType="-99">
      </Node>
    </Node>
    <Node pos="r" depth="2" NCoef="0" IVar="6" Cut="5.5000000000000000E+00" cType="1" res="-7.9001736102996792E-04" rms="0.0" purity="0.236188291935" nType="0">
      <Node pos="l" depth="3" NCoef="0" IVar="-1" Cut="0.0000000000000000E+00" cType="1" res="-2.0651352129734861E-03" rms="0.0e-00" purity="0.243114999483" nType="-99">
      </Node>
      <Node pos="r" depth="3" NCoef="0" IVar="-1" Cut="0.0000000000000000E+00" cType="1" res="-4.4012440226640654E-03" rms="0.0e-00" purity="0.225124535053" nType="-99">
      </Node>
    </Node>
  </Node>
</Node>
</BinaryTree>
<BinaryTree type="DecisionTree" boostWeight="1.0" itree="5">
<Node pos="s" depth="0" NCoef="0" IVar="2" Cut="7.2451004028320312E+01" cType="1" res="1.2347124595805610E-10" rms="0.0" purity="0.247108392843" nType="0">
  <Node pos="l" depth="1" NCoef="0" IVar="1" Cut="1.2178380489349365E+00" cType="1" res="-1.0942394842093988E-03" rms="0.0" purity="0.226000230073" nType="0">
    <Node pos="l" depth="2" NCoef="0" IVar="6" Cut="4.5000000000000000E+00" cType="1" res="-1.9811068488356154E-03" rms="0.0" purity="0.175913948699" nType="0">
      <Node pos="l" depth="3" NCoef="0" IVar="-1" Cut="0.0000000000000000E+00" cType="1" res="-6.7701507249295270E-03" rms="0.0e-00" purity="0.195792615883" nType="-99">
      </Node>
      <Node pos="r" depth="3" NCoef="0" IVar="-1" Cut="0.0000000000000000E+00" cType="1" res="-9.2213417171989418E-03" rms="0.0e-00" purity="0.150131727901" nType="-99">
      </Node>
    </Node>
    <Node pos="r" depth="2" NCoef="0" IVar="1" Cut="1.8716362714767456E+00" cType="1" res="3.4204751200645132E-05" rms="0.0" purity="0.249300055727" nType="0">
      <Node pos="l" depth="3" NCoef="0" IVar="-1" Cut="0.0000000000000000E+00" cType="1" res="-1.6003771734516173E-03" rms="0.0e-00" purity="0.246371192733" nType="-99">
      </Node>
      <Node pos="r" depth="3" NCoef="0" IVar="-1" Cut="0.0000000000000000E+00" cType="1" res="2.9873757969686504E-03" rms="0.0e-00" purity="0.239577085705" nType="-99">
      </Node>
    </Node>
  </Node>
  <Node pos="r" depth="1" NCoef="0" IVar="3" Cut="1.1431892395019531E+02" cType="1" res="1.4005696040704793E-03" rms="0.0" purity="0.21200745356" nType="0">
    <Node pos="l" depth="2" NCoef="0" IVar="2" Cut="1.2493174743652344E+02" cType="1" res="1.6762740064549392E-03" rms="0.0" purity="0.196233621482" nType="0">
      <Node pos="l" depth="3" NCoef="0" IVar="-1" Cut="0.0000000000000000E+00" cType="1" res="7.5757681287887801E-03" rms="0.0e-00" purity="0.18204490283" nType="-99">
      </Node>
      <Node pos="r" depth="3" NCoef="0" IVar="-1" Cut="0.0000000000000000E+00" cType="1" res="-1.8412855738427080E-03" rms="0.0e-00" purity="0.246435206655" nType="-99">
      </Node>
    </Node>
    <Node pos="r" depth="2" NCoef="0" IVar="1" Cut="9.2933166027069092E-01" cType="1" res="8.8039394628511313E-04" rms="0.0" purity="0.234408226271" nType="0">
      <Node pos="l" depth="3" NCoef="0" IVar="-1" Cut="0.0000000000000000E+00" cType="1" res="2.3933972224273383E-04" rms="0.0e-00" purity="0.249310358577" nType="-99">
      </Node>
      <Node pos="r" depth="3" NCoef="0" IVar="-1" Cut="0.0000000000000000E+00" cType="1" res="4.8416458011705504E-03" rms="0.0e-00" purity="0.221671994093" nType="-99">
      </Node>
    </Node>
  </Node>
</Node>
</BinaryTree>
<BinaryTree type="DecisionTree" boostWeight="1.0" itree="6">
<Node pos="s" depth="0" NCoef="0" IVar="1" Cut="1.2187893390655518E+00" cType="1" res="-9.7890278115573177E-12" rms="0.0" purity="0.246246247548" nType="0">
  <Node pos="l" depth="1" NCoef="0" IVar="2" Cut="8.1506332397460938E+01" cType="1" res="-1.4272309547031321E-03" rms="0.0" purity="0.209014046401" nType="0">
    <Node pos="l" depth="2" NCoef="0" IVar="6" Cut="4.5000000000000000E+00" cType="1" res="-1.8458629640110717E-03" rms="0.0" purity="0.184323885856" nType="0">
      <Node pos="l" depth="3" NCoef="0" IVar="-1" Cut="0.0000000000000000E+00" cType="1" res="-6.2422088711413613E-03" rms="0.0e-00" purity="0.20293169607" nType="-99">
      </Node>
      <Node pos="r" depth="3" NCoef="0" IVar="-1" Cut="0.0000000000000000E+00" cType="1" res="-8.6859999174056131E-03" rms="0.0e-00" purity="0.159672207006" nType="-99">
      </Node>
    </Node>
    <Node pos="r" depth="2" NCoef="0" IVar="5" Cut="1.6965929269790649E+00" cType="1" res="1.6095417149593096E-03" rms="0.0" purity="0.201570245828" nType="0">
      <Node pos="l" depth="3" NCoef="0" IVar="-1" Cut="0.0000000000000000E+00" cType="1" res="1.0246896423689271E-02" rms="0.0e-00" purity="0.129574562327" nType="-99">
      </Node>
      <Node pos="r" depth="3" NCoef="0" IVar="-1" Cut="0.0000000000000000E+00" cType="1" res="5.5765695023512127E-03" rms="0.0e-00" purity="0.213402704137" nType="-99">
      </Node>
    </Node>
  </Node>
  <Node pos="r" depth="1" NCoef="0" IVar="4" Cut="3.3596889972686768E+00" cType="1" res="9.5809812554702189E-04" rms="0.0" purity="0.230611205943" nType="0">
    <Node pos="l" depth="2" NCoef="0" IVar="2" Cut="6.9703063964843750E+01" cType="1" res="1.2243890287593619E-03" rms="0.0" purity="0.219655039584" nType="0">
      <Node pos="l" depth="3" NCoef="0" IVar="-1" Cut="0.0000000000000000E+00" cType="1" res="9.2644863258937418E-04" rms="0.0e-00" purity="0.248458309265" nType="-99">
      </Node>
      <Node pos="r" depth="3" NCoef="0" IVar="-1" Cut="0.0000000000000000E+00" cType="1" res="7.0975989823530688E-03" rms="0.0e-00" purity="0.188666853683" nType="-99">
      </Node>
    </Node>
    <Node pos="r" depth="2" NCoef="0" IVar="3" Cut="3.7755012512207031E+01" cType="1" res="5.7316207949964851E-04" rms="0.0" purity="0.241992314322" nType="0">
      <Node pos="l" depth="3" NCoef="0" IVar="-1" Cut="0.0000000000000000E+00" cType="1" res="4.4934673293386658E-03" rms="0.0e-00" purity="0.224941037152" nType="-99">
      </Node>
      <Node pos="r" depth="3" NCoef="0" IVar="-1" Cut="0.0000000000000000E+00" cType="1" res="1.6894736784073055E-03" rms="0.0e-00" purity="0.244790599762" nType="-99">
      </Node>
    </Node>
  </Node>
</Node>
</BinaryTree>
<BinaryTree type="DecisionTree" boostWeight="1.0" itree="7">
<Node pos="s" depth="0" NCoef="0" IVar="2" Cut="7.1824295043945312E+01" cType="1" res="-2.0928525353044226E-10" rms="0.0" purity="0.245469740255" nType="0">
  <Node pos="l" depth="1" NCoef="0" IVar="0" Cut="5.5280847167968750E+02" cType="1" res="-1.0964606350960541E-03" rms="0.0" purity="0.224269831298" nType="0">
    <Node pos="l" depth="2" NCoef="0" IVar="2" Cut="5.3208473205566406E+01" cType="1" res="-7.3907370069691740E-04" rms="0.0" purity="0.237193437406" nType="0">
      <Node pos="l" depth="3" NCoef="0" IVar="-1" Cut="0.0000000000000000E+00" cType="1" res="-6.2481274838011702E-03" rms="0.0e-00" purity="0.202153968667" nType="-99">
      </Node>
      <Node pos="r" depth="3" NCoef="0" IVar="-1" Cut="0.0000000000000000E+00" cType="1" res="-3.7257739780668681E-04" rms="0.0e-00" purity="0.247854036353" nType="-99">
      </Node>
    </Node>
    <Node pos="r" depth="2" NCoef="0" IVar="6" Cut="4.5000000000000000E+00" cType="1" res="-1.4510431620273377E-03" rms="0.0" purity="0.206959602121" nType="0">
      <Node pos="l" depth="3" NCoef="0" IVar="-1" Cut="0.0000000000000000E+00" cType="1" res="-4.1238528149196369E-03" rms="0.0e-00" purity="0.227544274546" nType="-99">
      </Node>
      <Node pos="r" depth="3" NCoef="0" IVar="-1" Cut="0.0000000000000000E+00" cType="1" res="-6.7981434179697651E-03" rms="0.0e-00" purity="0.191914596266" nType="-99">
      </Node>
    </Node>
  </Node>
  <Node pos="r" depth="1" NCoef="0" IVar="0" Cut="5.7872216796875000E+02" cType="1" res="1.3493302485432527E-03" rms="0.0" purity="0.212888986881" nType="0">
    <Node pos="l" depth="2" NCoef="0" IVar="1" Cut="1.2240912914276123E+00" cType="1" res="1.6440912860916849E-03" rms="0.0" purity="0.195828814158" nType="0">
      <Node pos="l" depth="3" NCoef="0" IVar="-1" Cut="0.0000000000000000E+00" cType="1" res="-3.1638177238997150E-04" rms="0.0e-00" purity="0.247735537736" nType="-99">
      </Node>
      <Node pos="r" depth="3" NCoef="0" IVar="-1" Cut="0.0000000000000000E+00" cType="1" res="7.2581319697985584E-03" rms="0.0e-00" purity="0.185035336925" nType="-99">
      </Node>
    </Node>
    <Node pos="r" depth="2" NCoef="0" IVar="3" Cut="1.9094509887695312E+02" cType="1" res="9.7891054573561722E-04" rms="0.0" purity="0.229947755874" nType="0">
      <Node pos="l" depth="3" NCoef="0" IVar="-1" Cut="0.0000000000000000E+00" cType="1" res="4.6552707932357006E-03" rms="0.0e-00" purity="0.222551130798" nType="-99">
      </Node>
      <Node pos="r" depth="3" NCoef="0" IVar="-1" Cut="0.0000000000000000E+00" cType="1" res="1.8907236771698018E-03" rms="0.0e-00" purity="0.244025454635" nType="-99">
      </Node>
    </Node>
  </Node>
</Node>
</BinaryTree>
<BinaryTree type="DecisionTree" boostWeight="1.0" itree="8">
<Node pos="s" depth="0" NCoef="0" IVar="3" Cut="5.7552696228027344E+01" cType="1" res="-1.3689869977028462E-10" rms="0.0" purity="0.244810291053" nType="0">
  <Node pos="l" depth="1" NCoef="0" IVar="2" Cut="6.2835914611816406E+01" cType="1" res="9.6997942358382052E-04" rms="0.0" purity="0.22877931088" nType="0">
    <Node pos="l" depth="2" NCoef="0" IVar="1" Cut="1.5384643077850342E+00" cType="1" res="-1.5923283267175426E-04" rms="0.0" purity="0.248214224539" nType="0">
      <Node pos="l" depth="3" NCoef="0" IVar="-1" Cut="0.0000000000000000E+00" cType="1" res="-5.0698515966275696E-03" rms="0.0e-00" purity="0.217662069503" nType="-99">
      </Node>
      <Node pos="r" depth="3" NCoef="0" IVar="-1" Cut="0.0000000000000000E+00" cType="1" res="8.0867486003019106E-04" rms="0.0e-00" purity="0.248744275995" nType="-99">
      </Node>
    </Node>
    <Node pos="r" depth="2" NCoef="0" IVar="2" Cut="1.3158908081054688E+02" cType="1" res="1.5111427915567898E-03" rms="0.0" purity="0.203395175393" nType="0">
      <Node pos="l" depth="3" NCoef="0" IVar="-1" Cut="0.0000000000000000E+00" cType="1" res="6.4808016300524490E-03" rms="0.0e-00" purity="0.197029833979" nType="-99">
      </Node>
      <Node pos="r" depth="3" NCoef="0" IVar="-1" Cut="0.0000000000000000E+00" cType="1" res="-2.4295948559717494E-03" rms="0.0e-00" purity="0.244602320461" nType="-99">
      </Node>
    </Node>
  </Node>
  <Node pos="r" depth="1" NCoef="0" IVar="3" Cut="1.0473271179199219E+02" cType="1" res="-3.6699450205418635E-04" rms="0.0" purity="0.242152777176" nType="0">
    <Node pos="l" depth="2" NCoef="0" IVar="1" Cut="1.4263459444046021E+00" cType="1" res="-3.6855767794696167E-05" rms="0.0" purity="0.245255625846" nType="0">
      <Node pos="l" depth="3" NCoef="0" IVar="-1" Cut="0.0000000000000000E+00" cType="1" res="-5.6938320301858584E-03" rms="0.0e-00" purity="0.208705198963" nType="-99">
      </Node>
      <Node pos="r" depth="3" NCoef="0" IVar="-1" Cut="0.0000000000000000E+00" cType="1" res="4.5097560015327307E-03" rms="0.0e-00" purity="0.22320553872" nType="-99">
      </Node>
    </Node>
    <Node pos="r" depth="2" NCoef="0" IVar="6" Cut="4.5000000000000000E+00" cType="1" res="-6.6538851313872459E-04" rms="0.0" purity="0.236014055655" nType="0">
      <Node pos="l" depth="3" NCoef="0" IVar="-1" Cut="0.0000000000000000E+00" cType="1" res="-1.1305342362624101E-03" rms="0.0e-00" purity="0.24319745567" nType="-99">
      </Node>
      <Node pos="r" depth="3" NCoef="0" IVar="-1" Cut="0.0000000000000000E+00" cType="1" res="-4.5171133124485112E-03" rms="0.0e-00" purity="0.220362982389" nType="-99">
      </Node>
    </Node>
  </Node>
</Node>
</BinaryTree>
<BinaryTree type="DecisionTree" boostWeight="1.0" itree="9">
<Node pos="s" depth="0" NCoef="0" IVar="1" Cut="1.2187893390655518E+00" cType="1" res="-4.8494955284798727E-11" rms="0.0" purity="0.244351898962" nType="0">
  <Node pos="l" depth="1" NCoef="0" IVar="2" Cut="8.1506332397460938E+01" cType="1" res="-1.3950103683224651E-03" rms="0.0" purity="0.208157173188" nType="0">
    <Node pos="l" depth="2" NCoef="0" IVar="4" Cut="3.1886003017425537E+00" cType="1" res="-1.8071812671583334E-03" rms="0.0" purity="0.184157992581" nType="0">
      <Node pos="l" depth="3" NCoef="0" IVar="-1" Cut="0.0000000000000000E+00" cType="1" res="-5.9461879811289944E-03" rms="0.0e-00" purity="0.204898673757" nType="-99">
      </Node>
      <Node pos="r" depth="3" NCoef="0" IVar="-1" Cut="0.0000000000000000E+00" cType="1" res="-8.2402328937939955E-03" rms="0.0e-00" purity="0.165447421009" nType="-99">
      </Node>
    </Node>
    <Node pos="r" depth="2" NCoef="0" IVar="5" Cut="1.6965929269790649E+00" cType="1" res="1.5948931578880516E-03" rms="0.0" purity="0.201414829561" nType="0">
      <Node pos="l" depth="3" NCoef="0" IVar="-1" Cut="0.0000000000000000E+00" cType="1" res="1.0147946939151843E-02" rms="0.0e-00" purity="0.129559698489" nType="-99">
      </Node>
      <Node pos="r" depth="3" NCoef="0" IVar="-1" Cut="0.0000000000000000E+00" cType="1" res="5.5279890958476463E-03" rms="0.0e-00" purity="0.213314313255" nType="-99">
      </Node>
    </Node>
  </Node>
  <Node pos="r" depth="1" NCoef="0" IVar="6" Cut="4.5000000000000000E+00" cType="1" res="9.3646842632641686E-04" rms="0.0" purity="0.229834142978" nType="0">
    <Node pos="l" depth="2" NCoef="0" IVar="2" Cut="6.9606719970703125E+01" cType="1" res="1.1393898312407511E-03" rms="0.0" purity="0.221488043302" nType="0">
      <Node pos="l" depth="3" NCoef="0" IVar="-1" Cut="0.0000000000000000E+00" cType="1" res="5.9895803009468306E-04" rms="0.0e-00" purity="0.248628672854" nType="-99">
      </Node>
      <Node pos="r" depth="3" NCoef="0" IVar="-1" Cut="0.0000000000000000E+00" cType="1" res="6.7245007676522269E-03" rms="0.0e-00" purity="0.191996484962" nType="-99">
      </Node>
    </Node>
    <Node pos="r" depth="2" NCoef="0" IVar="5" Cut="2.5102324485778809E+00" cType="1" res="5.8368916903983928E-04" rms="0.0" purity="0.240858703872" nType="0">
      <Node pos="l" depth="3" NCoef="0" IVar="-1" Cut="0.0000000000000000E+00" cType="1" res="2.8597936244895181E-03" rms="0.0e-00" purity="0.237698529371" nType="-99">
      </Node>
      <Node pos="r" depth="3" NCoef="0" IVar="-1" Cut="0.0000000000000000E+00" cType="1" res="9.9877734477778760E-05" rms="0.0e-00" purity="0.247488465753" nType="-99">
      </Node>
    </Node>
  </Node>
</Node>
</BinaryTree>
<BinaryTree type="DecisionTree" boostWeight="1.0" itree="10">
<Node pos="s" depth="0" NCoef="0" IVar="0" Cut="5.8688897705078125E+02" cType="1" res="-3.4168901315477061E-10" rms="0.0" purity="0.24360866985" nType="0">
  <Node pos="l" depth="1" NCoef="0" IVar="4" Cut="3.3604414463043213E+00" cType="1" res="3.0289209114149347E-04" rms="0.0" purity="0.241900569286" nType="0">
    <Node pos="l" depth="2" NCoef="0" IVar="2" Cut="6.9756958007812500E+01" cType="1" res="5.0216170206313201E-04" rms="0.0" purity="0.238655597784" nType="0">
      <Node pos="l" depth="3" NCoef="0" IVar="-1" Cut="0.0000000000000000E+00" cType="1" res="-2.6596871510489793E-03" rms="0.0e-00" purity="0.237980275997" nType="-99">
      </Node>
      <Node pos="r" depth="3" NCoef="0" IVar="-1" Cut="0.0000000000000000E+00" cType="1" res="6.7529807857277394E-03" rms="0.0e-00" purity="0.189876219849" nType="-99">
      </Node>
    </Node>
    <Node pos="r" depth="2" NCoef="0" IVar="3" Cut="4.6482009887695312E+01" cType="1" res="-7.4566304056603440E-05" rms="0.0" purity="0.244177166057" nType="0">
      <Node pos="l" depth="3" NCoef="0" IVar="-1" Cut="0.0000000000000000E+00" cType="1" res="4.3049986128425371E-03" rms="0.0e-00" purity="0.22426129247" nType="-99">
      </Node>
      <Node pos="r" depth="3" NCoef="0" IVar="-1" Cut="0.0000000000000000E+00" cType="1" res="-1.8879941909403586E-03" rms="0.0e-00" purity="0.240132647314" nType="-99">
      </Node>
    </Node>
  </Node>
  <Node pos="r" depth="1" NCoef="0" IVar="2" Cut="7.7593109130859375E+01" cType="1" res="-3.9020706043643174E-04" rms="0.0" purity="0.241001127065" nType="0">
    <Node pos="l" depth="2" NCoef="0" IVar="3" Cut="1.1330410003662109E+02" cType="1" res="-1.2812734356271124E-03" rms="0.0" purity="0.213613029722" nType="0">
      <Node pos="l" depth="3" NCoef="0" IVar="-1" Cut="0.0000000000000000E+00" cType="1" res="-2.9928672064414748E-03" rms="0.0e-00" purity="0.235423723822" nType="-99">
      </Node>
      <Node pos="r" depth="3" NCoef="0" IVar="-1" Cut="0.0000000000000000E+00" cType="1" res="-7.2083877991321686E-03" rms="0.0e-00" purity="0.18272861163" nType="-99">
      </Node>
    </Node>
    <Node pos="r" depth="2" NCoef="0" IVar="1" Cut="2.8425114154815674E+00" cType="1" res="1.2295182817056284E-03" rms="0.0" purity="0.218486974643" nType="0">
      <Node pos="l" depth="3" NCoef="0" IVar="-1" Cut="0.0000000000000000E+00" cType="1" res="5.4086722483672129E-03" rms="0.0e-00" purity="0.212677792895" nType="-99">
      </Node>
      <Node pos="r" depth="3" NCoef="0" IVar="-1" Cut="0.0000000000000000E+00" cType="1" res="1.6099970086226256E-03" rms="0.0e-00" purity="0.243940049367" nType="-99">
      </Node>
    </Node>
  </Node>
</Node>
</BinaryTree>
<BinaryTree type="DecisionTree" boostWeight="1.0" itree="11">
<Node pos="s" depth="0" NCoef="0" IVar="1" Cut="1.2187893390655518E+00" cType="1" res="-1.8600745115512366E-10" rms="0.0" purity="0.243084399613" nType="0">
  <Node pos="l" depth="1" NCoef="0" IVar="3" Cut="1.7860418701171875E+02" cType="1" res="-1.3741237785704187E-03" rms="0.0" purity="0.207350570692" nType="0">
    <Node pos="l" depth="2" NCoef="0" IVar="4" Cut="3.1881365776062012E+00" cType="1" res="-1.5828649704906100E-03" rms="0.0" purity="0.196220012351" nType="0">
      <Node pos="l" depth="3" NCoef="0" IVar="-1" Cut="0.0000000000000000E+00" cType="1" res="-4.9839437400034268E-03" rms="0.0e-00" purity="0.215547377961" nType="-99">
      </Node>
      <Node pos="r" depth="3" NCoef="0" IVar="-1" Cut="0.0000000000000000E+00" cType="1" res="-7.4003866438537144E-03" rms="0.0e-00" purity="0.178294509206" nType="-99">
      </Node>
    </Node>
    <Node pos="r" depth="2" NCoef="0" IVar="6" Cut="4.5000000000000000E+00" cType="1" res="-8.8708444680852888E-04" rms="0.0" purity="0.227296223444" nType="0">
      <Node pos="l" depth="3" NCoef="0" IVar="-1" Cut="0.0000000000000000E+00" cType="1" res="-1.7129550610272882E-03" rms="0.0e-00" purity="0.23959275321" nType="-99">
      </Node>
      <Node pos="r" depth="3" NCoef="0" IVar="-1" Cut="0.0000000000000000E+00" cType="1" res="-5.4416545427799796E-03" rms="0.0e-00" purity="0.206870331818" nType="-99">
      </Node>
    </Node>
  </Node>
  <Node pos="r" depth="1" NCoef="0" IVar="6" Cut="4.5000000000000000E+00" cType="1" res="9.2244705804050910E-04" rms="0.0" purity="0.229410861139" nType="0">
    <Node pos="l" depth="2" NCoef="0" IVar="1" Cut="1.6297426223754883E+00" cType="1" res="1.1222322703710002E-03" rms="0.0" purity="0.221044142009" nType="0">
      <Node pos="l" depth="3" NCoef="0" IVar="-1" Cut="0.0000000000000000E+00" cType="1" res="1.7989838100959084E-03" rms="0.0e-00" purity="0.242425381332" nType="-99">
      </Node>
      <Node pos="r" depth="3" NCoef="0" IVar="-1" Cut="0.0000000000000000E+00" cType="1" res="5.5709850244076674E-03" rms="0.0e-00" purity="0.208005918835" nType="-99">
      </Node>
    </Node>
    <Node pos="r" depth="2" NCoef="0" IVar="5" Cut="2.5102324485778809E+00" cType="1" res="5.7512007766341274E-04" rms="0.0" purity="0.240578163946" nType="0">
      <Node pos="l" depth="3" NCoef="0" IVar="-1" Cut="0.0000000000000000E+00" cType="1" res="2.8193233504807771E-03" rms="0.0e-00" purity="0.237441997866" nType="-99">
      </Node>
      <Node pos="r" depth="3" NCoef="0" IVar="-1" Cut="0.0000000000000000E+00" cType="1" res="9.3471544320040823E-05" rms="0.0e-00" purity="0.247275291698" nType="-99">
      </Node>
    </Node>
  </Node>
</Node>
</BinaryTree>
<BinaryTree type="DecisionTree" boostWeight="1.0" itree="12">
<Node pos="s" depth="0" NCoef="0" IVar="1" Cut="1.2187893390655518E+00" cType="1" res="-5.0057070562761191E-10" rms="0.0" purity="0.242559187276" nType="0">
  <Node pos="l" depth="1" NCoef="0" IVar="2" Cut="8.1506332397460938E+01" cType="1" res="-1.3603845212532789E-03" rms="0.0" purity="0.20726976657" nType="0">
    <Node pos="l" depth="2" NCoef="0" IVar="1" Cut="8.2771533727645874E-01" cType="1" res="-1.7651893703892836E-03" rms="0.0" purity="0.184056953415" nType="0">
      <Node pos="l" depth="3" NCoef="0" IVar="-1" Cut="0.0000000000000000E+00" cType="1" res="-8.8364901083513182E-03" rms="0.0e-00" purity="0.150298884725" nType="-99">
      </Node>
      <Node pos="r" depth="3" NCoef="0" IVar="-1" Cut="0.0000000000000000E+00" cType="1" res="-5.3974042037497946E-03" rms="0.0e-00" purity="0.209767581268" nType="-99">
      </Node>
    </Node>
    <Node pos="r" depth="2" NCoef="0" IVar="5" Cut="1.6965929269790649E+00" cType="1" res="1.5760853976024909E-03" rms="0.0" purity="0.201228798326" nType="0">
      <Node pos="l" depth="3" NCoef="0" IVar="-1" Cut="0.0000000000000000E+00" cType="1" res="1.0023199417175773E-02" rms="0.0e-00" purity="0.129534805939" nType="-99">
      </Node>
      <Node pos="r" depth="3" NCoef="0" IVar="-1" Cut="0.0000000000000000E+00" cType="1" res="5.4655190785931514E-03" rms="0.0e-00" purity="0.213214640139" nType="-99">
      </Node>
    </Node>
  </Node>
  <Node pos="r" depth="1" NCoef="0" IVar="1" Cut="1.6299452781677246E+00" cType="1" res="9.1322338810804582E-04" rms="0.0" purity="0.229336693882" nType="0">
    <Node pos="l" depth="2" NCoef="0" IVar="1" Cut="1.4142130613327026E+00" cType="1" res="2.4173162309089623E-04" rms="0.0" purity="0.245444303268" nType="0">
      <Node pos="l" depth="3" NCoef="0" IVar="-1" Cut="0.0000000000000000E+00" cType="1" res="-1.8679547000144604E-04" rms="0.0e-00" purity="0.246498845032" nType="-99">
      </Node>
      <Node pos="r" depth="3" NCoef="0" IVar="-1" Cut="0.0000000000000000E+00" cType="1" res="2.1620125360939865E-03" rms="0.0e-00" purity="0.241238574969" nType="-99">
      </Node>
    </Node>
    <Node pos="r" depth="2" NCoef="0" IVar="2" Cut="1.3097470092773438E+02" cType="1" res="1.2007772834185017E-03" rms="0.0" purity="0.217536201054" nType="0">
      <Node pos="l" depth="3" NCoef="0" IVar="-1" Cut="0.0000000000000000E+00" cType="1" res="5.5248096197734811E-03" rms="0.0e-00" purity="0.208577312537" nType="-99">
      </Node>
      <Node pos="r" depth="3" NCoef="0" IVar="-1" Cut="0.0000000000000000E+00" cType="1" res="-3.4358589227588355E-03" rms="0.0e-00" purity="0.238839016903" nType="-99">
      </Node>
    </Node>
  </Node>
</Node>
</BinaryTree>
<BinaryTree type="DecisionTree" boostWeight="1.0" itree="13">
<Node pos="s" depth="0" NCoef="0" IVar="2" Cut="7.2451004028320312E+01" cType="1" res="-1.1196838218664924E-09" rms="0.0" purity="0.24182392174" nType="0">
  <Node pos="l" depth="1" NCoef="0" IVar="6" Cut="4.5000000000000000E+00" cType="1" res="-1.0337917425739807E-03" rms="0.0" purity="0.223136064775" nType="0">
    <Node pos="l" depth="2" NCoef="0" IVar="3" Cut="6.7688644409179688E+01" cType="1" res="-7.1130498921897155E-04" rms="0.0" purity="0.23530788469" nType="0">
      <Node pos="l" depth="3" NCoef="0" IVar="-1" Cut="0.0000000000000000E+00" cType="1" res="8.2594373404966479E-04" rms="0.0e-00" purity="0.246965729429" nType="-99">
      </Node>
      <Node pos="r" depth="3" NCoef="0" IVar="-1" Cut="0.0000000000000000E+00" cType="1" res="-5.0688394176536490E-03" rms="0.0e-00" purity="0.213771490353" nType="-99">
      </Node>
    </Node>
    <Node pos="r" depth="2" NCoef="0" IVar="2" Cut="5.1947292327880859E+01" cType="1" res="-1.4588421186579490E-03" rms="0.0" purity="0.201444393893" nType="0">
      <Node pos="l" depth="3" NCoef="0" IVar="-1" Cut="0.0000000000000000E+00" cType="1" res="-8.4618269493887937E-03" rms="0.0e-00" purity="0.156089049883" nType="-99">
      </Node>
      <Node pos="r" depth="3" NCoef="0" IVar="-1" Cut="0.0000000000000000E+00" cType="1" res="-3.8290340438484902E-03" rms="0.0e-00" purity="0.226135559708" nType="-99">
      </Node>
    </Node>
  </Node>
  <Node pos="r" depth="1" NCoef="0" IVar="0" Cut="5.7872216796875000E+02" cType="1" res="1.3231968212302928E-03" rms="0.0" purity="0.210298736332" nType="0">
    <Node pos="l" depth="2" NCoef="0" IVar="1" Cut="1.2240912914276123E+00" cType="1" res="1.6072832243281079E-03" rms="0.0" purity="0.193015700828" nType="0">
      <Node pos="l" depth="3" NCoef="0" IVar="-1" Cut="0.0000000000000000E+00" cType="1" res="1.5590574917241886E-04" rms="0.0e-00" purity="0.246250695129" nType="-99">
      </Node>
      <Node pos="r" depth="3" NCoef="0" IVar="-1" Cut="0.0000000000000000E+00" cType="1" res="7.0405332598342096E-03" rms="0.0e-00" purity="0.183405137547" nType="-99">
      </Node>
    </Node>
    <Node pos="r" depth="2" NCoef="0" IVar="1" Cut="9.2933166027069092E-01" cType="1" res="9.6637786043804138E-04" rms="0.0" purity="0.227941070655" nType="0">
      <Node pos="l" depth="3" NCoef="0" IVar="-1" Cut="0.0000000000000000E+00" cType="1" res="7.5789918062691233E-04" rms="0.0e-00" purity="0.245584422276" nType="-99">
      </Node>
      <Node pos="r" depth="3" NCoef="0" IVar="-1" Cut="0.0000000000000000E+00" cType="1" res="4.6385728017163917E-03" rms="0.0e-00" purity="0.220269312761" nType="-99">
      </Node>
    </Node>
  </Node>
</Node>
</BinaryTree>
<BinaryTree type="DecisionTree" boostWeight="1.0" itree="14">
<Node pos="s" depth="0" NCoef="0" IVar="2" Cut="7.2448677062988281E+01" cType="1" res="-1.0877583913910988E-09" rms="0.0" purity="0.241181453802" nType="0">
  <Node pos="l" depth="1" NCoef="0" IVar="2" Cut="5.2217365264892578E+01" cType="1" res="-1.0236417979320829E-03" rms="0.0" purity="0.222927937495" nType="0">
    <Node pos="l" depth="2" NCoef="0" IVar="2" Cut="4.4136718750000000E+01" cType="1" res="-1.7160170993471158E-03" rms="0.0" purity="0.185555483363" nType="0">
      <Node pos="l" depth="3" NCoef="0" IVar="-1" Cut="0.0000000000000000E+00" cType="1" res="-7.6506273367535644E-03" rms="0.0e-00" purity="0.171548517807" nType="-99">
      </Node>
      <Node pos="r" depth="3" NCoef="0" IVar="-1" Cut="0.0000000000000000E+00" cType="1" res="-5.7965737144412104E-03" rms="0.0e-00" purity="0.203026361496" nType="-99">
      </Node>
    </Node>
    <Node pos="r" depth="2" NCoef="0" IVar="3" Cut="1.0471504974365234E+02" cType="1" res="-5.1397091238901090E-04" rms="0.0" purity="0.239547006674" nType="0">
      <Node pos="l" depth="3" NCoef="0" IVar="-1" Cut="0.0000000000000000E+00" cType="1" res="8.2696744754738485E-04" rms="0.0e-00" purity="0.247384856312" nType="-99">
      </Node>
      <Node pos="r" depth="3" NCoef="0" IVar="-1" Cut="0.0000000000000000E+00" cType="1" res="-6.4525538041893225E-03" rms="0.0e-00" purity="0.192279966223" nType="-99">
      </Node>
    </Node>
  </Node>
  <Node pos="r" depth="1" NCoef="0" IVar="1" Cut="1.0401480197906494E+00" cType="1" res="1.3097306367094743E-03" rms="0.0" purity="0.210206009831" nType="0">
    <Node pos="l" depth="2" NCoef="0" IVar="2" Cut="8.8563407897949219E+01" cType="1" res="2.2687437134813411E-04" rms="0.0" purity="0.24515137831" nType="0">
      <Node pos="l" depth="3" NCoef="0" IVar="-1" Cut="0.0000000000000000E+00" cType="1" res="-2.8051382469668766E-03" rms="0.0e-00" purity="0.238742796136" nType="-99">
      </Node>
      <Node pos="r" depth="3" NCoef="0" IVar="-1" Cut="0.0000000000000000E+00" cType="1" res="8.9453630027987469E-03" rms="0.0e-00" purity="0.154191943955" nType="-99">
      </Node>
    </Node>
    <Node pos="r" depth="2" NCoef="0" IVar="2" Cut="1.2519535827636719E+02" cType="1" res="1.4782231570785959E-03" rms="0.0" purity="0.201020189324" nType="0">
      <Node pos="l" depth="3" NCoef="0" IVar="-1" Cut="0.0000000000000000E+00" cType="1" res="6.9774302295048975E-03" rms="0.0e-00" purity="0.184616705196" nType="-99">
      </Node>
      <Node pos="r" depth="3" NCoef="0" IVar="-1" Cut="0.0000000000000000E+00" cType="1" res="-2.7201798218676135E-03" rms="0.0e-00" purity="0.24306173544" nType="-99">
      </Node>
    </Node>
  </Node>
</Node>
</BinaryTree>
<BinaryTree type="DecisionTree" boostWeight="1.0" itree="15">
<Node pos="s" depth="0" NCoef="0" IVar="3" Cut="5.7552696228027344E+01" cType="1" res="-1.1028288877859090E-09" rms="0.0" purity="0.240399549162" nType="0">
  <Node pos="l" depth="1" NCoef="0" IVar="4" Cut="3.2959947586059570E+00" cType="1" res="9.1455584629954482E-04" rms="0.0" purity="0.226931198369" nType="0">
    <Node pos="l" depth="2" NCoef="0" IVar="3" Cut="4.5825710296630859E+01" cType="1" res="1.1845196098457873E-03" rms="0.0" purity="0.215327709423" nType="0">
      <Node pos="l" depth="3" NCoef="0" IVar="-1" Cut="0.0000000000000000E+00" cType="1" res="5.5934585116579113E-03" rms="0.0e-00" purity="0.205002057467" nType="-99">
      </Node>
      <Node pos="r" depth="3" NCoef="0" IVar="-1" Cut="0.0000000000000000E+00" cType="1" res="3.0822970499885102E-03" rms="0.0e-00" purity="0.231071683689" nType="-99">
      </Node>
    </Node>
    <Node pos="r" depth="2" NCoef="0" IVar="2" Cut="6.4833503723144531E+01" cType="1" res="5.7999966268895936E-04" rms="0.0" purity="0.237715493908" nType="0">
      <Node pos="l" depth="3" NCoef="0" IVar="-1" Cut="0.0000000000000000E+00" cType="1" res="-1.7657974183522428E-03" rms="0.0e-00" purity="0.243808667495" nType="-99">
      </Node>
      <Node pos="r" depth="3" NCoef="0" IVar="-1" Cut="0.0000000000000000E+00" cType="1" res="4.7240258643146240E-03" rms="0.0e-00" purity="0.216902898277" nType="-99">
      </Node>
    </Node>
  </Node>
  <Node pos="r" depth="1" NCoef="0" IVar="1" Cut="1.1102737188339233E+00" cType="1" res="-3.4602617450870359E-04" rms="0.0" purity="0.237740793824" nType="0">
    <Node pos="l" depth="2" NCoef="0" IVar="2" Cut="8.1528625488281250E+01" cType="1" res="-1.4868305382011518E-03" rms="0.0" purity="0.197007714771" nType="0">
      <Node pos="l" depth="3" NCoef="0" IVar="-1" Cut="0.0000000000000000E+00" cType="1" res="-7.4463038818541136E-03" rms="0.0e-00" purity="0.174142772891" nType="-99">
      </Node>
      <Node pos="r" depth="3" NCoef="0" IVar="-1" Cut="0.0000000000000000E+00" cType="1" res="5.8314667769194667E-03" rms="0.0e-00" purity="0.205969233014" nType="-99">
      </Node>
    </Node>
    <Node pos="r" depth="2" NCoef="0" IVar="1" Cut="1.4178601503372192E+00" cType="1" res="6.5881777406905583E-04" rms="0.0" purity="0.235289697067" nType="0">
      <Node pos="l" depth="3" NCoef="0" IVar="-1" Cut="0.0000000000000000E+00" cType="1" res="-3.1932687716263049E-04" rms="0.0e-00" purity="0.244492057288" nType="-99">
      </Node>
      <Node pos="r" depth="3" NCoef="0" IVar="-1" Cut="0.0000000000000000E+00" cType="1" res="4.3117405010273885E-03" rms="0.0e-00" purity="0.221513180826" nType="-99">
      </Node>
    </Node>
  </Node>
</Node>
</BinaryTree>
<BinaryTree type="DecisionTree" boostWeight="1.0" itree="16">
<Node pos="s" depth="0" NCoef="0" IVar="6" Cut="4.5000000000000000E+00" cType="1" res="-1.9417336564217811E-09" rms="0.0" purity="0.2397811778" nType="0">
  <Node pos="l" depth="1" NCoef="0" IVar="5" Cut="2.5186619758605957E+00" cType="1" res="3.2144446395770889E-04" rms="0.0" purity="0.23832154795" nType="0">
    <Node pos="l" depth="2" NCoef="0" IVar="3" Cut="7.4425872802734375E+01" cType="1" res="4.3560579212695858E-04" rms="0.0" purity="0.236451779735" nType="0">
      <Node pos="l" depth="3" NCoef="0" IVar="-1" Cut="0.0000000000000000E+00" cType="1" res="4.0536961322049144E-03" rms="0.0e-00" purity="0.221875284081" nType="-99">
      </Node>
      <Node pos="r" depth="3" NCoef="0" IVar="-1" Cut="0.0000000000000000E+00" cType="1" res="-5.9633730747944065E-05" rms="0.0e-00" purity="0.239647480702" nType="-99">
      </Node>
    </Node>
    <Node pos="r" depth="2" NCoef="0" IVar="2" Cut="6.6585708618164062E+01" cType="1" res="-1.3367918097289031E-04" rms="0.0" purity="0.241169564227" nType="0">
      <Node pos="l" depth="3" NCoef="0" IVar="-1" Cut="0.0000000000000000E+00" cType="1" res="-5.2836112282229532E-03" rms="0.0e-00" purity="0.209912989098" nType="-99">
      </Node>
      <Node pos="r" depth="3" NCoef="0" IVar="-1" Cut="0.0000000000000000E+00" cType="1" res="3.2762498901414963E-03" rms="0.0e-00" purity="0.230155066729" nType="-99">
      </Node>
    </Node>
  </Node>
  <Node pos="r" depth="1" NCoef="0" IVar="0" Cut="5.7556811523437500E+02" cType="1" res="-4.7324807624508718E-04" rms="0.0" purity="0.23524414407" nType="0">
    <Node pos="l" depth="2" NCoef="0" IVar="2" Cut="7.2451210021972656E+01" cType="1" res="-4.1983573128421655E-05" rms="0.0" purity="0.240252787031" nType="0">
      <Node pos="l" depth="3" NCoef="0" IVar="-1" Cut="0.0000000000000000E+00" cType="1" res="-4.2010626139690173E-03" rms="0.0e-00" purity="0.221304609265" nType="-99">
      </Node>
      <Node pos="r" depth="3" NCoef="0" IVar="-1" Cut="0.0000000000000000E+00" cType="1" res="5.8539964986975643E-03" rms="0.0e-00" purity="0.201523486141" nType="-99">
      </Node>
    </Node>
    <Node pos="r" depth="2" NCoef="0" IVar="1" Cut="1.1107378005981445E+00" cType="1" res="-6.6692315098376687E-04" rms="0.0" purity="0.230843092801" nType="0">
      <Node pos="l" depth="3" NCoef="0" IVar="-1" Cut="0.0000000000000000E+00" cType="1" res="-6.9010123576270215E-03" rms="0.0e-00" purity="0.179461526308" nType="-99">
      </Node>
      <Node pos="r" depth="3" NCoef="0" IVar="-1" Cut="0.0000000000000000E+00" cType="1" res="1.3000360351011796E-03" rms="0.0e-00" purity="0.243285333118" nType="-99">
      </Node>
    </Node>
  </Node>
</Node>
</BinaryTree>
<BinaryTree type="DecisionTree" boostWeight="1.0" itree="17">
<Node pos="s" depth="0" NCoef="0" IVar="4" Cut="3.3622503280639648E+00" cType="1" res="-2.3245200805594021E-09" rms="0.0" purity="0.23944364129" nType="0">
  <Node pos="l" depth="1" NCoef="0" IVar="2" Cut="7.2492179870605469E+01" cType="1" res="2.8859518706144890E-04" rms="0.0" purity="0.237887006572" nType="0">
    <Node pos="l" depth="2" NCoef="0" IVar="0" Cut="5.5345812988281250E+02" cType="1" res="-7.3392407806123321E-04" rms="0.0" purity="0.232159632201" nType="0">
      <Node pos="l" depth="3" NCoef="0" IVar="-1" Cut="0.0000000000000000E+00" cType="1" res="-1.9684640186999796E-03" rms="0.0e-00" purity="0.239097114441" nType="-99">
      </Node>
      <Node pos="r" depth="3" NCoef="0" IVar="-1" Cut="0.0000000000000000E+00" cType="1" res="-4.3001527645435489E-03" rms="0.0e-00" purity="0.2190023307" nType="-99">
      </Node>
    </Node>
    <Node pos="r" depth="2" NCoef="0" IVar="2" Cut="1.3447463989257812E+02" cType="1" res="1.5266807628232524E-03" rms="0.0" purity="0.195064979354" nType="0">
      <Node pos="l" depth="3" NCoef="0" IVar="-1" Cut="0.0000000000000000E+00" cType="1" res="6.8003344148378922E-03" rms="0.0e-00" purity="0.18425434227" nType="-99">
      </Node>
      <Node pos="r" depth="3" NCoef="0" IVar="-1" Cut="0.0000000000000000E+00" cType="1" res="-3.0873259013891618E-03" rms="0.0e-00" purity="0.242233790432" nType="-99">
      </Node>
    </Node>
  </Node>
  <Node pos="r" depth="1" NCoef="0" IVar="2" Cut="7.1230255126953125E+01" cType="1" res="-3.9490311419791409E-04" rms="0.0" purity="0.236775182246" nType="0">
    <Node pos="l" depth="2" NCoef="0" IVar="6" Cut="4.5000000000000000E+00" cType="1" res="-1.3924468584411193E-03" rms="0.0" purity="0.202715133323" nType="0">
      <Node pos="l" depth="3" NCoef="0" IVar="-1" Cut="0.0000000000000000E+00" cType="1" res="-4.0779661464488493E-03" rms="0.0e-00" purity="0.223100148514" nType="-99">
      </Node>
      <Node pos="r" depth="3" NCoef="0" IVar="-1" Cut="0.0000000000000000E+00" cType="1" res="-6.5095347028936244E-03" rms="0.0e-00" purity="0.187785440216" nType="-99">
      </Node>
    </Node>
    <Node pos="r" depth="2" NCoef="0" IVar="2" Cut="1.3119023132324219E+02" cType="1" res="8.8908673933201106E-04" rms="0.0" purity="0.22853622743" nType="0">
      <Node pos="l" depth="3" NCoef="0" IVar="-1" Cut="0.0000000000000000E+00" cType="1" res="4.3321265874464434E-03" rms="0.0e-00" purity="0.220876423442" nType="-99">
      </Node>
      <Node pos="r" depth="3" NCoef="0" IVar="-1" Cut="0.0000000000000000E+00" cType="1" res="-4.5634666938117185E-03" rms="0.0e-00" purity="0.229375652566" nType="-99">
      </Node>
    </Node>
  </Node>
</Node>
</BinaryTree>
<BinaryTree type="DecisionTree" boostWeight="1.0" itree="18">
<Node pos="s" depth="0" NCoef="0" IVar="4" Cut="3.3622503280639648E+00" cType="1" res="-1.9444437141243214E-09" rms="0.0" purity="0.238876360752" nType="0">
  <Node pos="l" depth="1" NCoef="0" IVar="1" Cut="1.2407592535018921E+00" cType="1" res="2.8571057644917480E-04" rms="0.0" purity="0.237362074235" nType="0">
    <Node pos="l" depth="2" NCoef="0" IVar="3" Cut="1.5855180358886719E+02" cType="1" res="-1.0196854974332404E-03" rms="0.0" purity="0.219322564441" nType="0">
      <Node pos="l" depth="3" NCoef="0" IVar="-1" Cut="0.0000000000000000E+00" cType="1" res="-5.1140686679830806E-03" rms="0.0e-00" purity="0.209375388528" nType="-99">
      </Node>
      <Node pos="r" depth="3" NCoef="0" IVar="-1" Cut="0.0000000000000000E+00" cType="1" res="-2.4670826358488777E-03" rms="0.0e-00" purity="0.230377193718" nType="-99">
      </Node>
    </Node>
    <Node pos="r" depth="2" NCoef="0" IVar="2" Cut="7.1804458618164062E+01" cType="1" res="1.1463741232723094E-03" rms="0.0" purity="0.216113546432" nType="0">
      <Node pos="l" depth="3" NCoef="0" IVar="-1" Cut="0.0000000000000000E+00" cType="1" res="1.2897099014268847E-03" rms="0.0e-00" purity="0.246449215002" nType="-99">
      </Node>
      <Node pos="r" depth="3" NCoef="0" IVar="-1" Cut="0.0000000000000000E+00" cType="1" res="6.6917297737560822E-03" rms="0.0e-00" purity="0.184564178352" nType="-99">
      </Node>
    </Node>
  </Node>
  <Node pos="r" depth="1" NCoef="0" IVar="6" Cut="5.5000000000000000E+00" cType="1" res="-3.9095507326021160E-04" rms="0.0" purity="0.236245411958" nType="0">
    <Node pos="l" depth="2" NCoef="0" IVar="0" Cut="5.4656658935546875E+02" cType="1" res="-1.6869233614230506E-04" rms="0.0" purity="0.239521402403" nType="0">
      <Node pos="l" depth="3" NCoef="0" IVar="-1" Cut="0.0000000000000000E+00" cType="1" res="8.5380400169856801E-06" rms="0.0e-00" purity="0.240372013885" nType="-99">
      </Node>
      <Node pos="r" depth="3" NCoef="0" IVar="-1" Cut="0.0000000000000000E+00" cType="1" res="-1.3953361041640063E-03" rms="0.0e-00" purity="0.237513462499" nType="-99">
      </Node>
    </Node>
    <Node pos="r" depth="2" NCoef="0" IVar="6" Cut="9.5000000000000000E+00" cType="1" res="-8.4844139228005123E-04" rms="0.0" purity="0.22397393735" nType="0">
      <Node pos="l" depth="3" NCoef="0" IVar="-1" Cut="0.0000000000000000E+00" cType="1" res="-3.3116220217618364E-03" rms="0.0e-00" purity="0.224753400184" nType="-99">
      </Node>
      <Node pos="r" depth="3" NCoef="0" IVar="-1" Cut="0.0000000000000000E+00" cType="1" res="-9.0074959894717588E-03" rms="0.0e-00" purity="0.141817401636" nType="-99">
      </Node>
    </Node>
  </Node>
</Node>
</BinaryTree>
<BinaryTree type="DecisionTree" boostWeight="1.0" itree="19">
<Node pos="s" depth="0" NCoef="0" IVar="2" Cut="6.9595687866210938E+01" cType="1" res="-1.3395211858374341E-09" rms="0.0" purity="0.238526676375" nType="0">
  <Node pos="l" depth="1" NCoef="0" IVar="1" Cut="1.3722500801086426E+00" cType="1" res="-1.0818296839888596E-03" rms="0.0" purity="0.217855339247" nType="0">
    <Node pos="l" depth="2" NCoef="0" IVar="1" Cut="9.4036966562271118E-01" cType="1" res="-1.6974895241974159E-03" rms="0.0" purity="0.182514194262" nType="0">
      <Node pos="l" depth="3" NCoef="0" IVar="-1" Cut="0.0000000000000000E+00" cType="1" res="-8.3420322578294671E-03" rms="0.0e-00" purity="0.15239127551" nType="-99">
      </Node>
      <Node pos="r" depth="3" NCoef="0" IVar="-1" Cut="0.0000000000000000E+00" cType="1" res="-4.7381385574890075E-03" rms="0.0e-00" purity="0.215517362758" nType="-99">
      </Node>
    </Node>
    <Node pos="r" depth="2" NCoef="0" IVar="4" Cut="3.5844717025756836E+00" cType="1" res="1.4949145365944537E-04" rms="0.0" purity="0.248107015645" nType="0">
      <Node pos="l" depth="3" NCoef="0" IVar="-1" Cut="0.0000000000000000E+00" cType="1" res="1.5028253628058461E-03" rms="0.0e-00" purity="0.246132485535" nType="-99">
      </Node>
      <Node pos="r" depth="3" NCoef="0" IVar="-1" Cut="0.0000000000000000E+00" cType="1" res="-1.5125566719192635E-03" rms="0.0e-00" purity="0.245646029968" nType="-99">
      </Node>
    </Node>
  </Node>
  <Node pos="r" depth="1" NCoef="0" IVar="1" Cut="1.0413923263549805E+00" cType="1" res="1.1584150063606994E-03" rms="0.0" purity="0.2145256878" nType="0">
    <Node pos="l" depth="2" NCoef="0" IVar="5" Cut="1.6965253353118896E+00" cType="1" res="-2.8337784953275342E-05" rms="0.0" purity="0.243261863654" nType="0">
      <Node pos="l" depth="3" NCoef="0" IVar="-1" Cut="0.0000000000000000E+00" cType="1" res="3.4542306999383442E-03" rms="0.0e-00" purity="0.229070197453" nType="-99">
      </Node>
      <Node pos="r" depth="3" NCoef="0" IVar="-1" Cut="0.0000000000000000E+00" cType="1" res="-9.2841292682794814E-04" rms="0.0e-00" purity="0.242546133494" nType="-99">
      </Node>
    </Node>
    <Node pos="r" depth="2" NCoef="0" IVar="2" Cut="1.2535018920898438E+02" cType="1" res="1.3592379136311322E-03" rms="0.0" purity="0.204709035625" nType="0">
      <Node pos="l" depth="3" NCoef="0" IVar="-1" Cut="0.0000000000000000E+00" cType="1" res="6.3651371642195762E-03" rms="0.0e-00" purity="0.191341753021" nType="-99">
      </Node>
      <Node pos="r" depth="3" NCoef="0" IVar="-1" Cut="0.0000000000000000E+00" cType="1" res="-2.7851088125611834E-03" rms="0.0e-00" purity="0.242646746671" nType="-99">
      </Node>
    </Node>
  </Node>
</Node>
</BinaryTree>
<BinaryTree type="DecisionTree" boostWeight="1.0" itree="20">
<Node pos="s" depth="0" NCoef="0" IVar="3" Cut="5.7552696228027344E+01" cType="1" res="-1.8788728567073642E-09" rms="0.0" purity="0.237800916523" nType="0">
  <Node pos="l" depth="1" NCoef="0" IVar="3" Cut="4.5850292205810547E+01" cType="1" res="8.8521049194868469E-04" rms="0.0" purity="0.225772809672" nType="0">
    <Node pos="l" depth="2" NCoef="0" IVar="5" Cut="2.5153467655181885E+00" cType="1" res="1.1355439675498720E-03" rms="0.0" purity="0.216067798721" nType="0">
      <Node pos="l" depth="3" NCoef="0" IVar="-1" Cut="0.0000000000000000E+00" cType="1" res="5.0309847771017012E-03" rms="0.0e-00" purity="0.210257004426" nType="-99">
      </Node>
      <Node pos="r" depth="3" NCoef="0" IVar="-1" Cut="0.0000000000000000E+00" cType="1" res="2.7888380830155927E-03" rms="0.0e-00" purity="0.233383898673" nType="-99">
      </Node>
    </Node>
    <Node pos="r" depth="2" NCoef="0" IVar="6" Cut="4.5000000000000000E+00" cType="1" res="4.0106844599115240E-04" rms="0.0" purity="0.23822058002" nType="0">
      <Node pos="l" depth="3" NCoef="0" IVar="-1" Cut="0.0000000000000000E+00" cType="1" res="2.6676198354167457E-03" rms="0.0e-00" purity="0.23231046496" nType="-99">
      </Node>
      <Node pos="r" depth="3" NCoef="0" IVar="-1" Cut="0.0000000000000000E+00" cType="1" res="-2.6179028823640227E-04" rms="0.0e-00" purity="0.242611554104" nType="-99">
      </Node>
    </Node>
  </Node>
  <Node pos="r" depth="1" NCoef="0" IVar="1" Cut="1.1102737188339233E+00" cType="1" res="-3.3492435074004400E-04" rms="0.0" purity="0.235086883815" nType="0">
    <Node pos="l" depth="2" NCoef="0" IVar="1" Cut="8.2771533727645874E-01" cType="1" res="-1.4370390800770949E-03" rms="0.0" purity="0.195836122536" nType="0">
      <Node pos="l" depth="3" NCoef="0" IVar="-1" Cut="0.0000000000000000E+00" cType="1" res="-7.2780752392181854E-03" rms="0.0e-00" purity="0.170873950569" nType="-99">
      </Node>
      <Node pos="r" depth="3" NCoef="0" IVar="-1" Cut="0.0000000000000000E+00" cType="1" res="-3.9468828121706325E-03" rms="0.0e-00" purity="0.219538421405" nType="-99">
      </Node>
    </Node>
    <Node pos="r" depth="2" NCoef="0" IVar="2" Cut="6.9704521179199219E+01" cType="1" res="6.3584097209608129E-04" rms="0.0" purity="0.233885893728" nType="0">
      <Node pos="l" depth="3" NCoef="0" IVar="-1" Cut="0.0000000000000000E+00" cType="1" res="-2.2269888532902237E-03" rms="0.0e-00" purity="0.240586952001" nType="-99">
      </Node>
      <Node pos="r" depth="3" NCoef="0" IVar="-1" Cut="0.0000000000000000E+00" cType="1" res="5.1354080951260261E-03" rms="0.0e-00" purity="0.209240334655" nType="-99">
      </Node>
    </Node>
  </Node>
</Node>
</BinaryTree>
<BinaryTree type="DecisionTree" boostWeight="1.0" itree="21">
<Node pos="s" depth="0" NCoef="0" IVar="4" Cut="3.2961416244506836E+00" cType="1" res="-2.2686437883374003E-09" rms="0.0" purity="0.237277929969" nType="0">
  <Node pos="l" depth="1" NCoef="0" IVar="1" Cut="1.2412178516387939E+00" cType="1" res="3.0542819673401022E-04" rms="0.0" purity="0.235402656913" nType="0">
    <Node pos="l" depth="2" NCoef="0" IVar="1" Cut="7.4267542362213135E-01" cType="1" res="-9.5434407835426555E-04" rms="0.0" purity="0.220076904852" nType="0">
      <Node pos="l" depth="3" NCoef="0" IVar="-1" Cut="0.0000000000000000E+00" cType="1" res="-6.8864249744399527E-03" rms="0.0e-00" purity="0.177927450495" nType="-99">
      </Node>
      <Node pos="r" depth="3" NCoef="0" IVar="-1" Cut="0.0000000000000000E+00" cType="1" res="-2.2454071439715205E-03" rms="0.0e-00" purity="0.233925127074" nType="-99">
      </Node>
    </Node>
    <Node pos="r" depth="2" NCoef="0" IVar="2" Cut="7.2482780456542969E+01" cType="1" res="1.1351112485342386E-03" rms="0.0" purity="0.214676860267" nType="0">
      <Node pos="l" depth="3" NCoef="0" IVar="-1" Cut="0.0000000000000000E+00" cType="1" res="1.4093883230314474E-03" rms="0.0e-00" purity="0.245630907301" nType="-99">
      </Node>
      <Node pos="r" depth="3" NCoef="0" IVar="-1" Cut="0.0000000000000000E+00" cType="1" res="6.6452135457719681E-03" rms="0.0e-00" purity="0.182313313198" nType="-99">
      </Node>
    </Node>
  </Node>
  <Node pos="r" depth="1" NCoef="0" IVar="4" Cut="3.8268303871154785E+00" cType="1" res="-3.5405822843088258E-04" rms="0.0" purity="0.23530072843" nType="0">
    <Node pos="l" depth="2" NCoef="0" IVar="3" Cut="5.0245071411132812E+01" cType="1" res="-1.6166407691670516E-04" rms="0.0" purity="0.237565244728" nType="0">
      <Node pos="l" depth="3" NCoef="0" IVar="-1" Cut="0.0000000000000000E+00" cType="1" res="3.4657015646055301E-03" rms="0.0e-00" purity="0.228046860795" nType="-99">
      </Node>
      <Node pos="r" depth="3" NCoef="0" IVar="-1" Cut="0.0000000000000000E+00" cType="1" res="-1.7616597886723653E-03" rms="0.0e-00" purity="0.233715973949" nType="-99">
      </Node>
    </Node>
    <Node pos="r" depth="2" NCoef="0" IVar="0" Cut="5.7691394042968750E+02" cType="1" res="-5.8834946586261189E-04" rms="0.0" purity="0.230765854941" nType="0">
      <Node pos="l" depth="3" NCoef="0" IVar="-1" Cut="0.0000000000000000E+00" cType="1" res="-9.0411241107104991E-04" rms="0.0e-00" purity="0.237787706274" nType="-99">
      </Node>
      <Node pos="r" depth="3" NCoef="0" IVar="-1" Cut="0.0000000000000000E+00" cType="1" res="-3.3771011154648352E-03" rms="0.0e-00" purity="0.223115029656" nType="-99">
      </Node>
    </Node>
  </Node>
</Node>
</BinaryTree>
<BinaryTree type="DecisionTree" boostWeight="1.0" itree="22">
<Node pos="s" depth="0" NCoef="0" IVar="0" Cut="5.8688897705078125E+02" cType="1" res="-1.6366830176937361E-09" rms="0.0" purity="0.23693310285" nType="0">
  <Node pos="l" depth="1" NCoef="0" IVar="5" Cut="2.5152182579040527E+00" cType="1" res="2.7139843836478561E-04" rms="0.0" purity="0.235647121512" nType="0">
    <Node pos="l" depth="2" NCoef="0" IVar="4" Cut="3.3603460788726807E+00" cType="1" res="3.7545361478316154E-04" rms="0.0" purity="0.233941119811" nType="0">
      <Node pos="l" depth="3" NCoef="0" IVar="-1" Cut="0.0000000000000000E+00" cType="1" res="1.8854333401181174E-03" rms="0.0e-00" purity="0.231954627866" nType="-99">
      </Node>
      <Node pos="r" depth="3" NCoef="0" IVar="-1" Cut="0.0000000000000000E+00" cType="1" res="1.7521036339910906E-04" rms="0.0e-00" purity="0.238446854975" nType="-99">
      </Node>
    </Node>
    <Node pos="r" depth="2" NCoef="0" IVar="1" Cut="1.4520504474639893E+00" cType="1" res="-1.4161877754532870E-04" rms="0.0" purity="0.238621987913" nType="0">
      <Node pos="l" depth="3" NCoef="0" IVar="-1" Cut="0.0000000000000000E+00" cType="1" res="-6.1823105443652012E-03" rms="0.0e-00" purity="0.192737821759" nType="-99">
      </Node>
      <Node pos="r" depth="3" NCoef="0" IVar="-1" Cut="0.0000000000000000E+00" cType="1" res="2.9081051503613191E-03" rms="0.0e-00" purity="0.232163579839" nType="-99">
      </Node>
    </Node>
  </Node>
  <Node pos="r" depth="1" NCoef="0" IVar="6" Cut="4.5000000000000000E+00" cType="1" res="-3.4963774928760156E-04" rms="0.0" purity="0.234729584222" nType="0">
    <Node pos="l" depth="2" NCoef="0" IVar="1" Cut="8.1763100624084473E-01" cType="1" res="1.3276520542617099E-04" rms="0.0" purity="0.238793142294" nType="0">
      <Node pos="l" depth="3" NCoef="0" IVar="-1" Cut="0.0000000000000000E+00" cType="1" res="-4.5208386325612899E-03" rms="0.0e-00" purity="0.212033635423" nType="-99">
      </Node>
      <Node pos="r" depth="3" NCoef="0" IVar="-1" Cut="0.0000000000000000E+00" cType="1" res="2.9395313306795363E-03" rms="0.0e-00" purity="0.231743737667" nType="-99">
      </Node>
    </Node>
    <Node pos="r" depth="2" NCoef="0" IVar="1" Cut="1.1107378005981445E+00" cType="1" res="-6.4577523317279305E-04" rms="0.0" purity="0.228136291873" nType="0">
      <Node pos="l" depth="3" NCoef="0" IVar="-1" Cut="0.0000000000000000E+00" cType="1" res="-6.5992123540927778E-03" rms="0.0e-00" purity="0.179299652508" nType="-99">
      </Node>
      <Node pos="r" depth="3" NCoef="0" IVar="-1" Cut="0.0000000000000000E+00" cType="1" res="1.2184190435653667E-03" rms="0.0e-00" purity="0.242050847152" nType="-99">
      </Node>
    </Node>
  </Node>
</Node>
</BinaryTree>
<BinaryTree type="DecisionTree" boostWeight="1.0" itree="23">
<Node pos="s" depth="0" NCoef="0" IVar="6" Cut="4.5000000000000000E+00" cType="1" res="-2.4572314209085180E-09" rms="0.0" purity="0.236681224717" nType="0">
  <Node pos="l" depth="1" NCoef="0" IVar="1" Cut="1.2896322011947632E+00" cType="1" res="3.0714825517085627E-04" rms="0.0" purity="0.235617775707" nType="0">
    <Node pos="l" depth="2" NCoef="0" IVar="1" Cut="9.4186961650848389E-01" cType="1" res="-8.8339118469076450E-04" rms="0.0" purity="0.223231723274" nType="0">
      <Node pos="l" depth="3" NCoef="0" IVar="-1" Cut="0.0000000000000000E+00" cType="1" res="-5.4171885951305307E-03" rms="0.0e-00" purity="0.201120234765" nType="-99">
      </Node>
      <Node pos="r" depth="3" NCoef="0" IVar="-1" Cut="0.0000000000000000E+00" cType="1" res="-1.2469931586616698E-03" rms="0.0e-00" purity="0.239920742755" nType="-99">
      </Node>
    </Node>
    <Node pos="r" depth="2" NCoef="0" IVar="2" Cut="7.0829238891601562E+01" cType="1" res="1.0900160227799620E-03" rms="0.0" purity="0.216297332357" nType="0">
      <Node pos="l" depth="3" NCoef="0" IVar="-1" Cut="0.0000000000000000E+00" cType="1" res="1.1066517349930124E-03" rms="0.0e-00" purity="0.246661666537" nType="-99">
      </Node>
      <Node pos="r" depth="3" NCoef="0" IVar="-1" Cut="0.0000000000000000E+00" cType="1" res="6.2244409548330064E-03" rms="0.0e-00" purity="0.188932453665" nType="-99">
      </Node>
    </Node>
  </Node>
  <Node pos="r" depth="1" NCoef="0" IVar="0" Cut="5.7556811523437500E+02" cType="1" res="-4.5220190567189377E-04" rms="0.0" purity="0.232142383616" nType="0">
    <Node pos="l" depth="2" NCoef="0" IVar="1" Cut="1.4277507066726685E+00" cType="1" res="-4.6356525396596578E-05" rms="0.0" purity="0.237279886816" nType="0">
      <Node pos="l" depth="3" NCoef="0" IVar="-1" Cut="0.0000000000000000E+00" cType="1" res="-6.9530990722445696E-03" rms="0.0e-00" purity="0.1789713498" nType="-99">
      </Node>
      <Node pos="r" depth="3" NCoef="0" IVar="-1" Cut="0.0000000000000000E+00" cType="1" res="3.9030326703058402E-03" rms="0.0e-00" purity="0.223568078538" nType="-99">
      </Node>
    </Node>
    <Node pos="r" depth="2" NCoef="0" IVar="6" Cut="5.5000000000000000E+00" cType="1" res="-6.3446159500205393E-04" rms="0.0" purity="0.227929638454" nType="0">
      <Node pos="l" depth="3" NCoef="0" IVar="-1" Cut="0.0000000000000000E+00" cType="1" res="-1.4415143374867795E-03" rms="0.0e-00" purity="0.23443177334" nType="-99">
      </Node>
      <Node pos="r" depth="3" NCoef="0" IVar="-1" Cut="0.0000000000000000E+00" cType="1" res="-3.4581502060919795E-03" rms="0.0e-00" purity="0.220586820797" nType="-99">
      </Node>
    </Node>
  </Node>
</Node>
</BinaryTree>
<BinaryTree type="DecisionTree" boostWeight="1.0" itree="24">
<Node pos="s" depth="0" NCoef="0" IVar="1" Cut="1.2187893390655518E+00" cType="1" res="-1.9530076275562161E-09" rms="0.0" purity="0.23627417366" nType="0">
  <Node pos="l" depth="1" NCoef="0" IVar="1" Cut="8.3407062292098999E-01" cType="1" res="-1.2470649400184929E-03" rms="0.0" purity="0.204298401248" nType="0">
    <Node pos="l" depth="2" NCoef="0" IVar="2" Cut="8.1327102661132812E+01" cType="1" res="-1.7507392295779398E-03" rms="0.0" purity="0.171768970116" nType="0">
      <Node pos="l" depth="3" NCoef="0" IVar="-1" Cut="0.0000000000000000E+00" cType="1" res="-8.2252655031594159E-03" rms="0.0e-00" purity="0.150264721086" nType="-99">
      </Node>
      <Node pos="r" depth="3" NCoef="0" IVar="-1" Cut="0.0000000000000000E+00" cType="1" res="4.9575500791973950E-03" rms="0.0e-00" purity="0.219031488494" nType="-99">
      </Node>
    </Node>
    <Node pos="r" depth="2" NCoef="0" IVar="4" Cut="3.1888785362243652E+00" cType="1" res="-7.8722528517088074E-04" rms="0.0" purity="0.226120148597" nType="0">
      <Node pos="l" depth="3" NCoef="0" IVar="-1" Cut="0.0000000000000000E+00" cType="1" res="-1.6586977776123090E-03" rms="0.0e-00" purity="0.237345084513" nType="-99">
      </Node>
      <Node pos="r" depth="3" NCoef="0" IVar="-1" Cut="0.0000000000000000E+00" cType="1" res="-4.3816466891961909E-03" rms="0.0e-00" purity="0.213394010433" nType="-99">
      </Node>
    </Node>
  </Node>
  <Node pos="r" depth="1" NCoef="0" IVar="1" Cut="1.6299452781677246E+00" cType="1" res="8.3714968440575833E-04" rms="0.0" purity="0.22672073273" nType="0">
    <Node pos="l" depth="2" NCoef="0" IVar="2" Cut="8.3960517883300781E+01" cType="1" res="2.1463287347468684E-04" rms="0.0" purity="0.242581875385" nType="0">
      <Node pos="l" depth="3" NCoef="0" IVar="-1" Cut="0.0000000000000000E+00" cType="1" res="-1.2546237731863414E-03" rms="0.0e-00" purity="0.244985841138" nType="-99">
      </Node>
      <Node pos="r" depth="3" NCoef="0" IVar="-1" Cut="0.0000000000000000E+00" cType="1" res="8.4270603529379030E-03" rms="0.0e-00" purity="0.153215665426" nType="-99">
      </Node>
    </Node>
    <Node pos="r" depth="2" NCoef="0" IVar="0" Cut="6.6886987304687500E+02" cType="1" res="1.1037309638870692E-03" rms="0.0" purity="0.215714858645" nType="0">
      <Node pos="l" depth="3" NCoef="0" IVar="-1" Cut="0.0000000000000000E+00" cType="1" res="5.0405566735763126E-03" rms="0.0e-00" purity="0.20792535375" nType="-99">
      </Node>
      <Node pos="r" depth="3" NCoef="0" IVar="-1" Cut="0.0000000000000000E+00" cType="1" res="2.0145532727075151E-03" rms="0.0e-00" purity="0.23877307441" nType="-99">
      </Node>
    </Node>
  </Node>
</Node>
</BinaryTree>
<BinaryTree type="DecisionTree" boostWeight="1.0" itree="25">
<Node pos="s" depth="0" NCoef="0" IVar="6" Cut="4.5000000000000000E+00" cType="1" res="-2.7060700174639838E-09" rms="0.0" purity="0.235693877747" nType="0">
  <Node pos="l" depth="1" NCoef="0" IVar="5" Cut="2.5186619758605957E+00" cType="1" res="3.0243019127404772E-04" rms="0.0" purity="0.234640598761" nType="0">
    <Node pos="l" depth="2" NCoef="0" IVar="4" Cut="3.3604259490966797E+00" cType="1" res="4.1232205903135013E-04" rms="0.0" purity="0.232773567503" nType="0">
      <Node pos="l" depth="3" NCoef="0" IVar="-1" Cut="0.0000000000000000E+00" cType="1" res="1.8281657886594677E-03" rms="0.0e-00" purity="0.231587836776" nType="-99">
      </Node>
      <Node pos="r" depth="3" NCoef="0" IVar="-1" Cut="0.0000000000000000E+00" cType="1" res="7.0902227229983471E-04" rms="0.0e-00" purity="0.23819429558" nType="-99">
      </Node>
    </Node>
    <Node pos="r" depth="2" NCoef="0" IVar="1" Cut="1.3824298381805420E+00" cType="1" res="-1.3567252007307847E-04" rms="0.0" purity="0.237815786197" nType="0">
      <Node pos="l" depth="3" NCoef="0" IVar="-1" Cut="0.0000000000000000E+00" cType="1" res="-4.9408815507306740E-03" rms="0.0e-00" purity="0.207124958856" nType="-99">
      </Node>
      <Node pos="r" depth="3" NCoef="0" IVar="-1" Cut="0.0000000000000000E+00" cType="1" res="2.6440152495109583E-03" rms="0.0e-00" purity="0.233447262973" nType="-99">
      </Node>
    </Node>
  </Node>
  <Node pos="r" depth="1" NCoef="0" IVar="3" Cut="4.6478050231933594E+01" cType="1" res="-4.4525640025689018E-04" rms="0.0" purity="0.231326152945" nType="0">
    <Node pos="l" depth="2" NCoef="0" IVar="2" Cut="6.3051418304443359E+01" cType="1" res="8.4756405024879783E-04" rms="0.0" purity="0.228331312179" nType="0">
      <Node pos="l" depth="3" NCoef="0" IVar="-1" Cut="0.0000000000000000E+00" cType="1" res="-3.9666233593935315E-04" rms="0.0e-00" purity="0.248275370196" nType="-99">
      </Node>
      <Node pos="r" depth="3" NCoef="0" IVar="-1" Cut="0.0000000000000000E+00" cType="1" res="4.8887906412528196E-03" rms="0.0e-00" purity="0.211882831203" nType="-99">
      </Node>
    </Node>
    <Node pos="r" depth="2" NCoef="0" IVar="2" Cut="7.6280555725097656E+01" cType="1" res="-6.8620268858791196E-04" rms="0.0" purity="0.225314435329" nType="0">
      <Node pos="l" depth="3" NCoef="0" IVar="-1" Cut="0.0000000000000000E+00" cType="1" res="-6.0867431206389636E-03" rms="0.0e-00" purity="0.189464714571" nType="-99">
      </Node>
      <Node pos="r" depth="3" NCoef="0" IVar="-1" Cut="0.0000000000000000E+00" cType="1" res="4.0440442077041361E-03" rms="0.0e-00" purity="0.222959233358" nType="-99">
      </Node>
    </Node>
  </Node>
</Node>
</BinaryTree>
<BinaryTree type="DecisionTree" boostWeight="1.0" itree="26">
<Node pos="s" depth="0" NCoef="0" IVar="0" Cut="5.8688897705078125E+02" cType="1" res="-3.4616856137937906E-09" rms="0.0" purity="0.235377237757" nType="0">
  <Node pos="l" depth="1" NCoef="0" IVar="2" Cut="6.6329666137695312E+01" cType="1" res="2.5990535434762085E-04" rms="0.0" purity="0.234265051881" nType="0">
    <Node pos="l" depth="2" NCoef="0" IVar="2" Cut="5.3208473205566406E+01" cType="1" res="-9.2695429055811589E-04" rms="0.0" purity="0.223276585425" nType="0">
      <Node pos="l" depth="3" NCoef="0" IVar="-1" Cut="0.0000000000000000E+00" cType="1" res="-5.7735949204476261E-03" rms="0.0e-00" purity="0.197923919184" nType="-99">
      </Node>
      <Node pos="r" depth="3" NCoef="0" IVar="-1" Cut="0.0000000000000000E+00" cType="1" res="-1.4006079265026596E-03" rms="0.0e-00" purity="0.240829619249" nType="-99">
      </Node>
    </Node>
    <Node pos="r" depth="2" NCoef="0" IVar="1" Cut="1.2135945558547974E+00" cType="1" res="1.2444847980769553E-03" rms="0.0" purity="0.205372643366" nType="0">
      <Node pos="l" depth="3" NCoef="0" IVar="-1" Cut="0.0000000000000000E+00" cType="1" res="-1.8126781977386016E-03" rms="0.0e-00" purity="0.238238332953" nType="-99">
      </Node>
      <Node pos="r" depth="3" NCoef="0" IVar="-1" Cut="0.0000000000000000E+00" cType="1" res="5.8123098323834632E-03" rms="0.0e-00" purity="0.194785055207" nType="-99">
      </Node>
    </Node>
  </Node>
  <Node pos="r" depth="1" NCoef="0" IVar="6" Cut="4.5000000000000000E+00" cType="1" res="-3.3483574960416744E-04" rms="0.0" purity="0.233269791125" nType="0">
    <Node pos="l" depth="2" NCoef="0" IVar="3" Cut="6.9685470581054688E+01" cType="1" res="1.3437906677843186E-04" rms="0.0" purity="0.237580713706" nType="0">
      <Node pos="l" depth="3" NCoef="0" IVar="-1" Cut="0.0000000000000000E+00" cType="1" res="2.7152530649617456E-03" rms="0.0e-00" purity="0.232534586591" nType="-99">
      </Node>
      <Node pos="r" depth="3" NCoef="0" IVar="-1" Cut="0.0000000000000000E+00" cType="1" res="-8.5389196547831913E-06" rms="0.0e-00" purity="0.237206638451" nType="-99">
      </Node>
    </Node>
    <Node pos="r" depth="2" NCoef="0" IVar="3" Cut="4.8275405883789062E+01" cType="1" res="-6.2287730027757861E-04" rms="0.0" purity="0.226745690377" nType="0">
      <Node pos="l" depth="3" NCoef="0" IVar="-1" Cut="0.0000000000000000E+00" cType="1" res="1.9726560122233878E-03" rms="0.0e-00" purity="0.239346591803" nType="-99">
      </Node>
      <Node pos="r" depth="3" NCoef="0" IVar="-1" Cut="0.0000000000000000E+00" cType="1" res="-3.0954966954173180E-03" rms="0.0e-00" purity="0.221810169409" nType="-99">
      </Node>
    </Node>
  </Node>
</Node>
</BinaryTree>
<BinaryTree type="DecisionTree" boostWeight="1.0" itree="27">
<Node pos="s" depth="0" NCoef="0" IVar="6" Cut="4.5000000000000000E+00" cType="1" res="-2.8695775066725913E-09" rms="0.0" purity="0.23501036895" nType="0">
  <Node pos="l" depth="1" NCoef="0" IVar="2" Cut="7.1824295043945312E+01" cType="1" res="2.9698661921173501E-04" rms="0.0" purity="0.23418568117" nType="0">
    <Node pos="l" depth="2" NCoef="0" IVar="4" Cut="3.5514657497406006E+00" cType="1" res="-6.7638657067019953E-04" rms="0.0" purity="0.231506959779" nType="0">
      <Node pos="l" depth="3" NCoef="0" IVar="-1" Cut="0.0000000000000000E+00" cType="1" res="-2.3198554806020274E-03" rms="0.0e-00" purity="0.234322158463" nType="-99">
      </Node>
      <Node pos="r" depth="3" NCoef="0" IVar="-1" Cut="0.0000000000000000E+00" cType="1" res="-4.2111867462501177E-03" rms="0.0e-00" purity="0.217754882599" nType="-99">
      </Node>
    </Node>
    <Node pos="r" depth="2" NCoef="0" IVar="1" Cut="1.0924746990203857E+00" cType="1" res="1.3788225952003021E-03" rms="0.0" purity="0.197635794831" nType="0">
      <Node pos="l" depth="3" NCoef="0" IVar="-1" Cut="0.0000000000000000E+00" cType="1" res="2.4437832946793215E-03" rms="0.0e-00" purity="0.236945602888" nType="-99">
      </Node>
      <Node pos="r" depth="3" NCoef="0" IVar="-1" Cut="0.0000000000000000E+00" cType="1" res="6.0378388298880613E-03" rms="0.0e-00" purity="0.189655307668" nType="-99">
      </Node>
    </Node>
  </Node>
  <Node pos="r" depth="1" NCoef="0" IVar="2" Cut="7.6193466186523438E+01" cType="1" res="-4.3724256201627690E-04" rms="0.0" purity="0.23051723335" nType="0">
    <Node pos="l" depth="2" NCoef="0" IVar="1" Cut="1.1679825782775879E+00" cType="1" res="-1.2348579727936636E-03" rms="0.0" purity="0.204096574472" nType="0">
      <Node pos="l" depth="3" NCoef="0" IVar="-1" Cut="0.0000000000000000E+00" cType="1" res="-8.0557474094094129E-03" rms="0.0e-00" purity="0.149213403126" nType="-99">
      </Node>
      <Node pos="r" depth="3" NCoef="0" IVar="-1" Cut="0.0000000000000000E+00" cType="1" res="-1.0662902169609025E-03" rms="0.0e-00" purity="0.244499819875" nType="-99">
      </Node>
    </Node>
    <Node pos="r" depth="2" NCoef="0" IVar="3" Cut="1.4490060424804688E+02" cType="1" res="1.0781350711753111E-03" rms="0.0" purity="0.21840130856" nType="0">
      <Node pos="l" depth="3" NCoef="0" IVar="-1" Cut="0.0000000000000000E+00" cType="1" res="5.1579784052195521E-03" rms="0.0e-00" purity="0.207435613308" nType="-99">
      </Node>
      <Node pos="r" depth="3" NCoef="0" IVar="-1" Cut="0.0000000000000000E+00" cType="1" res="2.1087016257739714E-03" rms="0.0e-00" purity="0.240308263459" nType="-99">
      </Node>
    </Node>
  </Node>
</Node>
</BinaryTree>
<BinaryTree type="DecisionTree" boostWeight="1.0" itree="28">
<Node pos="s" depth="0" NCoef="0" IVar="1" Cut="1.2187893390655518E+00" cType="1" res="-3.1164493840424958E-09" rms="0.0" purity="0.234482801444" nType="0">
  <Node pos="l" depth="1" NCoef="0" IVar="3" Cut="1.8258697509765625E+02" cType="1" res="-1.2146352811132862E-03" rms="0.0" purity="0.203402486664" nType="0">
    <Node pos="l" depth="2" NCoef="0" IVar="2" Cut="7.8189048767089844E+01" cType="1" res="-1.4032969234268589E-03" rms="0.0" purity="0.194094741611" nType="0">
      <Node pos="l" depth="3" NCoef="0" IVar="-1" Cut="0.0000000000000000E+00" cType="1" res="-6.3472937244044587E-03" rms="0.0e-00" purity="0.184093461499" nType="-99">
      </Node>
      <Node pos="r" depth="3" NCoef="0" IVar="-1" Cut="0.0000000000000000E+00" cType="1" res="4.3148266068806724E-03" rms="0.0e-00" purity="0.222594784494" nType="-99">
      </Node>
    </Node>
    <Node pos="r" depth="2" NCoef="0" IVar="5" Cut="1.9595736265182495E+00" cType="1" res="-7.4202663883696685E-04" rms="0.0" purity="0.221162994398" nType="0">
      <Node pos="l" depth="3" NCoef="0" IVar="-1" Cut="0.0000000000000000E+00" cType="1" res="-1.4034504973610637E-03" rms="0.0e-00" purity="0.230850888051" nType="-99">
      </Node>
      <Node pos="r" depth="3" NCoef="0" IVar="-1" Cut="0.0000000000000000E+00" cType="1" res="-3.9331963822112894E-03" rms="0.0e-00" purity="0.212738486777" nType="-99">
      </Node>
    </Node>
  </Node>
  <Node pos="r" depth="1" NCoef="0" IVar="5" Cut="2.3004975318908691E+00" cType="1" res="8.1537775532252495E-04" rms="0.0" purity="0.22592059459" nType="0">
    <Node pos="l" depth="2" NCoef="0" IVar="1" Cut="1.6314513683319092E+00" cType="1" res="1.0092023519520459E-03" rms="0.0" purity="0.218037437564" nType="0">
      <Node pos="l" depth="3" NCoef="0" IVar="-1" Cut="0.0000000000000000E+00" cType="1" res="1.8072357206377959E-03" rms="0.0e-00" purity="0.238081177472" nType="-99">
      </Node>
      <Node pos="r" depth="3" NCoef="0" IVar="-1" Cut="0.0000000000000000E+00" cType="1" res="5.0689735969643738E-03" rms="0.0e-00" purity="0.205454999343" nType="-99">
      </Node>
    </Node>
    <Node pos="r" depth="2" NCoef="0" IVar="6" Cut="5.5000000000000000E+00" cType="1" res="4.9662243898486230E-04" rms="0.0" purity="0.235980216286" nType="0">
      <Node pos="l" depth="3" NCoef="0" IVar="-1" Cut="0.0000000000000000E+00" cType="1" res="2.4263644278233261E-03" rms="0.0e-00" purity="0.233219185676" nType="-99">
      </Node>
      <Node pos="r" depth="3" NCoef="0" IVar="-1" Cut="0.0000000000000000E+00" cType="1" res="-4.9612430962079674E-05" rms="0.0e-00" purity="0.243477358146" nType="-99">
      </Node>
    </Node>
  </Node>
</Node>
</BinaryTree>
<BinaryTree type="DecisionTree" boostWeight="1.0" itree="29">
<Node pos="s" depth="0" NCoef="0" IVar="3" Cut="5.7552696228027344E+01" cType="1" res="-3.9056262337023751E-09" rms="0.0" purity="0.234038329407" nType="0">
  <Node pos="l" depth="1" NCoef="0" IVar="0" Cut="6.6045617675781250E+02" cType="1" res="8.2857875957995672E-04" rms="0.0" purity="0.224392698633" nType="0">
    <Node pos="l" depth="2" NCoef="0" IVar="3" Cut="4.6334159851074219E+01" cType="1" res="9.5221665307585021E-04" rms="0.0" purity="0.21917970985" nType="0">
      <Node pos="l" depth="3" NCoef="0" IVar="-1" Cut="0.0000000000000000E+00" cType="1" res="4.7406517328941952E-03" rms="0.0e-00" purity="0.209653797738" nType="-99">
      </Node>
      <Node pos="r" depth="3" NCoef="0" IVar="-1" Cut="0.0000000000000000E+00" cType="1" res="1.8962782104784549E-03" rms="0.0e-00" purity="0.233433410899" nType="-99">
      </Node>
    </Node>
    <Node pos="r" depth="2" NCoef="0" IVar="1" Cut="1.9846874475479126E+00" cType="1" res="2.3218765195739461E-04" rms="0.0" purity="0.241904436834" nType="0">
      <Node pos="l" depth="3" NCoef="0" IVar="-1" Cut="0.0000000000000000E+00" cType="1" res="-2.8290001388116821E-03" rms="0.0e-00" purity="0.235328202167" nType="-99">
      </Node>
      <Node pos="r" depth="3" NCoef="0" IVar="-1" Cut="0.0000000000000000E+00" cType="1" res="2.2803310970685442E-03" rms="0.0e-00" purity="0.236656835901" nType="-99">
      </Node>
    </Node>
  </Node>
  <Node pos="r" depth="1" NCoef="0" IVar="2" Cut="7.8170623779296875E+01" cType="1" res="-3.1350037667032924E-04" rms="0.0" purity="0.231322663581" nType="0">
    <Node pos="l" depth="2" NCoef="0" IVar="6" Cut="4.5000000000000000E+00" cType="1" res="-1.1515770252986334E-03" rms="0.0" purity="0.208810066448" nType="0">
      <Node pos="l" depth="3" NCoef="0" IVar="-1" Cut="0.0000000000000000E+00" cType="1" res="-3.5028177288691396E-03" rms="0.0e-00" purity="0.223692500177" nType="-99">
      </Node>
      <Node pos="r" depth="3" NCoef="0" IVar="-1" Cut="0.0000000000000000E+00" cType="1" res="-6.0462641902590967E-03" rms="0.0e-00" purity="0.186555971203" nType="-99">
      </Node>
    </Node>
    <Node pos="r" depth="2" NCoef="0" IVar="1" Cut="3.1236095428466797E+00" cType="1" res="1.3463363428928030E-03" rms="0.0" purity="0.202200610286" nType="0">
      <Node pos="l" depth="3" NCoef="0" IVar="-1" Cut="0.0000000000000000E+00" cType="1" res="5.6428949375782224E-03" rms="0.0e-00" purity="0.19894460111" nType="-99">
      </Node>
      <Node pos="r" depth="3" NCoef="0" IVar="-1" Cut="0.0000000000000000E+00" cType="1" res="-3.8224595384686458E-03" rms="0.0e-00" purity="0.237005765345" nType="-99">
      </Node>
    </Node>
  </Node>
</Node>
</BinaryTree>
<BinaryTree type="DecisionTree" boostWeight="1.0" itree="30">
<Node pos="s" depth="0" NCoef="0" IVar="2" Cut="7.2838401794433594E+01" cType="1" res="-3.9678762412059846E-09" rms="0.0" purity="0.233541735414" nType="0">
  <Node pos="l" depth="1" NCoef="0" IVar="1" Cut="1.2556599378585815E+00" cType="1" res="-9.1656934130333954E-04" rms="0.0" purity="0.219278966465" nType="0">
    <Node pos="l" depth="2" NCoef="0" IVar="5" Cut="1.7820897102355957E+00" cType="1" res="-1.6325048001693304E-03" rms="0.0" purity="0.177737932912" nType="0">
      <Node pos="l" depth="3" NCoef="0" IVar="-1" Cut="0.0000000000000000E+00" cType="1" res="-4.5560294489169545E-03" rms="0.0e-00" purity="0.210598821968" nType="-99">
      </Node>
      <Node pos="r" depth="3" NCoef="0" IVar="-1" Cut="0.0000000000000000E+00" cType="1" res="-7.0642423667499369E-03" rms="0.0e-00" purity="0.168911869589" nType="-99">
      </Node>
    </Node>
    <Node pos="r" depth="2" NCoef="0" IVar="1" Cut="1.8716362714767456E+00" cType="1" res="7.1973791702016794E-05" rms="0.0" purity="0.24668295583" nType="0">
      <Node pos="l" depth="3" NCoef="0" IVar="-1" Cut="0.0000000000000000E+00" cType="1" res="-1.2563557979243059E-03" rms="0.0e-00" purity="0.2456910176" nType="-99">
      </Node>
      <Node pos="r" depth="3" NCoef="0" IVar="-1" Cut="0.0000000000000000E+00" cType="1" res="2.5835312978247172E-03" rms="0.0e-00" purity="0.238391131008" nType="-99">
      </Node>
    </Node>
  </Node>
  <Node pos="r" depth="1" NCoef="0" IVar="6" Cut="5.5000000000000000E+00" cType="1" res="1.2045902046552294E-03" rms="0.0" purity="0.206861902803" nType="0">
    <Node pos="l" depth="2" NCoef="0" IVar="2" Cut="1.3293319702148438E+02" cType="1" res="1.3120013496624827E-03" rms="0.0" purity="0.200560042752" nType="0">
      <Node pos="l" depth="3" NCoef="0" IVar="-1" Cut="0.0000000000000000E+00" cType="1" res="6.0271045676292155E-03" rms="0.0e-00" purity="0.189444245763" nType="-99">
      </Node>
      <Node pos="r" depth="3" NCoef="0" IVar="-1" Cut="0.0000000000000000E+00" cType="1" res="-3.3990501196413071E-03" rms="0.0e-00" purity="0.241624608788" nType="-99">
      </Node>
    </Node>
    <Node pos="r" depth="2" NCoef="0" IVar="3" Cut="1.4636816406250000E+02" cType="1" res="6.5054979472096725E-04" rms="0.0" purity="0.232852664082" nType="0">
      <Node pos="l" depth="3" NCoef="0" IVar="-1" Cut="0.0000000000000000E+00" cType="1" res="3.8798336162911258E-03" rms="0.0e-00" purity="0.222242556151" nType="-99">
      </Node>
      <Node pos="r" depth="3" NCoef="0" IVar="-1" Cut="0.0000000000000000E+00" cType="1" res="-4.1808891347523084E-04" rms="0.0e-00" purity="0.243873057114" nType="-99">
      </Node>
    </Node>
  </Node>
</Node>
</BinaryTree>
<BinaryTree type="DecisionTree" boostWeight="1.0" itree="31">
<Node pos="s" depth="0" NCoef="0" IVar="1" Cut="1.2187893390655518E+00" cType="1" res="-4.6115398909518757E-09" rms="0.0" purity="0.232918876478" nType="0">
  <Node pos="l" depth="1" NCoef="0" IVar="3" Cut="1.9314947509765625E+02" cType="1" res="-1.1846189326128625E-03" rms="0.0" purity="0.202513340384" nType="0">
    <Node pos="l" depth="2" NCoef="0" IVar="1" Cut="9.4585216045379639E-01" cType="1" res="-1.3487502240979881E-03" rms="0.0" purity="0.194341884287" nType="0">
      <Node pos="l" depth="3" NCoef="0" IVar="-1" Cut="0.0000000000000000E+00" cType="1" res="-7.3864772009363915E-03" rms="0.0e-00" purity="0.160620820002" nType="-99">
      </Node>
      <Node pos="r" depth="3" NCoef="0" IVar="-1" Cut="0.0000000000000000E+00" cType="1" res="-3.0285281571762745E-03" rms="0.0e-00" purity="0.225250828852" nType="-99">
      </Node>
    </Node>
    <Node pos="r" depth="2" NCoef="0" IVar="2" Cut="8.6967437744140625E+01" cType="1" res="-6.7939035964023468E-04" rms="0.0" purity="0.221654614125" nType="0">
      <Node pos="l" depth="3" NCoef="0" IVar="-1" Cut="0.0000000000000000E+00" cType="1" res="-6.1978391047636666E-03" rms="0.0e-00" purity="0.184829547342" nType="-99">
      </Node>
      <Node pos="r" depth="3" NCoef="0" IVar="-1" Cut="0.0000000000000000E+00" cType="1" res="8.4079296229273275E-03" rms="0.0e-00" purity="0.161498995536" nType="-99">
      </Node>
    </Node>
  </Node>
  <Node pos="r" depth="1" NCoef="0" IVar="4" Cut="3.3596889972686768E+00" cType="1" res="7.9522532385143166E-04" rms="0.0" purity="0.225340178379" nType="0">
    <Node pos="l" depth="2" NCoef="0" IVar="2" Cut="6.9703063964843750E+01" cType="1" res="1.0269111006918242E-03" rms="0.0" purity="0.214906514646" nType="0">
      <Node pos="l" depth="3" NCoef="0" IVar="-1" Cut="0.0000000000000000E+00" cType="1" res="8.0672575098174044E-04" rms="0.0e-00" purity="0.246593473814" nType="-99">
      </Node>
      <Node pos="r" depth="3" NCoef="0" IVar="-1" Cut="0.0000000000000000E+00" cType="1" res="5.9948093323782849E-03" rms="0.0e-00" purity="0.18697196081" nType="-99">
      </Node>
    </Node>
    <Node pos="r" depth="2" NCoef="0" IVar="3" Cut="3.7755012512207031E+01" cType="1" res="4.6031261828586152E-04" rms="0.0" purity="0.237049001419" nType="0">
      <Node pos="l" depth="3" NCoef="0" IVar="-1" Cut="0.0000000000000000E+00" cType="1" res="3.8075612372365404E-03" rms="0.0e-00" purity="0.222638675998" nType="-99">
      </Node>
      <Node pos="r" depth="3" NCoef="0" IVar="-1" Cut="0.0000000000000000E+00" cType="1" res="1.3109721733470044E-03" rms="0.0e-00" purity="0.239528204291" nType="-99">
      </Node>
    </Node>
  </Node>
</Node>
</BinaryTree>
<BinaryTree type="DecisionTree" boostWeight="1.0" itree="32">
<Node pos="s" depth="0" NCoef="0" IVar="3" Cut="5.7552696228027344E+01" cType="1" res="-5.2022296422416328E-09" rms="0.0" purity="0.232392301152" nType="0">
  <Node pos="l" depth="1" NCoef="0" IVar="0" Cut="6.6045617675781250E+02" cType="1" res="8.0538742816454469E-04" rms="0.0" purity="0.223920089184" nType="0">
    <Node pos="l" depth="2" NCoef="0" IVar="5" Cut="2.3185701370239258E+00" cType="1" res="9.2733505449437554E-04" rms="0.0" purity="0.218740116556" nType="0">
      <Node pos="l" depth="3" NCoef="0" IVar="-1" Cut="0.0000000000000000E+00" cType="1" res="4.4245871145881096E-03" rms="0.0e-00" purity="0.210637889963" nType="-99">
      </Node>
      <Node pos="r" depth="3" NCoef="0" IVar="-1" Cut="0.0000000000000000E+00" cType="1" res="2.5736189984306456E-03" rms="0.0e-00" purity="0.230068116503" nType="-99">
      </Node>
    </Node>
    <Node pos="r" depth="2" NCoef="0" IVar="3" Cut="4.5373050689697266E+01" cType="1" res="2.1714964861057267E-04" rms="0.0" purity="0.241479874416" nType="0">
      <Node pos="l" depth="3" NCoef="0" IVar="-1" Cut="0.0000000000000000E+00" cType="1" res="1.7962040596071652E-03" rms="0.0e-00" purity="0.238541087995" nType="-99">
      </Node>
      <Node pos="r" depth="3" NCoef="0" IVar="-1" Cut="0.0000000000000000E+00" cType="1" res="-5.1879962049366840E-04" rms="0.0e-00" purity="0.242357000027" nType="-99">
      </Node>
    </Node>
  </Node>
  <Node pos="r" depth="1" NCoef="0" IVar="1" Cut="1.1102737188339233E+00" cType="1" res="-3.0472766147959909E-04" rms="0.0" purity="0.22958397191" nType="0">
    <Node pos="l" depth="2" NCoef="0" IVar="5" Cut="1.7841105461120605E+00" cType="1" res="-1.3195047425845390E-03" rms="0.0" purity="0.193653108597" nType="0">
      <Node pos="l" depth="3" NCoef="0" IVar="-1" Cut="0.0000000000000000E+00" cType="1" res="-3.0049908795735485E-03" rms="0.0e-00" purity="0.222318263538" nType="-99">
      </Node>
      <Node pos="r" depth="3" NCoef="0" IVar="-1" Cut="0.0000000000000000E+00" cType="1" res="-5.9258602086282638E-03" rms="0.0e-00" purity="0.18451149451" nType="-99">
      </Node>
    </Node>
    <Node pos="r" depth="2" NCoef="0" IVar="2" Cut="7.9339492797851562E+01" cType="1" res="5.8910886435843517E-04" rms="0.0" purity="0.230903929939" nType="0">
      <Node pos="l" depth="3" NCoef="0" IVar="-1" Cut="0.0000000000000000E+00" cType="1" res="-8.3452273175805083E-04" rms="0.0e-00" purity="0.243519190037" nType="-99">
      </Node>
      <Node pos="r" depth="3" NCoef="0" IVar="-1" Cut="0.0000000000000000E+00" cType="1" res="5.7099263416998357E-03" rms="0.0e-00" purity="0.19391871848" nType="-99">
      </Node>
    </Node>
  </Node>
</Node>
</BinaryTree>
<BinaryTree type="DecisionTree" boostWeight="1.0" itree="33">
<Node pos="s" depth="0" NCoef="0" IVar="3" Cut="5.7552696228027344E+01" cType="1" res="-5.4566340312818578E-09" rms="0.0" purity="0.23196193974" nType="0">
  <Node pos="l" depth="1" NCoef="0" IVar="1" Cut="1.8728380203247070E+00" cType="1" res="7.9733491852700773E-04" rms="0.0" purity="0.223876743895" nType="0">
    <Node pos="l" depth="2" NCoef="0" IVar="2" Cut="4.6050430297851562E+01" cType="1" res="-6.5016120061586963E-04" rms="0.0" purity="0.23767756705" nType="0">
      <Node pos="l" depth="3" NCoef="0" IVar="-1" Cut="0.0000000000000000E+00" cType="1" res="-4.4607341710626077E-03" rms="0.0e-00" purity="0.219346911734" nType="-99">
      </Node>
      <Node pos="r" depth="3" NCoef="0" IVar="-1" Cut="0.0000000000000000E+00" cType="1" res="-7.3859670335261237E-04" rms="0.0e-00" purity="0.248496467495" nType="-99">
      </Node>
    </Node>
    <Node pos="r" depth="2" NCoef="0" IVar="4" Cut="3.2989206314086914E+00" cType="1" res="1.1177165176900704E-03" rms="0.0" purity="0.210752885103" nType="0">
      <Node pos="l" depth="3" NCoef="0" IVar="-1" Cut="0.0000000000000000E+00" cType="1" res="5.3496140623382283E-03" rms="0.0e-00" purity="0.197654116782" nType="-99">
      </Node>
      <Node pos="r" depth="3" NCoef="0" IVar="-1" Cut="0.0000000000000000E+00" cType="1" res="3.4341122058903235E-03" rms="0.0e-00" purity="0.225259630977" nType="-99">
      </Node>
    </Node>
  </Node>
  <Node pos="r" depth="1" NCoef="0" IVar="1" Cut="1.1102737188339233E+00" cType="1" res="-3.0168132354559715E-04" rms="0.0" purity="0.22912683209" nType="0">
    <Node pos="l" depth="2" NCoef="0" IVar="4" Cut="2.9738898277282715E+00" cType="1" res="-1.3063142248116351E-03" rms="0.0" purity="0.193625864022" nType="0">
      <Node pos="l" depth="3" NCoef="0" IVar="-1" Cut="0.0000000000000000E+00" cType="1" res="-3.4376290756331241E-03" rms="0.0e-00" purity="0.218761793998" nType="-99">
      </Node>
      <Node pos="r" depth="3" NCoef="0" IVar="-1" Cut="0.0000000000000000E+00" cType="1" res="-6.0421426731034284E-03" rms="0.0e-00" purity="0.181221325788" nType="-99">
      </Node>
    </Node>
    <Node pos="r" depth="2" NCoef="0" IVar="2" Cut="6.9704521179199219E+01" cType="1" res="5.8322000003619432E-04" rms="0.0" purity="0.230671457885" nType="0">
      <Node pos="l" depth="3" NCoef="0" IVar="-1" Cut="0.0000000000000000E+00" cType="1" res="-2.0498694453775406E-03" rms="0.0e-00" purity="0.239738225453" nType="-99">
      </Node>
      <Node pos="r" depth="3" NCoef="0" IVar="-1" Cut="0.0000000000000000E+00" cType="1" res="4.7335505321417868E-03" rms="0.0e-00" purity="0.208047385255" nType="-99">
      </Node>
    </Node>
  </Node>
</Node>
</BinaryTree>
<BinaryTree type="DecisionTree" boostWeight="1.0" itree="34">
<Node pos="s" depth="0" NCoef="0" IVar="2" Cut="7.2838401794433594E+01" cType="1" res="-5.6751637735085744E-09" rms="0.0" purity="0.231498730387" nType="0">
  <Node pos="l" depth="1" NCoef="0" IVar="3" Cut="6.8557357788085938E+01" cType="1" res="-8.9049462488971693E-04" rms="0.0" purity="0.218095265282" nType="0">
    <Node pos="l" depth="2" NCoef="0" IVar="6" Cut="4.5000000000000000E+00" cType="1" res="-5.8120264138958426E-05" rms="0.0" purity="0.243700963787" nType="0">
      <Node pos="l" depth="3" NCoef="0" IVar="-1" Cut="0.0000000000000000E+00" cType="1" res="6.4867021612415661E-04" rms="0.0e-00" purity="0.24428522087" nType="-99">
      </Node>
      <Node pos="r" depth="3" NCoef="0" IVar="-1" Cut="0.0000000000000000E+00" cType="1" res="-1.7040259512523662E-03" rms="0.0e-00" purity="0.23890567205" nType="-99">
      </Node>
    </Node>
    <Node pos="r" depth="2" NCoef="0" IVar="5" Cut="1.7799303531646729E+00" cType="1" res="-1.3409036142272470E-03" rms="0.0" purity="0.193968082767" nType="0">
      <Node pos="l" depth="3" NCoef="0" IVar="-1" Cut="0.0000000000000000E+00" cType="1" res="-3.5793136892261703E-03" rms="0.0e-00" purity="0.219362355406" nType="-99">
      </Node>
      <Node pos="r" depth="3" NCoef="0" IVar="-1" Cut="0.0000000000000000E+00" cType="1" res="-5.8275844256494916E-03" rms="0.0e-00" purity="0.187419815181" nType="-99">
      </Node>
    </Node>
  </Node>
  <Node pos="r" depth="1" NCoef="0" IVar="2" Cut="1.3097470092773438E+02" cType="1" res="1.1703176107058511E-03" rms="0.0" purity="0.206237468446" nType="0">
    <Node pos="l" depth="2" NCoef="0" IVar="3" Cut="1.0315121459960938E+02" cType="1" res="1.3622745898277814E-03" rms="0.0" purity="0.195407860869" nType="0">
      <Node pos="l" depth="3" NCoef="0" IVar="-1" Cut="0.0000000000000000E+00" cType="1" res="6.3537626474282132E-03" rms="0.0e-00" purity="0.179877475714" nType="-99">
      </Node>
      <Node pos="r" depth="3" NCoef="0" IVar="-1" Cut="0.0000000000000000E+00" cType="1" res="4.1957065792409386E-03" rms="0.0e-00" purity="0.216261432113" nType="-99">
