<?xml version="1.0"?>
<MethodSetup Method="BDT::BDTG">
  <GeneralInfo>
    <Info name="TMVA Release" value="4.2.0 [262656]"/>
    <Info name="ROOT Release" value="6.02/13 [393741]"/>
    <Info name="Creator" value="arun"/>
    <Info name="Date" value="Wed Mar 15 16:37:15 2017"/>
    <Info name="Host" value="Linux vocms0301.cern.ch 2.6.32-573.7.1.el6.x86_64 #1 SMP Wed Sep 23 10:12:03 CEST 2015 x86_64 x86_64 x86_64 GNU/Linux"/>
    <Info name="Dir" value="/home/arun/VHbbNtuples_7_6_x/CMSSW_7_6_3_for8X/src/tthAnalysis/HiggsToTauTau/test"/>
    <Info name="Training events" value="148030"/>
    <Info name="TrainingTime" value="7.65076790e+01"/>
    <Info name="AnalysisType" value="Classification"/>
  </GeneralInfo>
  <Options>
    <Option name="V" modified="Yes">False</Option>
    <Option name="VerbosityLevel" modified="No">Default</Option>
    <Option name="VarTransform" modified="No">None</Option>
    <Option name="H" modified="Yes">False</Option>
    <Option name="CreateMVAPdfs" modified="No">False</Option>
    <Option name="IgnoreNegWeightsInTraining" modified="No">False</Option>
    <Option name="NTrees" modified="Yes">500</Option>
    <Option name="MaxDepth" modified="Yes">3</Option>
    <Option name="MinNodeSize" modified="No">5%</Option>
    <Option name="nCuts" modified="Yes">500</Option>
    <Option name="BoostType" modified="Yes">Grad</Option>
    <Option name="AdaBoostR2Loss" modified="No">quadratic</Option>
    <Option name="UseBaggedBoost" modified="Yes">True</Option>
    <Option name="Shrinkage" modified="Yes">3.000000e-01</Option>
    <Option name="AdaBoostBeta" modified="No">5.000000e-01</Option>
    <Option name="UseRandomisedTrees" modified="No">False</Option>
    <Option name="UseNvars" modified="No">3</Option>
    <Option name="UsePoissonNvars" modified="No">True</Option>
    <Option name="BaggedSampleFraction" modified="No">5.000000e-01</Option>
    <Option name="UseYesNoLeaf" modified="No">True</Option>
    <Option name="NegWeightTreatment" modified="No">ignorenegweightsintraining</Option>
    <Option name="Css" modified="No">1.000000e+00</Option>
    <Option name="Cts_sb" modified="No">1.000000e+00</Option>
    <Option name="Ctb_ss" modified="No">1.000000e+00</Option>
    <Option name="Cbb" modified="No">1.000000e+00</Option>
    <Option name="NodePurityLimit" modified="No">5.000000e-01</Option>
    <Option name="SeparationType" modified="Yes">giniindex</Option>
    <Option name="DoBoostMonitor" modified="No">False</Option>
    <Option name="UseFisherCuts" modified="No">False</Option>
    <Option name="MinLinCorrForFisher" modified="No">8.000000e-01</Option>
    <Option name="UseExclusiveVars" modified="No">False</Option>
    <Option name="DoPreselection" modified="No">False</Option>
    <Option name="SigToBkgFraction" modified="No">1.000000e+00</Option>
    <Option name="PruneMethod" modified="Yes">nopruning</Option>
    <Option name="PruneStrength" modified="No">0.000000e+00</Option>
    <Option name="PruningValFraction" modified="No">5.000000e-01</Option>
    <Option name="nEventsMin" modified="No">0</Option>
    <Option name="UseBaggedGrad" modified="No">False</Option>
    <Option name="GradBaggingFraction" modified="Yes">5.000000e-01</Option>
    <Option name="UseNTrainEvents" modified="No">0</Option>
    <Option name="NNodesMax" modified="No">0</Option>
  </Options>
  <Variables NVar="10">
    <Variable VarIndex="0" Expression="mindr_lep1_jet" Label="mindr_lep1_jet" Title="mindr_lep1_jet" Unit="" Internal="mindr_lep1_jet" Type="F" Min="4.00161028e-01" Max="4.42859221e+00"/>
    <Variable VarIndex="1" Expression="mindr_lep2_jet" Label="mindr_lep2_jet" Title="mindr_lep2_jet" Unit="" Internal="mindr_lep2_jet" Type="F" Min="4.00211036e-01" Max="4.73502159e+00"/>
    <Variable VarIndex="2" Expression="avg_dr_jet" Label="avg_dr_jet" Title="avg_dr_jet" Unit="" Internal="avg_dr_jet" Type="F" Min="4.94007260e-01" Max="4.15675592e+00"/>
    <Variable VarIndex="3" Expression="TMath::Max(TMath::Abs(lep1_eta),TMath::Abs(lep2_eta))" Label="TMath::Max(TMath::Abs(lep1_eta),TMath::Abs(lep2_eta))" Title="TMath::Max(TMath::Abs(lep1_eta),TMath::Abs(lep2_eta))" Unit="" Internal="TMath_Max_TMath_Abs_lep1_eta_,TMath_Abs_lep2_eta__" Type="F" Min="6.79814862e-03" Max="2.49991775e+00"/>
    <Variable VarIndex="4" Expression="lep1_conePt" Label="lep1_conePt" Title="lep1_conePt" Unit="" Internal="lep1_conePt" Type="F" Min="2.41674685e+00" Max="1.34140735e+03"/>
    <Variable VarIndex="5" Expression="lep2_conePt" Label="lep2_conePt" Title="lep2_conePt" Unit="" Internal="lep2_conePt" Type="F" Min="9.79863584e-01" Max="4.74909912e+02"/>
    <Variable VarIndex="6" Expression="mT_lep1" Label="mT_lep1" Title="mT_lep1" Unit="" Internal="mT_lep1" Type="F" Min="0.00000000e+00" Max="1.15418091e+03"/>
    <Variable VarIndex="7" Expression="dr_leps" Label="dr_leps" Title="dr_leps" Unit="" Internal="dr_leps" Type="F" Min="3.00026804e-01" Max="5.68202543e+00"/>
    <Variable VarIndex="8" Expression="mTauTauVis1" Label="mTauTauVis1" Title="mTauTauVis1" Unit="" Internal="mTauTauVis1" Type="F" Min="8.04606056e+00" Max="2.20270044e+03"/>
    <Variable VarIndex="9" Expression="mTauTauVis2" Label="mTauTauVis2" Title="mTauTauVis2" Unit="" Internal="mTauTauVis2" Type="F" Min="4.81781149e+00" Max="1.30568713e+03"/>
  </Variables>
  <Spectators NSpec="0"/>
  <Classes NClass="2">
    <Class Name="Signal" Index="0"/>
    <Class Name="Background" Index="1"/>
  </Classes>
  <Transformations NTransformations="0"/>
  <MVAPdfs/>
  <Weights NTrees="500" AnalysisType="1">
    <BinaryTree type="DecisionTree" boostWeight="1.0000000000000000e+00" itree="0">
      <Node pos="s" depth="0" NCoef="0" IVar="9" Cut="1.1676353454589844e+02" cType="1" res="3.5427762195467949e-03" rms="4.9998745322227478e-01" purity="5.0354278087615967e-01" nType="0">
        <Node pos="l" depth="1" NCoef="0" IVar="6" Cut="1.7850256347656250e+02" cType="1" res="2.9582019895315170e-02" rms="4.9912413954734802e-01" purity="5.2958202362060547e-01" nType="0">
          <Node pos="l" depth="2" NCoef="0" IVar="9" Cut="5.5304679870605469e+01" cType="1" res="4.8333335667848587e-02" rms="4.9765840172767639e-01" purity="5.4833334684371948e-01" nType="0">
            <Node pos="l" depth="3" NCoef="0" IVar="-1" Cut="0.0000000000000000e+00" cType="1" res="1.5676488692406565e-04" rms="4.9999979138374329e-01" purity="5.0044089555740356e-01" nType="-99"/>
            <Node pos="r" depth="3" NCoef="0" IVar="-1" Cut="0.0000000000000000e+00" cType="1" res="3.1721167266368866e-02" rms="4.9222636222839355e-01" purity="5.8782494068145752e-01" nType="-99"/>
          </Node>
          <Node pos="r" depth="2" NCoef="0" IVar="3" Cut="1.1970161199569702e+00" cType="1" res="-9.6162684261798859e-02" rms="4.9066561460494995e-01" purity="4.0383729338645935e-01" nType="0">
            <Node pos="l" depth="3" NCoef="0" IVar="-1" Cut="0.0000000000000000e+00" cType="1" res="-1.2569576501846313e-02" rms="4.9871721863746643e-01" purity="4.6420705318450928e-01" nType="-99"/>
            <Node pos="r" depth="3" NCoef="0" IVar="-1" Cut="0.0000000000000000e+00" cType="1" res="-5.7781960815191269e-02" rms="4.6963503956794739e-01" purity="3.2841059565544128e-01" nType="-99"/>
          </Node>
        </Node>
        <Node pos="r" depth="1" NCoef="0" IVar="8" Cut="1.2359707641601562e+02" cType="1" res="-1.9295990467071533e-01" rms="4.6126616001129150e-01" purity="3.0704009532928467e-01" nType="0">
          <Node pos="l" depth="2" NCoef="0" IVar="-1" Cut="0.0000000000000000e+00" cType="1" res="-4.4287413358688354e-02" rms="4.8263049125671387e-01" purity="3.6935618519783020e-01" nType="-99"/>
          <Node pos="r" depth="2" NCoef="0" IVar="-1" Cut="0.0000000000000000e+00" cType="1" res="-9.3053244054317474e-02" rms="4.1792270541191101e-01" purity="2.2551757097244263e-01" nType="-99"/>
        </Node>
      </Node>
    </BinaryTree>
    <BinaryTree type="DecisionTree" boostWeight="1.0000000000000000e+00" itree="1">
      <Node pos="s" depth="0" NCoef="0" IVar="8" Cut="1.2342148590087891e+02" cType="1" res="-1.9498157780617476e-03" rms="4.9703463912010193e-01" purity="4.9897286295890808e-01" nType="0">
        <Node pos="l" depth="1" NCoef="0" IVar="9" Cut="1.0647236633300781e+02" cType="1" res="3.6457315087318420e-02" rms="4.9683874845504761e-01" purity="5.4009485244750977e-01" nType="0">
          <Node pos="l" depth="2" NCoef="0" IVar="2" Cut="2.5389521121978760e+00" cType="1" res="5.3643934428691864e-02" rms="4.9549973011016846e-01" purity="5.5970746278762817e-01" nType="0">
            <Node pos="l" depth="3" NCoef="0" IVar="-1" Cut="0.0000000000000000e+00" cType="1" res="2.5251504033803940e-02" rms="4.9329009652137756e-01" purity="5.7538563013076782e-01" nType="-99"/>
            <Node pos="r" depth="3" NCoef="0" IVar="-1" Cut="0.0000000000000000e+00" cType="1" res="-6.6586453467607498e-03" rms="4.9923783540725708e-01" purity="4.8712337017059326e-01" nType="-99"/>
          </Node>
          <Node pos="r" depth="2" NCoef="0" IVar="-1" Cut="0.0000000000000000e+00" cType="1" res="-2.9980432242155075e-02" rms="4.8898157477378845e-01" purity="3.9965701103210449e-01" nType="-99"/>
        </Node>
        <Node pos="r" depth="1" NCoef="0" IVar="9" Cut="1.1560936737060547e+02" cType="1" res="-8.8813833892345428e-02" rms="4.8641774058341980e-01" purity="4.0596875548362732e-01" nType="0">
          <Node pos="l" depth="2" NCoef="0" IVar="9" Cut="5.8903068542480469e+01" cType="1" res="-5.8189500123262405e-02" rms="4.9488452076911926e-01" purity="4.4519501924514771e-01" nType="0">
            <Node pos="l" depth="3" NCoef="0" IVar="-1" Cut="0.0000000000000000e+00" cType="1" res="-4.4593438506126404e-02" rms="4.8077327013015747e-01" purity="3.6296525597572327e-01" nType="-99"/>
            <Node pos="r" depth="3" NCoef="0" IVar="-1" Cut="0.0000000000000000e+00" cType="1" res="7.1740447310730815e-04" rms="4.9772235751152039e-01" purity="5.1082676649093628e-01" nType="-99"/>
          </Node>
          <Node pos="r" depth="2" NCoef="0" IVar="-1" Cut="0.0000000000000000e+00" cType="1" res="-7.7494204044342041e-02" rms="4.1641795635223389e-01" purity="2.2373218834400177e-01" nType="-99"/>
        </Node>
      </Node>
    </BinaryTree>
    <BinaryTree type="DecisionTree" boostWeight="1.0000000000000000e+00" itree="2">
      <Node pos="s" depth="0" NCoef="0" IVar="9" Cut="1.1123612976074219e+02" cType="1" res="-2.3061076644808054e-03" rms="4.9446889758110046e-01" purity="4.9888688325881958e-01" nType="0">
        <Node pos="l" depth="1" NCoef="0" IVar="8" Cut="1.1945047760009766e+02" cType="1" res="1.7960751429200172e-02" rms="4.9646425247192383e-01" purity="5.2716958522796631e-01" nType="0">
          <Node pos="l" depth="2" NCoef="0" IVar="2" Cut="2.4104220867156982e+00" cType="1" res="4.5061904937028885e-02" rms="4.9505078792572021e-01" purity="5.6079238653182983e-01" nType="0">
            <Node pos="l" depth="3" NCoef="0" IVar="-1" Cut="0.0000000000000000e+00" cType="1" res="2.3878760635852814e-02" rms="4.9204716086387634e-01" purity="5.8364862203598022e-01" nType="-99"/>
            <Node pos="r" depth="3" NCoef="0" IVar="-1" Cut="0.0000000000000000e+00" cType="1" res="-3.4978755284100771e-03" rms="4.9909287691116333e-01" purity="4.9807810783386230e-01" nType="-99"/>
          </Node>
          <Node pos="r" depth="2" NCoef="0" IVar="9" Cut="6.2888103485107422e+01" cType="1" res="-4.3545950204133987e-02" rms="4.9417349696159363e-01" purity="4.5086169242858887e-01" nType="0">
            <Node pos="l" depth="3" NCoef="0" IVar="-1" Cut="0.0000000000000000e+00" cType="1" res="-3.3308941870927811e-02" rms="4.8508235812187195e-01" purity="3.8151770830154419e-01" nType="-99"/>
            <Node pos="r" depth="3" NCoef="0" IVar="-1" Cut="0.0000000000000000e+00" cType="1" res="6.7343567498028278e-03" rms="4.9685811996459961e-01" purity="5.2902358770370483e-01" nType="-99"/>
          </Node>
        </Node>
        <Node pos="r" depth="1" NCoef="0" IVar="3" Cut="1.4466106891632080e+00" cType="1" res="-1.3542604446411133e-01" rms="4.5944884419441223e-01" purity="3.1311613321304321e-01" nType="0">
          <Node pos="l" depth="2" NCoef="0" IVar="-1" Cut="0.0000000000000000e+00" cType="1" res="-2.8045115992426872e-02" rms="4.7877648472785950e-01" purity="3.6935445666313171e-01" nType="-99"/>
          <Node pos="r" depth="2" NCoef="0" IVar="-1" Cut="0.0000000000000000e+00" cType="1" res="-7.0329137146472931e-02" rms="4.2407590150833130e-01" purity="2.4271194636821747e-01" nType="-99"/>
        </Node>
      </Node>
    </BinaryTree>
    <BinaryTree type="DecisionTree" boostWeight="1.0000000000000000e+00" itree="3">
      <Node pos="s" depth="0" NCoef="0" IVar="9" Cut="1.1296723937988281e+02" cType="1" res="-2.2015986032783985e-03" rms="4.9236315488815308e-01" purity="4.9907469749450684e-01" nType="0">
        <Node pos="l" depth="1" NCoef="0" IVar="3" Cut="1.2660199403762817e+00" cType="1" res="1.4461775310337543e-02" rms="4.9521532654762268e-01" purity="5.2698856592178345e-01" nType="0">
          <Node pos="l" depth="2" NCoef="0" IVar="4" Cut="1.4961282348632812e+02" cType="1" res="4.7035865485668182e-02" rms="4.9281567335128784e-01" purity="5.6120085716247559e-01" nType="0">
            <Node pos="l" depth="3" NCoef="0" IVar="-1" Cut="0.0000000000000000e+00" cType="1" res="2.1508149802684784e-02" rms="4.9118733406066895e-01" purity="5.7618772983551025e-01" nType="-99"/>
            <Node pos="r" depth="3" NCoef="0" IVar="-1" Cut="0.0000000000000000e+00" cType="1" res="-2.2426713258028030e-02" rms="4.9309119582176208e-01" purity="4.3122830986976624e-01" nType="-99"/>
          </Node>
          <Node pos="r" depth="2" NCoef="0" IVar="5" Cut="3.7318744659423828e+01" cType="1" res="-3.1547762453556061e-02" rms="4.9494591355323792e-01" purity="4.7866514325141907e-01" nType="0">
            <Node pos="l" depth="3" NCoef="0" IVar="-1" Cut="0.0000000000000000e+00" cType="1" res="-1.8072126840706915e-04" rms="4.9538692831993103e-01" purity="5.1057660579681396e-01" nType="-99"/>
            <Node pos="r" depth="3" NCoef="0" IVar="-1" Cut="0.0000000000000000e+00" cType="1" res="-3.7599164992570877e-02" rms="4.8611584305763245e-01" purity="4.0340358018875122e-01" nType="-99"/>
          </Node>
        </Node>
        <Node pos="r" depth="1" NCoef="0" IVar="8" Cut="1.2376585388183594e+02" cType="1" res="-1.1726357042789459e-01" rms="4.5586752891540527e-01" purity="3.0632689595222473e-01" nType="0">
          <Node pos="l" depth="2" NCoef="0" IVar="-1" Cut="0.0000000000000000e+00" cType="1" res="-2.2035613656044006e-02" rms="4.8378431797027588e-01" purity="3.7968719005584717e-01" nType="-99"/>
          <Node pos="r" depth="2" NCoef="0" IVar="-1" Cut="0.0000000000000000e+00" cType="1" res="-6.5715029835700989e-02" rms="4.0524867177009583e-01" purity="2.0938821136951447e-01" nType="-99"/>
        </Node>
      </Node>
    </BinaryTree>
    <BinaryTree type="DecisionTree" boostWeight="1.0000000000000000e+00" itree="4">
      <Node pos="s" depth="0" NCoef="0" IVar="7" Cut="3.2002203464508057e+00" cType="1" res="-5.5060139857232571e-03" rms="4.9158406257629395e-01" purity="4.9560481309890747e-01" nType="0">
        <Node pos="l" depth="1" NCoef="0" IVar="6" Cut="1.2742543792724609e+02" cType="1" res="7.2810491546988487e-03" rms="4.9235540628433228e-01" purity="5.1084357500076294e-01" nType="0">
          <Node pos="l" depth="2" NCoef="0" IVar="0" Cut="1.7509989738464355e+00" cType="1" res="3.0927712097764015e-02" rms="4.9250045418739319e-01" purity="5.4280966520309448e-01" nType="0">
            <Node pos="l" depth="3" NCoef="0" IVar="-1" Cut="0.0000000000000000e+00" cType="1" res="1.8001018092036247e-02" rms="4.9054595828056335e-01" purity="5.6224566698074341e-01" nType="-99"/>
            <Node pos="r" depth="3" NCoef="0" IVar="-1" Cut="0.0000000000000000e+00" cType="1" res="-1.2883490882813931e-02" rms="4.9363496899604797e-01" purity="4.7273066639900208e-01" nType="-99"/>
          </Node>
          <Node pos="r" depth="2" NCoef="0" IVar="0" Cut="1.1113227605819702e+00" cType="1" res="-5.3592491894960403e-02" rms="4.8672485351562500e-01" purity="4.2855349183082581e-01" nType="0">
            <Node pos="l" depth="3" NCoef="0" IVar="-1" Cut="0.0000000000000000e+00" cType="1" res="-3.9038087707012892e-03" rms="4.9127542972564697e-01" purity="4.6999073028564453e-01" nType="-99"/>
            <Node pos="r" depth="3" NCoef="0" IVar="-1" Cut="0.0000000000000000e+00" cType="1" res="-3.9293296635150909e-02" rms="4.7463959455490112e-01" purity="3.7310525774955750e-01" nType="-99"/>
          </Node>
        </Node>
        <Node pos="r" depth="1" NCoef="0" IVar="-1" Cut="0.0000000000000000e+00" cType="1" res="-4.3612141162157059e-02" rms="4.6809282898902893e-01" purity="3.5456490516662598e-01" nType="-99"/>
      </Node>
    </BinaryTree>
    <BinaryTree type="DecisionTree" boostWeight="1.0000000000000000e+00" itree="5">
      <Node pos="s" depth="0" NCoef="0" IVar="3" Cut="9.3679797649383545e-01" cType="1" res="-3.3834832720458508e-03" rms="4.9001196026802063e-01" purity="4.9697399139404297e-01" nType="0">
        <Node pos="l" depth="1" NCoef="0" IVar="5" Cut="5.9305686950683594e+01" cType="1" res="4.4033788144588470e-02" rms="4.9011093378067017e-01" purity="5.5867516994476318e-01" nType="0">
          <Node pos="l" depth="2" NCoef="0" IVar="9" Cut="4.8636238098144531e+01" cType="1" res="5.8409936726093292e-02" rms="4.8937931656837463e-01" purity="5.7924467325210571e-01" nType="0">
            <Node pos="l" depth="3" NCoef="0" IVar="-1" Cut="0.0000000000000000e+00" cType="1" res="3.2096288632601500e-03" rms="4.9588724970817566e-01" purity="5.2591782808303833e-01" nType="-99"/>
            <Node pos="r" depth="3" NCoef="0" IVar="-1" Cut="0.0000000000000000e+00" cType="1" res="3.1947750598192215e-02" rms="4.8310592770576477e-01" purity="6.1081695556640625e-01" nType="-99"/>
          </Node>
          <Node pos="r" depth="2" NCoef="0" IVar="-1" Cut="0.0000000000000000e+00" cType="1" res="-1.3719122856855392e-02" rms="4.8621636629104614e-01" purity="4.4149440526962280e-01" nType="-99"/>
        </Node>
        <Node pos="r" depth="1" NCoef="0" IVar="9" Cut="9.9901672363281250e+01" cType="1" res="-2.9829783365130424e-02" rms="4.8795923590660095e-01" purity="4.6256101131439209e-01" nType="0">
          <Node pos="l" depth="2" NCoef="0" IVar="9" Cut="4.4368091583251953e+01" cType="1" res="-9.7657423466444016e-03" rms="4.9405983090400696e-01" purity="4.9939391016960144e-01" nType="0">
            <Node pos="l" depth="3" NCoef="0" IVar="-1" Cut="0.0000000000000000e+00" cType="1" res="-2.5210814550518990e-02" rms="4.8938328027725220e-01" purity="4.2636176943778992e-01" nType="-99"/>
            <Node pos="r" depth="3" NCoef="0" IVar="-1" Cut="0.0000000000000000e+00" cType="1" res="6.0933870263397694e-03" rms="4.9366801977157593e-01" purity="5.3081279993057251e-01" nType="-99"/>
          </Node>
          <Node pos="r" depth="2" NCoef="0" IVar="6" Cut="8.9189514160156250e+01" cType="1" res="-1.1152897030115128e-01" rms="4.5320609211921692e-01" purity="3.1258037686347961e-01" nType="0">
            <Node pos="l" depth="3" NCoef="0" IVar="-1" Cut="0.0000000000000000e+00" cType="1" res="-2.3555595427751541e-02" rms="4.7479337453842163e-01" purity="3.7115657329559326e-01" nType="-99"/>
            <Node pos="r" depth="3" NCoef="0" IVar="-1" Cut="0.0000000000000000e+00" cType="1" res="-5.5101316422224045e-02" rms="4.2696768045425415e-01" purity="2.5636735558509827e-01" nType="-99"/>
          </Node>
        </Node>
      </Node>
    </BinaryTree>
    <BinaryTree type="DecisionTree" boostWeight="1.0000000000000000e+00" itree="6">
      <Node pos="s" depth="0" NCoef="0" IVar="3" Cut="1.7426290512084961e+00" cType="1" res="-1.3859756290912628e-03" rms="4.8835867643356323e-01" purity="4.9822729825973511e-01" nType="0">
        <Node pos="l" depth="1" NCoef="0" IVar="5" Cut="5.1151882171630859e+01" cType="1" res="1.6034951433539391e-02" rms="4.8972070217132568e-01" purity="5.2257221937179565e-01" nType="0">
          <Node pos="l" depth="2" NCoef="0" IVar="1" Cut="1.3884630203247070e+00" cType="1" res="3.3060275018215179e-02" rms="4.9034327268600464e-01" purity="5.4903024435043335e-01" nType="0">
            <Node pos="l" depth="3" NCoef="0" IVar="-1" Cut="0.0000000000000000e+00" cType="1" res="2.1222742274403572e-02" rms="4.8749193549156189e-01" purity="5.7678955793380737e-01" nType="-99"/>
            <Node pos="r" depth="3" NCoef="0" IVar="-1" Cut="0.0000000000000000e+00" cType="1" res="-4.8379208892583847e-03" rms="4.9209445714950562e-01" purity="4.9818351864814758e-01" nType="-99"/>
          </Node>
          <Node pos="r" depth="2" NCoef="0" IVar="7" Cut="1.9413921833038330e+00" cType="1" res="-5.0586380064487457e-02" rms="4.8152482509613037e-01" purity="4.1904005408287048e-01" nType="0">
            <Node pos="l" depth="3" NCoef="0" IVar="-1" Cut="0.0000000000000000e+00" cType="1" res="1.8957983411382884e-04" rms="4.8638084530830383e-01" purity="4.8167610168457031e-01" nType="-99"/>
            <Node pos="r" depth="3" NCoef="0" IVar="-1" Cut="0.0000000000000000e+00" cType="1" res="-2.7428640052676201e-02" rms="4.7714453935623169e-01" purity="3.8841542601585388e-01" nType="-99"/>
          </Node>
        </Node>
        <Node pos="r" depth="1" NCoef="0" IVar="7" Cut="3.1236584186553955e+00" cType="1" res="-7.2448030114173889e-02" rms="4.7620606422424316e-01" purity="3.9892157912254333e-01" nType="0">
          <Node pos="l" depth="2" NCoef="0" IVar="5" Cut="2.9695070266723633e+01" cType="1" res="-4.5620292425155640e-02" rms="4.8395156860351562e-01" purity="4.3528476357460022e-01" nType="0">
            <Node pos="l" depth="3" NCoef="0" IVar="-1" Cut="0.0000000000000000e+00" cType="1" res="-2.0710809621959925e-03" rms="4.9255636334419250e-01" purity="4.9407687783241272e-01" nType="-99"/>
            <Node pos="r" depth="3" NCoef="0" IVar="-1" Cut="0.0000000000000000e+00" cType="1" res="-3.1813729554414749e-02" rms="4.7079887986183167e-01" purity="3.7218028306961060e-01" nType="-99"/>
          </Node>
          <Node pos="r" depth="2" NCoef="0" IVar="-1" Cut="0.0000000000000000e+00" cType="1" res="-5.1802407950162888e-02" rms="4.4544208049774170e-01" purity="2.9748585820198059e-01" nType="-99"/>
        </Node>
      </Node>
    </BinaryTree>
    <BinaryTree type="DecisionTree" boostWeight="1.0000000000000000e+00" itree="7">
      <Node pos="s" depth="0" NCoef="0" IVar="6" Cut="1.4117509460449219e+02" cType="1" res="5.3908629342913628e-03" rms="4.8755636811256409e-01" purity="5.0549960136413574e-01" nType="0">
        <Node pos="l" depth="1" NCoef="0" IVar="2" Cut="2.3110301494598389e+00" cType="1" res="2.4124911054968834e-02" rms="4.8843935132026672e-01" purity="5.3696459531784058e-01" nType="0">
          <Node pos="l" depth="2" NCoef="0" IVar="8" Cut="6.9964271545410156e+01" cType="1" res="4.9172688275575638e-02" rms="4.8588803410530090e-01" purity="5.6887078285217285e-01" nType="0">
            <Node pos="l" depth="3" NCoef="0" IVar="-1" Cut="0.0000000000000000e+00" cType="1" res="3.5862452350556850e-03" rms="4.9175247550010681e-01" purity="5.4153364896774292e-01" nType="-99"/>
            <Node pos="r" depth="3" NCoef="0" IVar="-1" Cut="0.0000000000000000e+00" cType="1" res="2.7187695726752281e-02" rms="4.8065984249114990e-01" purity="5.8567976951599121e-01" nType="-99"/>
          </Node>
          <Node pos="r" depth="2" NCoef="0" IVar="0" Cut="1.6109347343444824e+00" cType="1" res="-1.8746243789792061e-02" rms="4.8981207609176636e-01" purity="4.8235481977462769e-01" nType="0">
            <Node pos="l" depth="3" NCoef="0" IVar="-1" Cut="0.0000000000000000e+00" cType="1" res="1.9370336085557938e-03" rms="4.9035647511482239e-01" purity="5.1074475049972534e-01" nType="-99"/>
            <Node pos="r" depth="3" NCoef="0" IVar="-1" Cut="0.0000000000000000e+00" cType="1" res="-3.1815946102142334e-02" rms="4.8081612586975098e-01" purity="3.9639070630073547e-01" nType="-99"/>
          </Node>
        </Node>
        <Node pos="r" depth="1" NCoef="0" IVar="0" Cut="8.0951154232025146e-01" cType="1" res="-5.5284872651100159e-02" rms="4.7968930006027222e-01" purity="4.0359103679656982e-01" nType="0">
          <Node pos="l" depth="2" NCoef="0" IVar="-1" Cut="0.0000000000000000e+00" cType="1" res="1.9200651440769434e-03" rms="4.9050641059875488e-01" purity="4.6924144029617310e-01" nType="-99"/>
          <Node pos="r" depth="2" NCoef="0" IVar="9" Cut="8.4613220214843750e+01" cType="1" res="-8.4824204444885254e-02" rms="4.7151705622673035e-01" purity="3.7163618206977844e-01" nType="0">
            <Node pos="l" depth="3" NCoef="0" IVar="-1" Cut="0.0000000000000000e+00" cType="1" res="-2.0880499854683876e-02" rms="4.8618608713150024e-01" purity="4.1801437735557556e-01" nType="-99"/>
            <Node pos="r" depth="3" NCoef="0" IVar="-1" Cut="0.0000000000000000e+00" cType="1" res="-4.9700364470481873e-02" rms="4.3489864468574524e-01" purity="2.7602508664131165e-01" nType="-99"/>
          </Node>
        </Node>
      </Node>
    </BinaryTree>
    <BinaryTree type="DecisionTree" boostWeight="1.0000000000000000e+00" itree="8">
      <Node pos="s" depth="0" NCoef="0" IVar="8" Cut="1.2803210449218750e+02" cType="1" res="3.7216319469735026e-04" rms="4.8688453435897827e-01" purity="5.0197452306747437e-01" nType="0">
        <Node pos="l" depth="1" NCoef="0" IVar="8" Cut="6.1960773468017578e+01" cType="1" res="2.0079344511032104e-02" rms="4.9035012722015381e-01" purity="5.3956758975982666e-01" nType="0">
          <Node pos="l" depth="2" NCoef="0" IVar="9" Cut="8.0446113586425781e+01" cType="1" res="-2.3682527244091034e-02" rms="4.9216294288635254e-01" purity="4.9857446551322937e-01" nType="0">
            <Node pos="l" depth="3" NCoef="0" IVar="-1" Cut="0.0000000000000000e+00" cType="1" res="7.6589052332565188e-04" rms="4.9554446339607239e-01" purity="5.3692108392715454e-01" nType="-99"/>
            <Node pos="r" depth="3" NCoef="0" IVar="-1" Cut="0.0000000000000000e+00" cType="1" res="-3.6075625568628311e-02" rms="4.7231322526931763e-01" purity="3.7814456224441528e-01" nType="-99"/>
          </Node>
          <Node pos="r" depth="2" NCoef="0" IVar="6" Cut="8.6037178039550781e+01" cType="1" res="4.2551256716251373e-02" rms="4.8789367079734802e-01" purity="5.6061774492263794e-01" nType="0">
            <Node pos="l" depth="3" NCoef="0" IVar="-1" Cut="0.0000000000000000e+00" cType="1" res="2.8978310525417328e-02" rms="4.8189011216163635e-01" purity="6.0836571455001831e-01" nType="-99"/>
            <Node pos="r" depth="3" NCoef="0" IVar="-1" Cut="0.0000000000000000e+00" cType="1" res="1.9200533861294389e-03" rms="4.9140033125877380e-01" purity="5.1017230749130249e-01" nType="-99"/>
          </Node>
        </Node>
        <Node pos="r" depth="1" NCoef="0" IVar="0" Cut="1.6223902702331543e+00" cType="1" res="-4.7848716378211975e-02" rms="4.7486227750778198e-01" purity="4.0998920798301697e-01" nType="0">
          <Node pos="l" depth="2" NCoef="0" IVar="3" Cut="1.2490913867950439e+00" cType="1" res="-2.6263182982802391e-02" rms="4.8000743985176086e-01" purity="4.3554270267486572e-01" nType="0">
            <Node pos="l" depth="3" NCoef="0" IVar="-1" Cut="0.0000000000000000e+00" cType="1" res="3.7116289604455233e-03" rms="4.8725777864456177e-01" purity="4.9150186777114868e-01" nType="-99"/>
            <Node pos="r" depth="3" NCoef="0" IVar="-1" Cut="0.0000000000000000e+00" cType="1" res="-2.4612007662653923e-02" rms="4.6733421087265015e-01" purity="3.6833649873733521e-01" nType="-99"/>
          </Node>
          <Node pos="r" depth="2" NCoef="0" IVar="-1" Cut="0.0000000000000000e+00" cType="1" res="-4.7111291438341141e-02" rms="4.4400763511657715e-01" purity="3.0951839685440063e-01" nType="-99"/>
        </Node>
      </Node>
    </BinaryTree>
    <BinaryTree type="DecisionTree" boostWeight="1.0000000000000000e+00" itree="9">
      <Node pos="s" depth="0" NCoef="0" IVar="7" Cut="1.7348430156707764e+00" cType="1" res="-3.6068409681320190e-03" rms="4.8587703704833984e-01" purity="4.9716079235076904e-01" nType="0">
        <Node pos="l" depth="1" NCoef="0" IVar="0" Cut="1.0967276096343994e+00" cType="1" res="3.6178022623062134e-02" rms="4.8643994331359863e-01" purity="5.5990761518478394e-01" nType="0">
          <Node pos="l" depth="2" NCoef="0" IVar="1" Cut="1.1122241020202637e+00" cType="1" res="6.5814286470413208e-02" rms="4.8264369368553162e-01" purity="5.9671711921691895e-01" nType="0">
            <Node pos="l" depth="3" NCoef="0" IVar="-1" Cut="0.0000000000000000e+00" cType="1" res="3.3907122910022736e-02" rms="4.7866860032081604e-01" purity="6.2728452682495117e-01" nType="-99"/>
            <Node pos="r" depth="3" NCoef="0" IVar="-1" Cut="0.0000000000000000e+00" cType="1" res="1.3022056780755520e-02" rms="4.8559811711311340e-01" purity="5.6025159358978271e-01" nType="-99"/>
          </Node>
          <Node pos="r" depth="2" NCoef="0" IVar="5" Cut="2.2167207717895508e+01" cType="1" res="1.5503421425819397e-02" rms="4.8800623416900635e-01" purity="5.3422886133193970e-01" nType="0">
            <Node pos="l" depth="3" NCoef="0" IVar="-1" Cut="0.0000000000000000e+00" cType="1" res="2.1173005923628807e-02" rms="4.8407700657844543e-01" purity="5.8426898717880249e-01" nType="-99"/>
            <Node pos="r" depth="3" NCoef="0" IVar="-1" Cut="0.0000000000000000e+00" cType="1" res="-5.5408250773325562e-04" rms="4.8849999904632568e-01" purity="5.1449757814407349e-01" nType="-99"/>
          </Node>
        </Node>
        <Node pos="r" depth="1" NCoef="0" IVar="5" Cut="3.1693565368652344e+01" cType="1" res="-2.2287202998995781e-02" rms="4.8448666930198669e-01" purity="4.6769902110099792e-01" nType="0">
          <Node pos="l" depth="2" NCoef="0" IVar="9" Cut="4.1603950500488281e+01" cType="1" res="6.7131738178431988e-03" rms="4.8876756429672241e-01" purity="5.1661747694015503e-01" nType="0">
            <Node pos="l" depth="3" NCoef="0" IVar="-1" Cut="0.0000000000000000e+00" cType="1" res="-1.8585572019219398e-02" rms="4.8885643482208252e-01" purity="4.4553256034851074e-01" nType="-99"/>
            <Node pos="r" depth="3" NCoef="0" IVar="-1" Cut="0.0000000000000000e+00" cType="1" res="1.1098940856754780e-02" rms="4.8665902018547058e-01" purity="5.4570198059082031e-01" nType="-99"/>
          </Node>
          <Node pos="r" depth="2" NCoef="0" IVar="3" Cut="1.5507096052169800e+00" cType="1" res="-5.1228377968072891e-02" rms="4.7842717170715332e-01" purity="4.1888049244880676e-01" nType="0">
            <Node pos="l" depth="3" NCoef="0" IVar="-1" Cut="0.0000000000000000e+00" cType="1" res="-9.6614379435777664e-03" rms="4.8674705624580383e-01" purity="4.6180403232574463e-01" nType="-99"/>
            <Node pos="r" depth="3" NCoef="0" IVar="-1" Cut="0.0000000000000000e+00" cType="1" res="-3.9638414978981018e-02" rms="4.5399165153503418e-01" purity="3.2112708687782288e-01" nType="-99"/>
          </Node>
        </Node>
      </Node>
    </BinaryTree>
    <BinaryTree type="DecisionTree" boostWeight="1.0000000000000000e+00" itree="10">
      <Node pos="s" depth="0" NCoef="0" IVar="7" Cut="3.3616428375244141e+00" cType="1" res="-2.1009079646319151e-03" rms="4.8548763990402222e-01" purity="4.9895673990249634e-01" nType="0">
        <Node pos="l" depth="1" NCoef="0" IVar="0" Cut="1.5888257026672363e+00" cType="1" res="4.5219548046588898e-03" rms="4.8693272471427917e-01" purity="5.1072072982788086e-01" nType="0">
          <Node pos="l" depth="2" NCoef="0" IVar="1" Cut="1.2448384761810303e+00" cType="1" res="1.9072152674198151e-02" rms="4.8693633079528809e-01" purity="5.3015780448913574e-01" nType="0">
            <Node pos="l" depth="3" NCoef="0" IVar="-1" Cut="0.0000000000000000e+00" cType="1" res="1.5490091405808926e-02" rms="4.8558193445205688e-01" purity="5.6046646833419800e-01" nType="-99"/>
            <Node pos="r" depth="3" NCoef="0" IVar="-1" Cut="0.0000000000000000e+00" cType="1" res="-4.3334085494279861e-03" rms="4.8705050349235535e-01" purity="4.8890265822410583e-01" nType="-99"/>
          </Node>
          <Node pos="r" depth="2" NCoef="0" IVar="8" Cut="1.0796237182617188e+02" cType="1" res="-3.7733551114797592e-02" rms="4.8445123434066772e-01" purity="4.5427313446998596e-01" nType="0">
            <Node pos="l" depth="3" NCoef="0" IVar="-1" Cut="0.0000000000000000e+00" cType="1" res="-3.4857606515288353e-03" rms="4.9200737476348877e-01" purity="5.0350636243820190e-01" nType="-99"/>
            <Node pos="r" depth="3" NCoef="0" IVar="-1" Cut="0.0000000000000000e+00" cType="1" res="-3.5989742726087570e-02" rms="4.6170693635940552e-01" purity="3.4712466597557068e-01" nType="-99"/>
          </Node>
        </Node>
        <Node pos="r" depth="1" NCoef="0" IVar="-1" Cut="0.0000000000000000e+00" cType="1" res="-3.6611214280128479e-02" rms="4.5136231184005737e-01" purity="3.2094839215278625e-01" nType="-99"/>
      </Node>
    </BinaryTree>
    <BinaryTree type="DecisionTree" boostWeight="1.0000000000000000e+00" itree="11">
      <Node pos="s" depth="0" NCoef="0" IVar="3" Cut="1.6985385417938232e+00" cType="1" res="-1.4997136313468218e-03" rms="4.8432987928390503e-01" purity="4.9975773692131042e-01" nType="0">
        <Node pos="l" depth="1" NCoef="0" IVar="2" Cut="2.3736200332641602e+00" cType="1" res="1.2286874465644360e-02" rms="4.8630815744400024e-01" purity="5.2734082937240601e-01" nType="0">
          <Node pos="l" depth="2" NCoef="0" IVar="7" Cut="1.3416072130203247e+00" cType="1" res="2.8545061126351357e-02" rms="4.8484933376312256e-01" purity="5.5255180597305298e-01" nType="0">
            <Node pos="l" depth="3" NCoef="0" IVar="-1" Cut="0.0000000000000000e+00" cType="1" res="2.8941964730620384e-02" rms="4.7453331947326660e-01" purity="6.2773770093917847e-01" nType="-99"/>
            <Node pos="r" depth="3" NCoef="0" IVar="-1" Cut="0.0000000000000000e+00" cType="1" res="5.0505632534623146e-03" rms="4.8695200681686401e-01" purity="5.2992713451385498e-01" nType="-99"/>
          </Node>
          <Node pos="r" depth="2" NCoef="0" IVar="8" Cut="1.0288756561279297e+02" cType="1" res="-2.3291300982236862e-02" rms="4.8759791254997253e-01" purity="4.7217097878456116e-01" nType="0">
            <Node pos="l" depth="3" NCoef="0" IVar="-1" Cut="0.0000000000000000e+00" cType="1" res="1.1944184079766273e-03" rms="4.9353531002998352e-01" purity="5.1999682188034058e-01" nType="-99"/>
            <Node pos="r" depth="3" NCoef="0" IVar="-1" Cut="0.0000000000000000e+00" cType="1" res="-2.0077237859368324e-02" rms="4.7749707102775574e-01" purity="4.0966054797172546e-01" nType="-99"/>
          </Node>
        </Node>
        <Node pos="r" depth="1" NCoef="0" IVar="1" Cut="1.1276174783706665e+00" cType="1" res="-5.0580844283103943e-02" rms="4.7397661209106445e-01" purity="4.0156012773513794e-01" nType="0">
          <Node pos="l" depth="2" NCoef="0" IVar="-1" Cut="0.0000000000000000e+00" cType="1" res="-3.2974809873849154e-03" rms="4.7974005341529846e-01" purity="4.4765329360961914e-01" nType="-99"/>
          <Node pos="r" depth="2" NCoef="0" IVar="8" Cut="1.0421295928955078e+02" cType="1" res="-7.5819797813892365e-02" rms="4.6865454316139221e-01" purity="3.7365764379501343e-01" nType="0">
            <Node pos="l" depth="3" NCoef="0" IVar="-1" Cut="0.0000000000000000e+00" cType="1" res="-1.6143156215548515e-02" rms="4.8619642853736877e-01" purity="4.3615868687629700e-01" nType="-99"/>
            <Node pos="r" depth="3" NCoef="0" IVar="-1" Cut="0.0000000000000000e+00" cType="1" res="-4.0235631167888641e-02" rms="4.4412675499916077e-01" purity="2.9954499006271362e-01" nType="-99"/>
          </Node>
        </Node>
      </Node>
    </BinaryTree>
    <BinaryTree type="DecisionTree" boostWeight="1.0000000000000000e+00" itree="12">
      <Node pos="s" depth="0" NCoef="0" IVar="2" Cut="2.6068503856658936e+00" cType="1" res="-5.8505509514361620e-04" rms="4.8361971974372864e-01" purity="4.9987480044364929e-01" nType="0">
        <Node pos="l" depth="1" NCoef="0" IVar="5" Cut="5.4215885162353516e+01" cType="1" res="9.4364034011960030e-03" rms="4.8427721858024597e-01" purity="5.1688313484191895e-01" nType="0">
          <Node pos="l" depth="2" NCoef="0" IVar="9" Cut="5.0831527709960938e+01" cType="1" res="1.9899519160389900e-02" rms="4.8604878783226013e-01" purity="5.4023915529251099e-01" nType="0">
            <Node pos="l" depth="3" NCoef="0" IVar="-1" Cut="0.0000000000000000e+00" cType="1" res="-7.1788141503930092e-03" rms="4.9194890260696411e-01" purity="4.9507722258567810e-01" nType="-99"/>
            <Node pos="r" depth="3" NCoef="0" IVar="-1" Cut="0.0000000000000000e+00" cType="1" res="1.6400843858718872e-02" rms="4.8075518012046814e-01" purity="5.6797105073928833e-01" nType="-99"/>
          </Node>
          <Node pos="r" depth="2" NCoef="0" IVar="3" Cut="8.9968192577362061e-01" cType="1" res="-4.0593985468149185e-02" rms="4.7252339124679565e-01" purity="4.0520429611206055e-01" nType="0">
            <Node pos="l" depth="3" NCoef="0" IVar="-1" Cut="0.0000000000000000e+00" cType="1" res="1.2406666064634919e-03" rms="4.8552656173706055e-01" purity="4.8564454913139343e-01" nType="-99"/>
            <Node pos="r" depth="3" NCoef="0" IVar="-1" Cut="0.0000000000000000e+00" cType="1" res="-2.5311639532446861e-02" rms="4.6245598793029785e-01" purity="3.5652628540992737e-01" nType="-99"/>
          </Node>
        </Node>
        <Node pos="r" depth="1" NCoef="0" IVar="0" Cut="1.0101902484893799e+00" cType="1" res="-5.6128643453121185e-02" rms="4.7615027427673340e-01" purity="4.0560659766197205e-01" nType="0">
          <Node pos="l" depth="2" NCoef="0" IVar="-1" Cut="0.0000000000000000e+00" cType="1" res="-7.6093096286058426e-03" rms="4.8434317111968994e-01" purity="4.4664368033409119e-01" nType="-99"/>
          <Node pos="r" depth="2" NCoef="0" IVar="-1" Cut="0.0000000000000000e+00" cType="1" res="-2.6582533493638039e-02" rms="4.7033962607383728e-01" purity="3.8246446847915649e-01" nType="-99"/>
        </Node>
      </Node>
    </BinaryTree>
    <BinaryTree type="DecisionTree" boostWeight="1.0000000000000000e+00" itree="13">
      <Node pos="s" depth="0" NCoef="0" IVar="8" Cut="1.6339620971679688e+02" cType="1" res="1.5231191646307707e-03" rms="4.8335012793540955e-01" purity="5.0252228975296021e-01" nType="0">
        <Node pos="l" depth="1" NCoef="0" IVar="0" Cut="9.1954457759857178e-01" cType="1" res="1.2447557412087917e-02" rms="4.8661863803863525e-01" purity="5.2797836065292358e-01" nType="0">
          <Node pos="l" depth="2" NCoef="0" IVar="4" Cut="8.3570129394531250e+01" cType="1" res="4.5357801020145416e-02" rms="4.8268717527389526e-01" purity="5.7220041751861572e-01" nType="0">
            <Node pos="l" depth="3" NCoef="0" IVar="-1" Cut="0.0000000000000000e+00" cType="1" res="2.4143451824784279e-02" rms="4.7918486595153809e-01" purity="6.0461544990539551e-01" nType="-99"/>
            <Node pos="r" depth="3" NCoef="0" IVar="-1" Cut="0.0000000000000000e+00" cType="1" res="4.8810281441546977e-04" rms="4.8775398731231689e-01" purity="4.9806341528892517e-01" nType="-99"/>
          </Node>
          <Node pos="r" depth="2" NCoef="0" IVar="3" Cut="1.8967170715332031e+00" cType="1" res="-2.2592395544052124e-03" rms="4.8764777183532715e-01" purity="5.0821661949157715e-01" nType="0">
            <Node pos="l" depth="3" NCoef="0" IVar="-1" Cut="0.0000000000000000e+00" cType="1" res="2.4772644974291325e-03" rms="4.8893514275550842e-01" purity="5.2597439289093018e-01" nType="-99"/>
            <Node pos="r" depth="3" NCoef="0" IVar="-1" Cut="0.0000000000000000e+00" cType="1" res="-2.1625824272632599e-02" rms="4.7563508152961731e-01" purity="3.9689397811889648e-01" nType="-99"/>
          </Node>
        </Node>
        <Node pos="r" depth="1" NCoef="0" IVar="9" Cut="6.7755226135253906e+01" cType="1" res="-5.0644461065530777e-02" rms="4.6389293670654297e-01" purity="3.8096156716346741e-01" nType="0">
          <Node pos="l" depth="2" NCoef="0" IVar="-1" Cut="0.0000000000000000e+00" cType="1" res="-3.2016109675168991e-02" rms="4.6905755996704102e-01" purity="3.4227779507637024e-01" nType="-99"/>
          <Node pos="r" depth="2" NCoef="0" IVar="-1" Cut="0.0000000000000000e+00" cType="1" res="-5.8288024738430977e-03" rms="4.5673978328704834e-01" purity="4.1133373975753784e-01" nType="-99"/>
        </Node>
      </Node>
    </BinaryTree>
    <BinaryTree type="DecisionTree" boostWeight="1.0000000000000000e+00" itree="14">
      <Node pos="s" depth="0" NCoef="0" IVar="9" Cut="1.0595264434814453e+02" cType="1" res="-1.5027470653876662e-03" rms="4.8328107595443726e-01" purity="5.0049299001693726e-01" nType="0">
        <Node pos="l" depth="1" NCoef="0" IVar="9" Cut="6.8752151489257812e+01" cType="1" res="7.5917057693004608e-03" rms="4.8793262243270874e-01" purity="5.3066307306289673e-01" nType="0">
          <Node pos="l" depth="2" NCoef="0" IVar="8" Cut="1.0617288208007812e+02" cType="1" res="-8.5893403738737106e-03" rms="4.9011766910552979e-01" purity="5.0893205404281616e-01" nType="0">
            <Node pos="l" depth="3" NCoef="0" IVar="-1" Cut="0.0000000000000000e+00" cType="1" res="4.4414880685508251e-03" rms="4.9208232760429382e-01" purity="5.5825883150100708e-01" nType="-99"/>
            <Node pos="r" depth="3" NCoef="0" IVar="-1" Cut="0.0000000000000000e+00" cType="1" res="-1.6154522076249123e-02" rms="4.8420819640159607e-01" purity="4.1824004054069519e-01" nType="-99"/>
          </Node>
          <Node pos="r" depth="2" NCoef="0" IVar="8" Cut="6.9942184448242188e+01" cType="1" res="4.1996330022811890e-02" rms="4.8144984245300293e-01" purity="5.7686835527420044e-01" nType="0">
            <Node pos="l" depth="3" NCoef="0" IVar="-1" Cut="0.0000000000000000e+00" cType="1" res="-9.5830084756016731e-03" rms="4.9336516857147217e-01" purity="5.1373970508575439e-01" nType="-99"/>
            <Node pos="r" depth="3" NCoef="0" IVar="-1" Cut="0.0000000000000000e+00" cType="1" res="2.5713345035910606e-02" rms="4.7423776984214783e-01" purity="6.0085844993591309e-01" nType="-99"/>
          </Node>
        </Node>
        <Node pos="r" depth="1" NCoef="0" IVar="4" Cut="1.0429950714111328e+02" cType="1" res="-5.3367957472801208e-02" rms="4.5236599445343018e-01" purity="3.2843428850173950e-01" nType="0">
          <Node pos="l" depth="2" NCoef="0" IVar="-1" Cut="0.0000000000000000e+00" cType="1" res="-9.5422947779297829e-03" rms="4.6750167012214661e-01" purity="3.7403440475463867e-01" nType="-99"/>
          <Node pos="r" depth="2" NCoef="0" IVar="-1" Cut="0.0000000000000000e+00" cType="1" res="-3.5929575562477112e-02" rms="4.2613896727561951e-01" purity="2.6187613606452942e-01" nType="-99"/>
        </Node>
      </Node>
    </BinaryTree>
    <BinaryTree type="DecisionTree" boostWeight="1.0000000000000000e+00" itree="15">
      <Node pos="s" depth="0" NCoef="0" IVar="2" Cut="2.1538364887237549e+00" cType="1" res="-3.4000929445028305e-03" rms="4.8258322477340698e-01" purity="4.9720621109008789e-01" nType="0">
        <Node pos="l" depth="1" NCoef="0" IVar="8" Cut="6.2660877227783203e+01" cType="1" res="2.3319495841860771e-02" rms="4.8268574476242065e-01" purity="5.3917962312698364e-01" nType="0">
          <Node pos="l" depth="2" NCoef="0" IVar="8" Cut="4.9148403167724609e+01" cType="1" res="-1.8116636201739311e-02" rms="4.9079650640487671e-01" purity="5.1595860719680786e-01" nType="0">
            <Node pos="l" depth="3" NCoef="0" IVar="-1" Cut="0.0000000000000000e+00" cType="1" res="3.6260430351831019e-04" rms="4.9092641472816467e-01" purity="5.3745085000991821e-01" nType="-99"/>
            <Node pos="r" depth="3" NCoef="0" IVar="-1" Cut="0.0000000000000000e+00" cType="1" res="-1.5685210004448891e-02" rms="4.8945507407188416e-01" purity="4.8715421557426453e-01" nType="-99"/>
          </Node>
          <Node pos="r" depth="2" NCoef="0" IVar="6" Cut="6.8383331298828125e+01" cType="1" res="3.8305100053548813e-02" rms="4.7883662581443787e-01" purity="5.4757761955261230e-01" nType="0">
            <Node pos="l" depth="3" NCoef="0" IVar="-1" Cut="0.0000000000000000e+00" cType="1" res="3.0695373192429543e-02" rms="4.7328385710716248e-01" purity="6.2227284908294678e-01" nType="-99"/>
            <Node pos="r" depth="3" NCoef="0" IVar="-1" Cut="0.0000000000000000e+00" cType="1" res="4.9464157782495022e-03" rms="4.8035809397697449e-01" purity="5.0321096181869507e-01" nType="-99"/>
          </Node>
        </Node>
        <Node pos="r" depth="1" NCoef="0" IVar="0" Cut="1.8326534032821655e+00" cType="1" res="-2.5095568969845772e-02" rms="4.8141023516654968e-01" purity="4.6312513947486877e-01" nType="0">
          <Node pos="l" depth="2" NCoef="0" IVar="6" Cut="1.9907843017578125e+02" cType="1" res="-1.7351195216178894e-02" rms="4.8302099108695984e-01" purity="4.7701960802078247e-01" nType="0">
            <Node pos="l" depth="3" NCoef="0" IVar="-1" Cut="0.0000000000000000e+00" cType="1" res="-3.4400061704218388e-03" rms="4.8577326536178589e-01" purity="4.9688461422920227e-01" nType="-99"/>
            <Node pos="r" depth="3" NCoef="0" IVar="-1" Cut="0.0000000000000000e+00" cType="1" res="-2.6843253523111343e-02" rms="4.5843628048896790e-01" purity="3.3262521028518677e-01" nType="-99"/>
          </Node>
          <Node pos="r" depth="2" NCoef="0" IVar="-1" Cut="0.0000000000000000e+00" cType="1" res="-2.8974473476409912e-02" rms="4.6604242920875549e-01" purity="3.6401548981666565e-01" nType="-99"/>
        </Node>
      </Node>
    </BinaryTree>
    <BinaryTree type="DecisionTree" boostWeight="1.0000000000000000e+00" itree="16">
      <Node pos="s" depth="0" NCoef="0" IVar="7" Cut="1.3491258621215820e+00" cType="1" res="-6.5238558454439044e-04" rms="4.8161116242408752e-01" purity="5.0046801567077637e-01" nType="0">
        <Node pos="l" depth="1" NCoef="0" IVar="0" Cut="8.7123560905456543e-01" cType="1" res="4.0044564753770828e-02" rms="4.7902247309684753e-01" purity="5.8729249238967896e-01" nType="0">
          <Node pos="l" depth="2" NCoef="0" IVar="-1" Cut="0.0000000000000000e+00" cType="1" res="3.7162788212299347e-02" rms="4.5957195758819580e-01" purity="6.6456812620162964e-01" nType="-99"/>
          <Node pos="r" depth="2" NCoef="0" IVar="6" Cut="9.0605232238769531e+01" cType="1" res="2.0776342600584030e-02" rms="4.8401084542274475e-01" purity="5.6080216169357300e-01" nType="0">
            <Node pos="l" depth="3" NCoef="0" IVar="-1" Cut="0.0000000000000000e+00" cType="1" res="1.4245655387639999e-02" rms="4.8270368576049805e-01" purity="5.9840917587280273e-01" nType="-99"/>
            <Node pos="r" depth="3" NCoef="0" IVar="-1" Cut="0.0000000000000000e+00" cType="1" res="-5.0421701744198799e-03" rms="4.8467862606048584e-01" purity="4.8893508315086365e-01" nType="-99"/>
          </Node>
        </Node>
        <Node pos="r" depth="1" NCoef="0" IVar="8" Cut="1.1133609008789062e+02" cType="1" res="-1.1044863611459732e-02" rms="4.8171919584274292e-01" purity="4.7829627990722656e-01" nType="0">
          <Node pos="l" depth="2" NCoef="0" IVar="8" Cut="6.9895652770996094e+01" cType="1" res="5.8780852705240250e-03" rms="4.8828160762786865e-01" purity="5.2664107084274292e-01" nType="0">
            <Node pos="l" depth="3" NCoef="0" IVar="-1" Cut="0.0000000000000000e+00" cType="1" res="-6.4187725074589252e-03" rms="4.8894092440605164e-01" purity="4.9712505936622620e-01" nType="-99"/>
            <Node pos="r" depth="3" NCoef="0" IVar="-1" Cut="0.0000000000000000e+00" cType="1" res="1.1174552142620087e-02" rms="4.8648068308830261e-01" purity="5.5613493919372559e-01" nType="-99"/>
          </Node>
          <Node pos="r" depth="2" NCoef="0" IVar="9" Cut="4.7128177642822266e+01" cType="1" res="-3.7942573428153992e-02" rms="4.6984803676605225e-01" purity="4.0145602822303772e-01" nType="0">
            <Node pos="l" depth="3" NCoef="0" IVar="-1" Cut="0.0000000000000000e+00" cType="1" res="-3.2061282545328140e-02" rms="4.6387207508087158e-01" purity="3.2368940114974976e-01" nType="-99"/>
            <Node pos="r" depth="3" NCoef="0" IVar="-1" Cut="0.0000000000000000e+00" cType="1" res="-6.8373237736523151e-03" rms="4.7046333551406860e-01" purity="4.2912980914115906e-01" nType="-99"/>
          </Node>
        </Node>
      </Node>
    </BinaryTree>
    <BinaryTree type="DecisionTree" boostWeight="1.0000000000000000e+00" itree="17">
      <Node pos="s" depth="0" NCoef="0" IVar="5" Cut="2.7609767913818359e+01" cType="1" res="-5.4430756717920303e-03" rms="4.8087957501411438e-01" purity="4.9521711468696594e-01" nType="0">
        <Node pos="l" depth="1" NCoef="0" IVar="9" Cut="5.0110099792480469e+01" cType="1" res="1.8759638071060181e-02" rms="4.8408973217010498e-01" purity="5.4357391595840454e-01" nType="0">
          <Node pos="l" depth="2" NCoef="0" IVar="8" Cut="9.6565895080566406e+01" cType="1" res="-1.9003789871931076e-02" rms="4.8947480320930481e-01" purity="4.8766714334487915e-01" nType="0">
            <Node pos="l" depth="3" NCoef="0" IVar="-1" Cut="0.0000000000000000e+00" cType="1" res="2.2966412361711264e-03" rms="4.9397161602973938e-01" purity="5.4577952623367310e-01" nType="-99"/>
            <Node pos="r" depth="3" NCoef="0" IVar="-1" Cut="0.0000000000000000e+00" cType="1" res="-2.3026505485177040e-02" rms="4.7757738828659058e-01" purity="3.8064464926719666e-01" nType="-99"/>
          </Node>
          <Node pos="r" depth="2" NCoef="0" IVar="8" Cut="7.4487144470214844e+01" cType="1" res="5.3153440356254578e-02" rms="4.7653564810752869e-01" purity="5.9449213743209839e-01" nType="0">
            <Node pos="l" depth="3" NCoef="0" IVar="-1" Cut="0.0000000000000000e+00" cType="1" res="-1.4906392898410559e-03" rms="4.8841539025306702e-01" purity="5.4423516988754272e-01" nType="-99"/>
            <Node pos="r" depth="3" NCoef="0" IVar="-1" Cut="0.0000000000000000e+00" cType="1" res="3.1760197132825851e-02" rms="4.6675997972488403e-01" purity="6.2245565652847290e-01" nType="-99"/>
          </Node>
        </Node>
        <Node pos="r" depth="1" NCoef="0" IVar="7" Cut="3.1902394294738770e+00" cType="1" res="-2.3430928587913513e-02" rms="4.7768607735633850e-01" purity="4.5927754044532776e-01" nType="0">
          <Node pos="l" depth="2" NCoef="0" IVar="8" Cut="5.8018539428710938e+01" cType="1" res="-1.5637801960110664e-02" rms="4.8119032382965088e-01" purity="4.7791129350662231e-01" nType="0">
            <Node pos="l" depth="3" NCoef="0" IVar="-1" Cut="0.0000000000000000e+00" cType="1" res="-2.0735086873173714e-02" rms="4.8843917250633240e-01" purity="4.5415428280830383e-01" nType="-99"/>
            <Node pos="r" depth="3" NCoef="0" IVar="-1" Cut="0.0000000000000000e+00" cType="1" res="-2.0957649685442448e-03" rms="4.7893294692039490e-01" purity="4.8344060778617859e-01" nType="-99"/>
          </Node>
          <Node pos="r" depth="2" NCoef="0" IVar="-1" Cut="0.0000000000000000e+00" cType="1" res="-3.4539073705673218e-02" rms="4.4083586335182190e-01" purity="2.9929226636886597e-01" nType="-99"/>
        </Node>
      </Node>
    </BinaryTree>
    <BinaryTree type="DecisionTree" boostWeight="1.0000000000000000e+00" itree="18">
      <Node pos="s" depth="0" NCoef="0" IVar="9" Cut="1.3426199340820312e+02" cType="1" res="1.7315559089183807e-03" rms="4.8053434491157532e-01" purity="5.0161212682723999e-01" nType="0">
        <Node pos="l" depth="1" NCoef="0" IVar="0" Cut="2.1048398017883301e+00" cType="1" res="7.3492373339831829e-03" rms="4.8419475555419922e-01" purity="5.2120572328567505e-01" nType="0">
          <Node pos="l" depth="2" NCoef="0" IVar="2" Cut="2.2604053020477295e+00" cType="1" res="1.3787475414574146e-02" rms="4.8453322052955627e-01" purity="5.3050917387008667e-01" nType="0">
            <Node pos="l" depth="3" NCoef="0" IVar="-1" Cut="0.0000000000000000e+00" cType="1" res="1.1596072465181351e-02" rms="4.8191729187965393e-01" purity="5.6559485197067261e-01" nType="-99"/>
            <Node pos="r" depth="3" NCoef="0" IVar="-1" Cut="0.0000000000000000e+00" cType="1" res="-3.1896207947283983e-03" rms="4.8703932762145996e-01" purity="4.8427569866180420e-01" nType="-99"/>
          </Node>
          <Node pos="r" depth="2" NCoef="0" IVar="-1" Cut="0.0000000000000000e+00" cType="1" res="-2.1086463704705238e-02" rms="4.7575277090072632e-01" purity="4.2612656950950623e-01" nType="-99"/>
        </Node>
        <Node pos="r" depth="1" NCoef="0" IVar="-1" Cut="0.0000000000000000e+00" cType="1" res="-2.4317106232047081e-02" rms="4.3110522627830505e-01" purity="2.7667319774627686e-01" nType="-99"/>
      </Node>
    </BinaryTree>
    <BinaryTree type="DecisionTree" boostWeight="1.0000000000000000e+00" itree="19">
      <Node pos="s" depth="0" NCoef="0" IVar="1" Cut="1.1380115747451782e+00" cType="1" res="-1.1860233498737216e-03" rms="4.8029467463493347e-01" purity="4.9869272112846375e-01" nType="0">
        <Node pos="l" depth="1" NCoef="0" IVar="0" Cut="1.0871828794479370e+00" cType="1" res="2.1046765148639679e-02" rms="4.7946336865425110e-01" purity="5.3260231018066406e-01" nType="0">
          <Node pos="l" depth="2" NCoef="0" IVar="2" Cut="2.1932158470153809e+00" cType="1" res="4.5798029750585556e-02" rms="4.7893926501274109e-01" purity="5.7679963111877441e-01" nType="0">
            <Node pos="l" depth="3" NCoef="0" IVar="-1" Cut="0.0000000000000000e+00" cType="1" res="3.0000379309058189e-02" rms="4.7151693701744080e-01" purity="6.3322412967681885e-01" nType="-99"/>
            <Node pos="r" depth="3" NCoef="0" IVar="-1" Cut="0.0000000000000000e+00" cType="1" res="6.8172090686857700e-03" rms="4.8366203904151917e-01" purity="5.2758628129959106e-01" nType="-99"/>
          </Node>
          <Node pos="r" depth="2" NCoef="0" IVar="3" Cut="8.5508120059967041e-01" cType="1" res="-2.4006674066185951e-03" rms="4.7878053784370422e-01" purity="4.9073317646980286e-01" nType="0">
            <Node pos="l" depth="3" NCoef="0" IVar="-1" Cut="0.0000000000000000e+00" cType="1" res="1.6633441671729088e-02" rms="4.8028376698493958e-01" purity="5.7635164260864258e-01" nType="-99"/>
            <Node pos="r" depth="3" NCoef="0" IVar="-1" Cut="0.0000000000000000e+00" cType="1" res="-8.3847306668758392e-03" rms="4.7674494981765747e-01" purity="4.5436161756515503e-01" nType="-99"/>
          </Node>
        </Node>
        <Node pos="r" depth="1" NCoef="0" IVar="5" Cut="2.1322395324707031e+01" cType="1" res="-2.1138465031981468e-02" rms="4.8016381263732910e-01" purity="4.6826118230819702e-01" nType="0">
          <Node pos="l" depth="2" NCoef="0" IVar="9" Cut="4.2117103576660156e+01" cType="1" res="1.9703434780240059e-02" rms="4.8811912536621094e-01" purity="5.3285276889801025e-01" nType="0">
            <Node pos="l" depth="3" NCoef="0" IVar="-1" Cut="0.0000000000000000e+00" cType="1" res="-8.8149271905422211e-03" rms="4.9140208959579468e-01" purity="4.6616035699844360e-01" nType="-99"/>
            <Node pos="r" depth="3" NCoef="0" IVar="-1" Cut="0.0000000000000000e+00" cType="1" res="1.7579754814505577e-02" rms="4.8398485779762268e-01" purity="5.7461303472518921e-01" nType="-99"/>
          </Node>
          <Node pos="r" depth="2" NCoef="0" IVar="9" Cut="1.1969208526611328e+02" cType="1" res="-3.5190347582101822e-02" rms="4.7658753395080566e-01" purity="4.4603812694549561e-01" nType="0">
            <Node pos="l" depth="3" NCoef="0" IVar="-1" Cut="0.0000000000000000e+00" cType="1" res="-9.6091106534004211e-03" rms="4.8530194163322449e-01" purity="4.7769302129745483e-01" nType="-99"/>
            <Node pos="r" depth="3" NCoef="0" IVar="-1" Cut="0.0000000000000000e+00" cType="1" res="-3.7450272589921951e-02" rms="4.0754243731498718e-01" purity="2.3077255487442017e-01" nType="-99"/>
          </Node>
        </Node>
      </Node>
    </BinaryTree>
    <BinaryTree type="DecisionTree" boostWeight="1.0000000000000000e+00" itree="20">
      <Node pos="s" depth="0" NCoef="0" IVar="5" Cut="3.9120697021484375e+01" cType="1" res="1.8920815782621503e-03" rms="4.7970858216285706e-01" purity="5.0345253944396973e-01" nType="0">
        <Node pos="l" depth="1" NCoef="0" IVar="9" Cut="4.8614925384521484e+01" cType="1" res="1.3688459992408752e-02" rms="4.8257023096084595e-01" purity="5.3848749399185181e-01" nType="0">
          <Node pos="l" depth="2" NCoef="0" IVar="8" Cut="8.8858238220214844e+01" cType="1" res="-1.9290719181299210e-02" rms="4.8919689655303955e-01" purity="4.8328560590744019e-01" nType="0">
            <Node pos="l" depth="3" NCoef="0" IVar="-1" Cut="0.0000000000000000e+00" cType="1" res="1.6921411734074354e-03" rms="4.9423089623451233e-01" purity="5.4336887598037720e-01" nType="-99"/>
            <Node pos="r" depth="3" NCoef="0" IVar="-1" Cut="0.0000000000000000e+00" cType="1" res="-1.8216593191027641e-02" rms="4.8055559396743774e-01" purity="4.0315279364585876e-01" nType="-99"/>
          </Node>
          <Node pos="r" depth="2" NCoef="0" IVar="8" Cut="6.6911735534667969e+01" cType="1" res="3.4186948090791702e-02" rms="4.7725802659988403e-01" purity="5.7279872894287109e-01" nType="0">
            <Node pos="l" depth="3" NCoef="0" IVar="-1" Cut="0.0000000000000000e+00" cType="1" res="-3.7447137292474508e-03" rms="4.8586979508399963e-01" purity="5.2411079406738281e-01" nType="-99"/>
            <Node pos="r" depth="3" NCoef="0" IVar="-1" Cut="0.0000000000000000e+00" cType="1" res="1.9884398207068443e-02" rms="4.7245588898658752e-01" purity="5.9280884265899658e-01" nType="-99"/>
          </Node>
        </Node>
        <Node pos="r" depth="1" NCoef="0" IVar="8" Cut="9.8510444641113281e+01" cType="1" res="-2.1476849913597107e-02" rms="4.7312092781066895e-01" purity="4.3404737114906311e-01" nType="0">
          <Node pos="l" depth="2" NCoef="0" IVar="8" Cut="7.7116294860839844e+01" cType="1" res="1.0507960803806782e-02" rms="4.8454067111015320e-01" purity="5.0111413002014160e-01" nType="0">
            <Node pos="l" depth="3" NCoef="0" IVar="-1" Cut="0.0000000000000000e+00" cType="1" res="-2.8079287149012089e-03" rms="4.8294115066528320e-01" purity="4.7342389822006226e-01" nType="-99"/>
            <Node pos="r" depth="3" NCoef="0" IVar="-1" Cut="0.0000000000000000e+00" cType="1" res="1.7228793352842331e-02" rms="4.8570579290390015e-01" purity="5.5089145898818970e-01" nType="-99"/>
          </Node>
          <Node pos="r" depth="2" NCoef="0" IVar="0" Cut="1.4391434192657471e+00" cType="1" res="-4.9359582364559174e-02" rms="4.6112954616546631e-01" purity="3.7558212876319885e-01" nType="0">
            <Node pos="l" depth="3" NCoef="0" IVar="-1" Cut="0.0000000000000000e+00" cType="1" res="-1.0012143291532993e-02" rms="4.7097346186637878e-01" purity="4.1212654113769531e-01" nType="-99"/>
            <Node pos="r" depth="3" NCoef="0" IVar="-1" Cut="0.0000000000000000e+00" cType="1" res="-4.1583526879549026e-02" rms="4.2990279197692871e-01" purity="2.8301218152046204e-01" nType="-99"/>
          </Node>
        </Node>
      </Node>
    </BinaryTree>
    <BinaryTree type="DecisionTree" boostWeight="1.0000000000000000e+00" itree="21">
      <Node pos="s" depth="0" NCoef="0" IVar="2" Cut="2.2413065433502197e+00" cType="1" res="-1.7465576529502869e-03" rms="4.7943541407585144e-01" purity="4.9911007285118103e-01" nType="0">
        <Node pos="l" depth="1" NCoef="0" IVar="0" Cut="1.2119181156158447e+00" cType="1" res="1.4651929028332233e-02" rms="4.7870880365371704e-01" purity="5.3813010454177856e-01" nType="0">
          <Node pos="l" depth="2" NCoef="0" IVar="1" Cut="1.6556479930877686e+00" cType="1" res="3.2630488276481628e-02" rms="4.7647610306739807e-01" purity="5.7137924432754517e-01" nType="0">
            <Node pos="l" depth="3" NCoef="0" IVar="-1" Cut="0.0000000000000000e+00" cType="1" res="1.6416011378169060e-02" rms="4.7575744986534119e-01" purity="5.9389543533325195e-01" nType="-99"/>
            <Node pos="r" depth="3" NCoef="0" IVar="-1" Cut="0.0000000000000000e+00" cType="1" res="-3.3697001636028290e-03" rms="4.7716766595840454e-01" purity="4.7840759158134460e-01" nType="-99"/>
          </Node>
          <Node pos="r" depth="2" NCoef="0" IVar="6" Cut="1.2543916320800781e+02" cType="1" res="-3.9418390952050686e-03" rms="4.8029956221580505e-01" purity="5.0374311208724976e-01" nType="0">
            <Node pos="l" depth="3" NCoef="0" IVar="-1" Cut="0.0000000000000000e+00" cType="1" res="2.9618155676871538e-03" rms="4.8323637247085571e-01" purity="5.3659820556640625e-01" nType="-99"/>
            <Node pos="r" depth="3" NCoef="0" IVar="-1" Cut="0.0000000000000000e+00" cType="1" res="-1.8819114193320274e-02" rms="4.6618580818176270e-01" purity="3.7870487570762634e-01" nType="-99"/>
          </Node>
        </Node>
        <Node pos="r" depth="1" NCoef="0" IVar="1" Cut="8.0838853120803833e-01" cType="1" res="-2.1867437288165092e-02" rms="4.7955995798110962e-01" purity="4.5123270153999329e-01" nType="0">
          <Node pos="l" depth="2" NCoef="0" IVar="0" Cut="1.0538616180419922e+00" cType="1" res="1.1907195672392845e-02" rms="4.8028513789176941e-01" purity="4.9817639589309692e-01" nType="0">
            <Node pos="l" depth="3" NCoef="0" IVar="-1" Cut="0.0000000000000000e+00" cType="1" res="1.7028288915753365e-02" rms="4.8222425580024719e-01" purity="5.5260264873504639e-01" nType="-99"/>
            <Node pos="r" depth="3" NCoef="0" IVar="-1" Cut="0.0000000000000000e+00" cType="1" res="-6.7136245779693127e-03" rms="4.7652947902679443e-01" purity="4.4879609346389771e-01" nType="-99"/>
          </Node>
          <Node pos="r" depth="2" NCoef="0" IVar="4" Cut="5.9654533386230469e+01" cType="1" res="-3.2304082065820694e-02" rms="4.7885411977767944e-01" purity="4.3672668933868408e-01" nType="0">
            <Node pos="l" depth="3" NCoef="0" IVar="-1" Cut="0.0000000000000000e+00" cType="1" res="-4.2543658055365086e-03" rms="4.8834261298179626e-01" purity="4.9575477838516235e-01" nType="-99"/>
            <Node pos="r" depth="3" NCoef="0" IVar="-1" Cut="0.0000000000000000e+00" cType="1" res="-1.7373975366353989e-02" rms="4.7143137454986572e-01" purity="3.9468857645988464e-01" nType="-99"/>
          </Node>
        </Node>
      </Node>
    </BinaryTree>
    <BinaryTree type="DecisionTree" boostWeight="1.0000000000000000e+00" itree="22">
      <Node pos="s" depth="0" NCoef="0" IVar="4" Cut="7.4659820556640625e+01" cType="1" res="-2.2045578807592392e-03" rms="4.8027250170707703e-01" purity="4.9775984883308411e-01" nType="0">
        <Node pos="l" depth="1" NCoef="0" IVar="9" Cut="5.3460330963134766e+01" cType="1" res="1.2338479049503803e-02" rms="4.8322704434394836e-01" purity="5.4341322183609009e-01" nType="0">
          <Node pos="l" depth="2" NCoef="0" IVar="8" Cut="9.4788055419921875e+01" cType="1" res="-1.1633963324129581e-02" rms="4.9017336964607239e-01" purity="5.1054614782333374e-01" nType="0">
            <Node pos="l" depth="3" NCoef="0" IVar="-1" Cut="0.0000000000000000e+00" cType="1" res="3.3498043194413185e-03" rms="4.9173250794410706e-01" purity="5.5258959531784058e-01" nType="-99"/>
            <Node pos="r" depth="3" NCoef="0" IVar="-1" Cut="0.0000000000000000e+00" cType="1" res="-2.4412306025624275e-02" rms="4.8112642765045166e-01" purity="3.9349550008773804e-01" nType="-99"/>
          </Node>
          <Node pos="r" depth="2" NCoef="0" IVar="7" Cut="3.0611855983734131e+00" cType="1" res="3.0228417366743088e-02" rms="4.7719335556030273e-01" purity="5.6794112920761108e-01" nType="0">
            <Node pos="l" depth="3" NCoef="0" IVar="-1" Cut="0.0000000000000000e+00" cType="1" res="1.5401742421090603e-02" rms="4.7630491852760315e-01" purity="5.9344971179962158e-01" nType="-99"/>
            <Node pos="r" depth="3" NCoef="0" IVar="-1" Cut="0.0000000000000000e+00" cType="1" res="-8.9792627841234207e-03" rms="4.7803613543510437e-01" purity="4.3656626343727112e-01" nType="-99"/>
          </Node>
        </Node>
        <Node pos="r" depth="1" NCoef="0" IVar="3" Cut="1.2898799180984497e+00" cType="1" res="-2.0209712907671928e-02" rms="4.7597396373748779e-01" purity="4.4123816490173340e-01" nType="0">
          <Node pos="l" depth="2" NCoef="0" IVar="8" Cut="7.7891136169433594e+01" cType="1" res="-2.9520571697503328e-03" rms="4.8438394069671631e-01" purity="4.9141621589660645e-01" nType="0">
            <Node pos="l" depth="3" NCoef="0" IVar="-1" Cut="0.0000000000000000e+00" cType="1" res="-1.7166526988148689e-02" rms="4.9263298511505127e-01" purity="4.6790826320648193e-01" nType="-99"/>
            <Node pos="r" depth="3" NCoef="0" IVar="-1" Cut="0.0000000000000000e+00" cType="1" res="4.3599400669336319e-03" rms="4.8077863454818726e-01" purity="4.9902263283729553e-01" nType="-99"/>
          </Node>
          <Node pos="r" depth="2" NCoef="0" IVar="5" Cut="4.8907844543457031e+01" cType="1" res="-4.5708313584327698e-02" rms="4.6209049224853516e-01" purity="3.6709886789321899e-01" nType="0">
            <Node pos="l" depth="3" NCoef="0" IVar="-1" Cut="0.0000000000000000e+00" cType="1" res="-1.0369851253926754e-02" rms="4.7633481025695801e-01" purity="4.1897717118263245e-01" nType="-99"/>
            <Node pos="r" depth="3" NCoef="0" IVar="-1" Cut="0.0000000000000000e+00" cType="1" res="-2.9605776071548462e-02" rms="4.3731459975242615e-01" purity="2.8577551245689392e-01" nType="-99"/>
          </Node>
        </Node>
      </Node>
    </BinaryTree>
    <BinaryTree type="DecisionTree" boostWeight="1.0000000000000000e+00" itree="23">
      <Node pos="s" depth="0" NCoef="0" IVar="4" Cut="1.3631817626953125e+02" cType="1" res="6.7669287091121078e-04" rms="4.7835746407508850e-01" purity="5.0091564655303955e-01" nType="0">
        <Node pos="l" depth="1" NCoef="0" IVar="1" Cut="1.5238764286041260e+00" cType="1" res="7.4590565636754036e-03" rms="4.7998955845832825e-01" purity="5.2060943841934204e-01" nType="0">
          <Node pos="l" depth="2" NCoef="0" IVar="9" Cut="5.8094470977783203e+01" cType="1" res="1.9712239503860474e-02" rms="4.7959408164024353e-01" purity="5.4460066556930542e-01" nType="0">
            <Node pos="l" depth="3" NCoef="0" IVar="-1" Cut="0.0000000000000000e+00" cType="1" res="-5.9348391368985176e-04" rms="4.8797965049743652e-01" purity="5.2241700887680054e-01" nType="-99"/>
            <Node pos="r" depth="3" NCoef="0" IVar="-1" Cut="0.0000000000000000e+00" cType="1" res="1.4021241106092930e-02" rms="4.7209897637367249e-01" purity="5.6231963634490967e-01" nType="-99"/>
          </Node>
          <Node pos="r" depth="2" NCoef="0" IVar="7" Cut="1.5140504837036133e+00" cType="1" res="-2.1322369575500488e-02" rms="4.7968775033950806e-01" purity="4.6425643563270569e-01" nType="0">
            <Node pos="l" depth="3" NCoef="0" IVar="-1" Cut="0.0000000000000000e+00" cType="1" res="4.1689863428473473e-03" rms="4.8716756701469421e-01" purity="5.4345476627349854e-01" nType="-99"/>
            <Node pos="r" depth="3" NCoef="0" IVar="-1" Cut="0.0000000000000000e+00" cType="1" res="-1.2902703136205673e-02" rms="4.7570702433586121e-01" purity="4.2982509732246399e-01" nType="-99"/>
          </Node>
        </Node>
        <Node pos="r" depth="1" NCoef="0" IVar="9" Cut="6.4050308227539062e+01" cType="1" res="-4.2930863797664642e-02" rms="4.6537283062934875e-01" purity="3.7429347634315491e-01" nType="0">
          <Node pos="l" depth="2" NCoef="0" IVar="-1" Cut="0.0000000000000000e+00" cType="1" res="5.6407028750982136e-05" rms="4.8692074418067932e-01" purity="4.3065029382705688e-01" nType="-99"/>
          <Node pos="r" depth="2" NCoef="0" IVar="-1" Cut="0.0000000000000000e+00" cType="1" res="-2.8179017826914787e-02" rms="4.4756883382797241e-01" purity="3.3556354045867920e-01" nType="-99"/>
        </Node>
      </Node>
    </BinaryTree>
    <BinaryTree type="DecisionTree" boostWeight="1.0000000000000000e+00" itree="24">
      <Node pos="s" depth="0" NCoef="0" IVar="8" Cut="1.4678674316406250e+02" cType="1" res="-1.3011477130930871e-04" rms="4.7862663865089417e-01" purity="5.0039875507354736e-01" nType="0">
        <Node pos="l" depth="1" NCoef="0" IVar="1" Cut="1.7674490213394165e+00" cType="1" res="8.7642287835478783e-03" rms="4.8408201336860657e-01" purity="5.3346192836761475e-01" nType="0">
          <Node pos="l" depth="2" NCoef="0" IVar="8" Cut="6.1249282836914062e+01" cType="1" res="1.6233643516898155e-02" rms="4.8310959339141846e-01" purity="5.4798495769500732e-01" nType="0">
            <Node pos="l" depth="3" NCoef="0" IVar="-1" Cut="0.0000000000000000e+00" cType="1" res="-3.2020139042288065e-03" rms="4.8874568939208984e-01" purity="5.1263052225112915e-01" nType="-99"/>
            <Node pos="r" depth="3" NCoef="0" IVar="-1" Cut="0.0000000000000000e+00" cType="1" res="1.0418765246868134e-02" rms="4.8021471500396729e-01" purity="5.6344914436340332e-01" nType="-99"/>
          </Node>
          <Node pos="r" depth="2" NCoef="0" IVar="2" Cut="2.0927059650421143e+00" cType="1" res="-2.5078043341636658e-02" rms="4.8703038692474365e-01" purity="4.6766129136085510e-01" nType="0">
            <Node pos="l" depth="3" NCoef="0" IVar="-1" Cut="0.0000000000000000e+00" cType="1" res="1.4395470498129725e-03" rms="4.8652687668800354e-01" purity="5.1937270164489746e-01" nType="-99"/>
            <Node pos="r" depth="3" NCoef="0" IVar="-1" Cut="0.0000000000000000e+00" cType="1" res="-1.9351808354258537e-02" rms="4.8586827516555786e-01" purity="4.1727188229560852e-01" nType="-99"/>
          </Node>
        </Node>
        <Node pos="r" depth="1" NCoef="0" IVar="0" Cut="1.2202112674713135e+00" cType="1" res="-3.1369093805551529e-02" rms="4.5758473873138428e-01" purity="3.8427332043647766e-01" nType="0">
          <Node pos="l" depth="2" NCoef="0" IVar="9" Cut="6.5236183166503906e+01" cType="1" res="-1.7128988401964307e-03" rms="4.6985101699829102e-01" purity="4.3391534686088562e-01" nType="0">
            <Node pos="l" depth="3" NCoef="0" IVar="-1" Cut="0.0000000000000000e+00" cType="1" res="-1.0404846630990505e-02" rms="4.8016425967216492e-01" purity="3.8856980204582214e-01" nType="-99"/>
            <Node pos="r" depth="3" NCoef="0" IVar="-1" Cut="0.0000000000000000e+00" cType="1" res="7.6271267607808113e-03" rms="4.6049177646636963e-01" purity="4.6917441487312317e-01" nType="-99"/>
          </Node>
          <Node pos="r" depth="2" NCoef="0" IVar="-1" Cut="0.0000000000000000e+00" cType="1" res="-2.9028100892901421e-02" rms="4.3460360169410706e-01" purity="3.0934017896652222e-01" nType="-99"/>
        </Node>
      </Node>
    </BinaryTree>
    <BinaryTree type="DecisionTree" boostWeight="1.0000000000000000e+00" itree="25">
      <Node pos="s" depth="0" NCoef="0" IVar="9" Cut="1.0977436828613281e+02" cType="1" res="9.5071422401815653e-04" rms="4.7799271345138550e-01" purity="5.0137734413146973e-01" nType="0">
        <Node pos="l" depth="1" NCoef="0" IVar="9" Cut="6.8815483093261719e+01" cType="1" res="6.8802544847130775e-03" rms="4.8344403505325317e-01" purity="5.3187274932861328e-01" nType="0">
          <Node pos="l" depth="2" NCoef="0" IVar="8" Cut="1.0132750701904297e+02" cType="1" res="-4.0631415322422981e-03" rms="4.8690029978752136e-01" purity="5.1095682382583618e-01" nType="0">
            <Node pos="l" depth="3" NCoef="0" IVar="-1" Cut="0.0000000000000000e+00" cType="1" res="3.6609682720154524e-03" rms="4.8958548903465271e-01" purity="5.6501126289367676e-01" nType="-99"/>
            <Node pos="r" depth="3" NCoef="0" IVar="-1" Cut="0.0000000000000000e+00" cType="1" res="-9.5801372081041336e-03" rms="4.8164224624633789e-01" purity="4.2283856868743896e-01" nType="-99"/>
          </Node>
          <Node pos="r" depth="2" NCoef="0" IVar="6" Cut="1.2728665924072266e+02" cType="1" res="2.9319038614630699e-02" rms="4.7549176216125488e-01" purity="5.7475966215133667e-01" nType="0">
            <Node pos="l" depth="3" NCoef="0" IVar="-1" Cut="0.0000000000000000e+00" cType="1" res="2.1827561780810356e-02" rms="4.7003692388534546e-01" purity="6.2374871969223022e-01" nType="-99"/>
            <Node pos="r" depth="3" NCoef="0" IVar="-1" Cut="0.0000000000000000e+00" cType="1" res="-1.7380574718117714e-02" rms="4.8223942518234253e-01" purity="4.3748676776885986e-01" nType="-99"/>
          </Node>
        </Node>
        <Node pos="r" depth="1" NCoef="0" IVar="8" Cut="1.1172879028320312e+02" cType="1" res="-3.6388985812664032e-02" rms="4.4029185175895691e-01" purity="3.0934068560600281e-01" nType="0">
          <Node pos="l" depth="2" NCoef="0" IVar="-1" Cut="0.0000000000000000e+00" cType="1" res="-2.5937024038285017e-03" rms="4.6915543079376221e-01" purity="3.7661117315292358e-01" nType="-99"/>
          <Node pos="r" depth="2" NCoef="0" IVar="-1" Cut="0.0000000000000000e+00" cType="1" res="-2.8429081663489342e-02" rms="4.0517267584800720e-01" purity="2.3814585804939270e-01" nType="-99"/>
        </Node>
      </Node>
    </BinaryTree>
    <BinaryTree type="DecisionTree" boostWeight="1.0000000000000000e+00" itree="26">
      <Node pos="s" depth="0" NCoef="0" IVar="8" Cut="3.3531753540039062e+01" cType="1" res="-4.9455137923359871e-03" rms="4.7886902093887329e-01" purity="4.9761879444122314e-01" nType="0">
        <Node pos="l" depth="1" NCoef="0" IVar="-1" Cut="0.0000000000000000e+00" cType="1" res="2.3870982229709625e-02" rms="4.8639464378356934e-01" purity="5.9426730871200562e-01" nType="-99"/>
        <Node pos="r" depth="1" NCoef="0" IVar="0" Cut="8.0220007896423340e-01" cType="1" res="-8.7526207789778709e-03" rms="4.7815874218940735e-01" purity="4.9221980571746826e-01" nType="0">
          <Node pos="l" depth="2" NCoef="0" IVar="6" Cut="7.0302902221679688e+01" cType="1" res="1.8495973199605942e-02" rms="4.8038378357887268e-01" purity="5.4048287868499756e-01" nType="0">
            <Node pos="l" depth="3" NCoef="0" IVar="-1" Cut="0.0000000000000000e+00" cType="1" res="1.6915492713451385e-02" rms="4.7219961881637573e-01" purity="6.1165791749954224e-01" nType="-99"/>
            <Node pos="r" depth="3" NCoef="0" IVar="-1" Cut="0.0000000000000000e+00" cType="1" res="2.2978284396231174e-03" rms="4.8383638262748718e-01" purity="5.0583833456039429e-01" nType="-99"/>
          </Node>
          <Node pos="r" depth="2" NCoef="0" IVar="5" Cut="4.2969966888427734e+01" cType="1" res="-1.7626918852329254e-02" rms="4.7709605097770691e-01" purity="4.7650149464607239e-01" nType="0">
            <Node pos="l" depth="3" NCoef="0" IVar="-1" Cut="0.0000000000000000e+00" cType="1" res="-2.4090602528303862e-03" rms="4.8171025514602661e-01" purity="5.1251280307769775e-01" nType="-99"/>
            <Node pos="r" depth="3" NCoef="0" IVar="-1" Cut="0.0000000000000000e+00" cType="1" res="-1.7922800034284592e-02" rms="4.6384570002555847e-01" purity="3.8420486450195312e-01" nType="-99"/>
          </Node>
        </Node>
      </Node>
    </BinaryTree>
    <BinaryTree type="DecisionTree" boostWeight="1.0000000000000000e+00" itree="27">
      <Node pos="s" depth="0" NCoef="0" IVar="2" Cut="1.4706213474273682e+00" cType="1" res="-7.4084947118535638e-04" rms="4.7818896174430847e-01" purity="4.9967390298843384e-01" nType="0">
        <Node pos="l" depth="1" NCoef="0" IVar="-1" Cut="0.0000000000000000e+00" cType="1" res="2.8746269643306732e-02" rms="4.7569504380226135e-01" purity="5.6562358140945435e-01" nType="-99"/>
        <Node pos="r" depth="1" NCoef="0" IVar="0" Cut="1.6438087224960327e+00" cType="1" res="-4.7099748626351357e-03" rms="4.7799432277679443e-01" purity="4.9617189168930054e-01" nType="0">
          <Node pos="l" depth="2" NCoef="0" IVar="9" Cut="1.2503659820556641e+02" cType="1" res="3.4611809533089399e-03" rms="4.7850874066352844e-01" purity="5.1626855134963989e-01" nType="0">
            <Node pos="l" depth="3" NCoef="0" IVar="-1" Cut="0.0000000000000000e+00" cType="1" res="3.4709703177213669e-03" rms="4.8342767357826233e-01" purity="5.4206168651580811e-01" nType="-99"/>
            <Node pos="r" depth="3" NCoef="0" IVar="-1" Cut="0.0000000000000000e+00" cType="1" res="-2.0877271890640259e-02" rms="4.2478603124618530e-01" purity="2.7019059658050537e-01" nType="-99"/>
          </Node>
          <Node pos="r" depth="2" NCoef="0" IVar="2" Cut="1.9255604743957520e+00" cType="1" res="-3.4904994070529938e-02" rms="4.7487029433250427e-01" purity="4.2190846800804138e-01" nType="0">
            <Node pos="l" depth="3" NCoef="0" IVar="-1" Cut="0.0000000000000000e+00" cType="1" res="7.7599741052836180e-04" rms="4.8450303077697754e-01" purity="4.9496376514434814e-01" nType="-99"/>
            <Node pos="r" depth="3" NCoef="0" IVar="-1" Cut="0.0000000000000000e+00" cType="1" res="-1.8228070810437202e-02" rms="4.7048550844192505e-01" purity="3.9467176795005798e-01" nType="-99"/>
          </Node>
        </Node>
      </Node>
    </BinaryTree>
    <BinaryTree type="DecisionTree" boostWeight="1.0000000000000000e+00" itree="28">
      <Node pos="s" depth="0" NCoef="0" IVar="5" Cut="2.0845195770263672e+01" cType="1" res="-2.2539272904396057e-03" rms="4.7690585255622864e-01" purity="4.9815973639488220e-01" nType="0">
        <Node pos="l" depth="1" NCoef="0" IVar="9" Cut="4.3961814880371094e+01" cType="1" res="2.2204358130693436e-02" rms="4.8057600855827332e-01" purity="5.5510956048965454e-01" nType="0">
          <Node pos="l" depth="2" NCoef="0" IVar="-1" Cut="0.0000000000000000e+00" cType="1" res="-3.0147540383040905e-03" rms="4.8968532681465149e-01" purity="4.8653578758239746e-01" nType="-99"/>
          <Node pos="r" depth="2" NCoef="0" IVar="2" Cut="2.2547335624694824e+00" cType="1" res="4.3942347168922424e-02" rms="4.7276806831359863e-01" purity="6.0405969619750977e-01" nType="0">
            <Node pos="l" depth="3" NCoef="0" IVar="-1" Cut="0.0000000000000000e+00" cType="1" res="2.6959454640746117e-02" rms="4.6246451139450073e-01" purity="6.5457087755203247e-01" nType="-99"/>
            <Node pos="r" depth="3" NCoef="0" IVar="-1" Cut="0.0000000000000000e+00" cType="1" res="3.3988729119300842e-03" rms="4.8391139507293701e-01" purity="5.3713619709014893e-01" nType="-99"/>
          </Node>
        </Node>
        <Node pos="r" depth="1" NCoef="0" IVar="3" Cut="9.4208413362503052e-01" cType="1" res="-9.8684262484312057e-03" rms="4.7550073266029358e-01" purity="4.8042973875999451e-01" nType="0">
          <Node pos="l" depth="2" NCoef="0" IVar="9" Cut="7.1896209716796875e+01" cType="1" res="1.0975133627653122e-02" rms="4.8118191957473755e-01" purity="5.4956382513046265e-01" nType="0">
            <Node pos="l" depth="3" NCoef="0" IVar="-1" Cut="0.0000000000000000e+00" cType="1" res="-1.1907207081094384e-03" rms="4.8723372817039490e-01" purity="5.4563069343566895e-01" nType="-99"/>
            <Node pos="r" depth="3" NCoef="0" IVar="-1" Cut="0.0000000000000000e+00" cType="1" res="1.2284603901207447e-02" rms="4.7149673104286194e-01" purity="5.5527418851852417e-01" nType="-99"/>
          </Node>
          <Node pos="r" depth="2" NCoef="0" IVar="7" Cut="1.9692575931549072e+00" cType="1" res="-2.2222165018320084e-02" rms="4.7166672348976135e-01" purity="4.3945482373237610e-01" nType="0">
            <Node pos="l" depth="3" NCoef="0" IVar="-1" Cut="0.0000000000000000e+00" cType="1" res="6.5543176606297493e-04" rms="4.7949257493019104e-01" purity="5.1325368881225586e-01" nType="-99"/>
            <Node pos="r" depth="3" NCoef="0" IVar="-1" Cut="0.0000000000000000e+00" cType="1" res="-1.3265603221952915e-02" rms="4.6703428030014038e-01" purity="4.0087080001831055e-01" nType="-99"/>
          </Node>
        </Node>
      </Node>
    </BinaryTree>
    <BinaryTree type="DecisionTree" boostWeight="1.0000000000000000e+00" itree="29">
      <Node pos="s" depth="0" NCoef="0" IVar="8" Cut="7.1310623168945312e+01" cType="1" res="-2.7679433114826679e-03" rms="4.7843411564826965e-01" purity="4.9707716703414917e-01" nType="0">
        <Node pos="l" depth="1" NCoef="0" IVar="9" Cut="9.0520545959472656e+01" cType="1" res="-2.5735357776284218e-02" rms="4.8744392395019531e-01" purity="4.9890157580375671e-01" nType="0">
          <Node pos="l" depth="2" NCoef="0" IVar="0" Cut="1.3973335027694702e+00" cType="1" res="-1.1804886162281036e-02" rms="4.9287271499633789e-01" purity="5.3793275356292725e-01" nType="0">
            <Node pos="l" depth="3" NCoef="0" IVar="-1" Cut="0.0000000000000000e+00" cType="1" res="3.5014941822737455e-03" rms="4.9102532863616943e-01" purity="5.7661432027816772e-01" nType="-99"/>
            <Node pos="r" depth="3" NCoef="0" IVar="-1" Cut="0.0000000000000000e+00" cType="1" res="-1.5307936817407608e-02" rms="4.9395683407783508e-01" purity="4.8090037703514099e-01" nType="-99"/>
          </Node>
          <Node pos="r" depth="2" NCoef="0" IVar="-1" Cut="0.0000000000000000e+00" cType="1" res="-3.1308185309171677e-02" rms="4.5771354436874390e-01" purity="3.2677239179611206e-01" nType="-99"/>
        </Node>
        <Node pos="r" depth="1" NCoef="0" IVar="2" Cut="1.8218705654144287e+00" cType="1" res="8.4327384829521179e-03" rms="4.7357422113418579e-01" purity="4.9618747830390930e-01" nType="0">
          <Node pos="l" depth="2" NCoef="0" IVar="-1" Cut="0.0000000000000000e+00" cType="1" res="2.2296212613582611e-02" rms="4.7232502698898315e-01" purity="5.6287682056427002e-01" nType="-99"/>
          <Node pos="r" depth="2" NCoef="0" IVar="3" Cut="4.6456265449523926e-01" cType="1" res="-1.1821145744761452e-04" rms="4.7326946258544922e-01" purity="4.8459872603416443e-01" nType="0">
            <Node pos="l" depth="3" NCoef="0" IVar="-1" Cut="0.0000000000000000e+00" cType="1" res="2.1196257323026657e-02" rms="4.6570584177970886e-01" purity="6.0084474086761475e-01" nType="-99"/>
            <Node pos="r" depth="3" NCoef="0" IVar="-1" Cut="0.0000000000000000e+00" cType="1" res="-2.2224641870707273e-03" rms="4.7369733452796936e-01" purity="4.7242304682731628e-01" nType="-99"/>
          </Node>
        </Node>
      </Node>
    </BinaryTree>
    <BinaryTree type="DecisionTree" boostWeight="1.0000000000000000e+00" itree="30">
      <Node pos="s" depth="0" NCoef="0" IVar="1" Cut="6.0571688413619995e-01" cType="1" res="-3.2781687332317233e-04" rms="4.7665956616401672e-01" purity="4.9975186586380005e-01" nType="0">
        <Node pos="l" depth="1" NCoef="0" IVar="7" Cut="2.3492898941040039e+00" cType="1" res="3.9204023778438568e-02" rms="4.7405320405960083e-01" purity="5.6106728315353394e-01" nType="0">
          <Node pos="l" depth="2" NCoef="0" IVar="-1" Cut="0.0000000000000000e+00" cType="1" res="6.2668486498296261e-03" rms="4.7173020243644714e-01" purity="5.8158183097839355e-01" nType="-99"/>
          <Node pos="r" depth="2" NCoef="0" IVar="-1" Cut="0.0000000000000000e+00" cType="1" res="2.3946709930896759e-02" rms="4.7523897886276245e-01" purity="5.4144454002380371e-01" nType="-99"/>
        </Node>
        <Node pos="r" depth="1" NCoef="0" IVar="4" Cut="1.3138409423828125e+02" cType="1" res="-4.8529272899031639e-03" rms="4.7674795985221863e-01" purity="4.9273326992988586e-01" nType="0">
          <Node pos="l" depth="2" NCoef="0" IVar="2" Cut="2.6772170066833496e+00" cType="1" res="2.5342049775645137e-04" rms="4.7895973920822144e-01" purity="5.1322978734970093e-01" nType="0">
            <Node pos="l" depth="3" NCoef="0" IVar="-1" Cut="0.0000000000000000e+00" cType="1" res="1.9985833205282688e-03" rms="4.7927692532539368e-01" purity="5.2830505371093750e-01" nType="-99"/>
            <Node pos="r" depth="3" NCoef="0" IVar="-1" Cut="0.0000000000000000e+00" cType="1" res="-1.3123033568263054e-02" rms="4.7505229711532593e-01" purity="4.0389162302017212e-01" nType="-99"/>
          </Node>
          <Node pos="r" depth="2" NCoef="0" IVar="7" Cut="2.4954655170440674e+00" cType="1" res="-3.5295650362968445e-02" rms="4.6217337250709534e-01" purity="3.7053829431533813e-01" nType="0">
            <Node pos="l" depth="3" NCoef="0" IVar="-1" Cut="0.0000000000000000e+00" cType="1" res="-2.3400258272886276e-02" rms="4.5989087224006653e-01" purity="3.7369224429130554e-01" nType="-99"/>
            <Node pos="r" depth="3" NCoef="0" IVar="-1" Cut="0.0000000000000000e+00" cType="1" res="-1.9622403196990490e-03" rms="4.6296712756156921e-01" purity="3.6686724424362183e-01" nType="-99"/>
          </Node>
        </Node>
      </Node>
    </BinaryTree>
    <BinaryTree type="DecisionTree" boostWeight="1.0000000000000000e+00" itree="31">
      <Node pos="s" depth="0" NCoef="0" IVar="8" Cut="6.8623802185058594e+01" cType="1" res="1.7499848036095500e-04" rms="4.7656616568565369e-01" purity="4.9869564175605774e-01" nType="0">
        <Node pos="l" depth="1" NCoef="0" IVar="9" Cut="8.3905517578125000e+01" cType="1" res="-2.0569182932376862e-02" rms="4.8588812351226807e-01" purity="4.9703723192214966e-01" nType="0">
          <Node pos="l" depth="2" NCoef="0" IVar="6" Cut="1.1020948791503906e+02" cType="1" res="-4.6335142105817795e-03" rms="4.9191242456436157e-01" purity="5.4065495729446411e-01" nType="0">
            <Node pos="l" depth="3" NCoef="0" IVar="-1" Cut="0.0000000000000000e+00" cType="1" res="-6.1550526879727840e-03" rms="4.9187925457954407e-01" purity="5.3644037246704102e-01" nType="-99"/>
            <Node pos="r" depth="3" NCoef="0" IVar="-1" Cut="0.0000000000000000e+00" cType="1" res="1.3686961494386196e-02" rms="4.8979666829109192e-01" purity="5.5491900444030762e-01" nType="-99"/>
          </Node>
          <Node pos="r" depth="2" NCoef="0" IVar="-1" Cut="0.0000000000000000e+00" cType="1" res="-2.7067095041275024e-02" rms="4.6026054024696350e-01" purity="3.4640991687774658e-01" nType="-99"/>
        </Node>
        <Node pos="r" depth="1" NCoef="0" IVar="9" Cut="4.1936431884765625e+01" cType="1" res="9.0318331494927406e-03" rms="4.7225260734558105e-01" purity="4.9940371513366699e-01" nType="0">
          <Node pos="l" depth="2" NCoef="0" IVar="0" Cut="1.0614066123962402e+00" cType="1" res="-2.4661514908075333e-02" rms="4.7984135150909424e-01" purity="4.3208035826683044e-01" nType="0">
            <Node pos="l" depth="3" NCoef="0" IVar="-1" Cut="0.0000000000000000e+00" cType="1" res="9.6293247770518064e-04" rms="4.8982486128807068e-01" purity="4.7757837176322937e-01" nType="-99"/>
            <Node pos="r" depth="3" NCoef="0" IVar="-1" Cut="0.0000000000000000e+00" cType="1" res="-1.8717790022492409e-02" rms="4.6891057491302490e-01" purity="3.8964721560478210e-01" nType="-99"/>
          </Node>
          <Node pos="r" depth="2" NCoef="0" IVar="5" Cut="2.9493137359619141e+01" cType="1" res="1.7734711989760399e-02" rms="4.6988010406494141e-01" purity="5.1679313182830811e-01" nType="0">
            <Node pos="l" depth="3" NCoef="0" IVar="-1" Cut="0.0000000000000000e+00" cType="1" res="1.7820732668042183e-02" rms="4.6654632687568665e-01" purity="6.0289978981018066e-01" nType="-99"/>
            <Node pos="r" depth="3" NCoef="0" IVar="-1" Cut="0.0000000000000000e+00" cType="1" res="-3.5422647488303483e-04" rms="4.7108814120292664e-01" purity="4.6104943752288818e-01" nType="-99"/>
          </Node>
        </Node>
      </Node>
    </BinaryTree>
    <BinaryTree type="DecisionTree" boostWeight="1.0000000000000000e+00" itree="32">
      <Node pos="s" depth="0" NCoef="0" IVar="4" Cut="1.8764704895019531e+02" cType="1" res="-3.4784764284268022e-04" rms="4.7780406475067139e-01" purity="4.9970230460166931e-01" nType="0">
        <Node pos="l" depth="1" NCoef="0" IVar="3" Cut="6.2378579378128052e-01" cType="1" res="2.5998204946517944e-03" rms="4.7922599315643311e-01" purity="5.0975042581558228e-01" nType="0">
          <Node pos="l" depth="2" NCoef="0" IVar="8" Cut="7.0868385314941406e+01" cType="1" res="2.8203845024108887e-02" rms="4.7817021608352661e-01" purity="5.8980870246887207e-01" nType="0">
            <Node pos="l" depth="3" NCoef="0" IVar="-1" Cut="0.0000000000000000e+00" cType="1" res="-3.5842952784150839e-03" rms="4.8910814523696899e-01" purity="5.4887229204177856e-01" nType="-99"/>
            <Node pos="r" depth="3" NCoef="0" IVar="-1" Cut="0.0000000000000000e+00" cType="1" res="1.9901750609278679e-02" rms="4.7018605470657349e-01" purity="6.1387062072753906e-01" nType="-99"/>
          </Node>
          <Node pos="r" depth="2" NCoef="0" IVar="8" Cut="3.6803291320800781e+01" cType="1" res="-3.0319206416606903e-03" rms="4.7927442193031311e-01" purity="4.9214121699333191e-01" nType="0">
            <Node pos="l" depth="3" NCoef="0" IVar="-1" Cut="0.0000000000000000e+00" cType="1" res="1.6167143359780312e-02" rms="4.8227110505104065e-01" purity="5.6520694494247437e-01" nType="-99"/>
            <Node pos="r" depth="3" NCoef="0" IVar="-1" Cut="0.0000000000000000e+00" cType="1" res="-2.3973763454705477e-03" rms="4.7888773679733276e-01" purity="4.8681056499481201e-01" nType="-99"/>
          </Node>
        </Node>
        <Node pos="r" depth="1" NCoef="0" IVar="-1" Cut="0.0000000000000000e+00" cType="1" res="-2.0400470122694969e-02" rms="4.4906154274940491e-01" purity="3.2378378510475159e-01" nType="-99"/>
      </Node>
    </BinaryTree>
    <BinaryTree type="DecisionTree" boostWeight="1.0000000000000000e+00" itree="33">
      <Node pos="s" depth="0" NCoef="0" IVar="1" Cut="2.2781181335449219e+00" cType="1" res="-6.4577220473438501e-04" rms="4.7768646478652954e-01" purity="4.9899548292160034e-01" nType="0">
        <Node pos="l" depth="1" NCoef="0" IVar="0" Cut="2.2581448554992676e+00" cType="1" res="2.3958350066095591e-03" rms="4.7787630558013916e-01" purity="5.0499665737152100e-01" nType="0">
          <Node pos="l" depth="2" NCoef="0" IVar="8" Cut="3.6295139312744141e+01" cType="1" res="4.8936032690107822e-03" rms="4.7876265645027161e-01" purity="5.1187199354171753e-01" nType="0">
            <Node pos="l" depth="3" NCoef="0" IVar="-1" Cut="0.0000000000000000e+00" cType="1" res="1.9370153546333313e-02" rms="4.8618167638778687e-01" purity="5.9661811590194702e-01" nType="-99"/>
            <Node pos="r" depth="3" NCoef="0" IVar="-1" Cut="0.0000000000000000e+00" cType="1" res="6.7263608798384666e-04" rms="4.7809693217277527e-01" purity="5.0616073608398438e-01" nType="-99"/>
          </Node>
          <Node pos="r" depth="2" NCoef="0" IVar="-1" Cut="0.0000000000000000e+00" cType="1" res="-1.5565691515803337e-02" rms="4.6018472313880920e-01" purity="3.8636380434036255e-01" nType="-99"/>
        </Node>
        <Node pos="r" depth="1" NCoef="0" IVar="-1" Cut="0.0000000000000000e+00" cType="1" res="-2.0361479371786118e-02" rms="4.7112479805946350e-01" purity="3.9331799745559692e-01" nType="-99"/>
      </Node>
    </BinaryTree>
    <BinaryTree type="DecisionTree" boostWeight="1.0000000000000000e+00" itree="34">
      <Node pos="s" depth="0" NCoef="0" IVar="7" Cut="1.9416630268096924e+00" cType="1" res="-2.8652085456997156e-03" rms="4.7637906670570374e-01" purity="4.9710074067115784e-01" nType="0">
        <Node pos="l" depth="1" NCoef="0" IVar="8" Cut="5.5884117126464844e+01" cType="1" res="1.1577926576137543e-02" rms="4.7903317213058472e-01" purity="5.5867719650268555e-01" nType="0">
          <Node pos="l" depth="2" NCoef="0" IVar="-1" Cut="0.0000000000000000e+00" cType="1" res="-1.0126111097633839e-02" rms="4.9580672383308411e-01" purity="5.1779735088348389e-01" nType="-99"/>
          <Node pos="r" depth="2" NCoef="0" IVar="6" Cut="9.9722206115722656e+01" cType="1" res="2.1607270464301109e-02" rms="4.7416707873344421e-01" purity="5.6902873516082764e-01" nType="0">
            <Node pos="l" depth="3" NCoef="0" IVar="-1" Cut="0.0000000000000000e+00" cType="1" res="1.4777271077036858e-02" rms="4.6939560770988464e-01" purity="6.1442536115646362e-01" nType="-99"/>
            <Node pos="r" depth="3" NCoef="0" IVar="-1" Cut="0.0000000000000000e+00" cType="1" res="-1.9904309883713722e-03" rms="4.8069384694099426e-01" purity="4.9454864859580994e-01" nType="-99"/>
          </Node>
        </Node>
        <Node pos="r" depth="1" NCoef="0" IVar="2" Cut="2.1023998260498047e+00" cType="1" res="-1.2139857746660709e-02" rms="4.7443518042564392e-01" purity="4.5755940675735474e-01" nType="0">
          <Node pos="l" depth="2" NCoef="0" IVar="0" Cut="1.2339433431625366e+00" cType="1" res="1.0379407554864883e-02" rms="4.7816836833953857e-01" purity="5.1087415218353271e-01" nType="0">
            <Node pos="l" depth="3" NCoef="0" IVar="-1" Cut="0.0000000000000000e+00" cType="1" res="1.0142562910914421e-02" rms="4.7524604201316833e-01" purity="5.4897445440292358e-01" nType="-99"/>
            <Node pos="r" depth="3" NCoef="0" IVar="-1" Cut="0.0000000000000000e+00" cType="1" res="-2.5090647395700216e-03" rms="4.8066365718841553e-01" purity="4.7049763798713684e-01" nType="-99"/>
          </Node>
          <Node pos="r" depth="2" NCoef="0" IVar="3" Cut="1.5576354265213013e+00" cType="1" res="-2.4858415126800537e-02" rms="4.7183898091316223e-01" purity="4.2744803428649902e-01" nType="0">
            <Node pos="l" depth="3" NCoef="0" IVar="-1" Cut="0.0000000000000000e+00" cType="1" res="-3.9413524791598320e-03" rms="4.8186025023460388e-01" purity="4.7073027491569519e-01" nType="-99"/>
            <Node pos="r" depth="3" NCoef="0" IVar="-1" Cut="0.0000000000000000e+00" cType="1" res="-2.0159291103482246e-02" rms="4.5076996088027954e-01" purity="3.4453639388084412e-01" nType="-99"/>
          </Node>
        </Node>
      </Node>
    </BinaryTree>
    <BinaryTree type="DecisionTree" boostWeight="1.0000000000000000e+00" itree="35">
      <Node pos="s" depth="0" NCoef="0" IVar="4" Cut="1.9019941711425781e+02" cType="1" res="-1.9842300098389387e-03" rms="4.7717547416687012e-01" purity="4.9732145667076111e-01" nType="0">
        <Node pos="l" depth="1" NCoef="0" IVar="9" Cut="4.8453941345214844e+01" cType="1" res="2.8605206171050668e-04" rms="4.7836625576019287e-01" purity="5.0663697719573975e-01" nType="0">
          <Node pos="l" depth="2" NCoef="0" IVar="4" Cut="8.2018371582031250e+01" cType="1" res="-1.6505321487784386e-02" rms="4.8669937252998352e-01" purity="4.7497558593750000e-01" nType="0">
            <Node pos="l" depth="3" NCoef="0" IVar="-1" Cut="0.0000000000000000e+00" cType="1" res="-1.1236575432121754e-02" rms="4.8628768324851990e-01" purity="4.7895878553390503e-01" nType="-99"/>
            <Node pos="r" depth="3" NCoef="0" IVar="-1" Cut="0.0000000000000000e+00" cType="1" res="7.0504113100469112e-03" rms="4.8591828346252441e-01" purity="4.6519577503204346e-01" nType="-99"/>
          </Node>
          <Node pos="r" depth="2" NCoef="0" IVar="5" Cut="2.1464704513549805e+01" cType="1" res="7.9209748655557632e-03" rms="4.7433233261108398e-01" purity="5.2103316783905029e-01" nType="0">
            <Node pos="l" depth="3" NCoef="0" IVar="-1" Cut="0.0000000000000000e+00" cType="1" res="1.4792203903198242e-02" rms="4.6862584352493286e-01" purity="6.1795669794082642e-01" nType="-99"/>
            <Node pos="r" depth="3" NCoef="0" IVar="-1" Cut="0.0000000000000000e+00" cType="1" res="3.1373859383165836e-04" rms="4.7535824775695801e-01" purity="4.9863460659980774e-01" nType="-99"/>
          </Node>
        </Node>
        <Node pos="r" depth="1" NCoef="0" IVar="-1" Cut="0.0000000000000000e+00" cType="1" res="-1.7608944326639175e-02" rms="4.5268180966377258e-01" purity="3.2592064142227173e-01" nType="-99"/>
      </Node>
    </BinaryTree>
    <BinaryTree type="DecisionTree" boostWeight="1.0000000000000000e+00" itree="36">
      <Node pos="s" depth="0" NCoef="0" IVar="8" Cut="6.9488845825195312e+01" cType="1" res="1.9645476713776588e-03" rms="4.7720509767532349e-01" purity="5.0147336721420288e-01" nType="0">
        <Node pos="l" depth="1" NCoef="0" IVar="9" Cut="9.0196212768554688e+01" cType="1" res="-1.4705342240631580e-02" rms="4.8612734675407410e-01" purity="5.0188589096069336e-01" nType="0">
          <Node pos="l" depth="2" NCoef="0" IVar="7" Cut="1.1826955080032349e+00" cType="1" res="-3.6743602249771357e-03" rms="4.9144861102104187e-01" purity="5.4146987199783325e-01" nType="0">
            <Node pos="l" depth="3" NCoef="0" IVar="-1" Cut="0.0000000000000000e+00" cType="1" res="-1.5396879985928535e-02" rms="4.9394220113754272e-01" purity="5.2601259946823120e-01" nType="-99"/>
            <Node pos="r" depth="3" NCoef="0" IVar="-1" Cut="0.0000000000000000e+00" cType="1" res="2.2513442672789097e-03" rms="4.9032697081565857e-01" purity="5.4544281959533691e-01" nType="-99"/>
          </Node>
          <Node pos="r" depth="2" NCoef="0" IVar="-1" Cut="0.0000000000000000e+00" cType="1" res="-2.4033127352595329e-02" rms="4.5798334479331970e-01" purity="3.2282930612564087e-01" nType="-99"/>
        </Node>
        <Node pos="r" depth="1" NCoef="0" IVar="6" Cut="6.9169746398925781e+01" cType="1" res="9.3794995918869972e-03" rms="4.7299358248710632e-01" purity="5.0128984451293945e-01" nType="0">
          <Node pos="l" depth="2" NCoef="0" IVar="9" Cut="7.0246788024902344e+01" cType="1" res="3.4257825464010239e-02" rms="4.7185659408569336e-01" purity="5.7392013072967529e-01" nType="0">
            <Node pos="l" depth="3" NCoef="0" IVar="-1" Cut="0.0000000000000000e+00" cType="1" res="4.1389632970094681e-03" rms="4.7859951853752136e-01" purity="5.5514872074127197e-01" nType="-99"/>
            <Node pos="r" depth="3" NCoef="0" IVar="-1" Cut="0.0000000000000000e+00" cType="1" res="2.5670476257801056e-02" rms="4.6206358075141907e-01" purity="5.9646081924438477e-01" nType="-99"/>
          </Node>
          <Node pos="r" depth="2" NCoef="0" IVar="1" Cut="7.4187040328979492e-01" cType="1" res="-3.8959409575909376e-03" rms="4.7306412458419800e-01" purity="4.6253323554992676e-01" nType="0">
            <Node pos="l" depth="3" NCoef="0" IVar="-1" Cut="0.0000000000000000e+00" cType="1" res="1.0096609592437744e-02" rms="4.7262957692146301e-01" purity="5.2109801769256592e-01" nType="-99"/>
            <Node pos="r" depth="3" NCoef="0" IVar="-1" Cut="0.0000000000000000e+00" cType="1" res="-4.2286072857677937e-03" rms="4.7289198637008667e-01" purity="4.4857066869735718e-01" nType="-99"/>
          </Node>
        </Node>
      </Node>
    </BinaryTree>
    <BinaryTree type="DecisionTree" boostWeight="1.0000000000000000e+00" itree="37">
      <Node pos="s" depth="0" NCoef="0" IVar="2" Cut="1.6227960586547852e+00" cType="1" res="7.7027489896863699e-04" rms="4.7593230009078979e-01" purity="4.9954202771186829e-01" nType="0">
        <Node pos="l" depth="1" NCoef="0" IVar="-1" Cut="0.0000000000000000e+00" cType="1" res="1.9314035773277283e-02" rms="4.7366753220558167e-01" purity="5.5558687448501587e-01" nType="-99"/>
        <Node pos="r" depth="1" NCoef="0" IVar="8" Cut="1.9991596984863281e+02" cType="1" res="-3.8077775388956070e-03" rms="4.7588291764259338e-01" purity="4.9433854222297668e-01" nType="0">
          <Node pos="l" depth="2" NCoef="0" IVar="0" Cut="1.9385738372802734e+00" cType="1" res="1.4037345536053181e-03" rms="4.7987028956413269e-01" purity="5.1520854234695435e-01" nType="0">
            <Node pos="l" depth="3" NCoef="0" IVar="-1" Cut="0.0000000000000000e+00" cType="1" res="2.0987726747989655e-03" rms="4.8032793402671814e-01" purity="5.2781611680984497e-01" nType="-99"/>
            <Node pos="r" depth="3" NCoef="0" IVar="-1" Cut="0.0000000000000000e+00" cType="1" res="-1.2882583774626255e-02" rms="4.7440698742866516e-01" purity="4.0571483969688416e-01" nType="-99"/>
          </Node>
          <Node pos="r" depth="2" NCoef="0" IVar="-1" Cut="0.0000000000000000e+00" cType="1" res="-1.7193401232361794e-02" rms="4.4147342443466187e-01" purity="3.3166977763175964e-01" nType="-99"/>
        </Node>
      </Node>
    </BinaryTree>
    <BinaryTree type="DecisionTree" boostWeight="1.0000000000000000e+00" itree="38">
      <Node pos="s" depth="0" NCoef="0" IVar="9" Cut="6.1659278869628906e+01" cType="1" res="-1.4584941091015935e-03" rms="4.7771871089935303e-01" purity="4.9909254908561707e-01" nType="0">
        <Node pos="l" depth="1" NCoef="0" IVar="7" Cut="2.5391807556152344e+00" cType="1" res="-1.4453948475420475e-02" rms="4.8691278696060181e-01" purity="4.9034965038299561e-01" nType="0">
          <Node pos="l" depth="2" NCoef="0" IVar="5" Cut="1.7574834823608398e+01" cType="1" res="-2.7503309771418571e-02" rms="4.8856613039970398e-01" purity="5.0333279371261597e-01" nType="0">
            <Node pos="l" depth="3" NCoef="0" IVar="-1" Cut="0.0000000000000000e+00" cType="1" res="1.9404868362471461e-04" rms="4.8935240507125854e-01" purity="5.4089510440826416e-01" nType="-99"/>
