
        <?xml version="1.0"?>
        <MethodSetup Method="BDT::bdt">
        <GeneralInfo>
        <Info name="TMVA Release" value=""/>
        <Info name="ROOT Release" value=""/>
        <Info name="Creator" value="mlglue"/>
        <Info name="Date" value=""/>
        <Info name="Host" value=""/>
        <Info name="Dir" value=""/>
        <Info name="Training events" value="-1"/>
        <Info name="TrainingTime" value="-1"/>
        <Info name="AnalysisType" value="Classification"/>
        </GeneralInfo>
        <Options>
        <Option name="NTrees" modified="Yes">1000</Option>
        <Option name="MaxDepth" modified="Yes">3</Option>
        <Option name="BoostType" modified="Yes">Grad</Option>
        <Option name="Shrinkage" modified="Yes">0.04</Option>
        <Option name="UseNvars" modified="Yes">16</Option>
        </Options>

        <Variables NVar="16">
        <Variable VarIndex="0" Expression="lep_conePt" Label="lep_conePt" Title="lep_conePt" Unit="" Internal="lep_conePt" Type="F" Min="0.0000000000000000000000000000000000000000000000000000000000000000E+00" Max="0.0000000000000000000000000000000000000000000000000000000000000000E+00"/>
<Variable VarIndex="1" Expression="avg_dr_jet" Label="avg_dr_jet" Title="avg_dr_jet" Unit="" Internal="avg_dr_jet" Type="F" Min="0.0000000000000000000000000000000000000000000000000000000000000000E+00" Max="0.0000000000000000000000000000000000000000000000000000000000000000E+00"/>
<Variable VarIndex="2" Expression="mT_lep" Label="mT_lep" Title="mT_lep" Unit="" Internal="mT_lep" Type="F" Min="0.0000000000000000000000000000000000000000000000000000000000000000E+00" Max="0.0000000000000000000000000000000000000000000000000000000000000000E+00"/>
<Variable VarIndex="3" Expression="mT_tau" Label="mT_tau" Title="mT_tau" Unit="" Internal="mT_tau" Type="F" Min="0.0000000000000000000000000000000000000000000000000000000000000000E+00" Max="0.0000000000000000000000000000000000000000000000000000000000000000E+00"/>
<Variable VarIndex="4" Expression="tau_pt" Label="tau_pt" Title="tau_pt" Unit="" Internal="tau_pt" Type="F" Min="0.0000000000000000000000000000000000000000000000000000000000000000E+00" Max="0.0000000000000000000000000000000000000000000000000000000000000000E+00"/>
<Variable VarIndex="5" Expression="dr_lep_tau" Label="dr_lep_tau" Title="dr_lep_tau" Unit="" Internal="dr_lep_tau" Type="F" Min="0.0000000000000000000000000000000000000000000000000000000000000000E+00" Max="0.0000000000000000000000000000000000000000000000000000000000000000E+00"/>
<Variable VarIndex="6" Expression="costS" Label="costS" Title="costS" Unit="" Internal="costS" Type="F" Min="0.0000000000000000000000000000000000000000000000000000000000000000E+00" Max="0.0000000000000000000000000000000000000000000000000000000000000000E+00"/>
<Variable VarIndex="7" Expression="mTauTauVis" Label="mTauTauVis" Title="mTauTauVis" Unit="" Internal="mTauTauVis" Type="F" Min="0.0000000000000000000000000000000000000000000000000000000000000000E+00" Max="0.0000000000000000000000000000000000000000000000000000000000000000E+00"/>
<Variable VarIndex="8" Expression="mTauTau" Label="mTauTau" Title="mTauTau" Unit="" Internal="mTauTau" Type="F" Min="0.0000000000000000000000000000000000000000000000000000000000000000E+00" Max="0.0000000000000000000000000000000000000000000000000000000000000000E+00"/>
<Variable VarIndex="9" Expression="res_HTT" Label="res_HTT" Title="res_HTT" Unit="" Internal="res_HTT" Type="F" Min="0.0000000000000000000000000000000000000000000000000000000000000000E+00" Max="0.0000000000000000000000000000000000000000000000000000000000000000E+00"/>
<Variable VarIndex="10" Expression="res_HTT_2" Label="res_HTT_2" Title="res_HTT_2" Unit="" Internal="res_HTT_2" Type="F" Min="0.0000000000000000000000000000000000000000000000000000000000000000E+00" Max="0.0000000000000000000000000000000000000000000000000000000000000000E+00"/>
<Variable VarIndex="11" Expression="mbb_loose" Label="mbb_loose" Title="mbb_loose" Unit="" Internal="mbb_loose" Type="F" Min="0.0000000000000000000000000000000000000000000000000000000000000000E+00" Max="0.0000000000000000000000000000000000000000000000000000000000000000E+00"/>
<Variable VarIndex="12" Expression="met_LD" Label="met_LD" Title="met_LD" Unit="" Internal="met_LD" Type="F" Min="0.0000000000000000000000000000000000000000000000000000000000000000E+00" Max="0.0000000000000000000000000000000000000000000000000000000000000000E+00"/>
<Variable VarIndex="13" Expression="charge_lep_tau" Label="charge_lep_tau" Title="charge_lep_tau" Unit="" Internal="charge_lep_tau" Type="F" Min="0.0000000000000000000000000000000000000000000000000000000000000000E+00" Max="0.0000000000000000000000000000000000000000000000000000000000000000E+00"/>
<Variable VarIndex="14" Expression="max_Lep_eta" Label="max_Lep_eta" Title="max_Lep_eta" Unit="" Internal="max_Lep_eta" Type="F" Min="0.0000000000000000000000000000000000000000000000000000000000000000E+00" Max="0.0000000000000000000000000000000000000000000000000000000000000000E+00"/>
<Variable VarIndex="15" Expression="Lep_min_dr_jet" Label="Lep_min_dr_jet" Title="Lep_min_dr_jet" Unit="" Internal="Lep_min_dr_jet" Type="F" Min="0.0000000000000000000000000000000000000000000000000000000000000000E+00" Max="0.0000000000000000000000000000000000000000000000000000000000000000E+00"/>

        </Variables>

        <Classes NClass="2">
        <Class Name="Background" Index="0"/>
<Class Name="Signal" Index="1"/>

        </Classes>

        <Targets NTrgt="0">
        
        </Targets>

        <Transformations NTransformations="0"/>
        <MVAPdfs/>
        <Weights NTrees="1000" AnalysisType="1">
        <BinaryTree type="DecisionTree" boostWeight="0.0" itree="0">
    <Node pos="c" depth="1" NCoef="0"     IVar="9" Cut="     7.848902E-01" cType="1"     res="     0.000000E+00" rms="0.0"     purity="0.00000000E+00" nType="0">
        <Node pos="l" depth="2" NCoef="0"     IVar="13" Cut="    -1.000000E+00" cType="1"     res="     0.000000E+00" rms="0.0"     purity="0.00000000E+00" nType="0">
            <Node pos="l" depth="3" NCoef="0"     IVar="4" Cut="     4.416473E+01" cType="1"     res="     0.000000E+00" rms="0.0"     purity="0.00000000E+00" nType="0">
                <Node pos="l" depth="4" NCoef="0"     IVar="-1" Cut="     0.000000E+00" cType="1"     res="     5.088796E-02" rms="0.0e-00"     purity="0.00000000E+00" nType="-99">
                </Node>
                <Node pos="r" depth="4" NCoef="0"     IVar="-1" Cut="     0.000000E+00" cType="1"     res="     6.695727E-02" rms="0.0e-00"     purity="0.00000000E+00" nType="-99">
                </Node>
            </Node>
            <Node pos="r" depth="3" NCoef="0"     IVar="13" Cut="     1.000000E+00" cType="1"     res="     0.000000E+00" rms="0.0"     purity="0.00000000E+00" nType="0">
                <Node pos="l" depth="4" NCoef="0"     IVar="-1" Cut="     0.000000E+00" cType="1"     res="     5.392079E-03" rms="0.0e-00"     purity="0.00000000E+00" nType="-99">
                </Node>
                <Node pos="r" depth="4" NCoef="0"     IVar="-1" Cut="     0.000000E+00" cType="1"     res="     5.838173E-02" rms="0.0e-00"     purity="0.00000000E+00" nType="-99">
                </Node>
            </Node>
        </Node>
        <Node pos="r" depth="2" NCoef="0"     IVar="9" Cut="     9.338402E-01" cType="1"     res="     0.000000E+00" rms="0.0"     purity="0.00000000E+00" nType="0">
            <Node pos="l" depth="3" NCoef="0"     IVar="13" Cut="    -1.000000E+00" cType="1"     res="     0.000000E+00" rms="0.0"     purity="0.00000000E+00" nType="0">
                <Node pos="l" depth="4" NCoef="0"     IVar="-1" Cut="     0.000000E+00" cType="1"     res="     6.858794E-02" rms="0.0e-00"     purity="0.00000000E+00" nType="-99">
                </Node>
                <Node pos="r" depth="4" NCoef="0"     IVar="-1" Cut="     0.000000E+00" cType="1"     res="     4.392958E-02" rms="0.0e-00"     purity="0.00000000E+00" nType="-99">
                </Node>
            </Node>
            <Node pos="r" depth="3" NCoef="0"     IVar="9" Cut="     9.671868E-01" cType="1"     res="     0.000000E+00" rms="0.0"     purity="0.00000000E+00" nType="0">
                <Node pos="l" depth="4" NCoef="0"     IVar="-1" Cut="     0.000000E+00" cType="1"     res="     6.200646E-02" rms="0.0e-00"     purity="0.00000000E+00" nType="-99">
                </Node>
                <Node pos="r" depth="4" NCoef="0"     IVar="-1" Cut="     0.000000E+00" cType="1"     res="     7.147834E-02" rms="0.0e-00"     purity="0.00000000E+00" nType="-99">
                </Node>
            </Node>
        </Node>
    </Node>
</BinaryTree>
<BinaryTree type="DecisionTree" boostWeight="0.0" itree="1">
    <Node pos="c" depth="1" NCoef="0"     IVar="9" Cut="     8.093072E-01" cType="1"     res="     0.000000E+00" rms="0.0"     purity="0.00000000E+00" nType="0">
        <Node pos="l" depth="2" NCoef="0"     IVar="13" Cut="    -1.000000E+00" cType="1"     res="     0.000000E+00" rms="0.0"     purity="0.00000000E+00" nType="0">
            <Node pos="l" depth="3" NCoef="0"     IVar="4" Cut="     4.214118E+01" cType="1"     res="     0.000000E+00" rms="0.0"     purity="0.00000000E+00" nType="0">
                <Node pos="l" depth="4" NCoef="0"     IVar="-1" Cut="     0.000000E+00" cType="1"     res="     4.821985E-02" rms="0.0e-00"     purity="0.00000000E+00" nType="-99">
                </Node>
                <Node pos="r" depth="4" NCoef="0"     IVar="-1" Cut="     0.000000E+00" cType="1"     res="     6.427101E-02" rms="0.0e-00"     purity="0.00000000E+00" nType="-99">
                </Node>
            </Node>
            <Node pos="r" depth="3" NCoef="0"     IVar="13" Cut="     1.000000E+00" cType="1"     res="     0.000000E+00" rms="0.0"     purity="0.00000000E+00" nType="0">
                <Node pos="l" depth="4" NCoef="0"     IVar="-1" Cut="     0.000000E+00" cType="1"     res="     6.372440E-03" rms="0.0e-00"     purity="0.00000000E+00" nType="-99">
                </Node>
                <Node pos="r" depth="4" NCoef="0"     IVar="-1" Cut="     0.000000E+00" cType="1"     res="     5.654109E-02" rms="0.0e-00"     purity="0.00000000E+00" nType="-99">
                </Node>
            </Node>
        </Node>
        <Node pos="r" depth="2" NCoef="0"     IVar="9" Cut="     9.378108E-01" cType="1"     res="     0.000000E+00" rms="0.0"     purity="0.00000000E+00" nType="0">
            <Node pos="l" depth="3" NCoef="0"     IVar="13" Cut="    -1.000000E+00" cType="1"     res="     0.000000E+00" rms="0.0"     purity="0.00000000E+00" nType="0">
                <Node pos="l" depth="4" NCoef="0"     IVar="-1" Cut="     0.000000E+00" cType="1"     res="     6.611049E-02" rms="0.0e-00"     purity="0.00000000E+00" nType="-99">
                </Node>
                <Node pos="r" depth="4" NCoef="0"     IVar="-1" Cut="     0.000000E+00" cType="1"     res="     4.383544E-02" rms="0.0e-00"     purity="0.00000000E+00" nType="-99">
                </Node>
            </Node>
            <Node pos="r" depth="3" NCoef="0"     IVar="9" Cut="     9.711658E-01" cType="1"     res="     0.000000E+00" rms="0.0"     purity="0.00000000E+00" nType="0">
                <Node pos="l" depth="4" NCoef="0"     IVar="-1" Cut="     0.000000E+00" cType="1"     res="     6.065227E-02" rms="0.0e-00"     purity="0.00000000E+00" nType="-99">
                </Node>
                <Node pos="r" depth="4" NCoef="0"     IVar="-1" Cut="     0.000000E+00" cType="1"     res="     6.930275E-02" rms="0.0e-00"     purity="0.00000000E+00" nType="-99">
                </Node>
            </Node>
        </Node>
    </Node>
</BinaryTree>
<BinaryTree type="DecisionTree" boostWeight="0.0" itree="2">
    <Node pos="c" depth="1" NCoef="0"     IVar="9" Cut="     7.415345E-01" cType="1"     res="     0.000000E+00" rms="0.0"     purity="0.00000000E+00" nType="0">
        <Node pos="l" depth="2" NCoef="0"     IVar="13" Cut="    -1.000000E+00" cType="1"     res="     0.000000E+00" rms="0.0"     purity="0.00000000E+00" nType="0">
            <Node pos="l" depth="3" NCoef="0"     IVar="4" Cut="     4.289484E+01" cType="1"     res="     0.000000E+00" rms="0.0"     purity="0.00000000E+00" nType="0">
                <Node pos="l" depth="4" NCoef="0"     IVar="-1" Cut="     0.000000E+00" cType="1"     res="     4.561540E-02" rms="0.0e-00"     purity="0.00000000E+00" nType="-99">
                </Node>
                <Node pos="r" depth="4" NCoef="0"     IVar="-1" Cut="     0.000000E+00" cType="1"     res="     6.125772E-02" rms="0.0e-00"     purity="0.00000000E+00" nType="-99">
                </Node>
            </Node>
            <Node pos="r" depth="3" NCoef="0"     IVar="13" Cut="     1.000000E+00" cType="1"     res="     0.000000E+00" rms="0.0"     purity="0.00000000E+00" nType="0">
                <Node pos="l" depth="4" NCoef="0"     IVar="-1" Cut="     0.000000E+00" cType="1"     res="     2.875904E-03" rms="0.0e-00"     purity="0.00000000E+00" nType="-99">
                </Node>
                <Node pos="r" depth="4" NCoef="0"     IVar="-1" Cut="     0.000000E+00" cType="1"     res="     5.328746E-02" rms="0.0e-00"     purity="0.00000000E+00" nType="-99">
                </Node>
            </Node>
        </Node>
        <Node pos="r" depth="2" NCoef="0"     IVar="9" Cut="     9.282813E-01" cType="1"     res="     0.000000E+00" rms="0.0"     purity="0.00000000E+00" nType="0">
            <Node pos="l" depth="3" NCoef="0"     IVar="13" Cut="    -1.000000E+00" cType="1"     res="     0.000000E+00" rms="0.0"     purity="0.00000000E+00" nType="0">
                <Node pos="l" depth="4" NCoef="0"     IVar="-1" Cut="     0.000000E+00" cType="1"     res="     6.312792E-02" rms="0.0e-00"     purity="0.00000000E+00" nType="-99">
                </Node>
                <Node pos="r" depth="4" NCoef="0"     IVar="-1" Cut="     0.000000E+00" cType="1"     res="     3.850928E-02" rms="0.0e-00"     purity="0.00000000E+00" nType="-99">
                </Node>
            </Node>
            <Node pos="r" depth="3" NCoef="0"     IVar="9" Cut="     9.671873E-01" cType="1"     res="     0.000000E+00" rms="0.0"     purity="0.00000000E+00" nType="0">
                <Node pos="l" depth="4" NCoef="0"     IVar="-1" Cut="     0.000000E+00" cType="1"     res="     5.682566E-02" rms="0.0e-00"     purity="0.00000000E+00" nType="-99">
                </Node>
                <Node pos="r" depth="4" NCoef="0"     IVar="-1" Cut="     0.000000E+00" cType="1"     res="     6.622101E-02" rms="0.0e-00"     purity="0.00000000E+00" nType="-99">
                </Node>
            </Node>
        </Node>
    </Node>
</BinaryTree>
<BinaryTree type="DecisionTree" boostWeight="0.0" itree="3">
    <Node pos="c" depth="1" NCoef="0"     IVar="9" Cut="     6.701503E-01" cType="1"     res="     0.000000E+00" rms="0.0"     purity="0.00000000E+00" nType="0">
        <Node pos="l" depth="2" NCoef="0"     IVar="13" Cut="    -1.000000E+00" cType="1"     res="     0.000000E+00" rms="0.0"     purity="0.00000000E+00" nType="0">
            <Node pos="l" depth="3" NCoef="0"     IVar="4" Cut="     4.416524E+01" cType="1"     res="     0.000000E+00" rms="0.0"     purity="0.00000000E+00" nType="0">
                <Node pos="l" depth="4" NCoef="0"     IVar="-1" Cut="     0.000000E+00" cType="1"     res="     4.300142E-02" rms="0.0e-00"     purity="0.00000000E+00" nType="-99">
                </Node>
                <Node pos="r" depth="4" NCoef="0"     IVar="-1" Cut="     0.000000E+00" cType="1"     res="     5.867745E-02" rms="0.0e-00"     purity="0.00000000E+00" nType="-99">
                </Node>
            </Node>
            <Node pos="r" depth="3" NCoef="0"     IVar="13" Cut="     1.000000E+00" cType="1"     res="     0.000000E+00" rms="0.0"     purity="0.00000000E+00" nType="0">
                <Node pos="l" depth="4" NCoef="0"     IVar="-1" Cut="     0.000000E+00" cType="1"     res="    -4.936922E-04" rms="0.0e-00"     purity="0.00000000E+00" nType="-99">
                </Node>
                <Node pos="r" depth="4" NCoef="0"     IVar="-1" Cut="     0.000000E+00" cType="1"     res="     5.031948E-02" rms="0.0e-00"     purity="0.00000000E+00" nType="-99">
                </Node>
            </Node>
        </Node>
        <Node pos="r" depth="2" NCoef="0"     IVar="9" Cut="     9.135969E-01" cType="1"     res="     0.000000E+00" rms="0.0"     purity="0.00000000E+00" nType="0">
            <Node pos="l" depth="3" NCoef="0"     IVar="13" Cut="     1.000000E+00" cType="1"     res="     0.000000E+00" rms="0.0"     purity="0.00000000E+00" nType="0">
                <Node pos="l" depth="4" NCoef="0"     IVar="-1" Cut="     0.000000E+00" cType="1"     res="     3.381523E-02" rms="0.0e-00"     purity="0.00000000E+00" nType="-99">
                </Node>
                <Node pos="r" depth="4" NCoef="0"     IVar="-1" Cut="     0.000000E+00" cType="1"     res="     5.954436E-02" rms="0.0e-00"     purity="0.00000000E+00" nType="-99">
                </Node>
            </Node>
            <Node pos="r" depth="3" NCoef="0"     IVar="9" Cut="     9.638796E-01" cType="1"     res="     0.000000E+00" rms="0.0"     purity="0.00000000E+00" nType="0">
                <Node pos="l" depth="4" NCoef="0"     IVar="-1" Cut="     0.000000E+00" cType="1"     res="     5.298594E-02" rms="0.0e-00"     purity="0.00000000E+00" nType="-99">
                </Node>
                <Node pos="r" depth="4" NCoef="0"     IVar="-1" Cut="     0.000000E+00" cType="1"     res="     6.353342E-02" rms="0.0e-00"     purity="0.00000000E+00" nType="-99">
                </Node>
            </Node>
        </Node>
    </Node>
</BinaryTree>
<BinaryTree type="DecisionTree" boostWeight="0.0" itree="4">
    <Node pos="c" depth="1" NCoef="0"     IVar="9" Cut="     8.163057E-01" cType="1"     res="     0.000000E+00" rms="0.0"     purity="0.00000000E+00" nType="0">
        <Node pos="l" depth="2" NCoef="0"     IVar="13" Cut="    -1.000000E+00" cType="1"     res="     0.000000E+00" rms="0.0"     purity="0.00000000E+00" nType="0">
            <Node pos="l" depth="3" NCoef="0"     IVar="4" Cut="     4.244474E+01" cType="1"     res="     0.000000E+00" rms="0.0"     purity="0.00000000E+00" nType="0">
                <Node pos="l" depth="4" NCoef="0"     IVar="-1" Cut="     0.000000E+00" cType="1"     res="     4.334271E-02" rms="0.0e-00"     purity="0.00000000E+00" nType="-99">
                </Node>
                <Node pos="r" depth="4" NCoef="0"     IVar="-1" Cut="     0.000000E+00" cType="1"     res="     5.818268E-02" rms="0.0e-00"     purity="0.00000000E+00" nType="-99">
                </Node>
            </Node>
            <Node pos="r" depth="3" NCoef="0"     IVar="13" Cut="     1.000000E+00" cType="1"     res="     0.000000E+00" rms="0.0"     purity="0.00000000E+00" nType="0">
                <Node pos="l" depth="4" NCoef="0"     IVar="-1" Cut="     0.000000E+00" cType="1"     res="     5.776118E-03" rms="0.0e-00"     purity="0.00000000E+00" nType="-99">
                </Node>
                <Node pos="r" depth="4" NCoef="0"     IVar="-1" Cut="     0.000000E+00" cType="1"     res="     5.087560E-02" rms="0.0e-00"     purity="0.00000000E+00" nType="-99">
                </Node>
            </Node>
        </Node>
        <Node pos="r" depth="2" NCoef="0"     IVar="9" Cut="     9.452036E-01" cType="1"     res="     0.000000E+00" rms="0.0"     purity="0.00000000E+00" nType="0">
            <Node pos="l" depth="3" NCoef="0"     IVar="13" Cut="    -1.000000E+00" cType="1"     res="     0.000000E+00" rms="0.0"     purity="0.00000000E+00" nType="0">
                <Node pos="l" depth="4" NCoef="0"     IVar="-1" Cut="     0.000000E+00" cType="1"     res="     6.052367E-02" rms="0.0e-00"     purity="0.00000000E+00" nType="-99">
                </Node>
                <Node pos="r" depth="4" NCoef="0"     IVar="-1" Cut="     0.000000E+00" cType="1"     res="     4.018329E-02" rms="0.0e-00"     purity="0.00000000E+00" nType="-99">
                </Node>
            </Node>
            <Node pos="r" depth="3" NCoef="0"     IVar="9" Cut="     9.734904E-01" cType="1"     res="     0.000000E+00" rms="0.0"     purity="0.00000000E+00" nType="0">
                <Node pos="l" depth="4" NCoef="0"     IVar="-1" Cut="     0.000000E+00" cType="1"     res="     5.571703E-02" rms="0.0e-00"     purity="0.00000000E+00" nType="-99">
                </Node>
                <Node pos="r" depth="4" NCoef="0"     IVar="-1" Cut="     0.000000E+00" cType="1"     res="     6.278345E-02" rms="0.0e-00"     purity="0.00000000E+00" nType="-99">
                </Node>
            </Node>
        </Node>
    </Node>
</BinaryTree>
<BinaryTree type="DecisionTree" boostWeight="0.0" itree="5">
    <Node pos="c" depth="1" NCoef="0"     IVar="9" Cut="     6.484262E-01" cType="1"     res="     0.000000E+00" rms="0.0"     purity="0.00000000E+00" nType="0">
        <Node pos="l" depth="2" NCoef="0"     IVar="13" Cut="    -1.000000E+00" cType="1"     res="     0.000000E+00" rms="0.0"     purity="0.00000000E+00" nType="0">
            <Node pos="l" depth="3" NCoef="0"     IVar="4" Cut="     4.579366E+01" cType="1"     res="     0.000000E+00" rms="0.0"     purity="0.00000000E+00" nType="0">
                <Node pos="l" depth="4" NCoef="0"     IVar="-1" Cut="     0.000000E+00" cType="1"     res="     3.955019E-02" rms="0.0e-00"     purity="0.00000000E+00" nType="-99">
                </Node>
                <Node pos="r" depth="4" NCoef="0"     IVar="-1" Cut="     0.000000E+00" cType="1"     res="     5.490519E-02" rms="0.0e-00"     purity="0.00000000E+00" nType="-99">
                </Node>
            </Node>
            <Node pos="r" depth="3" NCoef="0"     IVar="13" Cut="     1.000000E+00" cType="1"     res="     0.000000E+00" rms="0.0"     purity="0.00000000E+00" nType="0">
                <Node pos="l" depth="4" NCoef="0"     IVar="-1" Cut="     0.000000E+00" cType="1"     res="    -1.638588E-03" rms="0.0e-00"     purity="0.00000000E+00" nType="-99">
                </Node>
                <Node pos="r" depth="4" NCoef="0"     IVar="-1" Cut="     0.000000E+00" cType="1"     res="     4.655129E-02" rms="0.0e-00"     purity="0.00000000E+00" nType="-99">
                </Node>
            </Node>
        </Node>
        <Node pos="r" depth="2" NCoef="0"     IVar="9" Cut="     9.073858E-01" cType="1"     res="     0.000000E+00" rms="0.0"     purity="0.00000000E+00" nType="0">
            <Node pos="l" depth="3" NCoef="0"     IVar="13" Cut="    -1.000000E+00" cType="1"     res="     0.000000E+00" rms="0.0"     purity="0.00000000E+00" nType="0">
                <Node pos="l" depth="4" NCoef="0"     IVar="-1" Cut="     0.000000E+00" cType="1"     res="     5.694475E-02" rms="0.0e-00"     purity="0.00000000E+00" nType="-99">
                </Node>
                <Node pos="r" depth="4" NCoef="0"     IVar="-1" Cut="     0.000000E+00" cType="1"     res="     3.053673E-02" rms="0.0e-00"     purity="0.00000000E+00" nType="-99">
                </Node>
            </Node>
            <Node pos="r" depth="3" NCoef="0"     IVar="9" Cut="     9.606445E-01" cType="1"     res="     0.000000E+00" rms="0.0"     purity="0.00000000E+00" nType="0">
                <Node pos="l" depth="4" NCoef="0"     IVar="-1" Cut="     0.000000E+00" cType="1"     res="     4.865378E-02" rms="0.0e-00"     purity="0.00000000E+00" nType="-99">
                </Node>
                <Node pos="r" depth="4" NCoef="0"     IVar="-1" Cut="     0.000000E+00" cType="1"     res="     5.916250E-02" rms="0.0e-00"     purity="0.00000000E+00" nType="-99">
                </Node>
            </Node>
        </Node>
    </Node>
</BinaryTree>
<BinaryTree type="DecisionTree" boostWeight="0.0" itree="6">
    <Node pos="c" depth="1" NCoef="0"     IVar="9" Cut="     5.853683E-01" cType="1"     res="     0.000000E+00" rms="0.0"     purity="0.00000000E+00" nType="0">
        <Node pos="l" depth="2" NCoef="0"     IVar="13" Cut="    -1.000000E+00" cType="1"     res="     0.000000E+00" rms="0.0"     purity="0.00000000E+00" nType="0">
            <Node pos="l" depth="3" NCoef="0"     IVar="12" Cut="     7.793531E+01" cType="1"     res="     0.000000E+00" rms="0.0"     purity="0.00000000E+00" nType="0">
                <Node pos="l" depth="4" NCoef="0"     IVar="-1" Cut="     0.000000E+00" cType="1"     res="     3.869453E-02" rms="0.0e-00"     purity="0.00000000E+00" nType="-99">
                </Node>
                <Node pos="r" depth="4" NCoef="0"     IVar="-1" Cut="     0.000000E+00" cType="1"     res="     5.410632E-02" rms="0.0e-00"     purity="0.00000000E+00" nType="-99">
                </Node>
            </Node>
            <Node pos="r" depth="3" NCoef="0"     IVar="13" Cut="     1.000000E+00" cType="1"     res="     0.000000E+00" rms="0.0"     purity="0.00000000E+00" nType="0">
                <Node pos="l" depth="4" NCoef="0"     IVar="-1" Cut="     0.000000E+00" cType="1"     res="    -4.293347E-03" rms="0.0e-00"     purity="0.00000000E+00" nType="-99">
                </Node>
                <Node pos="r" depth="4" NCoef="0"     IVar="-1" Cut="     0.000000E+00" cType="1"     res="     4.417818E-02" rms="0.0e-00"     purity="0.00000000E+00" nType="-99">
                </Node>
            </Node>
        </Node>
        <Node pos="r" depth="2" NCoef="0"     IVar="9" Cut="     9.060721E-01" cType="1"     res="     0.000000E+00" rms="0.0"     purity="0.00000000E+00" nType="0">
            <Node pos="l" depth="3" NCoef="0"     IVar="13" Cut="     1.000000E+00" cType="1"     res="     0.000000E+00" rms="0.0"     purity="0.00000000E+00" nType="0">
                <Node pos="l" depth="4" NCoef="0"     IVar="-1" Cut="     0.000000E+00" cType="1"     res="     2.825189E-02" rms="0.0e-00"     purity="0.00000000E+00" nType="-99">
                </Node>
                <Node pos="r" depth="4" NCoef="0"     IVar="-1" Cut="     0.000000E+00" cType="1"     res="     5.398090E-02" rms="0.0e-00"     purity="0.00000000E+00" nType="-99">
                </Node>
            </Node>
            <Node pos="r" depth="3" NCoef="0"     IVar="9" Cut="     9.549011E-01" cType="1"     res="     0.000000E+00" rms="0.0"     purity="0.00000000E+00" nType="0">
                <Node pos="l" depth="4" NCoef="0"     IVar="-1" Cut="     0.000000E+00" cType="1"     res="     4.624010E-02" rms="0.0e-00"     purity="0.00000000E+00" nType="-99">
                </Node>
                <Node pos="r" depth="4" NCoef="0"     IVar="-1" Cut="     0.000000E+00" cType="1"     res="     5.674426E-02" rms="0.0e-00"     purity="0.00000000E+00" nType="-99">
                </Node>
            </Node>
        </Node>
    </Node>
</BinaryTree>
<BinaryTree type="DecisionTree" boostWeight="0.0" itree="7">
    <Node pos="c" depth="1" NCoef="0"     IVar="9" Cut="     8.093072E-01" cType="1"     res="     0.000000E+00" rms="0.0"     purity="0.00000000E+00" nType="0">
        <Node pos="l" depth="2" NCoef="0"     IVar="13" Cut="    -1.000000E+00" cType="1"     res="     0.000000E+00" rms="0.0"     purity="0.00000000E+00" nType="0">
            <Node pos="l" depth="3" NCoef="0"     IVar="4" Cut="     4.214118E+01" cType="1"     res="     0.000000E+00" rms="0.0"     purity="0.00000000E+00" nType="0">
                <Node pos="l" depth="4" NCoef="0"     IVar="-1" Cut="     0.000000E+00" cType="1"     res="     3.867898E-02" rms="0.0e-00"     purity="0.00000000E+00" nType="-99">
                </Node>
                <Node pos="r" depth="4" NCoef="0"     IVar="-1" Cut="     0.000000E+00" cType="1"     res="     5.334189E-02" rms="0.0e-00"     purity="0.00000000E+00" nType="-99">
                </Node>
            </Node>
            <Node pos="r" depth="3" NCoef="0"     IVar="13" Cut="     1.000000E+00" cType="1"     res="     0.000000E+00" rms="0.0"     purity="0.00000000E+00" nType="0">
                <Node pos="l" depth="4" NCoef="0"     IVar="-1" Cut="     0.000000E+00" cType="1"     res="     4.545156E-03" rms="0.0e-00"     purity="0.00000000E+00" nType="-99">
                </Node>
                <Node pos="r" depth="4" NCoef="0"     IVar="-1" Cut="     0.000000E+00" cType="1"     res="     4.606164E-02" rms="0.0e-00"     purity="0.00000000E+00" nType="-99">
                </Node>
            </Node>
        </Node>
        <Node pos="r" depth="2" NCoef="0"     IVar="9" Cut="     9.415558E-01" cType="1"     res="     0.000000E+00" rms="0.0"     purity="0.00000000E+00" nType="0">
            <Node pos="l" depth="3" NCoef="0"     IVar="13" Cut="     1.000000E+00" cType="1"     res="     0.000000E+00" rms="0.0"     purity="0.00000000E+00" nType="0">
                <Node pos="l" depth="4" NCoef="0"     IVar="-1" Cut="     0.000000E+00" cType="1"     res="     3.518945E-02" rms="0.0e-00"     purity="0.00000000E+00" nType="-99">
                </Node>
                <Node pos="r" depth="4" NCoef="0"     IVar="-1" Cut="     0.000000E+00" cType="1"     res="     5.548685E-02" rms="0.0e-00"     purity="0.00000000E+00" nType="-99">
                </Node>
            </Node>
            <Node pos="r" depth="3" NCoef="0"     IVar="9" Cut="     9.725696E-01" cType="1"     res="     0.000000E+00" rms="0.0"     purity="0.00000000E+00" nType="0">
                <Node pos="l" depth="4" NCoef="0"     IVar="-1" Cut="     0.000000E+00" cType="1"     res="     5.003897E-02" rms="0.0e-00"     purity="0.00000000E+00" nType="-99">
                </Node>
                <Node pos="r" depth="4" NCoef="0"     IVar="-1" Cut="     0.000000E+00" cType="1"     res="     5.741711E-02" rms="0.0e-00"     purity="0.00000000E+00" nType="-99">
                </Node>
            </Node>
        </Node>
    </Node>
</BinaryTree>
<BinaryTree type="DecisionTree" boostWeight="0.0" itree="8">
    <Node pos="c" depth="1" NCoef="0"     IVar="9" Cut="     5.457219E-01" cType="1"     res="     0.000000E+00" rms="0.0"     purity="0.00000000E+00" nType="0">
        <Node pos="l" depth="2" NCoef="0"     IVar="13" Cut="    -1.000000E+00" cType="1"     res="     0.000000E+00" rms="0.0"     purity="0.00000000E+00" nType="0">
            <Node pos="l" depth="3" NCoef="0"     IVar="12" Cut="     7.793531E+01" cType="1"     res="     0.000000E+00" rms="0.0"     purity="0.00000000E+00" nType="0">
                <Node pos="l" depth="4" NCoef="0"     IVar="-1" Cut="     0.000000E+00" cType="1"     res="     3.498612E-02" rms="0.0e-00"     purity="0.00000000E+00" nType="-99">
                </Node>
                <Node pos="r" depth="4" NCoef="0"     IVar="-1" Cut="     0.000000E+00" cType="1"     res="     5.063222E-02" rms="0.0e-00"     purity="0.00000000E+00" nType="-99">
                </Node>
            </Node>
            <Node pos="r" depth="3" NCoef="0"     IVar="13" Cut="     1.000000E+00" cType="1"     res="     0.000000E+00" rms="0.0"     purity="0.00000000E+00" nType="0">
                <Node pos="l" depth="4" NCoef="0"     IVar="-1" Cut="     0.000000E+00" cType="1"     res="    -6.174003E-03" rms="0.0e-00"     purity="0.00000000E+00" nType="-99">
                </Node>
                <Node pos="r" depth="4" NCoef="0"     IVar="-1" Cut="     0.000000E+00" cType="1"     res="     4.077895E-02" rms="0.0e-00"     purity="0.00000000E+00" nType="-99">
                </Node>
            </Node>
        </Node>
        <Node pos="r" depth="2" NCoef="0"     IVar="9" Cut="     9.060721E-01" cType="1"     res="     0.000000E+00" rms="0.0"     purity="0.00000000E+00" nType="0">
            <Node pos="l" depth="3" NCoef="0"     IVar="13" Cut="    -1.000000E+00" cType="1"     res="     0.000000E+00" rms="0.0"     purity="0.00000000E+00" nType="0">
                <Node pos="l" depth="4" NCoef="0"     IVar="-1" Cut="     0.000000E+00" cType="1"     res="     5.252827E-02" rms="0.0e-00"     purity="0.00000000E+00" nType="-99">
                </Node>
                <Node pos="r" depth="4" NCoef="0"     IVar="-1" Cut="     0.000000E+00" cType="1"     res="     2.584969E-02" rms="0.0e-00"     purity="0.00000000E+00" nType="-99">
                </Node>
            </Node>
            <Node pos="r" depth="3" NCoef="0"     IVar="9" Cut="     9.638796E-01" cType="1"     res="     0.000000E+00" rms="0.0"     purity="0.00000000E+00" nType="0">
                <Node pos="l" depth="4" NCoef="0"     IVar="-1" Cut="     0.000000E+00" cType="1"     res="     4.440934E-02" rms="0.0e-00"     purity="0.00000000E+00" nType="-99">
                </Node>
                <Node pos="r" depth="4" NCoef="0"     IVar="-1" Cut="     0.000000E+00" cType="1"     res="     5.469571E-02" rms="0.0e-00"     purity="0.00000000E+00" nType="-99">
                </Node>
            </Node>
        </Node>
    </Node>
</BinaryTree>
<BinaryTree type="DecisionTree" boostWeight="0.0" itree="9">
    <Node pos="c" depth="1" NCoef="0"     IVar="9" Cut="     5.457219E-01" cType="1"     res="     0.000000E+00" rms="0.0"     purity="0.00000000E+00" nType="0">
        <Node pos="l" depth="2" NCoef="0"     IVar="13" Cut="    -1.000000E+00" cType="1"     res="     0.000000E+00" rms="0.0"     purity="0.00000000E+00" nType="0">
            <Node pos="l" depth="3" NCoef="0"     IVar="12" Cut="     9.486076E+01" cType="1"     res="     0.000000E+00" rms="0.0"     purity="0.00000000E+00" nType="0">
                <Node pos="l" depth="4" NCoef="0"     IVar="-1" Cut="     0.000000E+00" cType="1"     res="     3.563961E-02" rms="0.0e-00"     purity="0.00000000E+00" nType="-99">
                </Node>
                <Node pos="r" depth="4" NCoef="0"     IVar="-1" Cut="     0.000000E+00" cType="1"     res="     5.114384E-02" rms="0.0e-00"     purity="0.00000000E+00" nType="-99">
                </Node>
            </Node>
            <Node pos="r" depth="3" NCoef="0"     IVar="13" Cut="     1.000000E+00" cType="1"     res="     0.000000E+00" rms="0.0"     purity="0.00000000E+00" nType="0">
                <Node pos="l" depth="4" NCoef="0"     IVar="-1" Cut="     0.000000E+00" cType="1"     res="    -5.926756E-03" rms="0.0e-00"     purity="0.00000000E+00" nType="-99">
                </Node>
                <Node pos="r" depth="4" NCoef="0"     IVar="-1" Cut="     0.000000E+00" cType="1"     res="     3.949165E-02" rms="0.0e-00"     purity="0.00000000E+00" nType="-99">
                </Node>
            </Node>
        </Node>
        <Node pos="r" depth="2" NCoef="0"     IVar="9" Cut="     8.962173E-01" cType="1"     res="     0.000000E+00" rms="0.0"     purity="0.00000000E+00" nType="0">
            <Node pos="l" depth="3" NCoef="0"     IVar="13" Cut="    -1.000000E+00" cType="1"     res="     0.000000E+00" rms="0.0"     purity="0.00000000E+00" nType="0">
                <Node pos="l" depth="4" NCoef="0"     IVar="-1" Cut="     0.000000E+00" cType="1"     res="     5.071394E-02" rms="0.0e-00"     purity="0.00000000E+00" nType="-99">
                </Node>
                <Node pos="r" depth="4" NCoef="0"     IVar="-1" Cut="     0.000000E+00" cType="1"     res="     2.425620E-02" rms="0.0e-00"     purity="0.00000000E+00" nType="-99">
                </Node>
            </Node>
            <Node pos="r" depth="3" NCoef="0"     IVar="9" Cut="     9.533820E-01" cType="1"     res="     0.000000E+00" rms="0.0"     purity="0.00000000E+00" nType="0">
                <Node pos="l" depth="4" NCoef="0"     IVar="-1" Cut="     0.000000E+00" cType="1"     res="     4.124641E-02" rms="0.0e-00"     purity="0.00000000E+00" nType="-99">
                </Node>
                <Node pos="r" depth="4" NCoef="0"     IVar="-1" Cut="     0.000000E+00" cType="1"     res="     5.203782E-02" rms="0.0e-00"     purity="0.00000000E+00" nType="-99">
                </Node>
            </Node>
        </Node>
    </Node>
</BinaryTree>
<BinaryTree type="DecisionTree" boostWeight="0.0" itree="10">
    <Node pos="c" depth="1" NCoef="0"     IVar="9" Cut="     7.848902E-01" cType="1"     res="     0.000000E+00" rms="0.0"     purity="0.00000000E+00" nType="0">
        <Node pos="l" depth="2" NCoef="0"     IVar="9" Cut="     3.072731E-01" cType="1"     res="     0.000000E+00" rms="0.0"     purity="0.00000000E+00" nType="0">
            <Node pos="l" depth="3" NCoef="0"     IVar="13" Cut="     1.000000E+00" cType="1"     res="     0.000000E+00" rms="0.0"     purity="0.00000000E+00" nType="0">
                <Node pos="l" depth="4" NCoef="0"     IVar="-1" Cut="     0.000000E+00" cType="1"     res="    -1.012628E-02" rms="0.0e-00"     purity="0.00000000E+00" nType="-99">
                </Node>
                <Node pos="r" depth="4" NCoef="0"     IVar="-1" Cut="     0.000000E+00" cType="1"     res="     3.521006E-02" rms="0.0e-00"     purity="0.00000000E+00" nType="-99">
                </Node>
            </Node>
            <Node pos="r" depth="3" NCoef="0"     IVar="10" Cut="     1.517775E+02" cType="1"     res="     0.000000E+00" rms="0.0"     purity="0.00000000E+00" nType="0">
                <Node pos="l" depth="4" NCoef="0"     IVar="-1" Cut="     0.000000E+00" cType="1"     res="     1.143034E-02" rms="0.0e-00"     purity="0.00000000E+00" nType="-99">
                </Node>
                <Node pos="r" depth="4" NCoef="0"     IVar="-1" Cut="     0.000000E+00" cType="1"     res="     3.276434E-02" rms="0.0e-00"     purity="0.00000000E+00" nType="-99">
                </Node>
            </Node>
        </Node>
        <Node pos="r" depth="2" NCoef="0"     IVar="9" Cut="     9.338305E-01" cType="1"     res="     0.000000E+00" rms="0.0"     purity="0.00000000E+00" nType="0">
            <Node pos="l" depth="3" NCoef="0"     IVar="13" Cut="     1.000000E+00" cType="1"     res="     0.000000E+00" rms="0.0"     purity="0.00000000E+00" nType="0">
                <Node pos="l" depth="4" NCoef="0"     IVar="-1" Cut="     0.000000E+00" cType="1"     res="     3.003825E-02" rms="0.0e-00"     purity="0.00000000E+00" nType="-99">
                </Node>
                <Node pos="r" depth="4" NCoef="0"     IVar="-1" Cut="     0.000000E+00" cType="1"     res="     5.152592E-02" rms="0.0e-00"     purity="0.00000000E+00" nType="-99">
                </Node>
            </Node>
            <Node pos="r" depth="3" NCoef="0"     IVar="9" Cut="     9.714671E-01" cType="1"     res="     0.000000E+00" rms="0.0"     purity="0.00000000E+00" nType="0">
                <Node pos="l" depth="4" NCoef="0"     IVar="-1" Cut="     0.000000E+00" cType="1"     res="     4.491989E-02" rms="0.0e-00"     purity="0.00000000E+00" nType="-99">
                </Node>
                <Node pos="r" depth="4" NCoef="0"     IVar="-1" Cut="     0.000000E+00" cType="1"     res="     5.303754E-02" rms="0.0e-00"     purity="0.00000000E+00" nType="-99">
                </Node>
            </Node>
        </Node>
    </Node>
</BinaryTree>
<BinaryTree type="DecisionTree" boostWeight="0.0" itree="11">
    <Node pos="c" depth="1" NCoef="0"     IVar="9" Cut="     8.171735E-01" cType="1"     res="     0.000000E+00" rms="0.0"     purity="0.00000000E+00" nType="0">
        <Node pos="l" depth="2" NCoef="0"     IVar="13" Cut="    -1.000000E+00" cType="1"     res="     0.000000E+00" rms="0.0"     purity="0.00000000E+00" nType="0">
            <Node pos="l" depth="3" NCoef="0"     IVar="4" Cut="     4.244474E+01" cType="1"     res="     0.000000E+00" rms="0.0"     purity="0.00000000E+00" nType="0">
                <Node pos="l" depth="4" NCoef="0"     IVar="-1" Cut="     0.000000E+00" cType="1"     res="     3.410365E-02" rms="0.0e-00"     purity="0.00000000E+00" nType="-99">
                </Node>
                <Node pos="r" depth="4" NCoef="0"     IVar="-1" Cut="     0.000000E+00" cType="1"     res="     4.888951E-02" rms="0.0e-00"     purity="0.00000000E+00" nType="-99">
                </Node>
            </Node>
            <Node pos="r" depth="3" NCoef="0"     IVar="13" Cut="     1.000000E+00" cType="1"     res="     0.000000E+00" rms="0.0"     purity="0.00000000E+00" nType="0">
                <Node pos="l" depth="4" NCoef="0"     IVar="-1" Cut="     0.000000E+00" cType="1"     res="     3.585219E-03" rms="0.0e-00"     purity="0.00000000E+00" nType="-99">
                </Node>
                <Node pos="r" depth="4" NCoef="0"     IVar="-1" Cut="     0.000000E+00" cType="1"     res="     4.203212E-02" rms="0.0e-00"     purity="0.00000000E+00" nType="-99">
                </Node>
            </Node>
        </Node>
        <Node pos="r" depth="2" NCoef="0"     IVar="9" Cut="     9.452036E-01" cType="1"     res="     0.000000E+00" rms="0.0"     purity="0.00000000E+00" nType="0">
            <Node pos="l" depth="3" NCoef="0"     IVar="13" Cut="    -1.000000E+00" cType="1"     res="     0.000000E+00" rms="0.0"     purity="0.00000000E+00" nType="0">
                <Node pos="l" depth="4" NCoef="0"     IVar="-1" Cut="     0.000000E+00" cType="1"     res="     5.134494E-02" rms="0.0e-00"     purity="0.00000000E+00" nType="-99">
                </Node>
                <Node pos="r" depth="4" NCoef="0"     IVar="-1" Cut="     0.000000E+00" cType="1"     res="     3.130344E-02" rms="0.0e-00"     purity="0.00000000E+00" nType="-99">
                </Node>
            </Node>
            <Node pos="r" depth="3" NCoef="0"     IVar="9" Cut="     9.792504E-01" cType="1"     res="     0.000000E+00" rms="0.0"     purity="0.00000000E+00" nType="0">
                <Node pos="l" depth="4" NCoef="0"     IVar="-1" Cut="     0.000000E+00" cType="1"     res="     4.581476E-02" rms="0.0e-00"     purity="0.00000000E+00" nType="-99">
                </Node>
                <Node pos="r" depth="4" NCoef="0"     IVar="-1" Cut="     0.000000E+00" cType="1"     res="     5.301637E-02" rms="0.0e-00"     purity="0.00000000E+00" nType="-99">
                </Node>
            </Node>
        </Node>
    </Node>
</BinaryTree>
<BinaryTree type="DecisionTree" boostWeight="0.0" itree="12">
    <Node pos="c" depth="1" NCoef="0"     IVar="9" Cut="     5.457219E-01" cType="1"     res="     0.000000E+00" rms="0.0"     purity="0.00000000E+00" nType="0">
        <Node pos="l" depth="2" NCoef="0"     IVar="13" Cut="    -1.000000E+00" cType="1"     res="     0.000000E+00" rms="0.0"     purity="0.00000000E+00" nType="0">
            <Node pos="l" depth="3" NCoef="0"     IVar="4" Cut="     3.944766E+01" cType="1"     res="     0.000000E+00" rms="0.0"     purity="0.00000000E+00" nType="0">
                <Node pos="l" depth="4" NCoef="0"     IVar="-1" Cut="     0.000000E+00" cType="1"     res="     2.569950E-02" rms="0.0e-00"     purity="0.00000000E+00" nType="-99">
                </Node>
                <Node pos="r" depth="4" NCoef="0"     IVar="-1" Cut="     0.000000E+00" cType="1"     res="     4.373863E-02" rms="0.0e-00"     purity="0.00000000E+00" nType="-99">
                </Node>
            </Node>
            <Node pos="r" depth="3" NCoef="0"     IVar="13" Cut="     1.000000E+00" cType="1"     res="     0.000000E+00" rms="0.0"     purity="0.00000000E+00" nType="0">
                <Node pos="l" depth="4" NCoef="0"     IVar="-1" Cut="     0.000000E+00" cType="1"     res="    -5.983185E-03" rms="0.0e-00"     purity="0.00000000E+00" nType="-99">
                </Node>
                <Node pos="r" depth="4" NCoef="0"     IVar="-1" Cut="     0.000000E+00" cType="1"     res="     3.615875E-02" rms="0.0e-00"     purity="0.00000000E+00" nType="-99">
                </Node>
            </Node>
        </Node>
        <Node pos="r" depth="2" NCoef="0"     IVar="9" Cut="     9.073858E-01" cType="1"     res="     0.000000E+00" rms="0.0"     purity="0.00000000E+00" nType="0">
            <Node pos="l" depth="3" NCoef="0"     IVar="13" Cut="     1.000000E+00" cType="1"     res="     0.000000E+00" rms="0.0"     purity="0.00000000E+00" nType="0">
                <Node pos="l" depth="4" NCoef="0"     IVar="-1" Cut="     0.000000E+00" cType="1"     res="     2.226080E-02" rms="0.0e-00"     purity="0.00000000E+00" nType="-99">
                </Node>
                <Node pos="r" depth="4" NCoef="0"     IVar="-1" Cut="     0.000000E+00" cType="1"     res="     4.678391E-02" rms="0.0e-00"     purity="0.00000000E+00" nType="-99">
                </Node>
            </Node>
            <Node pos="r" depth="3" NCoef="0"     IVar="10" Cut="     1.899644E+02" cType="1"     res="     0.000000E+00" rms="0.0"     purity="0.00000000E+00" nType="0">
                <Node pos="l" depth="4" NCoef="0"     IVar="-1" Cut="     0.000000E+00" cType="1"     res="     3.942102E-02" rms="0.0e-00"     purity="0.00000000E+00" nType="-99">
                </Node>
                <Node pos="r" depth="4" NCoef="0"     IVar="-1" Cut="     0.000000E+00" cType="1"     res="     4.949154E-02" rms="0.0e-00"     purity="0.00000000E+00" nType="-99">
                </Node>
            </Node>
        </Node>
    </Node>
</BinaryTree>
<BinaryTree type="DecisionTree" boostWeight="0.0" itree="13">
    <Node pos="c" depth="1" NCoef="0"     IVar="9" Cut="     8.443688E-01" cType="1"     res="     0.000000E+00" rms="0.0"     purity="0.00000000E+00" nType="0">
        <Node pos="l" depth="2" NCoef="0"     IVar="9" Cut="     3.768263E-01" cType="1"     res="     0.000000E+00" rms="0.0"     purity="0.00000000E+00" nType="0">
            <Node pos="l" depth="3" NCoef="0"     IVar="10" Cut="     1.717145E+02" cType="1"     res="     0.000000E+00" rms="0.0"     purity="0.00000000E+00" nType="0">
                <Node pos="l" depth="4" NCoef="0"     IVar="-1" Cut="     0.000000E+00" cType="1"     res="    -1.183454E-02" rms="0.0e-00"     purity="0.00000000E+00" nType="-99">
                </Node>
                <Node pos="r" depth="4" NCoef="0"     IVar="-1" Cut="     0.000000E+00" cType="1"     res="     1.526682E-02" rms="0.0e-00"     purity="0.00000000E+00" nType="-99">
                </Node>
            </Node>
            <Node pos="r" depth="3" NCoef="0"     IVar="10" Cut="     1.529691E+02" cType="1"     res="     0.000000E+00" rms="0.0"     purity="0.00000000E+00" nType="0">
                <Node pos="l" depth="4" NCoef="0"     IVar="-1" Cut="     0.000000E+00" cType="1"     res="     1.287860E-02" rms="0.0e-00"     purity="0.00000000E+00" nType="-99">
                </Node>
                <Node pos="r" depth="4" NCoef="0"     IVar="-1" Cut="     0.000000E+00" cType="1"     res="     3.262682E-02" rms="0.0e-00"     purity="0.00000000E+00" nType="-99">
                </Node>
            </Node>
        </Node>
        <Node pos="r" depth="2" NCoef="0"     IVar="9" Cut="     9.460067E-01" cType="1"     res="     0.000000E+00" rms="0.0"     purity="0.00000000E+00" nType="0">
            <Node pos="l" depth="3" NCoef="0"     IVar="13" Cut="    -1.000000E+00" cType="1"     res="     0.000000E+00" rms="0.0"     purity="0.00000000E+00" nType="0">
                <Node pos="l" depth="4" NCoef="0"     IVar="-1" Cut="     0.000000E+00" cType="1"     res="     4.945268E-02" rms="0.0e-00"     purity="0.00000000E+00" nType="-99">
                </Node>
                <Node pos="r" depth="4" NCoef="0"     IVar="-1" Cut="     0.000000E+00" cType="1"     res="     3.045866E-02" rms="0.0e-00"     purity="0.00000000E+00" nType="-99">
                </Node>
            </Node>
            <Node pos="r" depth="3" NCoef="0"     IVar="9" Cut="     9.749013E-01" cType="1"     res="     0.000000E+00" rms="0.0"     purity="0.00000000E+00" nType="0">
                <Node pos="l" depth="4" NCoef="0"     IVar="-1" Cut="     0.000000E+00" cType="1"     res="     4.304513E-02" rms="0.0e-00"     purity="0.00000000E+00" nType="-99">
                </Node>
                <Node pos="r" depth="4" NCoef="0"     IVar="-1" Cut="     0.000000E+00" cType="1"     res="     5.006905E-02" rms="0.0e-00"     purity="0.00000000E+00" nType="-99">
                </Node>
            </Node>
        </Node>
    </Node>
</BinaryTree>
<BinaryTree type="DecisionTree" boostWeight="0.0" itree="14">
    <Node pos="c" depth="1" NCoef="0"     IVar="9" Cut="     8.443688E-01" cType="1"     res="     0.000000E+00" rms="0.0"     purity="0.00000000E+00" nType="0">
        <Node pos="l" depth="2" NCoef="0"     IVar="13" Cut="    -1.000000E+00" cType="1"     res="     0.000000E+00" rms="0.0"     purity="0.00000000E+00" nType="0">
            <Node pos="l" depth="3" NCoef="0"     IVar="4" Cut="     4.579346E+01" cType="1"     res="     0.000000E+00" rms="0.0"     purity="0.00000000E+00" nType="0">
                <Node pos="l" depth="4" NCoef="0"     IVar="-1" Cut="     0.000000E+00" cType="1"     res="     3.359231E-02" rms="0.0e-00"     purity="0.00000000E+00" nType="-99">
                </Node>
                <Node pos="r" depth="4" NCoef="0"     IVar="-1" Cut="     0.000000E+00" cType="1"     res="     4.744845E-02" rms="0.0e-00"     purity="0.00000000E+00" nType="-99">
                </Node>
            </Node>
            <Node pos="r" depth="3" NCoef="0"     IVar="13" Cut="     1.000000E+00" cType="1"     res="     0.000000E+00" rms="0.0"     purity="0.00000000E+00" nType="0">
                <Node pos="l" depth="4" NCoef="0"     IVar="-1" Cut="     0.000000E+00" cType="1"     res="     3.672387E-03" rms="0.0e-00"     purity="0.00000000E+00" nType="-99">
                </Node>
                <Node pos="r" depth="4" NCoef="0"     IVar="-1" Cut="     0.000000E+00" cType="1"     res="     3.984467E-02" rms="0.0e-00"     purity="0.00000000E+00" nType="-99">
                </Node>
            </Node>
        </Node>
        <Node pos="r" depth="2" NCoef="0"     IVar="9" Cut="     9.460067E-01" cType="1"     res="     0.000000E+00" rms="0.0"     purity="0.00000000E+00" nType="0">
            <Node pos="l" depth="3" NCoef="0"     IVar="13" Cut="     1.000000E+00" cType="1"     res="     0.000000E+00" rms="0.0"     purity="0.00000000E+00" nType="0">
                <Node pos="l" depth="4" NCoef="0"     IVar="-1" Cut="     0.000000E+00" cType="1"     res="     2.932203E-02" rms="0.0e-00"     purity="0.00000000E+00" nType="-99">
                </Node>
                <Node pos="r" depth="4" NCoef="0"     IVar="-1" Cut="     0.000000E+00" cType="1"     res="     4.783024E-02" rms="0.0e-00"     purity="0.00000000E+00" nType="-99">
                </Node>
            </Node>
            <Node pos="r" depth="3" NCoef="0"     IVar="9" Cut="     9.817741E-01" cType="1"     res="     0.000000E+00" rms="0.0"     purity="0.00000000E+00" nType="0">
                <Node pos="l" depth="4" NCoef="0"     IVar="-1" Cut="     0.000000E+00" cType="1"     res="     4.277981E-02" rms="0.0e-00"     purity="0.00000000E+00" nType="-99">
                </Node>
                <Node pos="r" depth="4" NCoef="0"     IVar="-1" Cut="     0.000000E+00" cType="1"     res="     5.027164E-02" rms="0.0e-00"     purity="0.00000000E+00" nType="-99">
                </Node>
            </Node>
        </Node>
    </Node>
</BinaryTree>
<BinaryTree type="DecisionTree" boostWeight="0.0" itree="15">
    <Node pos="c" depth="1" NCoef="0"     IVar="9" Cut="     6.484262E-01" cType="1"     res="     0.000000E+00" rms="0.0"     purity="0.00000000E+00" nType="0">
        <Node pos="l" depth="2" NCoef="0"     IVar="13" Cut="    -1.000000E+00" cType="1"     res="     0.000000E+00" rms="0.0"     purity="0.00000000E+00" nType="0">
            <Node pos="l" depth="3" NCoef="0"     IVar="4" Cut="     4.579366E+01" cType="1"     res="     0.000000E+00" rms="0.0"     purity="0.00000000E+00" nType="0">
                <Node pos="l" depth="4" NCoef="0"     IVar="-1" Cut="     0.000000E+00" cType="1"     res="     2.852015E-02" rms="0.0e-00"     purity="0.00000000E+00" nType="-99">
                </Node>
                <Node pos="r" depth="4" NCoef="0"     IVar="-1" Cut="     0.000000E+00" cType="1"     res="     4.377885E-02" rms="0.0e-00"     purity="0.00000000E+00" nType="-99">
                </Node>
            </Node>
            <Node pos="r" depth="3" NCoef="0"     IVar="13" Cut="     1.000000E+00" cType="1"     res="     0.000000E+00" rms="0.0"     purity="0.00000000E+00" nType="0">
                <Node pos="l" depth="4" NCoef="0"     IVar="-1" Cut="     0.000000E+00" cType="1"     res="    -2.639399E-03" rms="0.0e-00"     purity="0.00000000E+00" nType="-99">
                </Node>
                <Node pos="r" depth="4" NCoef="0"     IVar="-1" Cut="     0.000000E+00" cType="1"     res="     3.512240E-02" rms="0.0e-00"     purity="0.00000000E+00" nType="-99">
                </Node>
            </Node>
        </Node>
        <Node pos="r" depth="2" NCoef="0"     IVar="9" Cut="     9.282813E-01" cType="1"     res="     0.000000E+00" rms="0.0"     purity="0.00000000E+00" nType="0">
            <Node pos="l" depth="3" NCoef="0"     IVar="13" Cut="    -1.000000E+00" cType="1"     res="     0.000000E+00" rms="0.0"     purity="0.00000000E+00" nType="0">
                <Node pos="l" depth="4" NCoef="0"     IVar="-1" Cut="     0.000000E+00" cType="1"     res="     4.630353E-02" rms="0.0e-00"     purity="0.00000000E+00" nType="-99">
                </Node>
                <Node pos="r" depth="4" NCoef="0"     IVar="-1" Cut="     0.000000E+00" cType="1"     res="     2.252340E-02" rms="0.0e-00"     purity="0.00000000E+00" nType="-99">
                </Node>
            </Node>
            <Node pos="r" depth="3" NCoef="0"     IVar="9" Cut="     9.698167E-01" cType="1"     res="     0.000000E+00" rms="0.0"     purity="0.00000000E+00" nType="0">
                <Node pos="l" depth="4" NCoef="0"     IVar="-1" Cut="     0.000000E+00" cType="1"     res="     3.857311E-02" rms="0.0e-00"     purity="0.00000000E+00" nType="-99">
                </Node>
                <Node pos="r" depth="4" NCoef="0"     IVar="-1" Cut="     0.000000E+00" cType="1"     res="     4.725690E-02" rms="0.0e-00"     purity="0.00000000E+00" nType="-99">
                </Node>
            </Node>
        </Node>
    </Node>
</BinaryTree>
<BinaryTree type="DecisionTree" boostWeight="0.0" itree="16">
    <Node pos="c" depth="1" NCoef="0"     IVar="9" Cut="     5.278952E-01" cType="1"     res="     0.000000E+00" rms="0.0"     purity="0.00000000E+00" nType="0">
        <Node pos="l" depth="2" NCoef="0"     IVar="10" Cut="     1.748253E+02" cType="1"     res="     0.000000E+00" rms="0.0"     purity="0.00000000E+00" nType="0">
            <Node pos="l" depth="3" NCoef="0"     IVar="13" Cut="    -1.000000E+00" cType="1"     res="     0.000000E+00" rms="0.0"     purity="0.00000000E+00" nType="0">
                <Node pos="l" depth="4" NCoef="0"     IVar="-1" Cut="     0.000000E+00" cType="1"     res="     3.083716E-02" rms="0.0e-00"     purity="0.00000000E+00" nType="-99">
                </Node>
                <Node pos="r" depth="4" NCoef="0"     IVar="-1" Cut="     0.000000E+00" cType="1"     res="    -9.807331E-03" rms="0.0e-00"     purity="0.00000000E+00" nType="-99">
                </Node>
            </Node>
            <Node pos="r" depth="3" NCoef="0"     IVar="9" Cut="     1.308126E-01" cType="1"     res="     0.000000E+00" rms="0.0"     purity="0.00000000E+00" nType="0">
                <Node pos="l" depth="4" NCoef="0"     IVar="-1" Cut="     0.000000E+00" cType="1"     res="     2.259604E-03" rms="0.0e-00"     purity="0.00000000E+00" nType="-99">
                </Node>
                <Node pos="r" depth="4" NCoef="0"     IVar="-1" Cut="     0.000000E+00" cType="1"     res="     2.387740E-02" rms="0.0e-00"     purity="0.00000000E+00" nType="-99">
                </Node>
            </Node>
        </Node>
        <Node pos="r" depth="2" NCoef="0"     IVar="9" Cut="     9.135969E-01" cType="1"     res="     0.000000E+00" rms="0.0"     purity="0.00000000E+00" nType="0">
            <Node pos="l" depth="3" NCoef="0"     IVar="13" Cut="    -1.000000E+00" cType="1"     res="     0.000000E+00" rms="0.0"     purity="0.00000000E+00" nType="0">
                <Node pos="l" depth="4" NCoef="0"     IVar="-1" Cut="     0.000000E+00" cType="1"     res="     4.440237E-02" rms="0.0e-00"     purity="0.00000000E+00" nType="-99">
                </Node>
                <Node pos="r" depth="4" NCoef="0"     IVar="-1" Cut="     0.000000E+00" cType="1"     res="     1.954432E-02" rms="0.0e-00"     purity="0.00000000E+00" nType="-99">
                </Node>
            </Node>
            <Node pos="r" depth="3" NCoef="0"     IVar="10" Cut="     1.899644E+02" cType="1"     res="     0.000000E+00" rms="0.0"     purity="0.00000000E+00" nType="0">
                <Node pos="l" depth="4" NCoef="0"     IVar="-1" Cut="     0.000000E+00" cType="1"     res="     3.568828E-02" rms="0.0e-00"     purity="0.00000000E+00" nType="-99">
                </Node>
                <Node pos="r" depth="4" NCoef="0"     IVar="-1" Cut="     0.000000E+00" cType="1"     res="     4.551526E-02" rms="0.0e-00"     purity="0.00000000E+00" nType="-99">
                </Node>
            </Node>
        </Node>
    </Node>
</BinaryTree>
<BinaryTree type="DecisionTree" boostWeight="0.0" itree="17">
    <Node pos="c" depth="1" NCoef="0"     IVar="9" Cut="     8.543968E-01" cType="1"     res="     0.000000E+00" rms="0.0"     purity="0.00000000E+00" nType="0">
        <Node pos="l" depth="2" NCoef="0"     IVar="1" Cut="     2.491062E+00" cType="1"     res="     0.000000E+00" rms="0.0"     purity="0.00000000E+00" nType="0">
            <Node pos="l" depth="3" NCoef="0"     IVar="13" Cut="    -1.000000E+00" cType="1"     res="     0.000000E+00" rms="0.0"     purity="0.00000000E+00" nType="0">
                <Node pos="l" depth="4" NCoef="0"     IVar="-1" Cut="     0.000000E+00" cType="1"     res="     4.203865E-02" rms="0.0e-00"     purity="0.00000000E+00" nType="-99">
                </Node>
                <Node pos="r" depth="4" NCoef="0"     IVar="-1" Cut="     0.000000E+00" cType="1"     res="     1.430878E-02" rms="0.0e-00"     purity="0.00000000E+00" nType="-99">
                </Node>
            </Node>
            <Node pos="r" depth="3" NCoef="0"     IVar="13" Cut="     1.000000E+00" cType="1"     res="     0.000000E+00" rms="0.0"     purity="0.00000000E+00" nType="0">
                <Node pos="l" depth="4" NCoef="0"     IVar="-1" Cut="     0.000000E+00" cType="1"     res="    -1.006110E-02" rms="0.0e-00"     purity="0.00000000E+00" nType="-99">
                </Node>
                <Node pos="r" depth="4" NCoef="0"     IVar="-1" Cut="     0.000000E+00" cType="1"     res="     2.942991E-02" rms="0.0e-00"     purity="0.00000000E+00" nType="-99">
                </Node>
            </Node>
        </Node>
        <Node pos="r" depth="2" NCoef="0"     IVar="10" Cut="     1.675013E+02" cType="1"     res="     0.000000E+00" rms="0.0"     purity="0.00000000E+00" nType="0">
            <Node pos="l" depth="3" NCoef="0"     IVar="13" Cut="    -1.000000E+00" cType="1"     res="     0.000000E+00" rms="0.0"     purity="0.00000000E+00" nType="0">
                <Node pos="l" depth="4" NCoef="0"     IVar="-1" Cut="     0.000000E+00" cType="1"     res="     4.501785E-02" rms="0.0e-00"     purity="0.00000000E+00" nType="-99">
                </Node>
                <Node pos="r" depth="4" NCoef="0"     IVar="-1" Cut="     0.000000E+00" cType="1"     res="     2.724062E-02" rms="0.0e-00"     purity="0.00000000E+00" nType="-99">
                </Node>
            </Node>
            <Node pos="r" depth="3" NCoef="0"     IVar="5" Cut="     1.984156E+00" cType="1"     res="     0.000000E+00" rms="0.0"     purity="0.00000000E+00" nType="0">
                <Node pos="l" depth="4" NCoef="0"     IVar="-1" Cut="     0.000000E+00" cType="1"     res="     4.598481E-02" rms="0.0e-00"     purity="0.00000000E+00" nType="-99">
                </Node>
                <Node pos="r" depth="4" NCoef="0"     IVar="-1" Cut="     0.000000E+00" cType="1"     res="     3.755374E-02" rms="0.0e-00"     purity="0.00000000E+00" nType="-99">
                </Node>
            </Node>
        </Node>
    </Node>
</BinaryTree>
<BinaryTree type="DecisionTree" boostWeight="0.0" itree="18">
    <Node pos="c" depth="1" NCoef="0"     IVar="9" Cut="     7.848902E-01" cType="1"     res="     0.000000E+00" rms="0.0"     purity="0.00000000E+00" nType="0">
        <Node pos="l" depth="2" NCoef="0"     IVar="1" Cut="     2.568691E+00" cType="1"     res="     0.000000E+00" rms="0.0"     purity="0.00000000E+00" nType="0">
            <Node pos="l" depth="3" NCoef="0"     IVar="13" Cut="    -1.000000E+00" cType="1"     res="     0.000000E+00" rms="0.0"     purity="0.00000000E+00" nType="0">
                <Node pos="l" depth="4" NCoef="0"     IVar="-1" Cut="     0.000000E+00" cType="1"     res="     3.981873E-02" rms="0.0e-00"     purity="0.00000000E+00" nType="-99">
                </Node>
                <Node pos="r" depth="4" NCoef="0"     IVar="-1" Cut="     0.000000E+00" cType="1"     res="     1.089430E-02" rms="0.0e-00"     purity="0.00000000E+00" nType="-99">
                </Node>
            </Node>
            <Node pos="r" depth="3" NCoef="0"     IVar="13" Cut="    -1.000000E+00" cType="1"     res="     0.000000E+00" rms="0.0"     purity="0.00000000E+00" nType="0">
                <Node pos="l" depth="4" NCoef="0"     IVar="-1" Cut="     0.000000E+00" cType="1"     res="     2.880120E-02" rms="0.0e-00"     purity="0.00000000E+00" nType="-99">
                </Node>
                <Node pos="r" depth="4" NCoef="0"     IVar="-1" Cut="     0.000000E+00" cType="1"     res="    -1.407819E-02" rms="0.0e-00"     purity="0.00000000E+00" nType="-99">
                </Node>
            </Node>
        </Node>
        <Node pos="r" depth="2" NCoef="0"     IVar="9" Cut="     9.415558E-01" cType="1"     res="     0.000000E+00" rms="0.0"     purity="0.00000000E+00" nType="0">
            <Node pos="l" depth="3" NCoef="0"     IVar="13" Cut="     1.000000E+00" cType="1"     res="     0.000000E+00" rms="0.0"     purity="0.00000000E+00" nType="0">
                <Node pos="l" depth="4" NCoef="0"     IVar="-1" Cut="     0.000000E+00" cType="1"     res="     2.323543E-02" rms="0.0e-00"     purity="0.00000000E+00" nType="-99">
                </Node>
                <Node pos="r" depth="4" NCoef="0"     IVar="-1" Cut="     0.000000E+00" cType="1"     res="     4.415775E-02" rms="0.0e-00"     purity="0.00000000E+00" nType="-99">
                </Node>
            </Node>
            <Node pos="r" depth="3" NCoef="0"     IVar="9" Cut="     9.714671E-01" cType="1"     res="     0.000000E+00" rms="0.0"     purity="0.00000000E+00" nType="0">
                <Node pos="l" depth="4" NCoef="0"     IVar="-1" Cut="     0.000000E+00" cType="1"     res="     3.709682E-02" rms="0.0e-00"     purity="0.00000000E+00" nType="-99">
                </Node>
                <Node pos="r" depth="4" NCoef="0"     IVar="-1" Cut="     0.000000E+00" cType="1"     res="     4.488664E-02" rms="0.0e-00"     purity="0.00000000E+00" nType="-99">
                </Node>
            </Node>
        </Node>
    </Node>
</BinaryTree>
<BinaryTree type="DecisionTree" boostWeight="0.0" itree="19">
    <Node pos="c" depth="1" NCoef="0"     IVar="9" Cut="     5.121218E-01" cType="1"     res="     0.000000E+00" rms="0.0"     purity="0.00000000E+00" nType="0">
        <Node pos="l" depth="2" NCoef="0"     IVar="10" Cut="     1.748253E+02" cType="1"     res="     0.000000E+00" rms="0.0"     purity="0.00000000E+00" nType="0">
            <Node pos="l" depth="3" NCoef="0"     IVar="13" Cut="    -1.000000E+00" cType="1"     res="     0.000000E+00" rms="0.0"     purity="0.00000000E+00" nType="0">
                <Node pos="l" depth="4" NCoef="0"     IVar="-1" Cut="     0.000000E+00" cType="1"     res="     2.805006E-02" rms="0.0e-00"     purity="0.00000000E+00" nType="-99">
                </Node>
                <Node pos="r" depth="4" NCoef="0"     IVar="-1" Cut="     0.000000E+00" cType="1"     res="    -1.032012E-02" rms="0.0e-00"     purity="0.00000000E+00" nType="-99">
                </Node>
            </Node>
            <Node pos="r" depth="3" NCoef="0"     IVar="13" Cut="     1.000000E+00" cType="1"     res="     0.000000E+00" rms="0.0"     purity="0.00000000E+00" nType="0">
                <Node pos="l" depth="4" NCoef="0"     IVar="-1" Cut="     0.000000E+00" cType="1"     res="     1.362528E-02" rms="0.0e-00"     purity="0.00000000E+00" nType="-99">
                </Node>
                <Node pos="r" depth="4" NCoef="0"     IVar="-1" Cut="     0.000000E+00" cType="1"     res="     4.153099E-02" rms="0.0e-00"     purity="0.00000000E+00" nType="-99">
                </Node>
            </Node>
        </Node>
        <Node pos="r" depth="2" NCoef="0"     IVar="10" Cut="     1.584695E+02" cType="1"     res="     0.000000E+00" rms="0.0"     purity="0.00000000E+00" nType="0">
            <Node pos="l" depth="3" NCoef="0"     IVar="9" Cut="     8.883362E-01" cType="1"     res="     0.000000E+00" rms="0.0"     purity="0.00000000E+00" nType="0">
                <Node pos="l" depth="4" NCoef="0"     IVar="-1" Cut="     0.000000E+00" cType="1"     res="     1.325401E-02" rms="0.0e-00"     purity="0.00000000E+00" nType="-99">
                </Node>
                <Node pos="r" depth="4" NCoef="0"     IVar="-1" Cut="     0.000000E+00" cType="1"     res="     2.986645E-02" rms="0.0e-00"     purity="0.00000000E+00" nType="-99">
                </Node>
            </Node>
            <Node pos="r" depth="3" NCoef="0"     IVar="5" Cut="     1.801114E+00" cType="1"     res="     0.000000E+00" rms="0.0"     purity="0.00000000E+00" nType="0">
                <Node pos="l" depth="4" NCoef="0"     IVar="-1" Cut="     0.000000E+00" cType="1"     res="     4.227063E-02" rms="0.0e-00"     purity="0.00000000E+00" nType="-99">
                </Node>
                <Node pos="r" depth="4" NCoef="0"     IVar="-1" Cut="     0.000000E+00" cType="1"     res="     3.225415E-02" rms="0.0e-00"     purity="0.00000000E+00" nType="-99">
                </Node>
            </Node>
        </Node>
    </Node>
</BinaryTree>
<BinaryTree type="DecisionTree" boostWeight="0.0" itree="20">
    <Node pos="c" depth="1" NCoef="0"     IVar="9" Cut="     8.543968E-01" cType="1"     res="     0.000000E+00" rms="0.0"     purity="0.00000000E+00" nType="0">
        <Node pos="l" depth="2" NCoef="0"     IVar="13" Cut="     1.000000E+00" cType="1"     res="     0.000000E+00" rms="0.0"     purity="0.00000000E+00" nType="0">
            <Node pos="l" depth="3" NCoef="0"     IVar="13" Cut="    -1.000000E+00" cType="1"     res="     0.000000E+00" rms="0.0"     purity="0.00000000E+00" nType="0">
                <Node pos="l" depth="4" NCoef="0"     IVar="-1" Cut="     0.000000E+00" cType="1"     res="     3.706757E-02" rms="0.0e-00"     purity="0.00000000E+00" nType="-99">
                </Node>
                <Node pos="r" depth="4" NCoef="0"     IVar="-1" Cut="     0.000000E+00" cType="1"     res="     2.257050E-03" rms="0.0e-00"     purity="0.00000000E+00" nType="-99">
                </Node>
            </Node>
            <Node pos="r" depth="3" NCoef="0"     IVar="4" Cut="     4.260623E+01" cType="1"     res="     0.000000E+00" rms="0.0"     purity="0.00000000E+00" nType="0">
                <Node pos="l" depth="4" NCoef="0"     IVar="-1" Cut="     0.000000E+00" cType="1"     res="     2.366388E-02" rms="0.0e-00"     purity="0.00000000E+00" nType="-99">
                </Node>
                <Node pos="r" depth="4" NCoef="0"     IVar="-1" Cut="     0.000000E+00" cType="1"     res="     4.207129E-02" rms="0.0e-00"     purity="0.00000000E+00" nType="-99">
                </Node>
            </Node>
        </Node>
        <Node pos="r" depth="2" NCoef="0"     IVar="9" Cut="     9.533820E-01" cType="1"     res="     0.000000E+00" rms="0.0"     purity="0.00000000E+00" nType="0">
            <Node pos="l" depth="3" NCoef="0"     IVar="13" Cut="    -1.000000E+00" cType="1"     res="     0.000000E+00" rms="0.0"     purity="0.00000000E+00" nType="0">
                <Node pos="l" depth="4" NCoef="0"     IVar="-1" Cut="     0.000000E+00" cType="1"     res="     4.389530E-02" rms="0.0e-00"     purity="0.00000000E+00" nType="-99">
                </Node>
                <Node pos="r" depth="4" NCoef="0"     IVar="-1" Cut="     0.000000E+00" cType="1"     res="     2.513874E-02" rms="0.0e-00"     purity="0.00000000E+00" nType="-99">
                </Node>
            </Node>
            <Node pos="r" depth="3" NCoef="0"     IVar="4" Cut="     4.227820E+01" cType="1"     res="     0.000000E+00" rms="0.0"     purity="0.00000000E+00" nType="0">
                <Node pos="l" depth="4" NCoef="0"     IVar="-1" Cut="     0.000000E+00" cType="1"     res="     3.484818E-02" rms="0.0e-00"     purity="0.00000000E+00" nType="-99">
                </Node>
                <Node pos="r" depth="4" NCoef="0"     IVar="-1" Cut="     0.000000E+00" cType="1"     res="     4.290770E-02" rms="0.0e-00"     purity="0.00000000E+00" nType="-99">
                </Node>
            </Node>
        </Node>
    </Node>
</BinaryTree>
<BinaryTree type="DecisionTree" boostWeight="0.0" itree="21">
    <Node pos="c" depth="1" NCoef="0"     IVar="9" Cut="     4.937886E-01" cType="1"     res="     0.000000E+00" rms="0.0"     purity="0.00000000E+00" nType="0">
        <Node pos="l" depth="2" NCoef="0"     IVar="10" Cut="     1.664780E+02" cType="1"     res="     0.000000E+00" rms="0.0"     purity="0.00000000E+00" nType="0">
            <Node pos="l" depth="3" NCoef="0"     IVar="13" Cut="     1.000000E+00" cType="1"     res="     0.000000E+00" rms="0.0"     purity="0.00000000E+00" nType="0">
                <Node pos="l" depth="4" NCoef="0"     IVar="-1" Cut="     0.000000E+00" cType="1"     res="    -1.174716E-02" rms="0.0e-00"     purity="0.00000000E+00" nType="-99">
                </Node>
                <Node pos="r" depth="4" NCoef="0"     IVar="-1" Cut="     0.000000E+00" cType="1"     res="     2.490679E-02" rms="0.0e-00"     purity="0.00000000E+00" nType="-99">
                </Node>
            </Node>
            <Node pos="r" depth="3" NCoef="0"     IVar="13" Cut="    -1.000000E+00" cType="1"     res="     0.000000E+00" rms="0.0"     purity="0.00000000E+00" nType="0">
                <Node pos="l" depth="4" NCoef="0"     IVar="-1" Cut="     0.000000E+00" cType="1"     res="     4.147403E-02" rms="0.0e-00"     purity="0.00000000E+00" nType="-99">
                </Node>
                <Node pos="r" depth="4" NCoef="0"     IVar="-1" Cut="     0.000000E+00" cType="1"     res="     1.169766E-02" rms="0.0e-00"     purity="0.00000000E+00" nType="-99">
                </Node>
            </Node>
        </Node>
        <Node pos="r" depth="2" NCoef="0"     IVar="10" Cut="     1.584695E+02" cType="1"     res="     0.000000E+00" rms="0.0"     purity="0.00000000E+00" nType="0">
            <Node pos="l" depth="3" NCoef="0"     IVar="13" Cut="     1.000000E+00" cType="1"     res="     0.000000E+00" rms="0.0"     purity="0.00000000E+00" nType="0">
                <Node pos="l" depth="4" NCoef="0"     IVar="-1" Cut="     0.000000E+00" cType="1"     res="     1.521263E-02" rms="0.0e-00"     purity="0.00000000E+00" nType="-99">
                </Node>
                <Node pos="r" depth="4" NCoef="0"     IVar="-1" Cut="     0.000000E+00" cType="1"     res="     3.834527E-02" rms="0.0e-00"     purity="0.00000000E+00" nType="-99">
                </Node>
            </Node>
            <Node pos="r" depth="3" NCoef="0"     IVar="9" Cut="     9.624277E-01" cType="1"     res="     0.000000E+00" rms="0.0"     purity="0.00000000E+00" nType="0">
                <Node pos="l" depth="4" NCoef="0"     IVar="-1" Cut="     0.000000E+00" cType="1"     res="     3.180046E-02" rms="0.0e-00"     purity="0.00000000E+00" nType="-99">
                </Node>
                <Node pos="r" depth="4" NCoef="0"     IVar="-1" Cut="     0.000000E+00" cType="1"     res="     4.242706E-02" rms="0.0e-00"     purity="0.00000000E+00" nType="-99">
                </Node>
            </Node>
        </Node>
    </Node>
</BinaryTree>
<BinaryTree type="DecisionTree" boostWeight="0.0" itree="22">
    <Node pos="c" depth="1" NCoef="0"     IVar="9" Cut="     8.790917E-01" cType="1"     res="     0.000000E+00" rms="0.0"     purity="0.00000000E+00" nType="0">
        <Node pos="l" depth="2" NCoef="0"     IVar="1" Cut="     2.407144E+00" cType="1"     res="     0.000000E+00" rms="0.0"     purity="0.00000000E+00" nType="0">
            <Node pos="l" depth="3" NCoef="0"     IVar="13" Cut="     1.000000E+00" cType="1"     res="     0.000000E+00" rms="0.0"     purity="0.00000000E+00" nType="0">
                <Node pos="l" depth="4" NCoef="0"     IVar="-1" Cut="     0.000000E+00" cType="1"     res="     1.367335E-02" rms="0.0e-00"     purity="0.00000000E+00" nType="-99">
                </Node>
                <Node pos="r" depth="4" NCoef="0"     IVar="-1" Cut="     0.000000E+00" cType="1"     res="     3.810963E-02" rms="0.0e-00"     purity="0.00000000E+00" nType="-99">
                </Node>
            </Node>
            <Node pos="r" depth="3" NCoef="0"     IVar="13" Cut="     1.000000E+00" cType="1"     res="     0.000000E+00" rms="0.0"     purity="0.00000000E+00" nType="0">
                <Node pos="l" depth="4" NCoef="0"     IVar="-1" Cut="     0.000000E+00" cType="1"     res="    -7.378428E-03" rms="0.0e-00"     purity="0.00000000E+00" nType="-99">
                </Node>
                <Node pos="r" depth="4" NCoef="0"     IVar="-1" Cut="     0.000000E+00" cType="1"     res="     2.868476E-02" rms="0.0e-00"     purity="0.00000000E+00" nType="-99">
                </Node>
            </Node>
        </Node>
        <Node pos="r" depth="2" NCoef="0"     IVar="9" Cut="     9.533820E-01" cType="1"     res="     0.000000E+00" rms="0.0"     purity="0.00000000E+00" nType="0">
            <Node pos="l" depth="3" NCoef="0"     IVar="13" Cut="    -1.000000E+00" cType="1"     res="     0.000000E+00" rms="0.0"     purity="0.00000000E+00" nType="0">
                <Node pos="l" depth="4" NCoef="0"     IVar="-1" Cut="     0.000000E+00" cType="1"     res="     4.297292E-02" rms="0.0e-00"     purity="0.00000000E+00" nType="-99">
                </Node>
                <Node pos="r" depth="4" NCoef="0"     IVar="-1" Cut="     0.000000E+00" cType="1"     res="     2.491373E-02" rms="0.0e-00"     purity="0.00000000E+00" nType="-99">
                </Node>
            </Node>
            <Node pos="r" depth="3" NCoef="0"     IVar="4" Cut="     3.965475E+01" cType="1"     res="     0.000000E+00" rms="0.0"     purity="0.00000000E+00" nType="0">
                <Node pos="l" depth="4" NCoef="0"     IVar="-1" Cut="     0.000000E+00" cType="1"     res="     3.236999E-02" rms="0.0e-00"     purity="0.00000000E+00" nType="-99">
                </Node>
                <Node pos="r" depth="4" NCoef="0"     IVar="-1" Cut="     0.000000E+00" cType="1"     res="     4.112548E-02" rms="0.0e-00"     purity="0.00000000E+00" nType="-99">
                </Node>
            </Node>
        </Node>
    </Node>
</BinaryTree>
<BinaryTree type="DecisionTree" boostWeight="0.0" itree="23">
    <Node pos="c" depth="1" NCoef="0"     IVar="9" Cut="     8.443688E-01" cType="1"     res="     0.000000E+00" rms="0.0"     purity="0.00000000E+00" nType="0">
        <Node pos="l" depth="2" NCoef="0"     IVar="1" Cut="     2.395866E+00" cType="1"     res="     0.000000E+00" rms="0.0"     purity="0.00000000E+00" nType="0">
            <Node pos="l" depth="3" NCoef="0"     IVar="13" Cut="    -1.000000E+00" cType="1"     res="     0.000000E+00" rms="0.0"     purity="0.00000000E+00" nType="0">
                <Node pos="l" depth="4" NCoef="0"     IVar="-1" Cut="     0.000000E+00" cType="1"     res="     3.826512E-02" rms="0.0e-00"     purity="0.00000000E+00" nType="-99">
                </Node>
                <Node pos="r" depth="4" NCoef="0"     IVar="-1" Cut="     0.000000E+00" cType="1"     res="     1.252831E-02" rms="0.0e-00"     purity="0.00000000E+00" nType="-99">
                </Node>
            </Node>
            <Node pos="r" depth="3" NCoef="0"     IVar="13" Cut="    -1.000000E+00" cType="1"     res="     0.000000E+00" rms="0.0"     purity="0.00000000E+00" nType="0">
                <Node pos="l" depth="4" NCoef="0"     IVar="-1" Cut="     0.000000E+00" cType="1"     res="     2.980692E-02" rms="0.0e-00"     purity="0.00000000E+00" nType="-99">
                </Node>
                <Node pos="r" depth="4" NCoef="0"     IVar="-1" Cut="     0.000000E+00" cType="1"     res="    -7.267693E-03" rms="0.0e-00"     purity="0.00000000E+00" nType="-99">
                </Node>
            </Node>
        </Node>
        <Node pos="r" depth="2" NCoef="0"     IVar="9" Cut="     9.460067E-01" cType="1"     res="     0.000000E+00" rms="0.0"     purity="0.00000000E+00" nType="0">
            <Node pos="l" depth="3" NCoef="0"     IVar="13" Cut="     1.000000E+00" cType="1"     res="     0.000000E+00" rms="0.0"     purity="0.00000000E+00" nType="0">
                <Node pos="l" depth="4" NCoef="0"     IVar="-1" Cut="     0.000000E+00" cType="1"     res="     2.158535E-02" rms="0.0e-00"     purity="0.00000000E+00" nType="-99">
                </Node>
                <Node pos="r" depth="4" NCoef="0"     IVar="-1" Cut="     0.000000E+00" cType="1"     res="     4.070020E-02" rms="0.0e-00"     purity="0.00000000E+00" nType="-99">
                </Node>
            </Node>
            <Node pos="r" depth="3" NCoef="0"     IVar="9" Cut="     9.817741E-01" cType="1"     res="     0.000000E+00" rms="0.0"     purity="0.00000000E+00" nType="0">
                <Node pos="l" depth="4" NCoef="0"     IVar="-1" Cut="     0.000000E+00" cType="1"     res="     3.484245E-02" rms="0.0e-00"     purity="0.00000000E+00" nType="-99">
                </Node>
                <Node pos="r" depth="4" NCoef="0"     IVar="-1" Cut="     0.000000E+00" cType="1"     res="     4.314489E-02" rms="0.0e-00"     purity="0.00000000E+00" nType="-99">
                </Node>
            </Node>
        </Node>
    </Node>
</BinaryTree>
<BinaryTree type="DecisionTree" boostWeight="0.0" itree="24">
    <Node pos="c" depth="1" NCoef="0"     IVar="9" Cut="     8.790917E-01" cType="1"     res="     0.000000E+00" rms="0.0"     purity="0.00000000E+00" nType="0">
        <Node pos="l" depth="2" NCoef="0"     IVar="9" Cut="     3.072731E-01" cType="1"     res="     0.000000E+00" rms="0.0"     purity="0.00000000E+00" nType="0">
            <Node pos="l" depth="3" NCoef="0"     IVar="10" Cut="     1.716778E+02" cType="1"     res="     0.000000E+00" rms="0.0"     purity="0.00000000E+00" nType="0">
                <Node pos="l" depth="4" NCoef="0"     IVar="-1" Cut="     0.000000E+00" cType="1"     res="    -1.531977E-02" rms="0.0e-00"     purity="0.00000000E+00" nType="-99">
                </Node>
                <Node pos="r" depth="4" NCoef="0"     IVar="-1" Cut="     0.000000E+00" cType="1"     res="     8.842764E-03" rms="0.0e-00"     purity="0.00000000E+00" nType="-99">
                </Node>
            </Node>
            <Node pos="r" depth="3" NCoef="0"     IVar="10" Cut="     1.473775E+02" cType="1"     res="     0.000000E+00" rms="0.0"     purity="0.00000000E+00" nType="0">
                <Node pos="l" depth="4" NCoef="0"     IVar="-1" Cut="     0.000000E+00" cType="1"     res="     7.622738E-03" rms="0.0e-00"     purity="0.00000000E+00" nType="-99">
                </Node>
                <Node pos="r" depth="4" NCoef="0"     IVar="-1" Cut="     0.000000E+00" cType="1"     res="     2.496770E-02" rms="0.0e-00"     purity="0.00000000E+00" nType="-99">
                </Node>
            </Node>
        </Node>
        <Node pos="r" depth="2" NCoef="0"     IVar="10" Cut="     1.899644E+02" cType="1"     res="     0.000000E+00" rms="0.0"     purity="0.00000000E+00" nType="0">
            <Node pos="l" depth="3" NCoef="0"     IVar="13" Cut="    -1.000000E+00" cType="1"     res="     0.000000E+00" rms="0.0"     purity="0.00000000E+00" nType="0">
                <Node pos="l" depth="4" NCoef="0"     IVar="-1" Cut="     0.000000E+00" cType="1"     res="     4.094034E-02" rms="0.0e-00"     purity="0.00000000E+00" nType="-99">
                </Node>
                <Node pos="r" depth="4" NCoef="0"     IVar="-1" Cut="     0.000000E+00" cType="1"     res="     2.390886E-02" rms="0.0e-00"     purity="0.00000000E+00" nType="-99">
                </Node>
            </Node>
            <Node pos="r" depth="3" NCoef="0"     IVar="5" Cut="     1.984090E+00" cType="1"     res="     0.000000E+00" rms="0.0"     purity="0.00000000E+00" nType="0">
                <Node pos="l" depth="4" NCoef="0"     IVar="-1" Cut="     0.000000E+00" cType="1"     res="     4.171743E-02" rms="0.0e-00"     purity="0.00000000E+00" nType="-99">
                </Node>
                <Node pos="r" depth="4" NCoef="0"     IVar="-1" Cut="     0.000000E+00" cType="1"     res="     3.340369E-02" rms="0.0e-00"     purity="0.00000000E+00" nType="-99">
                </Node>
            </Node>
        </Node>
    </Node>
</BinaryTree>
<BinaryTree type="DecisionTree" boostWeight="0.0" itree="25">
    <Node pos="c" depth="1" NCoef="0"     IVar="9" Cut="     6.863561E-01" cType="1"     res="     0.000000E+00" rms="0.0"     purity="0.00000000E+00" nType="0">
        <Node pos="l" depth="2" NCoef="0"     IVar="10" Cut="     1.494567E+02" cType="1"     res="     0.000000E+00" rms="0.0"     purity="0.00000000E+00" nType="0">
            <Node pos="l" depth="3" NCoef="0"     IVar="13" Cut="    -1.000000E+00" cType="1"     res="     0.000000E+00" rms="0.0"     purity="0.00000000E+00" nType="0">
                <Node pos="l" depth="4" NCoef="0"     IVar="-1" Cut="     0.000000E+00" cType="1"     res="     2.731085E-02" rms="0.0e-00"     purity="0.00000000E+00" nType="-99">
                </Node>
                <Node pos="r" depth="4" NCoef="0"     IVar="-1" Cut="     0.000000E+00" cType="1"     res="    -6.519086E-03" rms="0.0e-00"     purity="0.00000000E+00" nType="-99">
                </Node>
            </Node>
            <Node pos="r" depth="3" NCoef="0"     IVar="13" Cut="     1.000000E+00" cType="1"     res="     0.000000E+00" rms="0.0"     purity="0.00000000E+00" nType="0">
                <Node pos="l" depth="4" NCoef="0"     IVar="-1" Cut="     0.000000E+00" cType="1"     res="     1.249464E-02" rms="0.0e-00"     purity="0.00000000E+00" nType="-99">
                </Node>
                <Node pos="r" depth="4" NCoef="0"     IVar="-1" Cut="     0.000000E+00" cType="1"     res="     3.821226E-02" rms="0.0e-00"     purity="0.00000000E+00" nType="-99">
                </Node>
            </Node>
        </Node>
        <Node pos="r" depth="2" NCoef="0"     IVar="10" Cut="     1.464718E+02" cType="1"     res="     0.000000E+00" rms="0.0"     purity="0.00000000E+00" nType="0">
            <Node pos="l" depth="3" NCoef="0"     IVar="15" Cut="     9.916966E-01" cType="1"     res="     0.000000E+00" rms="0.0"     purity="0.00000000E+00" nType="0">
                <Node pos="l" depth="4" NCoef="0"     IVar="-1" Cut="     0.000000E+00" cType="1"     res="     2.307473E-02" rms="0.0e-00"     purity="0.00000000E+00" nType="-99">
                </Node>
                <Node pos="r" depth="4" NCoef="0"     IVar="-1" Cut="     0.000000E+00" cType="1"     res="     6.262823E-03" rms="0.0e-00"     purity="0.00000000E+00" nType="-99">
                </Node>
            </Node>
            <Node pos="r" depth="3" NCoef="0"     IVar="5" Cut="     1.874231E+00" cType="1"     res="     0.000000E+00" rms="0.0"     purity="0.00000000E+00" nType="0">
                <Node pos="l" depth="4" NCoef="0"     IVar="-1" Cut="     0.000000E+00" cType="1"     res="     3.782446E-02" rms="0.0e-00"     purity="0.00000000E+00" nType="-99">
                </Node>
                <Node pos="r" depth="4" NCoef="0"     IVar="-1" Cut="     0.000000E+00" cType="1"     res="     2.779525E-02" rms="0.0e-00"     purity="0.00000000E+00" nType="-99">
                </Node>
            </Node>
        </Node>
    </Node>
</BinaryTree>
<BinaryTree type="DecisionTree" boostWeight="0.0" itree="26">
    <Node pos="c" depth="1" NCoef="0"     IVar="9" Cut="     8.851535E-01" cType="1"     res="     0.000000E+00" rms="0.0"     purity="0.00000000E+00" nType="0">
        <Node pos="l" depth="2" NCoef="0"     IVar="13" Cut="     1.000000E+00" cType="1"     res="     0.000000E+00" rms="0.0"     purity="0.00000000E+00" nType="0">
            <Node pos="l" depth="3" NCoef="0"     IVar="13" Cut="    -1.000000E+00" cType="1"     res="     0.000000E+00" rms="0.0"     purity="0.00000000E+00" nType="0">
                <Node pos="l" depth="4" NCoef="0"     IVar="-1" Cut="     0.000000E+00" cType="1"     res="     3.441826E-02" rms="0.0e-00"     purity="0.00000000E+00" nType="-99">
                </Node>
                <Node pos="r" depth="4" NCoef="0"     IVar="-1" Cut="     0.000000E+00" cType="1"     res="     1.583955E-03" rms="0.0e-00"     purity="0.00000000E+00" nType="-99">
                </Node>
            </Node>
            <Node pos="r" depth="3" NCoef="0"     IVar="4" Cut="     4.262935E+01" cType="1"     res="     0.000000E+00" rms="0.0"     purity="0.00000000E+00" nType="0">
                <Node pos="l" depth="4" NCoef="0"     IVar="-1" Cut="     0.000000E+00" cType="1"     res="     2.065321E-02" rms="0.0e-00"     purity="0.00000000E+00" nType="-99">
                </Node>
                <Node pos="r" depth="4" NCoef="0"     IVar="-1" Cut="     0.000000E+00" cType="1"     res="     3.903648E-02" rms="0.0e-00"     purity="0.00000000E+00" nType="-99">
                </Node>
            </Node>
        </Node>
        <Node pos="r" depth="2" NCoef="0"     IVar="9" Cut="     9.639167E-01" cType="1"     res="     0.000000E+00" rms="0.0"     purity="0.00000000E+00" nType="0">
            <Node pos="l" depth="3" NCoef="0"     IVar="13" Cut="    -1.000000E+00" cType="1"     res="     0.000000E+00" rms="0.0"     purity="0.00000000E+00" nType="0">
                <Node pos="l" depth="4" NCoef="0"     IVar="-1" Cut="     0.000000E+00" cType="1"     res="     4.079715E-02" rms="0.0e-00"     purity="0.00000000E+00" nType="-99">
                </Node>
                <Node pos="r" depth="4" NCoef="0"     IVar="-1" Cut="     0.000000E+00" cType="1"     res="     2.321634E-02" rms="0.0e-00"     purity="0.00000000E+00" nType="-99">
                </Node>
            </Node>
            <Node pos="r" depth="3" NCoef="0"     IVar="11" Cut="     2.394386E+01" cType="1"     res="     0.000000E+00" rms="0.0"     purity="0.00000000E+00" nType="0">
                <Node pos="l" depth="4" NCoef="0"     IVar="-1" Cut="     0.000000E+00" cType="1"     res="     2.728111E-02" rms="0.0e-00"     purity="0.00000000E+00" nType="-99">
                </Node>
                <Node pos="r" depth="4" NCoef="0"     IVar="-1" Cut="     0.000000E+00" cType="1"     res="     3.922088E-02" rms="0.0e-00"     purity="0.00000000E+00" nType="-99">
                </Node>
            </Node>
        </Node>
    </Node>
</BinaryTree>
<BinaryTree type="DecisionTree" boostWeight="0.0" itree="27">
    <Node pos="c" depth="1" NCoef="0"     IVar="9" Cut="     4.748150E-01" cType="1"     res="     0.000000E+00" rms="0.0"     purity="0.00000000E+00" nType="0">
        <Node pos="l" depth="2" NCoef="0"     IVar="10" Cut="     2.012525E+02" cType="1"     res="     0.000000E+00" rms="0.0"     purity="0.00000000E+00" nType="0">
            <Node pos="l" depth="3" NCoef="0"     IVar="13" Cut="     1.000000E+00" cType="1"     res="     0.000000E+00" rms="0.0"     purity="0.00000000E+00" nType="0">
                <Node pos="l" depth="4" NCoef="0"     IVar="-1" Cut="     0.000000E+00" cType="1"     res="    -1.081657E-02" rms="0.0e-00"     purity="0.00000000E+00" nType="-99">
                </Node>
                <Node pos="r" depth="4" NCoef="0"     IVar="-1" Cut="     0.000000E+00" cType="1"     res="     2.278515E-02" rms="0.0e-00"     purity="0.00000000E+00" nType="-99">
                </Node>
            </Node>
            <Node pos="r" depth="3" NCoef="0"     IVar="9" Cut="     1.257906E-01" cType="1"     res="     0.000000E+00" rms="0.0"     purity="0.00000000E+00" nType="0">
                <Node pos="l" depth="4" NCoef="0"     IVar="-1" Cut="     0.000000E+00" cType="1"     res="     9.982710E-04" rms="0.0e-00"     purity="0.00000000E+00" nType="-99">
                </Node>
                <Node pos="r" depth="4" NCoef="0"     IVar="-1" Cut="     0.000000E+00" cType="1"     res="     2.057805E-02" rms="0.0e-00"     purity="0.00000000E+00" nType="-99">
                </Node>
            </Node>
        </Node>
        <Node pos="r" depth="2" NCoef="0"     IVar="10" Cut="     1.646314E+02" cType="1"     res="     0.000000E+00" rms="0.0"     purity="0.00000000E+00" nType="0">
            <Node pos="l" depth="3" NCoef="0"     IVar="13" Cut="     1.000000E+00" cType="1"     res="     0.000000E+00" rms="0.0"     purity="0.00000000E+00" nType="0">
                <Node pos="l" depth="4" NCoef="0"     IVar="-1" Cut="     0.000000E+00" cType="1"     res="     1.201512E-02" rms="0.0e-00"     purity="0.00000000E+00" nType="-99">
                </Node>
                <Node pos="r" depth="4" NCoef="0"     IVar="-1" Cut="     0.000000E+00" cType="1"     res="     3.459031E-02" rms="0.0e-00"     purity="0.00000000E+00" nType="-99">
                </Node>
            </Node>
            <Node pos="r" depth="3" NCoef="0"     IVar="5" Cut="     1.802159E+00" cType="1"     res="     0.000000E+00" rms="0.0"     purity="0.00000000E+00" nType="0">
                <Node pos="l" depth="4" NCoef="0"     IVar="-1" Cut="     0.000000E+00" cType="1"     res="     3.678959E-02" rms="0.0e-00"     purity="0.00000000E+00" nType="-99">
                </Node>
                <Node pos="r" depth="4" NCoef="0"     IVar="-1" Cut="     0.000000E+00" cType="1"     res="     2.624627E-02" rms="0.0e-00"     purity="0.00000000E+00" nType="-99">
                </Node>
            </Node>
        </Node>
    </Node>
</BinaryTree>
<BinaryTree type="DecisionTree" boostWeight="0.0" itree="28">
    <Node pos="c" depth="1" NCoef="0"     IVar="9" Cut="     8.851535E-01" cType="1"     res="     0.000000E+00" rms="0.0"     purity="0.00000000E+00" nType="0">
        <Node pos="l" depth="2" NCoef="0"     IVar="1" Cut="     2.568706E+00" cType="1"     res="     0.000000E+00" rms="0.0"     purity="0.00000000E+00" nType="0">
            <Node pos="l" depth="3" NCoef="0"     IVar="13" Cut="    -1.000000E+00" cType="1"     res="     0.000000E+00" rms="0.0"     purity="0.00000000E+00" nType="0">
                <Node pos="l" depth="4" NCoef="0"     IVar="-1" Cut="     0.000000E+00" cType="1"     res="     3.522050E-02" rms="0.0e-00"     purity="0.00000000E+00" nType="-99">
                </Node>
                <Node pos="r" depth="4" NCoef="0"     IVar="-1" Cut="     0.000000E+00" cType="1"     res="     9.471503E-03" rms="0.0e-00"     purity="0.00000000E+00" nType="-99">
                </Node>
            </Node>
            <Node pos="r" depth="3" NCoef="0"     IVar="13" Cut="     1.000000E+00" cType="1"     res="     0.000000E+00" rms="0.0"     purity="0.00000000E+00" nType="0">
                <Node pos="l" depth="4" NCoef="0"     IVar="-1" Cut="     0.000000E+00" cType="1"     res="    -1.315197E-02" rms="0.0e-00"     purity="0.00000000E+00" nType="-99">
                </Node>
                <Node pos="r" depth="4" NCoef="0"     IVar="-1" Cut="     0.000000E+00" cType="1"     res="     2.263687E-02" rms="0.0e-00"     purity="0.00000000E+00" nType="-99">
                </Node>
            </Node>
        </Node>
        <Node pos="r" depth="2" NCoef="0"     IVar="9" Cut="     9.606445E-01" cType="1"     res="     0.000000E+00" rms="0.0"     purity="0.00000000E+00" nType="0">
            <Node pos="l" depth="3" NCoef="0"     IVar="13" Cut="    -1.000000E+00" cType="1"     res="     0.000000E+00" rms="0.0"     purity="0.00000000E+00" nType="0">
                <Node pos="l" depth="4" NCoef="0"     IVar="-1" Cut="     0.000000E+00" cType="1"     res="     3.960152E-02" rms="0.0e-00"     purity="0.00000000E+00" nType="-99">
                </Node>
                <Node pos="r" depth="4" NCoef="0"     IVar="-1" Cut="     0.000000E+00" cType="1"     res="     2.152258E-02" rms="0.0e-00"     purity="0.00000000E+00" nType="-99">
                </Node>
            </Node>
            <Node pos="r" depth="3" NCoef="0"     IVar="4" Cut="     4.030814E+01" cType="1"     res="     0.000000E+00" rms="0.0"     purity="0.00000000E+00" nType="0">
                <Node pos="l" depth="4" NCoef="0"     IVar="-1" Cut="     0.000000E+00" cType="1"     res="     2.941433E-02" rms="0.0e-00"     purity="0.00000000E+00" nType="-99">
                </Node>
                <Node pos="r" depth="4" NCoef="0"     IVar="-1" Cut="     0.000000E+00" cType="1"     res="     3.823805E-02" rms="0.0e-00"     purity="0.00000000E+00" nType="-99">
                </Node>
            </Node>
        </Node>
    </Node>
</BinaryTree>
<BinaryTree type="DecisionTree" boostWeight="0.0" itree="29">
    <Node pos="c" depth="1" NCoef="0"     IVar="9" Cut="     8.927507E-01" cType="1"     res="     0.000000E+00" rms="0.0"     purity="0.00000000E+00" nType="0">
        <Node pos="l" depth="2" NCoef="0"     IVar="13" Cut="     1.000000E+00" cType="1"     res="     0.000000E+00" rms="0.0"     purity="0.00000000E+00" nType="0">
            <Node pos="l" depth="3" NCoef="0"     IVar="13" Cut="    -1.000000E+00" cType="1"     res="     0.000000E+00" rms="0.0"     purity="0.00000000E+00" nType="0">
                <Node pos="l" depth="4" NCoef="0"     IVar="-1" Cut="     0.000000E+00" cType="1"     res="     3.279966E-02" rms="0.0e-00"     purity="0.00000000E+00" nType="-99">
                </Node>
                <Node pos="r" depth="4" NCoef="0"     IVar="-1" Cut="     0.000000E+00" cType="1"     res="     1.186683E-03" rms="0.0e-00"     purity="0.00000000E+00" nType="-99">
                </Node>
            </Node>
            <Node pos="r" depth="3" NCoef="0"     IVar="4" Cut="     4.262935E+01" cType="1"     res="     0.000000E+00" rms="0.0"     purity="0.00000000E+00" nType="0">
                <Node pos="l" depth="4" NCoef="0"     IVar="-1" Cut="     0.000000E+00" cType="1"     res="     1.895106E-02" rms="0.0e-00"     purity="0.00000000E+00" nType="-99">
                </Node>
                <Node pos="r" depth="4" NCoef="0"     IVar="-1" Cut="     0.000000E+00" cType="1"     res="     3.726932E-02" rms="0.0e-00"     purity="0.00000000E+00" nType="-99">
                </Node>
            </Node>
        </Node>
        <Node pos="r" depth="2" NCoef="0"     IVar="9" Cut="     9.639658E-01" cType="1"     res="     0.000000E+00" rms="0.0"     purity="0.00000000E+00" nType="0">
            <Node pos="l" depth="3" NCoef="0"     IVar="13" Cut="    -1.000000E+00" cType="1"     res="     0.000000E+00" rms="0.0"     purity="0.00000000E+00" nType="0">
                <Node pos="l" depth="4" NCoef="0"     IVar="-1" Cut="     0.000000E+00" cType="1"     res="     3.907151E-02" rms="0.0e-00"     purity="0.00000000E+00" nType="-99">
                </Node>
                <Node pos="r" depth="4" NCoef="0"     IVar="-1" Cut="     0.000000E+00" cType="1"     res="     2.172086E-02" rms="0.0e-00"     purity="0.00000000E+00" nType="-99">
                </Node>
            </Node>
            <Node pos="r" depth="3" NCoef="0"     IVar="11" Cut="     2.394386E+01" cType="1"     res="     0.000000E+00" rms="0.0"     purity="0.00000000E+00" nType="0">
                <Node pos="l" depth="4" NCoef="0"     IVar="-1" Cut="     0.000000E+00" cType="1"     res="     2.504857E-02" rms="0.0e-00"     purity="0.00000000E+00" nType="-99">
                </Node>
                <Node pos="r" depth="4" NCoef="0"     IVar="-1" Cut="     0.000000E+00" cType="1"     res="     3.738934E-02" rms="0.0e-00"     purity="0.00000000E+00" nType="-99">
                </Node>
            </Node>
        </Node>
    </Node>
</BinaryTree>
<BinaryTree type="DecisionTree" boostWeight="0.0" itree="30">
    <Node pos="c" depth="1" NCoef="0"     IVar="9" Cut="     8.163057E-01" cType="1"     res="     0.000000E+00" rms="0.0"     purity="0.00000000E+00" nType="0">
        <Node pos="l" depth="2" NCoef="0"     IVar="10" Cut="     1.335240E+02" cType="1"     res="     0.000000E+00" rms="0.0"     purity="0.00000000E+00" nType="0">
            <Node pos="l" depth="3" NCoef="0"     IVar="9" Cut="     2.773851E-01" cType="1"     res="     0.000000E+00" rms="0.0"     purity="0.00000000E+00" nType="0">
                <Node pos="l" depth="4" NCoef="0"     IVar="-1" Cut="     0.000000E+00" cType="1"     res="    -1.869582E-02" rms="0.0e-00"     purity="0.00000000E+00" nType="-99">
                </Node>
                <Node pos="r" depth="4" NCoef="0"     IVar="-1" Cut="     0.000000E+00" cType="1"     res="     3.042843E-03" rms="0.0e-00"     purity="0.00000000E+00" nType="-99">
                </Node>
            </Node>
            <Node pos="r" depth="3" NCoef="0"     IVar="9" Cut="     2.408994E-01" cType="1"     res="     0.000000E+00" rms="0.0"     purity="0.00000000E+00" nType="0">
                <Node pos="l" depth="4" NCoef="0"     IVar="-1" Cut="     0.000000E+00" cType="1"     res="     1.927348E-04" rms="0.0e-00"     purity="0.00000000E+00" nType="-99">
                </Node>
                <Node pos="r" depth="4" NCoef="0"     IVar="-1" Cut="     0.000000E+00" cType="1"     res="     1.893267E-02" rms="0.0e-00"     purity="0.00000000E+00" nType="-99">
                </Node>
            </Node>
        </Node>
        <Node pos="r" depth="2" NCoef="0"     IVar="9" Cut="     9.452036E-01" cType="1"     res="     0.000000E+00" rms="0.0"     purity="0.00000000E+00" nType="0">
            <Node pos="l" depth="3" NCoef="0"     IVar="13" Cut="     1.000000E+00" cType="1"     res="     0.000000E+00" rms="0.0"     purity="0.00000000E+00" nType="0">
                <Node pos="l" depth="4" NCoef="0"     IVar="-1" Cut="     0.000000E+00" cType="1"     res="     1.618608E-02" rms="0.0e-00"     purity="0.00000000E+00" nType="-99">
                </Node>
                <Node pos="r" depth="4" NCoef="0"     IVar="-1" Cut="     0.000000E+00" cType="1"     res="     3.637128E-02" rms="0.0e-00"     purity="0.00000000E+00" nType="-99">
                </Node>
            </Node>
            <Node pos="r" depth="3" NCoef="0"     IVar="4" Cut="     4.589805E+01" cType="1"     res="     0.000000E+00" rms="0.0"     purity="0.00000000E+00" nType="0">
                <Node pos="l" depth="4" NCoef="0"     IVar="-1" Cut="     0.000000E+00" cType="1"     res="     2.683187E-02" rms="0.0e-00"     purity="0.00000000E+00" nType="-99">
                </Node>
                <Node pos="r" depth="4" NCoef="0"     IVar="-1" Cut="     0.000000E+00" cType="1"     res="     3.584178E-02" rms="0.0e-00"     purity="0.00000000E+00" nType="-99">
                </Node>
            </Node>
        </Node>
    </Node>
</BinaryTree>
<BinaryTree type="DecisionTree" boostWeight="0.0" itree="31">
    <Node pos="c" depth="1" NCoef="0"     IVar="9" Cut="     8.927507E-01" cType="1"     res="     0.000000E+00" rms="0.0"     purity="0.00000000E+00" nType="0">
        <Node pos="l" depth="2" NCoef="0"     IVar="1" Cut="     2.407144E+00" cType="1"     res="     0.000000E+00" rms="0.0"     purity="0.00000000E+00" nType="0">
            <Node pos="l" depth="3" NCoef="0"     IVar="13" Cut="     1.000000E+00" cType="1"     res="     0.000000E+00" rms="0.0"     purity="0.00000000E+00" nType="0">
                <Node pos="l" depth="4" NCoef="0"     IVar="-1" Cut="     0.000000E+00" cType="1"     res="     1.044601E-02" rms="0.0e-00"     purity="0.00000000E+00" nType="-99">
                </Node>
