<?xml version="1.0"?>
<MethodSetup Method="BDT::BDTG">
  <GeneralInfo>
    <Info name="TMVA Release" value="4.2.0 [262656]"/>
    <Info name="ROOT Release" value="6.02/13 [393741]"/>
    <Info name="Creator" value="arun"/>
    <Info name="Date" value="Wed Aug 17 18:41:14 2016"/>
    <Info name="Host" value="Linux vocms0301.cern.ch 2.6.32-573.7.1.el6.x86_64 #1 SMP Wed Sep 23 10:12:03 CEST 2015 x86_64 x86_64 x86_64 GNU/Linux"/>
    <Info name="Dir" value="/home/arun/VHbbNtuples_7_6_x/CMSSW_7_6_3/src/tthAnalysis/HiggsToTauTau/test"/>
    <Info name="Training events" value="86267"/>
    <Info name="TrainingTime" value="7.34759040e+01"/>
    <Info name="AnalysisType" value="Classification"/>
  </GeneralInfo>
  <Options>
    <Option name="V" modified="Yes">False</Option>
    <Option name="VerbosityLevel" modified="No">Default</Option>
    <Option name="VarTransform" modified="No">None</Option>
    <Option name="H" modified="Yes">False</Option>
    <Option name="CreateMVAPdfs" modified="No">False</Option>
    <Option name="IgnoreNegWeightsInTraining" modified="No">False</Option>
    <Option name="NTrees" modified="Yes">500</Option>
    <Option name="MaxDepth" modified="Yes">3</Option>
    <Option name="MinNodeSize" modified="No">5%</Option>
    <Option name="nCuts" modified="Yes">500</Option>
    <Option name="BoostType" modified="Yes">Grad</Option>
    <Option name="AdaBoostR2Loss" modified="No">quadratic</Option>
    <Option name="UseBaggedBoost" modified="Yes">True</Option>
    <Option name="Shrinkage" modified="Yes">3.000000e-01</Option>
    <Option name="AdaBoostBeta" modified="No">5.000000e-01</Option>
    <Option name="UseRandomisedTrees" modified="No">False</Option>
    <Option name="UseNvars" modified="No">5</Option>
    <Option name="UsePoissonNvars" modified="No">True</Option>
    <Option name="BaggedSampleFraction" modified="No">5.000000e-01</Option>
    <Option name="UseYesNoLeaf" modified="No">True</Option>
    <Option name="NegWeightTreatment" modified="No">ignorenegweightsintraining</Option>
    <Option name="Css" modified="No">1.000000e+00</Option>
    <Option name="Cts_sb" modified="No">1.000000e+00</Option>
    <Option name="Ctb_ss" modified="No">1.000000e+00</Option>
    <Option name="Cbb" modified="No">1.000000e+00</Option>
    <Option name="NodePurityLimit" modified="No">5.000000e-01</Option>
    <Option name="SeparationType" modified="Yes">giniindex</Option>
    <Option name="DoBoostMonitor" modified="No">False</Option>
    <Option name="UseFisherCuts" modified="No">False</Option>
    <Option name="MinLinCorrForFisher" modified="No">8.000000e-01</Option>
    <Option name="UseExclusiveVars" modified="No">False</Option>
    <Option name="DoPreselection" modified="No">False</Option>
    <Option name="SigToBkgFraction" modified="No">1.000000e+00</Option>
    <Option name="PruneMethod" modified="Yes">nopruning</Option>
    <Option name="PruneStrength" modified="No">0.000000e+00</Option>
    <Option name="PruningValFraction" modified="No">5.000000e-01</Option>
    <Option name="nEventsMin" modified="No">0</Option>
    <Option name="UseBaggedGrad" modified="No">False</Option>
    <Option name="GradBaggingFraction" modified="Yes">5.000000e-01</Option>
    <Option name="UseNTrainEvents" modified="No">0</Option>
    <Option name="NNodesMax" modified="No">0</Option>
  </Options>
  <Variables NVar="21">
    <Variable VarIndex="0" Expression="lep_pt" Label="lep_pt" Title="lep_pt" Unit="" Internal="lep_pt" Type="F" Min="2.00013828e+01" Max="7.80560913e+02"/>
    <Variable VarIndex="1" Expression="TMath::Abs(lep_eta)" Label="TMath::Abs(lep_eta)" Title="TMath::Abs(lep_eta)" Unit="" Internal="TMath_Abs_lep_eta_" Type="F" Min="1.43893958e-05" Max="2.49970412e+00"/>
    <Variable VarIndex="2" Expression="lep_tth_mva" Label="lep_tth_mva" Title="lep_tth_mva" Unit="" Internal="lep_tth_mva" Type="F" Min="7.50041246e-01" Max="9.97280061e-01"/>
    <Variable VarIndex="3" Expression="nJet" Label="nJet" Title="nJet" Unit="" Internal="nJet" Type="I" Min="4.00000000e+00" Max="1.30000000e+01"/>
    <Variable VarIndex="4" Expression="nBJetLoose" Label="nBJetLoose" Title="nBJetLoose" Unit="" Internal="nBJetLoose" Type="I" Min="1.00000000e+00" Max="7.00000000e+00"/>
    <Variable VarIndex="5" Expression="nBJetMedium" Label="nBJetMedium" Title="nBJetMedium" Unit="" Internal="nBJetMedium" Type="I" Min="0.00000000e+00" Max="5.00000000e+00"/>
    <Variable VarIndex="6" Expression="mindr_lep_jet" Label="mindr_lep_jet" Title="mindr_lep_jet" Unit="" Internal="mindr_lep_jet" Type="F" Min="5.00003040e-01" Max="3.92822146e+00"/>
    <Variable VarIndex="7" Expression="mindr_tau1_jet" Label="mindr_tau1_jet" Title="mindr_tau1_jet" Unit="" Internal="mindr_tau1_jet" Type="F" Min="5.00031829e-01" Max="4.39868116e+00"/>
    <Variable VarIndex="8" Expression="mindr_tau2_jet" Label="mindr_tau2_jet" Title="mindr_tau2_jet" Unit="" Internal="mindr_tau2_jet" Type="F" Min="5.00009000e-01" Max="4.30454826e+00"/>
    <Variable VarIndex="9" Expression="avg_dr_jet" Label="avg_dr_jet" Title="avg_dr_jet" Unit="" Internal="avg_dr_jet" Type="F" Min="6.15707994e-01" Max="3.86478472e+00"/>
    <Variable VarIndex="10" Expression="ptmiss" Label="ptmiss" Title="ptmiss" Unit="" Internal="ptmiss" Type="F" Min="2.98544317e-01" Max="1.58900378e+03"/>
    <Variable VarIndex="11" Expression="mT_lep" Label="mT_lep" Title="mT_lep" Unit="" Internal="mT_lep" Type="F" Min="0.00000000e+00" Max="8.69905518e+02"/>
    <Variable VarIndex="12" Expression="htmiss" Label="htmiss" Title="htmiss" Unit="" Internal="htmiss" Type="F" Min="5.12224853e-01" Max="1.75027209e+03"/>
    <Variable VarIndex="13" Expression="tau1_pt" Label="tau1_pt" Title="tau1_pt" Unit="" Internal="tau1_pt" Type="F" Min="2.00355740e+01" Max="4.64279572e+02"/>
    <Variable VarIndex="14" Expression="tau2_pt" Label="tau2_pt" Title="tau2_pt" Unit="" Internal="tau2_pt" Type="F" Min="2.00000439e+01" Max="2.03211639e+02"/>
    <Variable VarIndex="15" Expression="TMath::Abs(tau1_eta)" Label="TMath::Abs(tau1_eta)" Title="TMath::Abs(tau1_eta)" Unit="" Internal="TMath_Abs_tau1_eta_" Type="F" Min="1.17414911e-05" Max="2.29997301e+00"/>
    <Variable VarIndex="16" Expression="TMath::Abs(tau2_eta)" Label="TMath::Abs(tau2_eta)" Title="TMath::Abs(tau2_eta)" Unit="" Internal="TMath_Abs_tau2_eta_" Type="F" Min="6.31931414e-07" Max="2.29992890e+00"/>
    <Variable VarIndex="17" Expression="dr_lep_tau_os" Label="dr_lep_tau_os" Title="dr_lep_tau_os" Unit="" Internal="dr_lep_tau_os" Type="F" Min="3.01408917e-01" Max="5.40254831e+00"/>
    <Variable VarIndex="18" Expression="dr_lep_tau_ss" Label="dr_lep_tau_ss" Title="dr_lep_tau_ss" Unit="" Internal="dr_lep_tau_ss" Type="F" Min="3.00329238e-01" Max="5.43306732e+00"/>
    <Variable VarIndex="19" Expression="dr_taus" Label="dr_taus" Title="dr_taus" Unit="" Internal="dr_taus" Type="F" Min="3.01688522e-01" Max="5.50733376e+00"/>
    <Variable VarIndex="20" Expression="mTauTauVis" Label="mTauTauVis" Title="mTauTauVis" Unit="" Internal="mTauTauVis" Type="F" Min="6.95852995e+00" Max="9.84253235e+02"/>
  </Variables>
  <Spectators NSpec="2">
    <Spectator SpecIndex="0" Expression="tau1_mva" Label="tau1_mva" Title="tau1_mva" Unit="" Internal="tau1_mva" Type="F" Min="-7.32768416e-01" Max="9.89139557e-01"/>
    <Spectator SpecIndex="1" Expression="tau2_mva" Label="tau2_mva" Title="tau2_mva" Unit="" Internal="tau2_mva" Type="F" Min="-7.34394073e-01" Max="9.89326417e-01"/>
  </Spectators>
  <Classes NClass="2">
    <Class Name="Signal" Index="0"/>
    <Class Name="Background" Index="1"/>
  </Classes>
  <Transformations NTransformations="0"/>
  <MVAPdfs/>
  <Weights NTrees="500" AnalysisType="1">
    <BinaryTree type="DecisionTree" boostWeight="1.0000000000000000e+00" itree="0">
      <Node pos="s" depth="0" NCoef="0" IVar="13" Cut="4.5343841552734375e+01" cType="1" res="3.5802129423245788e-04" rms="4.9999988079071045e-01" purity="5.0035804510116577e-01" nType="0">
        <Node pos="l" depth="1" NCoef="0" IVar="3" Cut="5.0000000000000000e+00" cType="1" res="-1.9774648826569319e-03" rms="1.9329002499580383e-01" purity="4.4137299060821533e-01" nType="0">
          <Node pos="l" depth="2" NCoef="0" IVar="9" Cut="2.3147027492523193e+00" cType="1" res="-1.5420553088188171e-01" rms="4.7562658786773682e-01" purity="3.4579446911811829e-01" nType="0">
            <Node pos="l" depth="3" NCoef="0" IVar="-1" Cut="0.0000000000000000e+00" cType="1" res="-2.6357572525739670e-02" rms="4.9209827184677124e-01" purity="4.1146019101142883e-01" nType="-99"/>
            <Node pos="r" depth="3" NCoef="0" IVar="-1" Cut="0.0000000000000000e+00" cType="1" res="-1.0667222738265991e-01" rms="4.3032583594322205e-01" purity="2.4540290236473083e-01" nType="-99"/>
          </Node>
          <Node pos="r" depth="2" NCoef="0" IVar="9" Cut="2.3148605823516846e+00" cType="1" res="2.8288302943110466e-02" rms="4.9919912219047546e-01" purity="5.2828830480575562e-01" nType="0">
            <Node pos="l" depth="3" NCoef="0" IVar="-1" Cut="0.0000000000000000e+00" cType="1" res="2.1353174000978470e-02" rms="4.9096262454986572e-01" purity="5.9463459253311157e-01" nType="-99"/>
            <Node pos="r" depth="3" NCoef="0" IVar="-1" Cut="0.0000000000000000e+00" cType="1" res="-2.5042874738574028e-02" rms="4.9277570843696594e-01" purity="4.1531166434288025e-01" nType="-99"/>
          </Node>
        </Node>
        <Node pos="r" depth="1" NCoef="0" IVar="14" Cut="3.0576347351074219e+01" cType="1" res="1.8890543282032013e-01" rms="4.6294140815734863e-01" purity="6.8890547752380371e-01" nType="0">
          <Node pos="l" depth="2" NCoef="0" IVar="9" Cut="2.3039593696594238e+00" cType="1" res="1.1081268638372421e-01" rms="4.8756593465805054e-01" purity="6.1081266403198242e-01" nType="0">
            <Node pos="l" depth="3" NCoef="0" IVar="-1" Cut="0.0000000000000000e+00" cType="1" res="3.6773689091205597e-02" rms="4.6580365300178528e-01" purity="6.8173325061798096e-01" nType="-99"/>
            <Node pos="r" depth="3" NCoef="0" IVar="-1" Cut="0.0000000000000000e+00" cType="1" res="-4.6503585763275623e-03" rms="4.9969175457954407e-01" purity="4.8244544863700867e-01" nType="-99"/>
          </Node>
          <Node pos="r" depth="2" NCoef="0" IVar="-1" Cut="0.0000000000000000e+00" cType="1" res="5.4157007485628128e-02" rms="3.9423203468322754e-01" purity="8.0754041671752930e-01" nType="-99"/>
        </Node>
      </Node>
    </BinaryTree>
    <BinaryTree type="DecisionTree" boostWeight="1.0000000000000000e+00" itree="1">
      <Node pos="s" depth="0" NCoef="0" IVar="13" Cut="3.6097293853759766e+01" cType="1" res="4.8469840548932552e-03" rms="4.9307748675346375e-01" purity="4.9924314022064209e-01" nType="0">
        <Node pos="l" depth="1" NCoef="0" IVar="3" Cut="6.0000000000000000e+00" cType="1" res="-7.3514305986464024e-03" rms="1.8143357336521149e-01" purity="4.1335046291351318e-01" nType="0">
          <Node pos="l" depth="2" NCoef="0" IVar="9" Cut="2.3135898113250732e+00" cType="1" res="-1.2240907549858093e-01" rms="4.7607877850532532e-01" purity="3.5985031723976135e-01" nType="0">
            <Node pos="l" depth="3" NCoef="0" IVar="-1" Cut="0.0000000000000000e+00" cType="1" res="-2.0871590822935104e-02" rms="4.9254807829856873e-01" purity="4.2438307404518127e-01" nType="-99"/>
            <Node pos="r" depth="3" NCoef="0" IVar="-1" Cut="0.0000000000000000e+00" cType="1" res="-8.0979615449905396e-02" rms="4.3877583742141724e-01" purity="2.6173755526542664e-01" nType="-99"/>
          </Node>
          <Node pos="r" depth="2" NCoef="0" IVar="9" Cut="2.2551693916320801e+00" cType="1" res="8.0323651432991028e-02" rms="4.9121823906898499e-01" purity="5.8261209726333618e-01" nType="0">
            <Node pos="l" depth="3" NCoef="0" IVar="-1" Cut="0.0000000000000000e+00" cType="1" res="3.2013431191444397e-02" rms="4.7169902920722961e-01" purity="6.6583132743835449e-01" nType="-99"/>
            <Node pos="r" depth="3" NCoef="0" IVar="-1" Cut="0.0000000000000000e+00" cType="1" res="-4.2359326034784317e-03" rms="4.9900415539741516e-01" purity="4.7570088505744934e-01" nType="-99"/>
          </Node>
        </Node>
        <Node pos="r" depth="1" NCoef="0" IVar="14" Cut="3.3160507202148438e+01" cType="1" res="1.3111583888530731e-01" rms="4.7542759776115417e-01" purity="6.3728678226470947e-01" nType="0">
          <Node pos="l" depth="2" NCoef="0" IVar="3" Cut="5.0000000000000000e+00" cType="1" res="1.6719786450266838e-02" rms="1.8974833190441132e-01" purity="5.8328866958618164e-01" nType="0">
            <Node pos="l" depth="3" NCoef="0" IVar="-1" Cut="0.0000000000000000e+00" cType="1" res="-2.7222654316574335e-03" rms="4.9573209881782532e-01" purity="4.8427736759185791e-01" nType="-99"/>
            <Node pos="r" depth="3" NCoef="0" IVar="-1" Cut="0.0000000000000000e+00" cType="1" res="3.3154290169477463e-02" rms="4.6846711635589600e-01" purity="6.6944199800491333e-01" nType="-99"/>
          </Node>
          <Node pos="r" depth="2" NCoef="0" IVar="-1" Cut="0.0000000000000000e+00" cType="1" res="4.9917891621589661e-02" rms="3.9659342169761658e-01" purity="7.9965710639953613e-01" nType="-99"/>
        </Node>
      </Node>
    </BinaryTree>
    <BinaryTree type="DecisionTree" boostWeight="1.0000000000000000e+00" itree="2">
      <Node pos="s" depth="0" NCoef="0" IVar="13" Cut="4.2100563049316406e+01" cType="1" res="1.3970463536679745e-02" rms="4.8786407709121704e-01" purity="5.0392407178878784e-01" nType="0">
        <Node pos="l" depth="1" NCoef="0" IVar="3" Cut="5.0000000000000000e+00" cType="1" res="-2.2185870911926031e-03" rms="1.7192332446575165e-01" purity="4.3434891104698181e-01" nType="0">
          <Node pos="l" depth="2" NCoef="0" IVar="9" Cut="2.2266376018524170e+00" cType="1" res="-1.1572279781103134e-01" rms="4.6801298856735229e-01" purity="3.3690097928047180e-01" nType="0">
            <Node pos="l" depth="3" NCoef="0" IVar="-1" Cut="0.0000000000000000e+00" cType="1" res="-1.8548378720879555e-02" rms="4.9258494377136230e-01" purity="4.1537043452262878e-01" nType="-99"/>
            <Node pos="r" depth="3" NCoef="0" IVar="-1" Cut="0.0000000000000000e+00" cType="1" res="-7.3762625455856323e-02" rms="4.3204271793365479e-01" purity="2.5084099173545837e-01" nType="-99"/>
          </Node>
          <Node pos="r" depth="2" NCoef="0" IVar="3" Cut="7.0000000000000000e+00" cType="1" res="8.9221093803644180e-03" rms="1.6465656459331512e-01" purity="5.2185946702957153e-01" nType="0">
            <Node pos="l" depth="3" NCoef="0" IVar="-1" Cut="0.0000000000000000e+00" cType="1" res="-1.6054753214120865e-03" rms="4.9532967805862427e-01" purity="4.8770588636398315e-01" nType="-99"/>
            <Node pos="r" depth="3" NCoef="0" IVar="-1" Cut="0.0000000000000000e+00" cType="1" res="3.2028146088123322e-02" rms="4.7003236413002014e-01" purity="6.6485679149627686e-01" nType="-99"/>
          </Node>
        </Node>
        <Node pos="r" depth="1" NCoef="0" IVar="14" Cut="3.1702764511108398e+01" cType="1" res="1.5755438804626465e-01" rms="4.5912936329841614e-01" purity="6.8363511562347412e-01" nType="0">
          <Node pos="l" depth="2" NCoef="0" IVar="3" Cut="5.0000000000000000e+00" cType="1" res="2.5552546605467796e-02" rms="1.9068643450737000e-01" purity="6.1495018005371094e-01" nType="0">
            <Node pos="l" depth="3" NCoef="0" IVar="-1" Cut="0.0000000000000000e+00" cType="1" res="5.1589743234217167e-03" rms="4.9660909175872803e-01" purity="5.2403521537780762e-01" nType="-99"/>
            <Node pos="r" depth="3" NCoef="0" IVar="-1" Cut="0.0000000000000000e+00" cType="1" res="3.3355571329593658e-02" rms="4.5962357521057129e-01" purity="6.9332528114318848e-01" nType="-99"/>
          </Node>
          <Node pos="r" depth="2" NCoef="0" IVar="-1" Cut="0.0000000000000000e+00" cType="1" res="4.7634173184633255e-02" rms="3.8594684004783630e-01" purity="8.1581366062164307e-01" nType="-99"/>
        </Node>
      </Node>
    </BinaryTree>
    <BinaryTree type="DecisionTree" boostWeight="1.0000000000000000e+00" itree="3">
      <Node pos="s" depth="0" NCoef="0" IVar="13" Cut="4.7534545898437500e+01" cType="1" res="1.3844114728271961e-02" rms="4.8427483439445496e-01" purity="5.0059098005294800e-01" nType="0">
        <Node pos="l" depth="1" NCoef="0" IVar="3" Cut="6.0000000000000000e+00" cType="1" res="1.8995001446455717e-03" rms="2.0408833026885986e-01" purity="4.4549718499183655e-01" nType="0">
          <Node pos="l" depth="2" NCoef="0" IVar="9" Cut="2.3858866691589355e+00" cType="1" res="-6.0563508421182632e-02" rms="4.8047083616256714e-01" purity="3.9460861682891846e-01" nType="0">
            <Node pos="l" depth="3" NCoef="0" IVar="-1" Cut="0.0000000000000000e+00" cType="1" res="-6.7064673639833927e-03" rms="4.9360617995262146e-01" purity="4.5178049802780151e-01" nType="-99"/>
            <Node pos="r" depth="3" NCoef="0" IVar="-1" Cut="0.0000000000000000e+00" cType="1" res="-5.6257147341966629e-02" rms="4.4138419628143311e-01" purity="2.7328315377235413e-01" nType="-99"/>
          </Node>
          <Node pos="r" depth="2" NCoef="0" IVar="9" Cut="2.3788068294525146e+00" cType="1" res="8.7548196315765381e-02" rms="4.8462960124015808e-01" purity="6.0711079835891724e-01" nType="0">
            <Node pos="l" depth="3" NCoef="0" IVar="-1" Cut="0.0000000000000000e+00" cType="1" res="2.7845343574881554e-02" rms="4.7168672084808350e-01" purity="6.6199558973312378e-01" nType="-99"/>
            <Node pos="r" depth="3" NCoef="0" IVar="-1" Cut="0.0000000000000000e+00" cType="1" res="-9.8436437547206879e-03" rms="4.9694281816482544e-01" purity="4.6065616607666016e-01" nType="-99"/>
          </Node>
        </Node>
        <Node pos="r" depth="1" NCoef="0" IVar="14" Cut="2.9481393814086914e+01" cType="1" res="1.5416119992733002e-01" rms="4.5247459411621094e-01" purity="6.9912290573120117e-01" nType="0">
          <Node pos="l" depth="2" NCoef="0" IVar="-1" Cut="0.0000000000000000e+00" cType="1" res="1.9148839637637138e-02" rms="4.8365926742553711e-01" purity="6.1456573009490967e-01" nType="-99"/>
          <Node pos="r" depth="2" NCoef="0" IVar="-1" Cut="0.0000000000000000e+00" cType="1" res="4.2722888290882111e-02" rms="3.9574292302131653e-01" purity="8.0259931087493896e-01" nType="-99"/>
        </Node>
      </Node>
    </BinaryTree>
    <BinaryTree type="DecisionTree" boostWeight="1.0000000000000000e+00" itree="4">
      <Node pos="s" depth="0" NCoef="0" IVar="13" Cut="5.6023906707763672e+01" cType="1" res="1.3311991468071938e-02" rms="4.8101335763931274e-01" purity="4.9847316741943359e-01" nType="0">
        <Node pos="l" depth="1" NCoef="0" IVar="3" Cut="6.0000000000000000e+00" cType="1" res="1.1846212437376380e-03" rms="2.2794553637504578e-01" purity="4.5335385203361511e-01" nType="0">
          <Node pos="l" depth="2" NCoef="0" IVar="14" Cut="2.6757781982421875e+01" cType="1" res="-4.9657665193080902e-02" rms="4.7926193475723267e-01" purity="4.0170249342918396e-01" nType="0">
            <Node pos="l" depth="3" NCoef="0" IVar="-1" Cut="0.0000000000000000e+00" cType="1" res="-2.4787057191133499e-02" rms="4.7355586290359497e-01" purity="3.6939975619316101e-01" nType="-99"/>
            <Node pos="r" depth="3" NCoef="0" IVar="-1" Cut="0.0000000000000000e+00" cType="1" res="1.0076634585857391e-02" rms="4.8796078562736511e-01" purity="5.1219052076339722e-01" nType="-99"/>
          </Node>
          <Node pos="r" depth="2" NCoef="0" IVar="9" Cut="2.3986685276031494e+00" cType="1" res="8.3042666316032410e-02" rms="4.8231160640716553e-01" purity="6.1287754774093628e-01" nType="0">
            <Node pos="l" depth="3" NCoef="0" IVar="-1" Cut="0.0000000000000000e+00" cType="1" res="2.4408983066678047e-02" rms="4.7221797704696655e-01" purity="6.5853470563888550e-01" nType="-99"/>
            <Node pos="r" depth="3" NCoef="0" IVar="-1" Cut="0.0000000000000000e+00" cType="1" res="-2.6372943539172411e-03" rms="4.9788653850555420e-01" purity="4.8490414023399353e-01" nType="-99"/>
          </Node>
        </Node>
        <Node pos="r" depth="1" NCoef="0" IVar="9" Cut="2.2313971519470215e+00" cType="1" res="1.7265680432319641e-01" rms="4.3493345379829407e-01" purity="7.3409914970397949e-01" nType="0">
          <Node pos="l" depth="2" NCoef="0" IVar="-1" Cut="0.0000000000000000e+00" cType="1" res="4.1544180363416672e-02" rms="3.9743158221244812e-01" purity="7.9556310176849365e-01" nType="-99"/>
          <Node pos="r" depth="2" NCoef="0" IVar="-1" Cut="0.0000000000000000e+00" cType="1" res="2.1456811577081680e-02" rms="4.6988785266876221e-01" purity="6.5382784605026245e-01" nType="-99"/>
        </Node>
      </Node>
    </BinaryTree>
    <BinaryTree type="DecisionTree" boostWeight="1.0000000000000000e+00" itree="5">
      <Node pos="s" depth="0" NCoef="0" IVar="13" Cut="5.5293857574462891e+01" cType="1" res="1.8103301525115967e-02" rms="4.7951069474220276e-01" purity="5.0234866142272949e-01" nType="0">
        <Node pos="l" depth="1" NCoef="0" IVar="3" Cut="5.0000000000000000e+00" cType="1" res="3.4628978464752436e-03" rms="1.8880693614482880e-01" purity="4.5613947510719299e-01" nType="0">
          <Node pos="l" depth="2" NCoef="0" IVar="7" Cut="1.3361344337463379e+00" cType="1" res="-6.0023684054613113e-02" rms="4.7300556302070618e-01" purity="3.6382657289505005e-01" nType="0">
            <Node pos="l" depth="3" NCoef="0" IVar="-1" Cut="0.0000000000000000e+00" cType="1" res="-8.9297555387020111e-03" rms="4.8097363114356995e-01" purity="3.9499166607856750e-01" nType="-99"/>
            <Node pos="r" depth="3" NCoef="0" IVar="-1" Cut="0.0000000000000000e+00" cType="1" res="-4.0773425251245499e-02" rms="4.5568329095840454e-01" purity="3.1473612785339355e-01" nType="-99"/>
          </Node>
          <Node pos="r" depth="2" NCoef="0" IVar="9" Cut="2.2523491382598877e+00" cType="1" res="3.6913797259330750e-02" rms="4.8795747756958008e-01" purity="5.4089009761810303e-01" nType="0">
            <Node pos="l" depth="3" NCoef="0" IVar="-1" Cut="0.0000000000000000e+00" cType="1" res="1.9486077129840851e-02" rms="4.8099371790885925e-01" purity="6.1589425802230835e-01" nType="-99"/>
            <Node pos="r" depth="3" NCoef="0" IVar="-1" Cut="0.0000000000000000e+00" cType="1" res="-6.8269232288002968e-03" rms="4.8921644687652588e-01" purity="4.5099556446075439e-01" nType="-99"/>
          </Node>
        </Node>
        <Node pos="r" depth="1" NCoef="0" IVar="14" Cut="2.7298706054687500e+01" cType="1" res="1.5632458031177521e-01" rms="4.3448472023010254e-01" purity="7.3386436700820923e-01" nType="0">
          <Node pos="l" depth="2" NCoef="0" IVar="-1" Cut="0.0000000000000000e+00" cType="1" res="1.7347751185297966e-02" rms="4.7880071401596069e-01" purity="6.3293856382369995e-01" nType="-99"/>
          <Node pos="r" depth="2" NCoef="0" IVar="-1" Cut="0.0000000000000000e+00" cType="1" res="3.8825027644634247e-02" rms="3.9055746793746948e-01" purity="8.0619442462921143e-01" nType="-99"/>
        </Node>
      </Node>
    </BinaryTree>
    <BinaryTree type="DecisionTree" boostWeight="1.0000000000000000e+00" itree="6">
      <Node pos="s" depth="0" NCoef="0" IVar="14" Cut="3.1336618423461914e+01" cType="1" res="1.2991051189601421e-02" rms="4.7600609064102173e-01" purity="4.9731042981147766e-01" nType="0">
        <Node pos="l" depth="1" NCoef="0" IVar="9" Cut="2.2188949584960938e+00" cType="1" res="-9.9562006071209908e-03" rms="4.7990080714225769e-01" purity="4.6030309796333313e-01" nType="0">
          <Node pos="l" depth="2" NCoef="0" IVar="3" Cut="5.0000000000000000e+00" cType="1" res="9.0327998623251915e-03" rms="1.6999371349811554e-01" purity="5.4074019193649292e-01" nType="0">
            <Node pos="l" depth="3" NCoef="0" IVar="-1" Cut="0.0000000000000000e+00" cType="1" res="-4.8955385573208332e-03" rms="4.9188867211341858e-01" purity="4.4393804669380188e-01" nType="-99"/>
            <Node pos="r" depth="3" NCoef="0" IVar="-1" Cut="0.0000000000000000e+00" cType="1" res="1.9023321568965912e-02" rms="4.7698310017585754e-01" purity="6.2851101160049438e-01" nType="-99"/>
          </Node>
          <Node pos="r" depth="2" NCoef="0" IVar="3" Cut="6.0000000000000000e+00" cType="1" res="-4.0664486587047577e-03" rms="1.9252143800258636e-01" purity="3.7517836689949036e-01" nType="0">
            <Node pos="l" depth="3" NCoef="0" IVar="-1" Cut="0.0000000000000000e+00" cType="1" res="-3.1910967081785202e-02" rms="4.5525845885276794e-01" purity="3.2264903187751770e-01" nType="-99"/>
            <Node pos="r" depth="3" NCoef="0" IVar="-1" Cut="0.0000000000000000e+00" cType="1" res="5.2050366066396236e-03" rms="4.9346348643302917e-01" purity="5.3738278150558472e-01" nType="-99"/>
          </Node>
        </Node>
        <Node pos="r" depth="1" NCoef="0" IVar="-1" Cut="0.0000000000000000e+00" cType="1" res="3.3761464059352875e-02" rms="4.1408634185791016e-01" purity="7.5497484207153320e-01" nType="-99"/>
      </Node>
    </BinaryTree>
    <BinaryTree type="DecisionTree" boostWeight="1.0000000000000000e+00" itree="7">
      <Node pos="s" depth="0" NCoef="0" IVar="13" Cut="3.4185398101806641e+01" cType="1" res="1.6651127487421036e-02" rms="4.7520473599433899e-01" purity="5.0082796812057495e-01" nType="0">
        <Node pos="l" depth="1" NCoef="0" IVar="9" Cut="2.6007027626037598e+00" cType="1" res="-3.1307198107242584e-02" rms="4.7643092274665833e-01" purity="4.1485473513603210e-01" nType="0">
          <Node pos="l" depth="2" NCoef="0" IVar="3" Cut="5.0000000000000000e+00" cType="1" res="3.0352668836712837e-03" rms="1.8612013757228851e-01" purity="4.4733613729476929e-01" nType="0">
            <Node pos="l" depth="3" NCoef="0" IVar="-1" Cut="0.0000000000000000e+00" cType="1" res="-2.0441487431526184e-02" rms="4.7209888696670532e-01" purity="3.4648698568344116e-01" nType="-99"/>
            <Node pos="r" depth="3" NCoef="0" IVar="-1" Cut="0.0000000000000000e+00" cType="1" res="6.2041683122515678e-03" rms="4.9227941036224365e-01" purity="5.3192484378814697e-01" nType="-99"/>
          </Node>
          <Node pos="r" depth="2" NCoef="0" IVar="-1" Cut="0.0000000000000000e+00" cType="1" res="-6.5743118524551392e-02" rms="4.0745541453361511e-01" purity="2.2554586827754974e-01" nType="-99"/>
        </Node>
        <Node pos="r" depth="1" NCoef="0" IVar="9" Cut="2.4663300514221191e+00" cType="1" res="8.2100823521614075e-02" rms="4.6562272310256958e-01" purity="6.1815732717514038e-01" nType="0">
          <Node pos="l" depth="2" NCoef="0" IVar="17" Cut="1.9432348012924194e+00" cType="1" res="1.1164592206478119e-01" rms="4.5825681090354919e-01" purity="6.5936052799224854e-01" nType="0">
            <Node pos="l" depth="3" NCoef="0" IVar="-1" Cut="0.0000000000000000e+00" cType="1" res="3.2904475927352905e-02" rms="4.3994909524917603e-01" purity="7.1192729473114014e-01" nType="-99"/>
            <Node pos="r" depth="3" NCoef="0" IVar="-1" Cut="0.0000000000000000e+00" cType="1" res="1.5770440921187401e-02" rms="4.6864449977874756e-01" purity="6.1593627929687500e-01" nType="-99"/>
          </Node>
          <Node pos="r" depth="2" NCoef="0" IVar="-1" Cut="0.0000000000000000e+00" cType="1" res="-5.6258789263665676e-03" rms="4.7631871700286865e-01" purity="4.7536107897758484e-01" nType="-99"/>
        </Node>
      </Node>
    </BinaryTree>
    <BinaryTree type="DecisionTree" boostWeight="1.0000000000000000e+00" itree="8">
      <Node pos="s" depth="0" NCoef="0" IVar="13" Cut="6.4149734497070312e+01" cType="1" res="2.5209864601492882e-02" rms="4.7338002920150757e-01" purity="5.0925678014755249e-01" nType="0">
        <Node pos="l" depth="1" NCoef="0" IVar="3" Cut="7.0000000000000000e+00" cType="1" res="8.0800391733646393e-03" rms="2.1316172182559967e-01" purity="4.7433245182037354e-01" nType="0">
          <Node pos="l" depth="2" NCoef="0" IVar="6" Cut="1.0339440107345581e+00" cType="1" res="-8.4289992228150368e-03" rms="4.7866734862327576e-01" purity="4.4729104638099670e-01" nType="0">
            <Node pos="l" depth="3" NCoef="0" IVar="-1" Cut="0.0000000000000000e+00" cType="1" res="1.0332788340747356e-02" rms="4.8246863484382629e-01" purity="5.0388222932815552e-01" nType="-99"/>
            <Node pos="r" depth="3" NCoef="0" IVar="-1" Cut="0.0000000000000000e+00" cType="1" res="-1.3199893757700920e-02" rms="4.7300854325294495e-01" purity="4.0670213103294373e-01" nType="-99"/>
          </Node>
          <Node pos="r" depth="2" NCoef="0" IVar="-1" Cut="0.0000000000000000e+00" cType="1" res="2.8927074745297432e-02" rms="4.4904324412345886e-01" purity="7.0673304796218872e-01" nType="-99"/>
        </Node>
        <Node pos="r" depth="1" NCoef="0" IVar="-1" Cut="0.0000000000000000e+00" cType="1" res="2.9953185468912125e-02" rms="4.1841033101081848e-01" purity="7.5755196809768677e-01" nType="-99"/>
      </Node>
    </BinaryTree>
    <BinaryTree type="DecisionTree" boostWeight="1.0000000000000000e+00" itree="9">
      <Node pos="s" depth="0" NCoef="0" IVar="13" Cut="4.6647857666015625e+01" cType="1" res="1.5454761683940887e-02" rms="4.7226342558860779e-01" purity="5.0059854984283447e-01" nType="0">
        <Node pos="l" depth="1" NCoef="0" IVar="6" Cut="1.5328197479248047e+00" cType="1" res="-1.1205007322132587e-02" rms="4.7768777608871460e-01" purity="4.3994814157485962e-01" nType="0">
          <Node pos="l" depth="2" NCoef="0" IVar="7" Cut="1.7457275390625000e+00" cType="1" res="1.2529097497463226e-02" rms="4.8065862059593201e-01" purity="4.7056365013122559e-01" nType="0">
            <Node pos="l" depth="3" NCoef="0" IVar="-1" Cut="0.0000000000000000e+00" cType="1" res="7.2979633696377277e-03" rms="4.8184320330619812e-01" purity="4.8802664875984192e-01" nType="-99"/>
            <Node pos="r" depth="3" NCoef="0" IVar="-1" Cut="0.0000000000000000e+00" cType="1" res="-3.8142163306474686e-02" rms="4.5413815975189209e-01" purity="3.2762351632118225e-01" nType="-99"/>
          </Node>
          <Node pos="r" depth="2" NCoef="0" IVar="12" Cut="1.1151863098144531e+02" cType="1" res="-8.9069962501525879e-02" rms="4.5927548408508301e-01" purity="3.3950734138488770e-01" nType="0">
            <Node pos="l" depth="3" NCoef="0" IVar="-1" Cut="0.0000000000000000e+00" cType="1" res="-5.2695404738187790e-02" rms="4.4062966108322144e-01" purity="2.8421521186828613e-01" nType="-99"/>
            <Node pos="r" depth="3" NCoef="0" IVar="-1" Cut="0.0000000000000000e+00" cType="1" res="-4.7327084466814995e-03" rms="4.8113951086997986e-01" purity="4.3498745560646057e-01" nType="-99"/>
          </Node>
        </Node>
        <Node pos="r" depth="1" NCoef="0" IVar="9" Cut="2.2928061485290527e+00" cType="1" res="1.0534082353115082e-01" rms="4.4179576635360718e-01" purity="7.0508754253387451e-01" nType="0">
          <Node pos="l" depth="2" NCoef="0" IVar="-1" Cut="0.0000000000000000e+00" cType="1" res="3.0080307275056839e-02" rms="4.1275703907012939e-01" purity="7.6842039823532104e-01" nType="-99"/>
          <Node pos="r" depth="2" NCoef="0" IVar="-1" Cut="0.0000000000000000e+00" cType="1" res="6.2565151602029800e-03" rms="4.7554689645767212e-01" purity="6.0074079036712646e-01" nType="-99"/>
        </Node>
      </Node>
    </BinaryTree>
    <BinaryTree type="DecisionTree" boostWeight="1.0000000000000000e+00" itree="10">
      <Node pos="s" depth="0" NCoef="0" IVar="14" Cut="2.7375102996826172e+01" cType="1" res="1.7720699310302734e-02" rms="4.7104778885841370e-01" purity="5.0251907110214233e-01" nType="0">
        <Node pos="l" depth="1" NCoef="0" IVar="3" Cut="7.0000000000000000e+00" cType="1" res="3.9066257886588573e-03" rms="1.7764243483543396e-01" purity="4.5082238316535950e-01" nType="0">
          <Node pos="l" depth="2" NCoef="0" IVar="8" Cut="1.9960151910781860e+00" cType="1" res="-2.1999955177307129e-02" rms="4.7631353139877319e-01" purity="4.2387229204177856e-01" nType="0">
            <Node pos="l" depth="3" NCoef="0" IVar="-1" Cut="0.0000000000000000e+00" cType="1" res="-3.3853624481707811e-03" rms="4.7827681899070740e-01" purity="4.3565040826797485e-01" nType="-99"/>
            <Node pos="r" depth="3" NCoef="0" IVar="-1" Cut="0.0000000000000000e+00" cType="1" res="-5.6453432887792587e-02" rms="4.3541330099105835e-01" purity="2.8961664438247681e-01" nType="-99"/>
          </Node>
          <Node pos="r" depth="2" NCoef="0" IVar="-1" Cut="0.0000000000000000e+00" cType="1" res="2.3087827488780022e-02" rms="4.5712441205978394e-01" purity="6.8791687488555908e-01" nType="-99"/>
        </Node>
        <Node pos="r" depth="1" NCoef="0" IVar="4" Cut="2.0000000000000000e+00" cType="1" res="1.4587007462978363e-02" rms="1.5107960999011993e-01" purity="6.4931082725524902e-01" nType="0">
          <Node pos="l" depth="2" NCoef="0" IVar="-1" Cut="0.0000000000000000e+00" cType="1" res="5.4393992759287357e-03" rms="4.7405520081520081e-01" purity="5.5784237384796143e-01" nType="-99"/>
          <Node pos="r" depth="2" NCoef="0" IVar="9" Cut="2.3360772132873535e+00" cType="1" res="1.2597259879112244e-01" rms="4.3099012970924377e-01" purity="6.9358146190643311e-01" nType="0">
            <Node pos="l" depth="3" NCoef="0" IVar="-1" Cut="0.0000000000000000e+00" cType="1" res="3.2238341867923737e-02" rms="4.1113114356994629e-01" purity="7.5030320882797241e-01" nType="-99"/>
            <Node pos="r" depth="3" NCoef="0" IVar="-1" Cut="0.0000000000000000e+00" cType="1" res="1.3142679817974567e-02" rms="4.6123293042182922e-01" purity="5.7568609714508057e-01" nType="-99"/>
          </Node>
        </Node>
      </Node>
    </BinaryTree>
    <BinaryTree type="DecisionTree" boostWeight="1.0000000000000000e+00" itree="11">
      <Node pos="s" depth="0" NCoef="0" IVar="13" Cut="3.2520713806152344e+01" cType="1" res="1.6662046313285828e-02" rms="4.6970942616462708e-01" purity="5.0257998704910278e-01" nType="0">
        <Node pos="l" depth="1" NCoef="0" IVar="6" Cut="1.2508329153060913e+00" cType="1" res="-2.5976886972784996e-02" rms="4.7204795479774475e-01" purity="4.0862077474594116e-01" nType="0">
          <Node pos="l" depth="2" NCoef="0" IVar="5" Cut="2.0000000000000000e+00" cType="1" res="3.7671225145459175e-03" rms="1.3025997579097748e-01" purity="4.5975476503372192e-01" nType="0">
            <Node pos="l" depth="3" NCoef="0" IVar="-1" Cut="0.0000000000000000e+00" cType="1" res="-4.6761869452893734e-03" rms="4.7644159197807312e-01" purity="4.3092140555381775e-01" nType="-99"/>
            <Node pos="r" depth="3" NCoef="0" IVar="-1" Cut="0.0000000000000000e+00" cType="1" res="1.5192337334156036e-02" rms="4.8409968614578247e-01" purity="5.2528989315032959e-01" nType="-99"/>
          </Node>
          <Node pos="r" depth="2" NCoef="0" IVar="10" Cut="8.8484901428222656e+01" cType="1" res="-7.7054694294929504e-02" rms="4.5479074120521545e-01" purity="3.2993057370185852e-01" nType="0">
            <Node pos="l" depth="3" NCoef="0" IVar="-1" Cut="0.0000000000000000e+00" cType="1" res="-4.1016124188899994e-02" rms="4.4356065988540649e-01" purity="2.9617732763290405e-01" nType="-99"/>
            <Node pos="r" depth="3" NCoef="0" IVar="-1" Cut="0.0000000000000000e+00" cType="1" res="-5.0515593029558659e-03" rms="4.7393575310707092e-01" purity="4.0729063749313354e-01" nType="-99"/>
          </Node>
        </Node>
        <Node pos="r" depth="1" NCoef="0" IVar="9" Cut="2.5678184032440186e+00" cType="1" res="6.3584044575691223e-02" rms="4.6260246634483337e-01" purity="6.0597741603851318e-01" nType="0">
          <Node pos="l" depth="2" NCoef="0" IVar="17" Cut="2.6052739620208740e+00" cType="1" res="8.4582328796386719e-02" rms="4.5847418904304504e-01" purity="6.3946217298507690e-01" nType="0">
            <Node pos="l" depth="3" NCoef="0" IVar="-1" Cut="0.0000000000000000e+00" cType="1" res="2.4085013195872307e-02" rms="4.5104691386222839e-01" purity="6.6788005828857422e-01" nType="-99"/>
            <Node pos="r" depth="3" NCoef="0" IVar="-1" Cut="0.0000000000000000e+00" cType="1" res="6.4596165902912617e-03" rms="4.6942737698554993e-01" purity="5.7612925767898560e-01" nType="-99"/>
          </Node>
          <Node pos="r" depth="2" NCoef="0" IVar="-1" Cut="0.0000000000000000e+00" cType="1" res="-1.8219342455267906e-02" rms="4.6764642000198364e-01" purity="4.1230356693267822e-01" nType="-99"/>
        </Node>
      </Node>
    </BinaryTree>
    <BinaryTree type="DecisionTree" boostWeight="1.0000000000000000e+00" itree="12">
      <Node pos="s" depth="0" NCoef="0" IVar="13" Cut="4.2850181579589844e+01" cType="1" res="1.2886359356343746e-02" rms="4.6783325076103210e-01" purity="4.9834787845611572e-01" nType="0">
        <Node pos="l" depth="1" NCoef="0" IVar="3" Cut="7.0000000000000000e+00" cType="1" res="2.2363369353115559e-03" rms="2.0894269645214081e-01" purity="4.3110209703445435e-01" nType="0">
          <Node pos="l" depth="2" NCoef="0" IVar="7" Cut="1.4883122444152832e+00" cType="1" res="-2.3835550993680954e-02" rms="4.7301909327507019e-01" purity="4.0201583504676819e-01" nType="0">
            <Node pos="l" depth="3" NCoef="0" IVar="-1" Cut="0.0000000000000000e+00" cType="1" res="-1.2468235800042748e-03" rms="4.7813418507575989e-01" purity="4.3057069182395935e-01" nType="-99"/>
            <Node pos="r" depth="3" NCoef="0" IVar="-1" Cut="0.0000000000000000e+00" cType="1" res="-3.1726267188787460e-02" rms="4.5187589526176453e-01" purity="3.1517189741134644e-01" nType="-99"/>
          </Node>
          <Node pos="r" depth="2" NCoef="0" IVar="-1" Cut="0.0000000000000000e+00" cType="1" res="2.0689714699983597e-02" rms="4.6080344915390015e-01" purity="6.7939251661300659e-01" nType="-99"/>
        </Node>
        <Node pos="r" depth="1" NCoef="0" IVar="9" Cut="2.3140311241149902e+00" cType="1" res="7.8894071280956268e-02" rms="4.4601526856422424e-01" purity="6.8376672267913818e-01" nType="0">
          <Node pos="l" depth="2" NCoef="0" IVar="14" Cut="2.7316928863525391e+01" cType="1" res="1.1748566478490829e-01" rms="4.2150023579597473e-01" purity="7.4662381410598755e-01" nType="0">
            <Node pos="l" depth="3" NCoef="0" IVar="-1" Cut="0.0000000000000000e+00" cType="1" res="1.5606429427862167e-02" rms="4.6610596776008606e-01" purity="6.6198623180389404e-01" nType="-99"/>
            <Node pos="r" depth="3" NCoef="0" IVar="-1" Cut="0.0000000000000000e+00" cType="1" res="3.0755441635847092e-02" rms="3.7671819329261780e-01" purity="8.1633013486862183e-01" nType="-99"/>
          </Node>
          <Node pos="r" depth="2" NCoef="0" IVar="-1" Cut="0.0000000000000000e+00" cType="1" res="4.2497081449255347e-04" rms="4.8221039772033691e-01" purity="5.5805796384811401e-01" nType="-99"/>
        </Node>
      </Node>
    </BinaryTree>
    <BinaryTree type="DecisionTree" boostWeight="1.0000000000000000e+00" itree="13">
      <Node pos="s" depth="0" NCoef="0" IVar="13" Cut="3.9949169158935547e+01" cType="1" res="1.3426888734102249e-02" rms="4.6773487329483032e-01" purity="4.9824273586273193e-01" nType="0">
        <Node pos="l" depth="1" NCoef="0" IVar="18" Cut="2.7303051948547363e+00" cType="1" res="-1.2795704416930676e-02" rms="4.7212222218513489e-01" purity="4.2437940835952759e-01" nType="0">
          <Node pos="l" depth="2" NCoef="0" IVar="7" Cut="1.8608119487762451e+00" cType="1" res="9.0833669528365135e-03" rms="4.7669756412506104e-01" purity="4.4762817025184631e-01" nType="0">
            <Node pos="l" depth="3" NCoef="0" IVar="-1" Cut="0.0000000000000000e+00" cType="1" res="5.6367046199738979e-03" rms="4.7922027111053467e-01" purity="4.6516922116279602e-01" nType="-99"/>
            <Node pos="r" depth="3" NCoef="0" IVar="-1" Cut="0.0000000000000000e+00" cType="1" res="-3.3253233879804611e-02" rms="4.4394496083259583e-01" purity="2.9701662063598633e-01" nType="-99"/>
          </Node>
          <Node pos="r" depth="2" NCoef="0" IVar="7" Cut="9.1172939538955688e-01" cType="1" res="-6.6655069589614868e-02" rms="4.5621660351753235e-01" purity="3.6714842915534973e-01" nType="0">
            <Node pos="l" depth="3" NCoef="0" IVar="-1" Cut="0.0000000000000000e+00" cType="1" res="-2.4535176344215870e-03" rms="4.7282218933105469e-01" purity="4.5205450057983398e-01" nType="-99"/>
            <Node pos="r" depth="3" NCoef="0" IVar="-1" Cut="0.0000000000000000e+00" cType="1" res="-3.9374891668558121e-02" rms="4.4113728404045105e-01" purity="3.1241989135742188e-01" nType="-99"/>
          </Node>
        </Node>
        <Node pos="r" depth="1" NCoef="0" IVar="17" Cut="2.4035780429840088e+00" cType="1" res="7.3725722730159760e-02" rms="4.5174863934516907e-01" purity="6.6809129714965820e-01" nType="0">
          <Node pos="l" depth="2" NCoef="0" IVar="11" Cut="5.3708168029785156e+01" cType="1" res="1.0918275266885757e-01" rms="4.3674999475479126e-01" purity="7.1137672662734985e-01" nType="0">
            <Node pos="l" depth="3" NCoef="0" IVar="-1" Cut="0.0000000000000000e+00" cType="1" res="3.1190611422061920e-02" rms="4.1515722870826721e-01" purity="7.5990283489227295e-01" nType="-99"/>
            <Node pos="r" depth="3" NCoef="0" IVar="-1" Cut="0.0000000000000000e+00" cType="1" res="1.6235530376434326e-02" rms="4.4969171285629272e-01" purity="6.7320239543914795e-01" nType="-99"/>
          </Node>
          <Node pos="r" depth="2" NCoef="0" IVar="-1" Cut="0.0000000000000000e+00" cType="1" res="3.8888000417500734e-03" rms="4.6942505240440369e-01" purity="5.9780359268188477e-01" nType="-99"/>
        </Node>
      </Node>
    </BinaryTree>
    <BinaryTree type="DecisionTree" boostWeight="1.0000000000000000e+00" itree="14">
      <Node pos="s" depth="0" NCoef="0" IVar="3" Cut="6.0000000000000000e+00" cType="1" res="9.9536199122667313e-03" rms="2.0691862702369690e-01" purity="5.0241798162460327e-01" nType="0">
        <Node pos="l" depth="1" NCoef="0" IVar="9" Cut="2.0582153797149658e+00" cType="1" res="-6.6830893047153950e-03" rms="4.6630048751831055e-01" purity="4.4813051819801331e-01" nType="0">
          <Node pos="l" depth="2" NCoef="0" IVar="14" Cut="2.4917222976684570e+01" cType="1" res="4.8586655408143997e-02" rms="4.7388669848442078e-01" purity="5.4897540807723999e-01" nType="0">
            <Node pos="l" depth="3" NCoef="0" IVar="-1" Cut="0.0000000000000000e+00" cType="1" res="3.2463155221194029e-03" rms="4.8441401124000549e-01" purity="4.7404196858406067e-01" nType="-99"/>
            <Node pos="r" depth="3" NCoef="0" IVar="-1" Cut="0.0000000000000000e+00" cType="1" res="2.2329000756144524e-02" rms="4.5443791151046753e-01" purity="6.5075218677520752e-01" nType="-99"/>
          </Node>
          <Node pos="r" depth="2" NCoef="0" IVar="4" Cut="2.0000000000000000e+00" cType="1" res="2.5642544496804476e-03" rms="1.3212113082408905e-01" purity="3.9522111415863037e-01" nType="0">
            <Node pos="l" depth="3" NCoef="0" IVar="-1" Cut="0.0000000000000000e+00" cType="1" res="-2.9212180525064468e-02" rms="4.5069527626037598e-01" purity="3.3699795603752136e-01" nType="-99"/>
            <Node pos="r" depth="3" NCoef="0" IVar="-1" Cut="0.0000000000000000e+00" cType="1" res="-2.6092384941875935e-03" rms="4.6309745311737061e-01" purity="4.3196925520896912e-01" nType="-99"/>
          </Node>
        </Node>
        <Node pos="r" depth="1" NCoef="0" IVar="11" Cut="4.1043609619140625e+01" cType="1" res="8.1845484673976898e-02" rms="4.5659157633781433e-01" purity="6.6469222307205200e-01" nType="0">
          <Node pos="l" depth="2" NCoef="0" IVar="-1" Cut="0.0000000000000000e+00" cType="1" res="2.8080966323614120e-02" rms="4.3238282203674316e-01" purity="7.2360777854919434e-01" nType="-99"/>
          <Node pos="r" depth="2" NCoef="0" IVar="9" Cut="2.3350141048431396e+00" cType="1" res="5.4256912320852280e-02" rms="4.6573376655578613e-01" purity="6.3534241914749146e-01" nType="0">
            <Node pos="l" depth="3" NCoef="0" IVar="-1" Cut="0.0000000000000000e+00" cType="1" res="1.7342517152428627e-02" rms="4.5407408475875854e-01" purity="6.9060653448104858e-01" nType="-99"/>
            <Node pos="r" depth="3" NCoef="0" IVar="-1" Cut="0.0000000000000000e+00" cType="1" res="1.2160327751189470e-03" rms="4.8276951909065247e-01" purity="5.3270035982131958e-01" nType="-99"/>
          </Node>
        </Node>
      </Node>
    </BinaryTree>
    <BinaryTree type="DecisionTree" boostWeight="1.0000000000000000e+00" itree="15">
      <Node pos="s" depth="0" NCoef="0" IVar="11" Cut="1.2936642456054688e+02" cType="1" res="1.4308632351458073e-02" rms="4.6740853786468506e-01" purity="4.9771162867546082e-01" nType="0">
        <Node pos="l" depth="1" NCoef="0" IVar="11" Cut="5.3971210479736328e+01" cType="1" res="4.8615550622344017e-03" rms="4.6745282411575317e-01" purity="4.8592388629913330e-01" nType="0">
          <Node pos="l" depth="2" NCoef="0" IVar="17" Cut="1.9889369010925293e+00" cType="1" res="4.3860182166099548e-02" rms="4.6680656075477600e-01" purity="5.3212696313858032e-01" nType="0">
            <Node pos="l" depth="3" NCoef="0" IVar="-1" Cut="0.0000000000000000e+00" cType="1" res="2.0066505298018456e-02" rms="4.5486596226692200e-01" purity="5.9023439884185791e-01" nType="-99"/>
            <Node pos="r" depth="3" NCoef="0" IVar="-1" Cut="0.0000000000000000e+00" cType="1" res="3.7605140823870897e-03" rms="4.7394436597824097e-01" purity="4.8565357923507690e-01" nType="-99"/>
          </Node>
          <Node pos="r" depth="2" NCoef="0" IVar="9" Cut="2.1644115447998047e+00" cType="1" res="-2.6742661371827126e-02" rms="4.6558573842048645e-01" purity="4.4848126173019409e-01" nType="0">
            <Node pos="l" depth="3" NCoef="0" IVar="-1" Cut="0.0000000000000000e+00" cType="1" res="2.8455450665205717e-03" rms="4.7285825014114380e-01" purity="5.3574430942535400e-01" nType="-99"/>
            <Node pos="r" depth="3" NCoef="0" IVar="-1" Cut="0.0000000000000000e+00" cType="1" res="-1.9089400768280029e-02" rms="4.5765349268913269e-01" purity="3.8019934296607971e-01" nType="-99"/>
          </Node>
        </Node>
        <Node pos="r" depth="1" NCoef="0" IVar="-1" Cut="0.0000000000000000e+00" cType="1" res="3.2595776021480560e-02" rms="4.4637259840965271e-01" purity="6.6229408979415894e-01" nType="-99"/>
      </Node>
    </BinaryTree>
    <BinaryTree type="DecisionTree" boostWeight="1.0000000000000000e+00" itree="16">
      <Node pos="s" depth="0" NCoef="0" IVar="14" Cut="3.3213584899902344e+01" cType="1" res="9.9625028669834137e-03" rms="4.6468472480773926e-01" purity="4.9746868014335632e-01" nType="0">
        <Node pos="l" depth="1" NCoef="0" IVar="3" Cut="5.0000000000000000e+00" cType="1" res="5.7247304357588291e-03" rms="1.8833592534065247e-01" purity="4.6744611859321594e-01" nType="0">
          <Node pos="l" depth="2" NCoef="0" IVar="12" Cut="1.5882998657226562e+02" cType="1" res="-3.7113085389137268e-02" rms="4.6235322952270508e-01" purity="3.6508306860923767e-01" nType="0">
            <Node pos="l" depth="3" NCoef="0" IVar="-1" Cut="0.0000000000000000e+00" cType="1" res="-1.8654681742191315e-02" rms="4.5715132355690002e-01" purity="3.4665480256080627e-01" nType="-99"/>
            <Node pos="r" depth="3" NCoef="0" IVar="-1" Cut="0.0000000000000000e+00" cType="1" res="1.2964125722646713e-02" rms="4.8271000385284424e-01" purity="4.6949893236160278e-01" nType="-99"/>
          </Node>
          <Node pos="r" depth="2" NCoef="0" IVar="9" Cut="2.4254794120788574e+00" cType="1" res="2.9310317710042000e-02" rms="4.7527894377708435e-01" purity="5.5796343088150024e-01" nType="0">
            <Node pos="l" depth="3" NCoef="0" IVar="-1" Cut="0.0000000000000000e+00" cType="1" res="1.1673128232359886e-02" rms="4.7269546985626221e-01" purity="6.0856568813323975e-01" nType="-99"/>
            <Node pos="r" depth="3" NCoef="0" IVar="-1" Cut="0.0000000000000000e+00" cType="1" res="-1.0049965232610703e-02" rms="4.7750449180603027e-01" purity="4.0920642018318176e-01" nType="-99"/>
          </Node>
        </Node>
        <Node pos="r" depth="1" NCoef="0" IVar="-1" Cut="0.0000000000000000e+00" cType="1" res="2.6417989283800125e-02" rms="3.8530203700065613e-01" purity="7.9189479351043701e-01" nType="-99"/>
      </Node>
    </BinaryTree>
    <BinaryTree type="DecisionTree" boostWeight="1.0000000000000000e+00" itree="17">
      <Node pos="s" depth="0" NCoef="0" IVar="14" Cut="2.5469093322753906e+01" cType="1" res="1.6977485269308090e-02" rms="4.6562063694000244e-01" purity="5.0168657302856445e-01" nType="0">
        <Node pos="l" depth="1" NCoef="0" IVar="6" Cut="1.0420480966567993e+00" cType="1" res="-9.1431615874171257e-03" rms="4.7121527791023254e-01" purity="4.3757036328315735e-01" nType="0">
          <Node pos="l" depth="2" NCoef="0" IVar="9" Cut="2.2214214801788330e+00" cType="1" res="3.0140224844217300e-02" rms="4.7733381390571594e-01" purity="5.0584429502487183e-01" nType="0">
            <Node pos="l" depth="3" NCoef="0" IVar="-1" Cut="0.0000000000000000e+00" cType="1" res="1.5805302187800407e-02" rms="4.7635865211486816e-01" purity="5.9409314393997192e-01" nType="-99"/>
            <Node pos="r" depth="3" NCoef="0" IVar="-1" Cut="0.0000000000000000e+00" cType="1" res="-3.0825310386717319e-03" rms="4.7517326474189758e-01" purity="4.1094437241554260e-01" nType="-99"/>
          </Node>
          <Node pos="r" depth="2" NCoef="0" IVar="17" Cut="1.7913234233856201e+00" cType="1" res="-4.1725318878889084e-02" rms="4.6356081962585449e-01" purity="3.8094303011894226e-01" nType="0">
            <Node pos="l" depth="3" NCoef="0" IVar="-1" Cut="0.0000000000000000e+00" cType="1" res="2.1940564329270273e-04" rms="4.6957704424858093e-01" purity="4.3682572245597839e-01" nType="-99"/>
            <Node pos="r" depth="3" NCoef="0" IVar="-1" Cut="0.0000000000000000e+00" cType="1" res="-2.5257471948862076e-02" rms="4.5733425021171570e-01" purity="3.4374660253524780e-01" nType="-99"/>
          </Node>
        </Node>
        <Node pos="r" depth="1" NCoef="0" IVar="15" Cut="9.8247802257537842e-01" cType="1" res="6.2038324773311615e-02" rms="4.5227575302124023e-01" purity="6.1229360103607178e-01" nType="0">
          <Node pos="l" depth="2" NCoef="0" IVar="5" Cut="2.0000000000000000e+00" cType="1" res="9.0344781056046486e-03" rms="1.3184453547000885e-01" purity="6.4647990465164185e-01" nType="0">
            <Node pos="l" depth="3" NCoef="0" IVar="-1" Cut="0.0000000000000000e+00" cType="1" res="1.4815457165241241e-02" rms="4.5420029759407043e-01" purity="6.0445266962051392e-01" nType="-99"/>
            <Node pos="r" depth="3" NCoef="0" IVar="-1" Cut="0.0000000000000000e+00" cType="1" res="3.0851647257804871e-02" rms="4.1079801321029663e-01" purity="7.3112547397613525e-01" nType="-99"/>
          </Node>
          <Node pos="r" depth="2" NCoef="0" IVar="19" Cut="2.3454647064208984e+00" cType="1" res="5.0530340522527695e-03" rms="4.6834096312522888e-01" purity="5.3904914855957031e-01" nType="0">
            <Node pos="l" depth="3" NCoef="0" IVar="-1" Cut="0.0000000000000000e+00" cType="1" res="1.0057990439236164e-02" rms="4.5710980892181396e-01" purity="5.8430904150009155e-01" nType="-99"/>
            <Node pos="r" depth="3" NCoef="0" IVar="-1" Cut="0.0000000000000000e+00" cType="1" res="-9.9037317559123039e-03" rms="4.7766149044036865e-01" purity="4.8782479763031006e-01" nType="-99"/>
          </Node>
        </Node>
      </Node>
    </BinaryTree>
    <BinaryTree type="DecisionTree" boostWeight="1.0000000000000000e+00" itree="18">
      <Node pos="s" depth="0" NCoef="0" IVar="11" Cut="1.2675270080566406e+02" cType="1" res="8.4953783079981804e-03" rms="4.6358385682106018e-01" purity="4.9583882093429565e-01" nType="0">
        <Node pos="l" depth="1" NCoef="0" IVar="17" Cut="2.2126464843750000e+00" cType="1" res="-1.7325108638033271e-04" rms="4.6399769186973572e-01" purity="4.8351237177848816e-01" nType="0">
          <Node pos="l" depth="2" NCoef="0" IVar="3" Cut="6.0000000000000000e+00" cType="1" res="1.4477964490652084e-02" rms="2.1580870449542999e-01" purity="5.2940946817398071e-01" nType="0">
            <Node pos="l" depth="3" NCoef="0" IVar="-1" Cut="0.0000000000000000e+00" cType="1" res="2.8454004786908627e-03" rms="4.6644422411918640e-01" purity="4.6857619285583496e-01" nType="-99"/>
            <Node pos="r" depth="3" NCoef="0" IVar="-1" Cut="0.0000000000000000e+00" cType="1" res="1.9299454987049103e-02" rms="4.4558656215667725e-01" purity="6.9418829679489136e-01" nType="-99"/>
          </Node>
          <Node pos="r" depth="2" NCoef="0" IVar="15" Cut="1.0697002410888672e+00" cType="1" res="-3.5539425909519196e-02" rms="4.6342861652374268e-01" purity="4.3156275153160095e-01" nType="0">
            <Node pos="l" depth="3" NCoef="0" IVar="-1" Cut="0.0000000000000000e+00" cType="1" res="-3.2682896126061678e-03" rms="4.6451446413993835e-01" purity="4.6125489473342896e-01" nType="-99"/>
            <Node pos="r" depth="3" NCoef="0" IVar="-1" Cut="0.0000000000000000e+00" cType="1" res="-3.0245603993535042e-02" rms="4.5670032501220703e-01" purity="3.6784517765045166e-01" nType="-99"/>
          </Node>
        </Node>
        <Node pos="r" depth="1" NCoef="0" IVar="-1" Cut="0.0000000000000000e+00" cType="1" res="2.8806980699300766e-02" rms="4.4103679060935974e-01" purity="6.6473221778869629e-01" nType="-99"/>
      </Node>
    </BinaryTree>
    <BinaryTree type="DecisionTree" boostWeight="1.0000000000000000e+00" itree="19">
      <Node pos="s" depth="0" NCoef="0" IVar="18" Cut="3.2818927764892578e+00" cType="1" res="1.0362499393522739e-02" rms="4.6380358934402466e-01" purity="4.9708524346351624e-01" nType="0">
        <Node pos="l" depth="1" NCoef="0" IVar="5" Cut="2.0000000000000000e+00" cType="1" res="4.7739194706082344e-03" rms="1.3756769895553589e-01" purity="5.0849878787994385e-01" nType="0">
          <Node pos="l" depth="2" NCoef="0" IVar="19" Cut="3.1981101036071777e+00" cType="1" res="-1.0538136120885611e-03" rms="4.6467369794845581e-01" purity="4.7595086693763733e-01" nType="0">
            <Node pos="l" depth="3" NCoef="0" IVar="-1" Cut="0.0000000000000000e+00" cType="1" res="2.0100916735827923e-03" rms="4.6486759185791016e-01" purity="4.8647117614746094e-01" nType="-99"/>
            <Node pos="r" depth="3" NCoef="0" IVar="-1" Cut="0.0000000000000000e+00" cType="1" res="-3.4718140959739685e-02" rms="4.5146271586418152e-01" purity="3.5109692811965942e-01" nType="-99"/>
          </Node>
          <Node pos="r" depth="2" NCoef="0" IVar="14" Cut="2.6760519027709961e+01" cType="1" res="6.5415523946285248e-02" rms="4.5689427852630615e-01" purity="5.8499068021774292e-01" nType="0">
            <Node pos="l" depth="3" NCoef="0" IVar="-1" Cut="0.0000000000000000e+00" cType="1" res="1.0919944383203983e-02" rms="4.7156980633735657e-01" purity="5.1956838369369507e-01" nType="-99"/>
            <Node pos="r" depth="3" NCoef="0" IVar="-1" Cut="0.0000000000000000e+00" cType="1" res="2.5763295590877533e-02" rms="4.1875213384628296e-01" purity="7.2599601745605469e-01" nType="-99"/>
          </Node>
        </Node>
        <Node pos="r" depth="1" NCoef="0" IVar="-1" Cut="0.0000000000000000e+00" cType="1" res="-3.3187095075845718e-02" rms="4.5666036009788513e-01" purity="3.5693746805191040e-01" nType="-99"/>
      </Node>
    </BinaryTree>
    <BinaryTree type="DecisionTree" boostWeight="1.0000000000000000e+00" itree="20">
      <Node pos="s" depth="0" NCoef="0" IVar="19" Cut="3.3904676437377930e+00" cType="1" res="1.1163029819726944e-02" rms="4.6423533558845520e-01" purity="4.9826484918594360e-01" nType="0">
        <Node pos="l" depth="1" NCoef="0" IVar="13" Cut="2.6924955368041992e+01" cType="1" res="1.8396345898509026e-02" rms="4.6427711844444275e-01" purity="5.0782591104507446e-01" nType="0">
          <Node pos="l" depth="2" NCoef="0" IVar="8" Cut="1.3942564725875854e+00" cType="1" res="-2.9611200094223022e-02" rms="4.6486359834671021e-01" purity="3.8923403620719910e-01" nType="0">
            <Node pos="l" depth="3" NCoef="0" IVar="-1" Cut="0.0000000000000000e+00" cType="1" res="-1.0185911087319255e-03" rms="4.7362631559371948e-01" purity="4.2760488390922546e-01" nType="-99"/>
            <Node pos="r" depth="3" NCoef="0" IVar="-1" Cut="0.0000000000000000e+00" cType="1" res="-4.1822191327810287e-02" rms="4.3218651413917542e-01" purity="2.8506687283515930e-01" nType="-99"/>
          </Node>
          <Node pos="r" depth="2" NCoef="0" IVar="17" Cut="1.6492294073104858e+00" cType="1" res="3.4653052687644958e-02" rms="4.6295139193534851e-01" purity="5.4798448085784912e-01" nType="0">
            <Node pos="l" depth="3" NCoef="0" IVar="-1" Cut="0.0000000000000000e+00" cType="1" res="1.8151981756091118e-02" rms="4.5303550362586975e-01" purity="6.1145651340484619e-01" nType="-99"/>
            <Node pos="r" depth="3" NCoef="0" IVar="-1" Cut="0.0000000000000000e+00" cType="1" res="3.7719595711678267e-03" rms="4.6665877103805542e-01" purity="5.1500028371810913e-01" nType="-99"/>
          </Node>
        </Node>
        <Node pos="r" depth="1" NCoef="0" IVar="-1" Cut="0.0000000000000000e+00" cType="1" res="-4.8003084957599640e-02" rms="4.4188597798347473e-01" purity="3.1830245256423950e-01" nType="-99"/>
      </Node>
    </BinaryTree>
    <BinaryTree type="DecisionTree" boostWeight="1.0000000000000000e+00" itree="21">
      <Node pos="s" depth="0" NCoef="0" IVar="14" Cut="3.3164947509765625e+01" cType="1" res="1.0019805282354355e-02" rms="4.6192359924316406e-01" purity="4.9890854954719543e-01" nType="0">
        <Node pos="l" depth="1" NCoef="0" IVar="6" Cut="1.0542658567428589e+00" cType="1" res="-1.7689361993689090e-04" rms="4.6882000565528870e-01" purity="4.6693071722984314e-01" nType="0">
          <Node pos="l" depth="2" NCoef="0" IVar="9" Cut="2.2846794128417969e+00" cType="1" res="2.9592884704470634e-02" rms="4.7014886140823364e-01" purity="5.3056395053863525e-01" nType="0">
            <Node pos="l" depth="3" NCoef="0" IVar="-1" Cut="0.0000000000000000e+00" cType="1" res="1.4146901667118073e-02" rms="4.6897432208061218e-01" purity="6.0961335897445679e-01" nType="-99"/>
            <Node pos="r" depth="3" NCoef="0" IVar="-1" Cut="0.0000000000000000e+00" cType="1" res="-5.6773452088236809e-03" rms="4.6804308891296387e-01" purity="4.0832000970840454e-01" nType="-99"/>
          </Node>
          <Node pos="r" depth="2" NCoef="0" IVar="10" Cut="6.3719909667968750e+01" cType="1" res="-2.5517420843243599e-02" rms="4.6619048714637756e-01" purity="4.1276499629020691e-01" nType="0">
            <Node pos="l" depth="3" NCoef="0" IVar="-1" Cut="0.0000000000000000e+00" cType="1" res="-2.0389623939990997e-02" rms="4.5858410000801086e-01" purity="3.6460360884666443e-01" nType="-99"/>
            <Node pos="r" depth="3" NCoef="0" IVar="-1" Cut="0.0000000000000000e+00" cType="1" res="1.8286901758983731e-03" rms="4.7133138775825500e-01" purity="4.5972156524658203e-01" nType="-99"/>
          </Node>
        </Node>
        <Node pos="r" depth="1" NCoef="0" IVar="-1" Cut="0.0000000000000000e+00" cType="1" res="2.3026088252663612e-02" rms="3.7912839651107788e-01" purity="7.9622966051101685e-01" nType="-99"/>
      </Node>
    </BinaryTree>
    <BinaryTree type="DecisionTree" boostWeight="1.0000000000000000e+00" itree="22">
      <Node pos="s" depth="0" NCoef="0" IVar="14" Cut="3.2799312591552734e+01" cType="1" res="1.1842673644423485e-02" rms="4.6204707026481628e-01" purity="4.9889335036277771e-01" nType="0">
        <Node pos="l" depth="1" NCoef="0" IVar="17" Cut="7.6977699995040894e-01" cType="1" res="2.8264017309993505e-03" rms="4.6842485666275024e-01" purity="4.6770349144935608e-01" nType="0">
          <Node pos="l" depth="2" NCoef="0" IVar="-1" Cut="0.0000000000000000e+00" cType="1" res="2.4088772013783455e-02" rms="4.5792156457901001e-01" purity="6.0778170824050903e-01" nType="-99"/>
          <Node pos="r" depth="2" NCoef="0" IVar="8" Cut="1.6683020591735840e+00" cType="1" res="-4.3631214648485184e-03" rms="4.6837860345840454e-01" purity="4.5743322372436523e-01" nType="0">
            <Node pos="l" depth="3" NCoef="0" IVar="-1" Cut="0.0000000000000000e+00" cType="1" res="2.1218161564320326e-03" rms="4.7061860561370850e-01" purity="4.7699272632598877e-01" nType="-99"/>
            <Node pos="r" depth="3" NCoef="0" IVar="-1" Cut="0.0000000000000000e+00" cType="1" res="-2.3241160437464714e-02" rms="4.5181238651275635e-01" purity="3.5666251182556152e-01" nType="-99"/>
          </Node>
        </Node>
        <Node pos="r" depth="1" NCoef="0" IVar="-1" Cut="0.0000000000000000e+00" cType="1" res="2.1125109866261482e-02" rms="3.8918435573577881e-01" purity="7.8500330448150635e-01" nType="-99"/>
      </Node>
    </BinaryTree>
    <BinaryTree type="DecisionTree" boostWeight="1.0000000000000000e+00" itree="23">
      <Node pos="s" depth="0" NCoef="0" IVar="8" Cut="1.8105942010879517e+00" cType="1" res="1.0643335990607738e-02" rms="4.6228018403053284e-01" purity="4.9862927198410034e-01" nType="0">
        <Node pos="l" depth="1" NCoef="0" IVar="18" Cut="3.2617390155792236e+00" cType="1" res="2.0740147680044174e-02" rms="4.6378797292709351e-01" purity="5.1465100049972534e-01" nType="0">
          <Node pos="l" depth="2" NCoef="0" IVar="13" Cut="2.5358982086181641e+01" cType="1" res="2.8113428503274918e-02" rms="4.6354264020919800e-01" purity="5.2617698907852173e-01" nType="0">
            <Node pos="l" depth="3" NCoef="0" IVar="-1" Cut="0.0000000000000000e+00" cType="1" res="-1.0824111290276051e-02" rms="4.6325430274009705e-01" purity="3.9060789346694946e-01" nType="-99"/>
            <Node pos="r" depth="3" NCoef="0" IVar="-1" Cut="0.0000000000000000e+00" cType="1" res="1.0566340759396553e-02" rms="4.6264004707336426e-01" purity="5.5332237482070923e-01" nType="-99"/>
          </Node>
          <Node pos="r" depth="2" NCoef="0" IVar="-1" Cut="0.0000000000000000e+00" cType="1" res="-2.5187270715832710e-02" rms="4.5690631866455078e-01" purity="3.7052267789840698e-01" nType="-99"/>
        </Node>
        <Node pos="r" depth="1" NCoef="0" IVar="19" Cut="1.8356510400772095e+00" cType="1" res="-6.6177718341350555e-02" rms="4.4317251443862915e-01" purity="3.7672865390777588e-01" nType="0">
          <Node pos="l" depth="2" NCoef="0" IVar="-1" Cut="0.0000000000000000e+00" cType="1" res="-1.6418140148743987e-03" rms="4.4808942079544067e-01" purity="4.5610091090202332e-01" nType="-99"/>
          <Node pos="r" depth="2" NCoef="0" IVar="-1" Cut="0.0000000000000000e+00" cType="1" res="-4.7281172126531601e-02" rms="4.3212631344795227e-01" purity="3.0877158045768738e-01" nType="-99"/>
        </Node>
      </Node>
    </BinaryTree>
    <BinaryTree type="DecisionTree" boostWeight="1.0000000000000000e+00" itree="24">
      <Node pos="s" depth="0" NCoef="0" IVar="9" Cut="2.2308490276336670e+00" cType="1" res="1.3750271871685982e-02" rms="4.6100053191184998e-01" purity="5.0271052122116089e-01" nType="0">
        <Node pos="l" depth="1" NCoef="0" IVar="5" Cut="2.0000000000000000e+00" cType="1" res="5.5134966969490051e-03" rms="1.2585958838462830e-01" purity="5.8175486326217651e-01" nType="0">
          <Node pos="l" depth="2" NCoef="0" IVar="17" Cut="2.9923355579376221e+00" cType="1" res="1.5882685780525208e-02" rms="4.6765923500061035e-01" purity="5.4568570852279663e-01" nType="0">
            <Node pos="l" depth="3" NCoef="0" IVar="-1" Cut="0.0000000000000000e+00" cType="1" res="7.3084845207631588e-03" rms="4.6662732958793640e-01" purity="5.6326991319656372e-01" nType="-99"/>
            <Node pos="r" depth="3" NCoef="0" IVar="-1" Cut="0.0000000000000000e+00" cType="1" res="-1.8445437774062157e-02" rms="4.6666842699050903e-01" purity="4.3826621770858765e-01" nType="-99"/>
          </Node>
          <Node pos="r" depth="2" NCoef="0" IVar="13" Cut="3.0077297210693359e+01" cType="1" res="8.8919110596179962e-02" rms="4.4524124264717102e-01" purity="6.6046816110610962e-01" nType="0">
            <Node pos="l" depth="3" NCoef="0" IVar="-1" Cut="0.0000000000000000e+00" cType="1" res="1.3369147665798664e-02" rms="4.7703000903129578e-01" purity="5.5516922473907471e-01" nType="-99"/>
            <Node pos="r" depth="3" NCoef="0" IVar="-1" Cut="0.0000000000000000e+00" cType="1" res="2.4704620242118835e-02" rms="4.2098659276962280e-01" purity="7.3083209991455078e-01" nType="-99"/>
          </Node>
        </Node>
        <Node pos="r" depth="1" NCoef="0" IVar="17" Cut="2.8818814754486084e+00" cType="1" res="-1.5372063033282757e-02" rms="4.5814350247383118e-01" purity="4.1093811392784119e-01" nType="0">
          <Node pos="l" depth="2" NCoef="0" IVar="4" Cut="3.0000000000000000e+00" cType="1" res="6.0160444118082523e-03" rms="1.3892552256584167e-01" purity="4.3209007382392883e-01" nType="0">
            <Node pos="l" depth="3" NCoef="0" IVar="-1" Cut="0.0000000000000000e+00" cType="1" res="-5.1386686973273754e-03" rms="4.5910763740539551e-01" purity="4.0355122089385986e-01" nType="-99"/>
            <Node pos="r" depth="3" NCoef="0" IVar="-1" Cut="0.0000000000000000e+00" cType="1" res="1.4225113205611706e-02" rms="4.6384841203689575e-01" purity="5.4119521379470825e-01" nType="-99"/>
          </Node>
          <Node pos="r" depth="2" NCoef="0" IVar="6" Cut="1.0636035203933716e+00" cType="1" res="-6.1779126524925232e-02" rms="4.4583016633987427e-01" purity="3.4291288256645203e-01" nType="0">
            <Node pos="l" depth="3" NCoef="0" IVar="-1" Cut="0.0000000000000000e+00" cType="1" res="-6.9924946874380112e-03" rms="4.6402528882026672e-01" purity="4.1307234764099121e-01" nType="-99"/>
            <Node pos="r" depth="3" NCoef="0" IVar="-1" Cut="0.0000000000000000e+00" cType="1" res="-4.4846896082162857e-02" rms="4.2339718341827393e-01" purity="2.7363210916519165e-01" nType="-99"/>
          </Node>
        </Node>
      </Node>
    </BinaryTree>
    <BinaryTree type="DecisionTree" boostWeight="1.0000000000000000e+00" itree="25">
      <Node pos="s" depth="0" NCoef="0" IVar="11" Cut="1.1882334899902344e+02" cType="1" res="1.3277502730488777e-02" rms="4.6095141768455505e-01" purity="5.0355976819992065e-01" nType="0">
        <Node pos="l" depth="1" NCoef="0" IVar="11" Cut="3.4619621276855469e+01" cType="1" res="4.3720696121454239e-03" rms="4.6208536624908447e-01" purity="4.8927980661392212e-01" nType="0">
          <Node pos="l" depth="2" NCoef="0" IVar="0" Cut="3.9744220733642578e+01" cType="1" res="5.5797263979911804e-02" rms="4.6054372191429138e-01" purity="5.5457389354705811e-01" nType="0">
            <Node pos="l" depth="3" NCoef="0" IVar="-1" Cut="0.0000000000000000e+00" cType="1" res="2.7220077812671661e-02" rms="4.4266515970230103e-01" purity="6.2184518575668335e-01" nType="-99"/>
            <Node pos="r" depth="3" NCoef="0" IVar="-1" Cut="0.0000000000000000e+00" cType="1" res="7.7005624771118164e-03" rms="4.6643543243408203e-01" purity="5.2195858955383301e-01" nType="-99"/>
          </Node>
          <Node pos="r" depth="2" NCoef="0" IVar="7" Cut="1.3505413532257080e+00" cType="1" res="-1.5361714176833630e-02" rms="4.6115556359291077e-01" purity="4.6422398090362549e-01" nType="0">
            <Node pos="l" depth="3" NCoef="0" IVar="-1" Cut="0.0000000000000000e+00" cType="1" res="8.9376454707235098e-04" rms="4.6637609601020813e-01" purity="4.9975118041038513e-01" nType="-99"/>
            <Node pos="r" depth="3" NCoef="0" IVar="-1" Cut="0.0000000000000000e+00" cType="1" res="-1.9679537042975426e-02" rms="4.4660782814025879e-01" purity="3.8533714413642883e-01" nType="-99"/>
          </Node>
        </Node>
        <Node pos="r" depth="1" NCoef="0" IVar="-1" Cut="0.0000000000000000e+00" cType="1" res="2.4583509191870689e-02" rms="4.3880054354667664e-01" purity="6.5022510290145874e-01" nType="-99"/>
      </Node>
    </BinaryTree>
    <BinaryTree type="DecisionTree" boostWeight="1.0000000000000000e+00" itree="26">
      <Node pos="s" depth="0" NCoef="0" IVar="17" Cut="3.3598649501800537e+00" cType="1" res="6.8529937416315079e-03" rms="4.5887473225593567e-01" purity="4.9854409694671631e-01" nType="0">
        <Node pos="l" depth="1" NCoef="0" IVar="0" Cut="6.5674819946289062e+01" cType="1" res="1.3405689969658852e-02" rms="4.5883947610855103e-01" purity="5.0918114185333252e-01" nType="0">
          <Node pos="l" depth="2" NCoef="0" IVar="11" Cut="5.2520633697509766e+01" cType="1" res="3.3866520971059799e-02" rms="4.5740166306495667e-01" purity="5.2474880218505859e-01" nType="0">
            <Node pos="l" depth="3" NCoef="0" IVar="-1" Cut="0.0000000000000000e+00" cType="1" res="1.7295047640800476e-02" rms="4.5018470287322998e-01" purity="5.7923376560211182e-01" nType="-99"/>
            <Node pos="r" depth="3" NCoef="0" IVar="-1" Cut="0.0000000000000000e+00" cType="1" res="2.7691884897649288e-03" rms="4.6102595329284668e-01" purity="4.8535418510437012e-01" nType="-99"/>
          </Node>
          <Node pos="r" depth="2" NCoef="0" IVar="18" Cut="2.5323009490966797e+00" cType="1" res="-2.1160278469324112e-02" rms="4.5919185876846313e-01" purity="4.8288169503211975e-01" nType="0">
            <Node pos="l" depth="3" NCoef="0" IVar="-1" Cut="0.0000000000000000e+00" cType="1" res="1.4190007932484150e-03" rms="4.6136629581451416e-01" purity="5.2048188447952271e-01" nType="-99"/>
            <Node pos="r" depth="3" NCoef="0" IVar="-1" Cut="0.0000000000000000e+00" cType="1" res="-2.0643677562475204e-02" rms="4.5237895846366882e-01" purity="4.2165312170982361e-01" nType="-99"/>
          </Node>
        </Node>
        <Node pos="r" depth="1" NCoef="0" IVar="-1" Cut="0.0000000000000000e+00" cType="1" res="-4.4398404657840729e-02" rms="4.4333669543266296e-01" purity="3.0765107274055481e-01" nType="-99"/>
      </Node>
    </BinaryTree>
    <BinaryTree type="DecisionTree" boostWeight="1.0000000000000000e+00" itree="27">
      <Node pos="s" depth="0" NCoef="0" IVar="13" Cut="7.3248603820800781e+01" cType="1" res="1.1827901937067509e-02" rms="4.5913529396057129e-01" purity="5.0232428312301636e-01" nType="0">
        <Node pos="l" depth="1" NCoef="0" IVar="9" Cut="2.6780953407287598e+00" cType="1" res="3.0710631981492043e-03" rms="4.6491125226020813e-01" purity="4.7328028082847595e-01" nType="0">
          <Node pos="l" depth="2" NCoef="0" IVar="11" Cut="3.5003471374511719e+01" cType="1" res="1.2481865473091602e-02" rms="4.6945947408676147e-01" purity="4.9935439229011536e-01" nType="0">
            <Node pos="l" depth="3" NCoef="0" IVar="-1" Cut="0.0000000000000000e+00" cType="1" res="1.4293451793491840e-02" rms="4.6317505836486816e-01" purity="5.6488418579101562e-01" nType="-99"/>
            <Node pos="r" depth="3" NCoef="0" IVar="-1" Cut="0.0000000000000000e+00" cType="1" res="-6.9958565291017294e-04" rms="4.7068306803703308e-01" purity="4.7679865360260010e-01" nType="-99"/>
          </Node>
          <Node pos="r" depth="2" NCoef="0" IVar="-1" Cut="0.0000000000000000e+00" cType="1" res="-3.5314615815877914e-02" rms="4.1759708523750305e-01" purity="2.5845429301261902e-01" nType="-99"/>
        </Node>
        <Node pos="r" depth="1" NCoef="0" IVar="-1" Cut="0.0000000000000000e+00" cType="1" res="2.1566817536950111e-02" rms="3.8882902264595032e-01" purity="7.8357499837875366e-01" nType="-99"/>
      </Node>
    </BinaryTree>
    <BinaryTree type="DecisionTree" boostWeight="1.0000000000000000e+00" itree="28">
      <Node pos="s" depth="0" NCoef="0" IVar="10" Cut="1.0494380187988281e+02" cType="1" res="9.7009837627410889e-03" rms="4.5860025286674500e-01" purity="5.0157058238983154e-01" nType="0">
        <Node pos="l" depth="1" NCoef="0" IVar="6" Cut="1.6284480094909668e+00" cType="1" res="-4.6303728595376015e-03" rms="4.5840197801589966e-01" purity="4.7584468126296997e-01" nType="0">
          <Node pos="l" depth="2" NCoef="0" IVar="11" Cut="3.2869041442871094e+01" cType="1" res="7.1130911819636822e-03" rms="4.6088060736656189e-01" purity="5.0044691562652588e-01" nType="0">
            <Node pos="l" depth="3" NCoef="0" IVar="-1" Cut="0.0000000000000000e+00" cType="1" res="1.3929465785622597e-02" rms="4.5822483301162720e-01" purity="5.7046163082122803e-01" nType="-99"/>
            <Node pos="r" depth="3" NCoef="0" IVar="-1" Cut="0.0000000000000000e+00" cType="1" res="-2.2544488310813904e-03" rms="4.6072077751159668e-01" purity="4.7840374708175659e-01" nType="-99"/>
          </Node>
          <Node pos="r" depth="2" NCoef="0" IVar="2" Cut="9.8631256818771362e-01" cType="1" res="-5.7661443948745728e-02" rms="4.4317913055419922e-01" purity="3.6474624276161194e-01" nType="0">
            <Node pos="l" depth="3" NCoef="0" IVar="-1" Cut="0.0000000000000000e+00" cType="1" res="-1.0637245140969753e-02" rms="4.5487427711486816e-01" purity="3.9400330185890198e-01" nType="-99"/>
            <Node pos="r" depth="3" NCoef="0" IVar="-1" Cut="0.0000000000000000e+00" cType="1" res="-4.0123954415321350e-02" rms="4.2128717899322510e-01" purity="3.1994250416755676e-01" nType="-99"/>
          </Node>
        </Node>
        <Node pos="r" depth="1" NCoef="0" IVar="16" Cut="1.0234775543212891e+00" cType="1" res="5.5568411946296692e-02" rms="4.5621812343597412e-01" purity="5.8390593528747559e-01" nType="0">
          <Node pos="l" depth="2" NCoef="0" IVar="14" Cut="2.3073848724365234e+01" cType="1" res="7.7220350503921509e-02" rms="4.5230832695960999e-01" purity="6.1407405138015747e-01" nType="0">
            <Node pos="l" depth="3" NCoef="0" IVar="-1" Cut="0.0000000000000000e+00" cType="1" res="9.0976655483245850e-03" rms="4.7604531049728394e-01" purity="5.1159828901290894e-01" nType="-99"/>
            <Node pos="r" depth="3" NCoef="0" IVar="-1" Cut="0.0000000000000000e+00" cType="1" res="2.4008408188819885e-02" rms="4.3601384758949280e-01" purity="6.7322874069213867e-01" nType="-99"/>
          </Node>
          <Node pos="r" depth="2" NCoef="0" IVar="-1" Cut="0.0000000000000000e+00" cType="1" res="1.3772372622042894e-03" rms="4.6128118038177490e-01" purity="5.1340138912200928e-01" nType="-99"/>
        </Node>
      </Node>
    </BinaryTree>
    <BinaryTree type="DecisionTree" boostWeight="1.0000000000000000e+00" itree="29">
      <Node pos="s" depth="0" NCoef="0" IVar="7" Cut="2.0952875614166260e+00" cType="1" res="1.4574742875993252e-02" rms="4.5832988619804382e-01" purity="5.0933659076690674e-01" nType="0">
        <Node pos="l" depth="1" NCoef="0" IVar="13" Cut="6.9701835632324219e+01" cType="1" res="2.0982075482606888e-02" rms="4.5884874463081360e-01" purity="5.2037245035171509e-01" nType="0">
          <Node pos="l" depth="2" NCoef="0" IVar="8" Cut="1.6305650472640991e+00" cType="1" res="1.2774050235748291e-02" rms="4.6567928791046143e-01" purity="4.8874279856681824e-01" nType="0">
            <Node pos="l" depth="3" NCoef="0" IVar="-1" Cut="0.0000000000000000e+00" cType="1" res="6.7393071949481964e-03" rms="4.6656689047813416e-01" purity="5.1253384351730347e-01" nType="-99"/>
            <Node pos="r" depth="3" NCoef="0" IVar="-1" Cut="0.0000000000000000e+00" cType="1" res="-1.6551751643419266e-02" rms="4.5648458600044250e-01" purity="3.6669328808784485e-01" nType="-99"/>
          </Node>
          <Node pos="r" depth="2" NCoef="0" IVar="-1" Cut="0.0000000000000000e+00" cType="1" res="2.0082240924239159e-02" rms="3.9098909497261047e-01" purity="7.8312885761260986e-01" nType="-99"/>
        </Node>
        <Node pos="r" depth="1" NCoef="0" IVar="-1" Cut="0.0000000000000000e+00" cType="1" res="-3.5624656826257706e-02" rms="4.3668305873870850e-01" purity="3.2921242713928223e-01" nType="-99"/>
      </Node>
    </BinaryTree>
    <BinaryTree type="DecisionTree" boostWeight="1.0000000000000000e+00" itree="30">
      <Node pos="s" depth="0" NCoef="0" IVar="11" Cut="1.1560050201416016e+02" cType="1" res="5.2089523524045944e-03" rms="4.5912271738052368e-01" purity="4.9792581796646118e-01" nType="0">
        <Node pos="l" depth="1" NCoef="0" IVar="5" Cut="2.0000000000000000e+00" cType="1" res="3.9165676571428776e-03" rms="1.3925045728683472e-01" purity="4.8426547646522522e-01" nType="0">
          <Node pos="l" depth="2" NCoef="0" IVar="7" Cut="1.7296212911605835e+00" cType="1" res="-1.9225299358367920e-02" rms="4.6108815073966980e-01" purity="4.4966620206832886e-01" nType="0">
            <Node pos="l" depth="3" NCoef="0" IVar="-1" Cut="0.0000000000000000e+00" cType="1" res="-2.4540405720472336e-03" rms="4.6489921212196350e-01" purity="4.7128859162330627e-01" nType="-99"/>
            <Node pos="r" depth="3" NCoef="0" IVar="-1" Cut="0.0000000000000000e+00" cType="1" res="-3.5594131797552109e-02" rms="4.3068671226501465e-01" purity="3.1604036688804626e-01" nType="-99"/>
          </Node>
          <Node pos="r" depth="2" NCoef="0" IVar="13" Cut="2.6985586166381836e+01" cType="1" res="3.5999331623315811e-02" rms="4.5539116859436035e-01" purity="5.6420290470123291e-01" nType="0">
            <Node pos="l" depth="3" NCoef="0" IVar="-1" Cut="0.0000000000000000e+00" cType="1" res="-8.9661953970789909e-03" rms="4.6351337432861328e-01" purity="4.1270965337753296e-01" nType="-99"/>
            <Node pos="r" depth="3" NCoef="0" IVar="-1" Cut="0.0000000000000000e+00" cType="1" res="1.3929799199104309e-02" rms="4.5097407698631287e-01" purity="6.1151218414306641e-01" nType="-99"/>
          </Node>
        </Node>
        <Node pos="r" depth="1" NCoef="0" IVar="-1" Cut="0.0000000000000000e+00" cType="1" res="1.9011989235877991e-02" rms="4.4358038902282715e-01" purity="6.2591028213500977e-01" nType="-99"/>
      </Node>
    </BinaryTree>
    <BinaryTree type="DecisionTree" boostWeight="1.0000000000000000e+00" itree="31">
      <Node pos="s" depth="0" NCoef="0" IVar="4" Cut="2.0000000000000000e+00" cType="1" res="5.8064372278749943e-03" rms="1.5816581249237061e-01" purity="4.9677059054374695e-01" nType="0">
        <Node pos="l" depth="1" NCoef="0" IVar="8" Cut="1.2776887416839600e+00" cType="1" res="-2.4767337366938591e-02" rms="4.5818725228309631e-01" purity="4.2742088437080383e-01" nType="0">
          <Node pos="l" depth="2" NCoef="0" IVar="11" Cut="3.4783798217773438e+01" cType="1" res="-6.4128912054002285e-03" rms="4.6396973729133606e-01" purity="4.6656528115272522e-01" nType="0">
            <Node pos="l" depth="3" NCoef="0" IVar="-1" Cut="0.0000000000000000e+00" cType="1" res="9.0444441884756088e-03" rms="4.6298715472221375e-01" purity="5.3210026025772095e-01" nType="-99"/>
            <Node pos="r" depth="3" NCoef="0" IVar="-1" Cut="0.0000000000000000e+00" cType="1" res="-6.3416347838938236e-03" rms="4.6349409222602844e-01" purity="4.4352343678474426e-01" nType="-99"/>
          </Node>
          <Node pos="r" depth="2" NCoef="0" IVar="19" Cut="2.0017979145050049e+00" cType="1" res="-5.5615041404962540e-02" rms="4.4660484790802002e-01" purity="3.6163231730461121e-01" nType="0">
            <Node pos="l" depth="3" NCoef="0" IVar="-1" Cut="0.0000000000000000e+00" cType="1" res="-7.4512641876935959e-03" rms="4.5419394969940186e-01" purity="4.1378214955329895e-01" nType="-99"/>
            <Node pos="r" depth="3" NCoef="0" IVar="-1" Cut="0.0000000000000000e+00" cType="1" res="-3.5127565264701843e-02" rms="4.3673074245452881e-01" purity="3.1144669651985168e-01" nType="-99"/>
          </Node>
        </Node>
        <Node pos="r" depth="1" NCoef="0" IVar="10" Cut="8.1600509643554688e+01" cType="1" res="2.1556781604886055e-02" rms="4.5695015788078308e-01" purity="5.3460115194320679e-01" nType="0">
          <Node pos="l" depth="2" NCoef="0" IVar="0" Cut="5.6467411041259766e+01" cType="1" res="1.7329505644738674e-03" rms="4.5847445726394653e-01" purity="4.9724617600440979e-01" nType="0">
            <Node pos="l" depth="3" NCoef="0" IVar="-1" Cut="0.0000000000000000e+00" cType="1" res="7.6489094644784927e-03" rms="4.5625507831573486e-01" purity="5.2474576234817505e-01" nType="-99"/>
            <Node pos="r" depth="3" NCoef="0" IVar="-1" Cut="0.0000000000000000e+00" cType="1" res="-8.1559885293245316e-03" rms="4.5923396944999695e-01" purity="4.6658897399902344e-01" nType="-99"/>
          </Node>
          <Node pos="r" depth="2" NCoef="0" IVar="9" Cut="2.1066300868988037e+00" cType="1" res="5.3760543465614319e-02" rms="4.5261594653129578e-01" purity="5.9528422355651855e-01" nType="0">
            <Node pos="l" depth="3" NCoef="0" IVar="-1" Cut="0.0000000000000000e+00" cType="1" res="2.2228674963116646e-02" rms="4.3910363316535950e-01" purity="6.8412315845489502e-01" nType="-99"/>
            <Node pos="r" depth="3" NCoef="0" IVar="-1" Cut="0.0000000000000000e+00" cType="1" res="6.1292336322367191e-03" rms="4.5960497856140137e-01" purity="5.3070741891860962e-01" nType="-99"/>
          </Node>
        </Node>
      </Node>
    </BinaryTree>
    <BinaryTree type="DecisionTree" boostWeight="1.0000000000000000e+00" itree="32">
      <Node pos="s" depth="0" NCoef="0" IVar="5" Cut="2.0000000000000000e+00" cType="1" res="3.9333486929535866e-03" rms="1.6010415554046631e-01" purity="5.0632977485656738e-01" nType="0">
        <Node pos="l" depth="1" NCoef="0" IVar="18" Cut="2.1023640632629395e+00" cType="1" res="-4.0544983930885792e-03" rms="4.5988139510154724e-01" purity="4.6801841259002686e-01" nType="0">
          <Node pos="l" depth="2" NCoef="0" IVar="0" Cut="6.5677291870117188e+01" cType="1" res="2.2383028641343117e-02" rms="4.6342352032661438e-01" purity="5.0560927391052246e-01" nType="0">
            <Node pos="l" depth="3" NCoef="0" IVar="-1" Cut="0.0000000000000000e+00" cType="1" res="1.1339746415615082e-02" rms="4.6348187327384949e-01" purity="5.1878213882446289e-01" nType="-99"/>
            <Node pos="r" depth="3" NCoef="0" IVar="-1" Cut="0.0000000000000000e+00" cType="1" res="-3.3061022404581308e-03" rms="4.6143233776092529e-01" purity="4.8163905739784241e-01" nType="-99"/>
          </Node>
          <Node pos="r" depth="2" NCoef="0" IVar="17" Cut="2.7094583511352539e+00" cType="1" res="-2.8307395055890083e-02" rms="4.5525956153869629e-01" purity="4.3353375792503357e-01" nType="0">
            <Node pos="l" depth="3" NCoef="0" IVar="-1" Cut="0.0000000000000000e+00" cType="1" res="-3.6999944131821394e-03" rms="4.5759505033493042e-01" purity="4.6261322498321533e-01" nType="-99"/>
            <Node pos="r" depth="3" NCoef="0" IVar="-1" Cut="0.0000000000000000e+00" cType="1" res="-2.5800142437219620e-02" rms="4.4614538550376892e-01" purity="3.5604390501976013e-01" nType="-99"/>
          </Node>
        </Node>
        <Node pos="r" depth="1" NCoef="0" IVar="9" Cut="2.1049451828002930e+00" cType="1" res="5.2924621850252151e-02" rms="4.5096033811569214e-01" purity="5.9244626760482788e-01" nType="0">
          <Node pos="l" depth="2" NCoef="0" IVar="-1" Cut="0.0000000000000000e+00" cType="1" res="2.1883219480514526e-02" rms="4.3267604708671570e-01" purity="6.8944191932678223e-01" nType="-99"/>
          <Node pos="r" depth="2" NCoef="0" IVar="4" Cut="3.0000000000000000e+00" cType="1" res="6.3030808232724667e-03" rms="1.4343157410621643e-01" purity="5.2654302120208740e-01" nType="0">
            <Node pos="l" depth="3" NCoef="0" IVar="-1" Cut="0.0000000000000000e+00" cType="1" res="-2.5336032267659903e-03" rms="4.6092313528060913e-01" purity="4.7041812539100647e-01" nType="-99"/>
            <Node pos="r" depth="3" NCoef="0" IVar="-1" Cut="0.0000000000000000e+00" cType="1" res="1.6106473281979561e-02" rms="4.5756879448890686e-01" purity="5.9359389543533325e-01" nType="-99"/>
          </Node>
        </Node>
      </Node>
    </BinaryTree>
    <BinaryTree type="DecisionTree" boostWeight="1.0000000000000000e+00" itree="33">
      <Node pos="s" depth="0" NCoef="0" IVar="11" Cut="1.1327075195312500e+02" cType="1" res="4.3588578701019287e-03" rms="4.5624005794525146e-01" purity="4.9771854281425476e-01" nType="0">
        <Node pos="l" depth="1" NCoef="0" IVar="13" Cut="6.6868659973144531e+01" cType="1" res="-3.4112872090190649e-03" rms="4.5623552799224854e-01" purity="4.8376092314720154e-01" nType="0">
          <Node pos="l" depth="2" NCoef="0" IVar="2" Cut="9.6659070253372192e-01" cType="1" res="-1.1127596721053123e-02" rms="4.6064946055412292e-01" purity="4.5158514380455017e-01" nType="0">
            <Node pos="l" depth="3" NCoef="0" IVar="-1" Cut="0.0000000000000000e+00" cType="1" res="6.9159986451268196e-03" rms="4.6310868859291077e-01" purity="4.9242746829986572e-01" nType="-99"/>
            <Node pos="r" depth="3" NCoef="0" IVar="-1" Cut="0.0000000000000000e+00" cType="1" res="-8.2763563841581345e-03" rms="4.5874097943305969e-01" purity="4.3390962481498718e-01" nType="-99"/>
          </Node>
          <Node pos="r" depth="2" NCoef="0" IVar="-1" Cut="0.0000000000000000e+00" cType="1" res="1.3987396843731403e-02" rms="4.1305062174797058e-01" purity="7.4673038721084595e-01" nType="-99"/>
        </Node>
        <Node pos="r" depth="1" NCoef="0" IVar="-1" Cut="0.0000000000000000e+00" cType="1" res="1.7700767144560814e-02" rms="4.5086139440536499e-01" purity="6.1685937643051147e-01" nType="-99"/>
      </Node>
    </BinaryTree>
    <BinaryTree type="DecisionTree" boostWeight="1.0000000000000000e+00" itree="34">
      <Node pos="s" depth="0" NCoef="0" IVar="9" Cut="2.5835201740264893e+00" cType="1" res="8.4279254078865051e-03" rms="4.5627591013908386e-01" purity="5.0286167860031128e-01" nType="0">
        <Node pos="l" depth="1" NCoef="0" IVar="19" Cut="3.0983471870422363e+00" cType="1" res="1.8261902034282684e-02" rms="4.6043142676353455e-01" purity="5.3713387250900269e-01" nType="0">
          <Node pos="l" depth="2" NCoef="0" IVar="13" Cut="5.9983718872070312e+01" cType="1" res="2.5897115468978882e-02" rms="4.5990136265754700e-01" purity="5.5072253942489624e-01" nType="0">
            <Node pos="l" depth="3" NCoef="0" IVar="-1" Cut="0.0000000000000000e+00" cType="1" res="4.7377059236168861e-03" rms="4.7139322757720947e-01" purity="5.0797516107559204e-01" nType="-99"/>
            <Node pos="r" depth="3" NCoef="0" IVar="-1" Cut="0.0000000000000000e+00" cType="1" res="1.7461530864238739e-02" rms="3.8621193170547485e-01" purity="7.8857970237731934e-01" nType="-99"/>
          </Node>
          <Node pos="r" depth="2" NCoef="0" IVar="-1" Cut="0.0000000000000000e+00" cType="1" res="-1.2819918803870678e-02" rms="4.6027299761772156e-01" purity="4.3259197473526001e-01" nType="-99"/>
        </Node>
        <Node pos="r" depth="1" NCoef="0" IVar="18" Cut="2.5970680713653564e+00" cType="1" res="-4.6086046844720840e-02" rms="4.2844229936599731e-01" purity="3.1287574768066406e-01" nType="0">
          <Node pos="l" depth="2" NCoef="0" IVar="-1" Cut="0.0000000000000000e+00" cType="1" res="-7.4280332773923874e-03" rms="4.4196161627769470e-01" purity="3.4854438900947571e-01" nType="-99"/>
          <Node pos="r" depth="2" NCoef="0" IVar="-1" Cut="0.0000000000000000e+00" cType="1" res="-4.4164568185806274e-02" rms="4.0074488520622253e-01" purity="2.5297659635543823e-01" nType="-99"/>
        </Node>
      </Node>
    </BinaryTree>
    <BinaryTree type="DecisionTree" boostWeight="1.0000000000000000e+00" itree="35">
      <Node pos="s" depth="0" NCoef="0" IVar="6" Cut="9.0372538566589355e-01" cType="1" res="1.0161461308598518e-02" rms="4.5748469233512878e-01" purity="5.0443416833877563e-01" nType="0">
        <Node pos="l" depth="1" NCoef="0" IVar="15" Cut="7.9872906208038330e-01" cType="1" res="4.2904607951641083e-02" rms="4.6075707674026489e-01" purity="5.7884603738784790e-01" nType="0">
          <Node pos="l" depth="2" NCoef="0" IVar="9" Cut="2.2773511409759521e+00" cType="1" res="6.2812991440296173e-02" rms="4.5699775218963623e-01" purity="6.0807859897613525e-01" nType="0">
            <Node pos="l" depth="3" NCoef="0" IVar="-1" Cut="0.0000000000000000e+00" cType="1" res="1.8454417586326599e-02" rms="4.4458508491516113e-01" purity="6.8140286207199097e-01" nType="-99"/>
            <Node pos="r" depth="3" NCoef="0" IVar="-1" Cut="0.0000000000000000e+00" cType="1" res="1.0126137174665928e-02" rms="4.7447341680526733e-01" purity="4.9310982227325439e-01" nType="-99"/>
          </Node>
          <Node pos="r" depth="2" NCoef="0" IVar="15" Cut="1.1131711006164551e+00" cType="1" res="1.6995787620544434e-02" rms="4.6432751417160034e-01" purity="5.4080277681350708e-01" nType="0">
            <Node pos="l" depth="3" NCoef="0" IVar="-1" Cut="0.0000000000000000e+00" cType="1" res="-7.2022983804345131e-03" rms="4.5724508166313171e-01" purity="5.1710152626037598e-01" nType="-99"/>
            <Node pos="r" depth="3" NCoef="0" IVar="-1" Cut="0.0000000000000000e+00" cType="1" res="1.0608461685478687e-02" rms="4.6654269099235535e-01" purity="5.5369937419891357e-01" nType="-99"/>
          </Node>
        </Node>
        <Node pos="r" depth="1" NCoef="0" IVar="17" Cut="9.3268764019012451e-01" cType="1" res="-6.1989300884306431e-03" rms="4.5495876669883728e-01" purity="4.6725362539291382e-01" nType="0">
          <Node pos="l" depth="2" NCoef="0" IVar="-1" Cut="0.0000000000000000e+00" cType="1" res="1.6288857907056808e-02" rms="4.4335174560546875e-01" purity="5.9102988243103027e-01" nType="-99"/>
          <Node pos="r" depth="2" NCoef="0" IVar="19" Cut="3.1606485843658447e+00" cType="1" res="-1.5868034213781357e-02" rms="4.5573243498802185e-01" purity="4.4987514615058899e-01" nType="0">
            <Node pos="l" depth="3" NCoef="0" IVar="-1" Cut="0.0000000000000000e+00" cType="1" res="-2.3776630405336618e-03" rms="4.5744091272354126e-01" purity="4.6440517902374268e-01" nType="-99"/>
            <Node pos="r" depth="3" NCoef="0" IVar="-1" Cut="0.0000000000000000e+00" cType="1" res="-3.4954782575368881e-02" rms="4.3359714746475220e-01" purity="3.2058137655258179e-01" nType="-99"/>
          </Node>
        </Node>
      </Node>
    </BinaryTree>
    <BinaryTree type="DecisionTree" boostWeight="1.0000000000000000e+00" itree="36">
      <Node pos="s" depth="0" NCoef="0" IVar="14" Cut="3.0244955062866211e+01" cType="1" res="1.0323424248781521e-05" rms="4.5603302121162415e-01" purity="4.9348053336143494e-01" nType="0">
        <Node pos="l" depth="1" NCoef="0" IVar="3" Cut="7.0000000000000000e+00" cType="1" res="5.4508806206285954e-03" rms="1.9013635814189911e-01" purity="4.5102235674858093e-01" nType="0">
          <Node pos="l" depth="2" NCoef="0" IVar="2" Cut="9.9175214767456055e-01" cType="1" res="-1.7022218555212021e-02" rms="4.6399086713790894e-01" purity="4.2443045973777771e-01" nType="0">
            <Node pos="l" depth="3" NCoef="0" IVar="-1" Cut="0.0000000000000000e+00" cType="1" res="-1.8854442751035094e-03" rms="4.6450668573379517e-01" purity="4.3814638257026672e-01" nType="-99"/>
            <Node pos="r" depth="3" NCoef="0" IVar="-1" Cut="0.0000000000000000e+00" cType="1" res="-1.9800132140517235e-02" rms="4.5988044142723083e-01" purity="3.7419617176055908e-01" nType="-99"/>
          </Node>
          <Node pos="r" depth="2" NCoef="0" IVar="-1" Cut="0.0000000000000000e+00" cType="1" res="1.1430663987994194e-02" rms="4.5028167963027954e-01" purity="6.8550473451614380e-01" nType="-99"/>
        </Node>
        <Node pos="r" depth="1" NCoef="0" IVar="-1" Cut="0.0000000000000000e+00" cType="1" res="1.3792555779218674e-02" rms="4.1058531403541565e-01" purity="7.2786867618560791e-01" nType="-99"/>
      </Node>
    </BinaryTree>
    <BinaryTree type="DecisionTree" boostWeight="1.0000000000000000e+00" itree="37">
      <Node pos="s" depth="0" NCoef="0" IVar="17" Cut="1.5770930051803589e+00" cType="1" res="6.5076076425611973e-03" rms="4.5669659972190857e-01" purity="4.9794733524322510e-01" nType="0">
        <Node pos="l" depth="1" NCoef="0" IVar="2" Cut="9.5942580699920654e-01" cType="1" res="4.0005329996347427e-02" rms="4.5262315869331360e-01" purity="5.6398540735244751e-01" nType="0">
          <Node pos="l" depth="2" NCoef="0" IVar="-1" Cut="0.0000000000000000e+00" cType="1" res="2.0681504160165787e-02" rms="4.4218963384628296e-01" purity="6.2132829427719116e-01" nType="-99"/>
          <Node pos="r" depth="2" NCoef="0" IVar="17" Cut="8.8521873950958252e-01" cType="1" res="2.5840634480118752e-02" rms="4.5516824722290039e-01" purity="5.4486620426177979e-01" nType="0">
            <Node pos="l" depth="3" NCoef="0" IVar="-1" Cut="0.0000000000000000e+00" cType="1" res="1.6975650563836098e-02" rms="4.4323104619979858e-01" purity="6.1678725481033325e-01" nType="-99"/>
            <Node pos="r" depth="3" NCoef="0" IVar="-1" Cut="0.0000000000000000e+00" cType="1" res="2.0232766401022673e-03" rms="4.5928087830543518e-01" purity="5.1201844215393066e-01" nType="-99"/>
          </Node>
        </Node>
        <Node pos="r" depth="1" NCoef="0" IVar="6" Cut="1.0732001066207886e+00" cType="1" res="-8.5594896227121353e-03" rms="4.5771837234497070e-01" purity="4.6824380755424500e-01" nType="0">
          <Node pos="l" depth="2" NCoef="0" IVar="0" Cut="6.1689403533935547e+01" cType="1" res="1.6231186687946320e-02" rms="4.6318432688713074e-01" purity="5.3495520353317261e-01" nType="0">
            <Node pos="l" depth="3" NCoef="0" IVar="-1" Cut="0.0000000000000000e+00" cType="1" res="1.0065272450447083e-02" rms="4.6118760108947754e-01" purity="5.5300533771514893e-01" nType="-99"/>
            <Node pos="r" depth="3" NCoef="0" IVar="-1" Cut="0.0000000000000000e+00" cType="1" res="-3.1583625823259354e-03" rms="4.6432176232337952e-01" purity="5.1169067621231079e-01" nType="-99"/>
          </Node>
          <Node pos="r" depth="2" NCoef="0" IVar="9" Cut="1.9967548847198486e+00" cType="1" res="-3.3632867038249969e-02" rms="4.5073810219764709e-01" purity="4.0077170729637146e-01" nType="0">
            <Node pos="l" depth="3" NCoef="0" IVar="-1" Cut="0.0000000000000000e+00" cType="1" res="3.6778787616640329e-03" rms="4.6544191241264343e-01" purity="5.0864064693450928e-01" nType="-99"/>
            <Node pos="r" depth="3" NCoef="0" IVar="-1" Cut="0.0000000000000000e+00" cType="1" res="-1.8247926607728004e-02" rms="4.4449597597122192e-01" purity="3.6401125788688660e-01" nType="-99"/>
          </Node>
        </Node>
      </Node>
    </BinaryTree>
    <BinaryTree type="DecisionTree" boostWeight="1.0000000000000000e+00" itree="38">
      <Node pos="s" depth="0" NCoef="0" IVar="8" Cut="2.1175076961517334e+00" cType="1" res="5.5273361504077911e-03" rms="4.5666956901550293e-01" purity="4.9771776795387268e-01" nType="0">
        <Node pos="l" depth="1" NCoef="0" IVar="13" Cut="2.7179782867431641e+01" cType="1" res="9.8211187869310379e-03" rms="4.5762315392494202e-01" purity="5.0688749551773071e-01" nType="0">
          <Node pos="l" depth="2" NCoef="0" IVar="12" Cut="8.7958755493164062e+01" cType="1" res="-2.0694414153695107e-02" rms="4.5665639638900757e-01" purity="3.9196011424064636e-01" nType="0">
            <Node pos="l" depth="3" NCoef="0" IVar="-1" Cut="0.0000000000000000e+00" cType="1" res="-1.8869845196604729e-02" rms="4.3699201941490173e-01" purity="3.3884826302528381e-01" nType="-99"/>
            <Node pos="r" depth="3" NCoef="0" IVar="-1" Cut="0.0000000000000000e+00" cType="1" res="2.1348507143557072e-03" rms="4.7277441620826721e-01" purity="4.4198796153068542e-01" nType="-99"/>
          </Node>
          <Node pos="r" depth="2" NCoef="0" IVar="1" Cut="1.6715370416641235e+00" cType="1" res="2.0900454372167587e-02" rms="4.5747023820877075e-01" purity="5.4861432313919067e-01" nType="0">
            <Node pos="l" depth="3" NCoef="0" IVar="-1" Cut="0.0000000000000000e+00" cType="1" res="7.4288807809352875e-03" rms="4.5644962787628174e-01" purity="5.5972933769226074e-01" nType="-99"/>
            <Node pos="r" depth="3" NCoef="0" IVar="-1" Cut="0.0000000000000000e+00" cType="1" res="-1.3298907317221165e-02" rms="4.6231222152709961e-01" purity="4.4366237521171570e-01" nType="-99"/>
          </Node>
        </Node>
        <Node pos="r" depth="1" NCoef="0" IVar="-1" Cut="0.0000000000000000e+00" cType="1" res="-2.8687164187431335e-02" rms="4.3212172389030457e-01" purity="3.3373221755027771e-01" nType="-99"/>
      </Node>
    </BinaryTree>
    <BinaryTree type="DecisionTree" boostWeight="1.0000000000000000e+00" itree="39">
      <Node pos="s" depth="0" NCoef="0" IVar="14" Cut="2.2151182174682617e+01" cType="1" res="6.0375919565558434e-03" rms="4.5609483122825623e-01" purity="5.0027590990066528e-01" nType="0">
        <Node pos="l" depth="1" NCoef="0" IVar="11" Cut="2.3145389556884766e+01" cType="1" res="-2.3570621386170387e-02" rms="4.5915743708610535e-01" purity="4.1139236092567444e-01" nType="0">
          <Node pos="l" depth="2" NCoef="0" IVar="-1" Cut="0.0000000000000000e+00" cType="1" res="7.8590773046016693e-03" rms="4.6818214654922485e-01" purity="4.9451100826263428e-01" nType="-99"/>
          <Node pos="r" depth="2" NCoef="0" IVar="8" Cut="1.5110645294189453e+00" cType="1" res="-3.4218076616525650e-02" rms="4.5653134584426880e-01" purity="3.9402407407760620e-01" nType="0">
            <Node pos="l" depth="3" NCoef="0" IVar="-1" Cut="0.0000000000000000e+00" cType="1" res="-6.0781119391322136e-03" rms="4.6509787440299988e-01" purity="4.2856338620185852e-01" nType="-99"/>
            <Node pos="r" depth="3" NCoef="0" IVar="-1" Cut="0.0000000000000000e+00" cType="1" res="-3.8710273802280426e-02" rms="4.2090851068496704e-01" purity="2.7291414141654968e-01" nType="-99"/>
          </Node>
        </Node>
        <Node pos="r" depth="1" NCoef="0" IVar="0" Cut="3.1770538330078125e+01" cType="1" res="1.8810149282217026e-02" rms="4.5417177677154541e-01" purity="5.3861904144287109e-01" nType="0">
          <Node pos="l" depth="2" NCoef="0" IVar="11" Cut="6.1077995300292969e+01" cType="1" res="6.5467230975627899e-02" rms="4.4720810651779175e-01" purity="5.9874302148818970e-01" nType="0">
            <Node pos="l" depth="3" NCoef="0" IVar="-1" Cut="0.0000000000000000e+00" cType="1" res="2.4715194478631020e-02" rms="4.3816828727722168e-01" purity="6.4791214466094971e-01" nType="-99"/>
            <Node pos="r" depth="3" NCoef="0" IVar="-1" Cut="0.0000000000000000e+00" cType="1" res="4.6295993961393833e-03" rms="4.5502972602844238e-01" purity="5.2993780374526978e-01" nType="-99"/>
          </Node>
          <Node pos="r" depth="2" NCoef="0" IVar="15" Cut="9.9152290821075439e-01" cType="1" res="8.5835251957178116e-03" rms="4.5504516363143921e-01" purity="5.2544063329696655e-01" nType="0">
            <Node pos="l" depth="3" NCoef="0" IVar="-1" Cut="0.0000000000000000e+00" cType="1" res="6.3992394134402275e-03" rms="4.5096725225448608e-01" purity="5.5460709333419800e-01" nType="-99"/>
            <Node pos="r" depth="3" NCoef="0" IVar="-1" Cut="0.0000000000000000e+00" cType="1" res="-6.8681789562106133e-03" rms="4.6199607849121094e-01" purity="4.6407741308212280e-01" nType="-99"/>
          </Node>
        </Node>
      </Node>
    </BinaryTree>
    <BinaryTree type="DecisionTree" boostWeight="1.0000000000000000e+00" itree="40">
      <Node pos="s" depth="0" NCoef="0" IVar="5" Cut="2.0000000000000000e+00" cType="1" res="4.1116350330412388e-03" rms="1.5054130554199219e-01" purity="4.9802312254905701e-01" nType="0">
        <Node pos="l" depth="1" NCoef="0" IVar="17" Cut="1.0030364990234375e+00" cType="1" res="-9.1182254254817963e-03" rms="4.5674949884414673e-01" purity="4.6156647801399231e-01" nType="0">
          <Node pos="l" depth="2" NCoef="0" IVar="-1" Cut="0.0000000000000000e+00" cType="1" res="1.3553100638091564e-02" rms="4.5014575123786926e-01" purity="5.8351534605026245e-01" nType="-99"/>
          <Node pos="r" depth="2" NCoef="0" IVar="6" Cut="9.9006557464599609e-01" cType="1" res="-1.8364559859037399e-02" rms="4.5704266428947449e-01" purity="4.4296053051948547e-01" nType="0">
            <Node pos="l" depth="3" NCoef="0" IVar="-1" Cut="0.0000000000000000e+00" cType="1" res="2.0699920132756233e-03" rms="4.6458441019058228e-01" purity="5.1724356412887573e-01" nType="-99"/>
            <Node pos="r" depth="3" NCoef="0" IVar="-1" Cut="0.0000000000000000e+00" cType="1" res="-1.2694487348198891e-02" rms="4.5080068707466125e-01" purity="3.9085918664932251e-01" nType="-99"/>
          </Node>
        </Node>
        <Node pos="r" depth="1" NCoef="0" IVar="18" Cut="1.9517596960067749e+00" cType="1" res="3.2362353056669235e-02" rms="4.4625747203826904e-01" purity="5.8263498544692993e-01" nType="0">
          <Node pos="l" depth="2" NCoef="0" IVar="-1" Cut="0.0000000000000000e+00" cType="1" res="1.8664412200450897e-02" rms="4.3897253274917603e-01" purity="6.4043474197387695e-01" nType="-99"/>
          <Node pos="r" depth="2" NCoef="0" IVar="17" Cut="1.7104016542434692e+00" cType="1" res="2.7847264427691698e-03" rms="4.4892156124114990e-01" purity="5.4220849275588989e-01" nType="0">
