<?xml version="1.0"?>
<MethodSetup Method="BDT::BDTG">
  <GeneralInfo>
    <Info name="TMVA Release" value="4.2.1 [262657]"/>
    <Info name="ROOT Release" value="6.06/01 [394753]"/>
    <Info name="Creator" value="arun"/>
    <Info name="Date" value="Sat Apr  1 10:34:26 2017"/>
    <Info name="Host" value="Linux vocms0301.cern.ch 2.6.32-642.4.2.el6.x86_64 #1 SMP Wed Aug 24 09:19:54 CEST 2016 x86_64 x86_64 x86_64 GNU/Linux"/>
    <Info name="Dir" value="/home/arun/VHbbNtuples_8_0_x/CMSSW_8_0_21/src/tthAnalysis/HiggsToTauTau/test"/>
    <Info name="Training events" value="69800"/>
    <Info name="TrainingTime" value="3.42683530e+01"/>
    <Info name="AnalysisType" value="Classification"/>
  </GeneralInfo>
  <Options>
    <Option name="V" modified="Yes">False</Option>
    <Option name="VerbosityLevel" modified="No">Default</Option>
    <Option name="VarTransform" modified="No">None</Option>
    <Option name="H" modified="Yes">False</Option>
    <Option name="CreateMVAPdfs" modified="No">False</Option>
    <Option name="IgnoreNegWeightsInTraining" modified="No">False</Option>
    <Option name="NTrees" modified="Yes">500</Option>
    <Option name="MaxDepth" modified="Yes">3</Option>
    <Option name="MinNodeSize" modified="No">5%</Option>
    <Option name="nCuts" modified="Yes">500</Option>
    <Option name="BoostType" modified="Yes">Grad</Option>
    <Option name="AdaBoostR2Loss" modified="No">quadratic</Option>
    <Option name="UseBaggedBoost" modified="Yes">True</Option>
    <Option name="Shrinkage" modified="Yes">3.000000e-01</Option>
    <Option name="AdaBoostBeta" modified="No">5.000000e-01</Option>
    <Option name="UseRandomisedTrees" modified="No">False</Option>
    <Option name="UseNvars" modified="No">3</Option>
    <Option name="UsePoissonNvars" modified="No">True</Option>
    <Option name="BaggedSampleFraction" modified="No">5.000000e-01</Option>
    <Option name="UseYesNoLeaf" modified="No">True</Option>
    <Option name="NegWeightTreatment" modified="No">ignorenegweightsintraining</Option>
    <Option name="Css" modified="No">1.000000e+00</Option>
    <Option name="Cts_sb" modified="No">1.000000e+00</Option>
    <Option name="Ctb_ss" modified="No">1.000000e+00</Option>
    <Option name="Cbb" modified="No">1.000000e+00</Option>
    <Option name="NodePurityLimit" modified="No">5.000000e-01</Option>
    <Option name="SeparationType" modified="Yes">giniindex</Option>
    <Option name="DoBoostMonitor" modified="No">False</Option>
    <Option name="UseFisherCuts" modified="No">False</Option>
    <Option name="MinLinCorrForFisher" modified="No">8.000000e-01</Option>
    <Option name="UseExclusiveVars" modified="No">False</Option>
    <Option name="DoPreselection" modified="No">False</Option>
    <Option name="SigToBkgFraction" modified="No">1.000000e+00</Option>
    <Option name="PruneMethod" modified="Yes">nopruning</Option>
    <Option name="PruneStrength" modified="No">0.000000e+00</Option>
    <Option name="PruningValFraction" modified="No">5.000000e-01</Option>
    <Option name="nEventsMin" modified="No">0</Option>
    <Option name="UseBaggedGrad" modified="No">False</Option>
    <Option name="GradBaggingFraction" modified="Yes">5.000000e-01</Option>
    <Option name="UseNTrainEvents" modified="No">0</Option>
    <Option name="NNodesMax" modified="No">0</Option>
  </Options>
  <Variables NVar="10">
    <Variable VarIndex="0" Expression="nJet" Label="nJet" Title="nJet" Unit="" Internal="nJet" Type="I" Min="2.00000000e+00" Max="1.30000000e+01"/>
    <Variable VarIndex="1" Expression="mindr_lep1_jet" Label="mindr_lep1_jet" Title="mindr_lep1_jet" Unit="" Internal="mindr_lep1_jet" Type="F" Min="4.00269508e-01" Max="5.07948780e+00"/>
    <Variable VarIndex="2" Expression="mindr_lep2_jet" Label="mindr_lep2_jet" Title="mindr_lep2_jet" Unit="" Internal="mindr_lep2_jet" Type="F" Min="4.00064081e-01" Max="4.73716259e+00"/>
    <Variable VarIndex="3" Expression="avg_dr_jet" Label="avg_dr_jet" Title="avg_dr_jet" Unit="" Internal="avg_dr_jet" Type="F" Min="4.02342886e-01" Max="5.43091011e+00"/>
    <Variable VarIndex="4" Expression="mindr_tau_jet" Label="mindr_tau_jet" Title="mindr_tau_jet" Unit="" Internal="mindr_tau_jet" Type="F" Min="4.00133878e-01" Max="4.99994373e+00"/>
    <Variable VarIndex="5" Expression="tau_pt" Label="tau_pt" Title="tau_pt" Unit="" Internal="tau_pt" Type="F" Min="2.00000629e+01" Max="5.17824524e+02"/>
    <Variable VarIndex="6" Expression="TMath::Abs(tau_eta)" Label="TMath::Abs(tau_eta)" Title="TMath::Abs(tau_eta)" Unit="" Internal="TMath_Abs_tau_eta_" Type="F" Min="4.36445362e-06" Max="2.29992890e+00"/>
    <Variable VarIndex="7" Expression="dr_lep1_tau" Label="dr_lep1_tau" Title="dr_lep1_tau" Unit="" Internal="dr_lep1_tau" Type="F" Min="3.00344855e-01" Max="5.40355062e+00"/>
    <Variable VarIndex="8" Expression="dr_lep2_tau" Label="dr_lep2_tau" Title="dr_lep2_tau" Unit="" Internal="dr_lep2_tau" Type="F" Min="3.00513625e-01" Max="5.44133043e+00"/>
    <Variable VarIndex="9" Expression="dr_lep3_tau" Label="dr_lep3_tau" Title="dr_lep3_tau" Unit="" Internal="dr_lep3_tau" Type="F" Min="3.00174803e-01" Max="5.45589972e+00"/>
  </Variables>
  <Spectators NSpec="0"/>
  <Classes NClass="2">
    <Class Name="Signal" Index="0"/>
    <Class Name="Background" Index="1"/>
  </Classes>
  <Transformations NTransformations="0"/>
  <MVAPdfs/>
  <Weights NTrees="500" AnalysisType="1">
    <BinaryTree type="DecisionTree" boostWeight="1.0000000000000000e+00" itree="0">
      <Node pos="s" depth="0" NCoef="0" IVar="5" Cut="3.3986614227294922e+01" cType="1" res="5.0755548477172852e-01" rms="4.9994289875030518e-01" purity="5.0757718086242676e-01" nType="0">
        <Node pos="l" depth="1" NCoef="0" IVar="0" Cut="4.0000000000000000e+00" cType="1" res="-9.6983544528484344e-02" rms="4.9050402641296387e-01" purity="4.0301644802093506e-01" nType="0">
          <Node pos="l" depth="2" NCoef="0" IVar="5" Cut="2.5806625366210938e+01" cType="1" res="3.5708630084991455e-01" rms="4.7914054989814758e-01" purity="3.5713005065917969e-01" nType="0">
            <Node pos="l" depth="3" NCoef="0" IVar="-1" Cut="0.0000000000000000e+00" cType="1" res="-2.9446842148900032e-02" rms="4.6177986264228821e-01" purity="3.0827271938323975e-01" nType="-99"/>
            <Node pos="r" depth="3" NCoef="0" IVar="-1" Cut="0.0000000000000000e+00" cType="1" res="-1.1685291305184364e-02" rms="4.9458551406860352e-01" purity="4.2661631107330322e-01" nType="-99"/>
          </Node>
          <Node pos="r" depth="2" NCoef="0" IVar="1" Cut="1.3819249868392944e+00" cType="1" res="5.0796103477478027e-01" rms="4.9993661046028137e-01" purity="5.0797188282012939e-01" nType="0">
            <Node pos="l" depth="3" NCoef="0" IVar="-1" Cut="0.0000000000000000e+00" cType="1" res="1.7978770658373833e-02" rms="4.9569231271743774e-01" purity="5.6549149751663208e-01" nType="-99"/>
            <Node pos="r" depth="3" NCoef="0" IVar="-1" Cut="0.0000000000000000e+00" cType="1" res="-6.5495292656123638e-03" rms="4.9178197979927063e-01" purity="4.0972006320953369e-01" nType="-99"/>
          </Node>
        </Node>
        <Node pos="r" depth="1" NCoef="0" IVar="6" Cut="1.3565430641174316e+00" cType="1" res="7.6599335670471191e-01" rms="4.2371195554733276e-01" purity="7.6640635728836060e-01" nType="0">
          <Node pos="l" depth="2" NCoef="0" IVar="5" Cut="4.0321578979492188e+01" cType="1" res="8.1336003541946411e-01" rms="3.9008778333663940e-01" purity="8.1388735771179199e-01" nType="0">
            <Node pos="l" depth="3" NCoef="0" IVar="-1" Cut="0.0000000000000000e+00" cType="1" res="5.5860430002212524e-02" rms="4.6840837597846985e-01" purity="6.7491024732589722e-01" nType="-99"/>
            <Node pos="r" depth="3" NCoef="0" IVar="-1" Cut="0.0000000000000000e+00" cType="1" res="1.4178688824176788e-01" rms="3.4115806221961975e-01" purity="8.6552864313125610e-01" nType="-99"/>
          </Node>
          <Node pos="r" depth="2" NCoef="0" IVar="-1" Cut="0.0000000000000000e+00" cType="1" res="2.5585923343896866e-02" rms="4.9090695381164551e-01" purity="5.9492301940917969e-01" nType="-99"/>
        </Node>
      </Node>
    </BinaryTree>
    <BinaryTree type="DecisionTree" boostWeight="1.0000000000000000e+00" itree="1">
      <Node pos="s" depth="0" NCoef="0" IVar="5" Cut="3.5318778991699219e+01" cType="1" res="5.0507622957229614e-01" rms="4.9997422099113464e-01" purity="5.0507622957229614e-01" nType="0">
        <Node pos="l" depth="1" NCoef="0" IVar="0" Cut="3.0000000000000000e+00" cType="1" res="-8.3692274987697601e-02" rms="4.9026748538017273e-01" purity="4.1083806753158569e-01" nType="0">
          <Node pos="l" depth="2" NCoef="0" IVar="5" Cut="2.8076583862304688e+01" cType="1" res="3.0800595879554749e-01" rms="4.6166902780532837e-01" purity="3.0800595879554749e-01" nType="0">
            <Node pos="l" depth="3" NCoef="0" IVar="-1" Cut="0.0000000000000000e+00" cType="1" res="-2.3981248959898949e-02" rms="4.4135358929634094e-01" purity="2.6509493589401245e-01" nType="-99"/>
            <Node pos="r" depth="3" NCoef="0" IVar="-1" Cut="0.0000000000000000e+00" cType="1" res="-1.6077788546681404e-02" rms="4.9423751235008240e-01" purity="4.3084132671356201e-01" nType="-99"/>
          </Node>
          <Node pos="r" depth="2" NCoef="0" IVar="3" Cut="2.7112183570861816e+00" cType="1" res="4.7901573777198792e-01" rms="4.9955946207046509e-01" purity="4.7926479578018188e-01" nType="0">
            <Node pos="l" depth="3" NCoef="0" IVar="-1" Cut="0.0000000000000000e+00" cType="1" res="1.7645206535235047e-03" rms="4.9881839752197266e-01" purity="5.0819516181945801e-01" nType="-99"/>
            <Node pos="r" depth="3" NCoef="0" IVar="-1" Cut="0.0000000000000000e+00" cType="1" res="-3.3901978284120560e-02" rms="4.7411233186721802e-01" purity="3.4358480572700500e-01" nType="-99"/>
          </Node>
        </Node>
        <Node pos="r" depth="1" NCoef="0" IVar="8" Cut="2.8963234424591064e+00" cType="1" res="7.5437134504318237e-01" rms="4.3045929074287415e-01" purity="7.5437158346176147e-01" nType="0">
          <Node pos="l" depth="2" NCoef="0" IVar="4" Cut="1.2626353502273560e+00" cType="1" res="8.0812382698059082e-01" rms="3.9377620816230774e-01" purity="8.0812382698059082e-01" nType="0">
            <Node pos="l" depth="3" NCoef="0" IVar="-1" Cut="0.0000000000000000e+00" cType="1" res="1.2937901914119720e-01" rms="3.3638581633567810e-01" purity="8.6622971296310425e-01" nType="-99"/>
            <Node pos="r" depth="3" NCoef="0" IVar="-1" Cut="0.0000000000000000e+00" cType="1" res="6.9683387875556946e-02" rms="4.2175292968750000e-01" purity="7.6204222440719604e-01" nType="-99"/>
          </Node>
          <Node pos="r" depth="2" NCoef="0" IVar="-1" Cut="0.0000000000000000e+00" cType="1" res="5.9767957282019779e-05" rms="4.9539470672607422e-01" purity="5.4958027601242065e-01" nType="-99"/>
        </Node>
      </Node>
    </BinaryTree>
    <BinaryTree type="DecisionTree" boostWeight="1.0000000000000000e+00" itree="2">
      <Node pos="s" depth="0" NCoef="0" IVar="5" Cut="3.5900192260742188e+01" cType="1" res="4.9446782469749451e-01" rms="4.9996945261955261e-01" purity="4.9448898434638977e-01" nType="0">
        <Node pos="l" depth="1" NCoef="0" IVar="1" Cut="2.0136270523071289e+00" cType="1" res="8.7290577590465546e-02" rms="2.8248313069343567e-01" purity="3.9757475256919861e-01" nType="0">
          <Node pos="l" depth="2" NCoef="0" IVar="5" Cut="2.5142364501953125e+01" cType="1" res="5.0712265074253082e-03" rms="1.3363048434257507e-01" purity="4.3242010474205017e-01" nType="0">
            <Node pos="l" depth="3" NCoef="0" IVar="-1" Cut="0.0000000000000000e+00" cType="1" res="-1.1907135136425495e-02" rms="4.7865763306617737e-01" purity="3.6280974745750427e-01" nType="-99"/>
            <Node pos="r" depth="3" NCoef="0" IVar="-1" Cut="0.0000000000000000e+00" cType="1" res="9.4246503431349993e-04" rms="4.9731996655464172e-01" purity="5.0272524356842041e-01" nType="-99"/>
          </Node>
          <Node pos="r" depth="2" NCoef="0" IVar="7" Cut="2.0140917301177979e+00" cType="1" res="2.7905553579330444e-01" rms="4.4853487610816956e-01" purity="2.7918139100074768e-01" nType="0">
            <Node pos="l" depth="3" NCoef="0" IVar="-1" Cut="0.0000000000000000e+00" cType="1" res="-3.1558044254779816e-02" rms="4.7326686978340149e-01" purity="3.4076800942420959e-01" nType="-99"/>
            <Node pos="r" depth="3" NCoef="0" IVar="-1" Cut="0.0000000000000000e+00" cType="1" res="-4.6074919402599335e-02" rms="4.1779804229736328e-01" purity="2.2618174552917480e-01" nType="-99"/>
          </Node>
        </Node>
        <Node pos="r" depth="1" NCoef="0" IVar="6" Cut="9.8135751485824585e-01" cType="1" res="7.6581531763076782e-01" rms="4.2348814010620117e-01" purity="7.6581555604934692e-01" nType="0">
          <Node pos="l" depth="2" NCoef="0" IVar="2" Cut="1.6779745817184448e+00" cType="1" res="-inf" rms="0.0000000000000000e+00" purity="8.2894742488861084e-01" nType="0">
            <Node pos="l" depth="3" NCoef="0" IVar="-1" Cut="0.0000000000000000e+00" cType="1" res="1.1063539236783981e-01" rms="3.3188501000404358e-01" purity="8.7084174156188965e-01" nType="-99"/>
            <Node pos="r" depth="3" NCoef="0" IVar="-1" Cut="0.0000000000000000e+00" cType="1" res="4.7933671623468399e-02" rms="4.3316096067428589e-01" purity="7.4212914705276489e-01" nType="-99"/>
          </Node>
          <Node pos="r" depth="2" NCoef="0" IVar="9" Cut="2.2440361976623535e+00" cType="1" res="6.6424137353897095e-01" rms="4.7225499153137207e-01" purity="6.6424137353897095e-01" nType="0">
            <Node pos="l" depth="3" NCoef="0" IVar="-1" Cut="0.0000000000000000e+00" cType="1" res="5.7862948626279831e-02" rms="4.2766615748405457e-01" purity="7.4986809492111206e-01" nType="-99"/>
            <Node pos="r" depth="3" NCoef="0" IVar="-1" Cut="0.0000000000000000e+00" cType="1" res="4.0176678448915482e-03" rms="4.8770964145660400e-01" purity="5.7932180166244507e-01" nType="-99"/>
          </Node>
        </Node>
      </Node>
    </BinaryTree>
    <BinaryTree type="DecisionTree" boostWeight="1.0000000000000000e+00" itree="3">
      <Node pos="s" depth="0" NCoef="0" IVar="5" Cut="4.2360961914062500e+01" cType="1" res="1.5855470299720764e-01" rms="3.7083145976066589e-01" purity="4.9819958209991455e-01" nType="0">
        <Node pos="l" depth="1" NCoef="0" IVar="3" Cut="2.8341670036315918e+00" cType="1" res="8.7658420183870881e+27" rms="0.0000000000000000e+00" purity="4.2514085769653320e-01" nType="0">
          <Node pos="l" depth="2" NCoef="0" IVar="2" Cut="1.8633270263671875e+00" cType="1" res="4.5762968063354492e-01" rms="4.9820151925086975e-01" purity="4.5762971043586731e-01" nType="0">
            <Node pos="l" depth="3" NCoef="0" IVar="-1" Cut="0.0000000000000000e+00" cType="1" res="-2.2154282487463206e-04" rms="4.9316197633743286e-01" purity="4.9764263629913330e-01" nType="-99"/>
            <Node pos="r" depth="3" NCoef="0" IVar="-1" Cut="0.0000000000000000e+00" cType="1" res="-2.3453632369637489e-02" rms="4.6980252861976624e-01" purity="3.4595206379890442e-01" nType="-99"/>
          </Node>
          <Node pos="r" depth="2" NCoef="0" IVar="1" Cut="1.4459362030029297e+00" cType="1" res="-inf" rms="0.0000000000000000e+00" purity="2.9949814081192017e-01" nType="0">
            <Node pos="l" depth="3" NCoef="0" IVar="-1" Cut="0.0000000000000000e+00" cType="1" res="-1.6117358580231667e-02" rms="4.6654090285301208e-01" purity="3.3867907524108887e-01" nType="-99"/>
            <Node pos="r" depth="3" NCoef="0" IVar="-1" Cut="0.0000000000000000e+00" cType="1" res="-1.7170185223221779e-02" rms="4.3753454089164734e-01" purity="2.5517705082893372e-01" nType="-99"/>
          </Node>
        </Node>
        <Node pos="r" depth="1" NCoef="0" IVar="7" Cut="2.4535918235778809e+00" cType="1" res="8.0257451534271240e-01" rms="3.9805608987808228e-01" purity="8.0257451534271240e-01" nType="0">
          <Node pos="l" depth="2" NCoef="0" IVar="5" Cut="6.2042873382568359e+01" cType="1" res="8.5147982835769653e-01" rms="3.5561490058898926e-01" purity="8.5147982835769653e-01" nType="0">
            <Node pos="l" depth="3" NCoef="0" IVar="-1" Cut="0.0000000000000000e+00" cType="1" res="6.6118076443672180e-02" rms="3.9213457703590393e-01" purity="8.0341917276382446e-01" nType="-99"/>
            <Node pos="r" depth="3" NCoef="0" IVar="-1" Cut="0.0000000000000000e+00" cType="1" res="1.1449028551578522e-01" rms="2.9088297486305237e-01" purity="9.0227317810058594e-01" nType="-99"/>
          </Node>
          <Node pos="r" depth="2" NCoef="0" IVar="-1" Cut="0.0000000000000000e+00" cType="1" res="3.6560978740453720e-02" rms="4.2810478806495667e-01" purity="7.4140471220016479e-01" nType="-99"/>
        </Node>
      </Node>
    </BinaryTree>
    <BinaryTree type="DecisionTree" boostWeight="1.0000000000000000e+00" itree="4">
      <Node pos="s" depth="0" NCoef="0" IVar="5" Cut="3.2120956420898438e+01" cType="1" res="5.0607943534851074e-01" rms="4.9996304512023926e-01" purity="5.0610107183456421e-01" nType="0">
        <Node pos="l" depth="1" NCoef="0" IVar="0" Cut="3.0000000000000000e+00" cType="1" res="-8.0136626958847046e-02" rms="4.8449447751045227e-01" purity="3.9617380499839783e-01" nType="0">
          <Node pos="l" depth="2" NCoef="0" IVar="7" Cut="1.6634062528610229e+00" cType="1" res="0.0000000000000000e+00" rms="0.0000000000000000e+00" purity="3.0275392532348633e-01" nType="0">
            <Node pos="l" depth="3" NCoef="0" IVar="-1" Cut="0.0000000000000000e+00" cType="1" res="-1.6491096466779709e-02" rms="4.8665082454681396e-01" purity="3.9124751091003418e-01" nType="-99"/>
            <Node pos="r" depth="3" NCoef="0" IVar="-1" Cut="0.0000000000000000e+00" cType="1" res="-3.2465700060129166e-02" rms="4.4167849421501160e-01" purity="2.6894578337669373e-01" nType="-99"/>
          </Node>
          <Node pos="r" depth="2" NCoef="0" IVar="3" Cut="2.4984941482543945e+00" cType="1" res="1.7181063303723931e-03" rms="4.1628204286098480e-02" purity="4.5581886172294617e-01" nType="0">
            <Node pos="l" depth="3" NCoef="0" IVar="-1" Cut="0.0000000000000000e+00" cType="1" res="5.7601286098361015e-03" rms="4.9671897292137146e-01" purity="5.1635169982910156e-01" nType="-99"/>
            <Node pos="r" depth="3" NCoef="0" IVar="-1" Cut="0.0000000000000000e+00" cType="1" res="-1.6060238704085350e-02" rms="4.7028920054435730e-01" purity="3.3759498596191406e-01" nType="-99"/>
          </Node>
        </Node>
        <Node pos="r" depth="1" NCoef="0" IVar="1" Cut="1.5483584403991699e+00" cType="1" res="7.1311384439468384e-01" rms="4.5230796933174133e-01" purity="7.1319174766540527e-01" nType="0">
          <Node pos="l" depth="2" NCoef="0" IVar="5" Cut="4.3927402496337891e+01" cType="1" res="0.0000000000000000e+00" rms="0.0000000000000000e+00" purity="7.6290631294250488e-01" nType="0">
            <Node pos="l" depth="3" NCoef="0" IVar="-1" Cut="0.0000000000000000e+00" cType="1" res="2.3574650287628174e-02" rms="4.6926721930503845e-01" purity="6.3915961980819702e-01" nType="-99"/>
            <Node pos="r" depth="3" NCoef="0" IVar="-1" Cut="0.0000000000000000e+00" cType="1" res="8.6476266384124756e-02" rms="3.3956083655357361e-01" purity="8.6032044887542725e-01" nType="-99"/>
          </Node>
          <Node pos="r" depth="2" NCoef="0" IVar="6" Cut="8.6217993497848511e-01" cType="1" res="6.2942999601364136e-01" rms="4.8317217826843262e-01" purity="6.2963873147964478e-01" nType="0">
            <Node pos="l" depth="3" NCoef="0" IVar="-1" Cut="0.0000000000000000e+00" cType="1" res="3.2081142067909241e-02" rms="4.3157875537872314e-01" purity="7.2140830755233765e-01" nType="-99"/>
            <Node pos="r" depth="3" NCoef="0" IVar="-1" Cut="0.0000000000000000e+00" cType="1" res="-1.3586481101810932e-02" rms="4.8690298199653625e-01" purity="5.2695226669311523e-01" nType="-99"/>
          </Node>
        </Node>
      </Node>
    </BinaryTree>
    <BinaryTree type="DecisionTree" boostWeight="1.0000000000000000e+00" itree="5">
      <Node pos="s" depth="0" NCoef="0" IVar="5" Cut="3.5317920684814453e+01" cType="1" res="4.9300393462181091e-01" rms="4.9995106458663940e-01" purity="4.9302497506141663e-01" nType="0">
        <Node pos="l" depth="1" NCoef="0" IVar="0" Cut="3.0000000000000000e+00" cType="1" res="-7.7233433723449707e-02" rms="4.8289927840232849e-01" purity="3.9630055427551270e-01" nType="0">
          <Node pos="l" depth="2" NCoef="0" IVar="7" Cut="2.8518064022064209e+00" cType="1" res="1.2278800398155776e+17" rms="0.0000000000000000e+00" purity="2.9273277521133423e-01" nType="0">
            <Node pos="l" depth="3" NCoef="0" IVar="-1" Cut="0.0000000000000000e+00" cType="1" res="-1.5898659825325012e-02" rms="4.6518194675445557e-01" purity="3.2354384660720825e-01" nType="-99"/>
            <Node pos="r" depth="3" NCoef="0" IVar="-1" Cut="0.0000000000000000e+00" cType="1" res="-2.1388981491327286e-02" rms="4.1208770871162415e-01" purity="2.1972872316837311e-01" nType="-99"/>
          </Node>
          <Node pos="r" depth="2" NCoef="0" IVar="6" Cut="1.0650720596313477e+00" cType="1" res="4.6544224023818970e-01" rms="4.9880433082580566e-01" purity="4.6552410721778870e-01" nType="0">
            <Node pos="l" depth="3" NCoef="0" IVar="-1" Cut="0.0000000000000000e+00" cType="1" res="4.1066845878958702e-03" rms="4.9565246701240540e-01" purity="5.1318198442459106e-01" nType="-99"/>
            <Node pos="r" depth="3" NCoef="0" IVar="-1" Cut="0.0000000000000000e+00" cType="1" res="-1.0082708671689034e-02" rms="4.8330819606781006e-01" purity="3.8718131184577942e-01" nType="-99"/>
          </Node>
        </Node>
        <Node pos="r" depth="1" NCoef="0" IVar="5" Cut="5.5706901550292969e+01" cType="1" res="7.5124752521514893e-01" rms="4.3229004740715027e-01" purity="7.5124752521514893e-01" nType="0">
          <Node pos="l" depth="2" NCoef="0" IVar="4" Cut="1.1964589357376099e+00" cType="1" res="6.7849481105804443e-01" rms="4.6705415844917297e-01" purity="6.7866259813308716e-01" nType="0">
            <Node pos="l" depth="3" NCoef="0" IVar="-1" Cut="0.0000000000000000e+00" cType="1" res="4.8728220164775848e-02" rms="4.0795949101448059e-01" purity="7.7790391445159912e-01" nType="-99"/>
            <Node pos="r" depth="3" NCoef="0" IVar="-1" Cut="0.0000000000000000e+00" cType="1" res="-2.7864745352417231e-03" rms="4.7594755887985229e-01" purity="6.1545038223266602e-01" nType="-99"/>
          </Node>
          <Node pos="r" depth="2" NCoef="0" IVar="9" Cut="2.1387238502502441e+00" cType="1" res="8.4840476512908936e-01" rms="3.5862812399864197e-01" purity="8.4840476512908936e-01" nType="0">
            <Node pos="l" depth="3" NCoef="0" IVar="-1" Cut="0.0000000000000000e+00" cType="1" res="9.8120793700218201e-02" rms="2.9237362742424011e-01" purity="9.0211862325668335e-01" nType="-99"/>
            <Node pos="r" depth="3" NCoef="0" IVar="-1" Cut="0.0000000000000000e+00" cType="1" res="3.6630503833293915e-02" rms="4.0612640976905823e-01" purity="7.8046852350234985e-01" nType="-99"/>
          </Node>
        </Node>
      </Node>
    </BinaryTree>
    <BinaryTree type="DecisionTree" boostWeight="1.0000000000000000e+00" itree="6">
      <Node pos="s" depth="0" NCoef="0" IVar="5" Cut="2.9703224182128906e+01" cType="1" res="5.0600606203079224e-01" rms="4.9996393918991089e-01" purity="5.0600600242614746e-01" nType="0">
        <Node pos="l" depth="1" NCoef="0" IVar="0" Cut="4.0000000000000000e+00" cType="1" res="-7.5960591435432434e-02" rms="4.8105111718177795e-01" purity="3.8966876268386841e-01" nType="0">
          <Node pos="l" depth="2" NCoef="0" IVar="7" Cut="2.8505914211273193e+00" cType="1" res="-0.0000000000000000e+00" rms="0.0000000000000000e+00" purity="3.3789631724357605e-01" nType="0">
            <Node pos="l" depth="3" NCoef="0" IVar="-1" Cut="0.0000000000000000e+00" cType="1" res="-1.4860909432172775e-02" rms="4.7946906089782715e-01" purity="3.7100493907928467e-01" nType="-99"/>
            <Node pos="r" depth="3" NCoef="0" IVar="-1" Cut="0.0000000000000000e+00" cType="1" res="-2.5852706283330917e-02" rms="4.3262335658073425e-01" purity="2.5682914257049561e-01" nType="-99"/>
          </Node>
          <Node pos="r" depth="2" NCoef="0" IVar="3" Cut="2.4672534465789795e+00" cType="1" res="5.1922059059143066e-01" rms="4.9963042140007019e-01" purity="5.1924163103103638e-01" nType="0">
            <Node pos="l" depth="3" NCoef="0" IVar="-1" Cut="0.0000000000000000e+00" cType="1" res="1.4217895455658436e-02" rms="4.9162629246711731e-01" purity="5.7572114467620850e-01" nType="-99"/>
            <Node pos="r" depth="3" NCoef="0" IVar="-1" Cut="0.0000000000000000e+00" cType="1" res="-6.2035722658038139e-03" rms="4.8895639181137085e-01" purity="4.0149882435798645e-01" nType="-99"/>
          </Node>
        </Node>
        <Node pos="r" depth="1" NCoef="0" IVar="6" Cut="1.0507171154022217e+00" cType="1" res="6.6897058486938477e-01" rms="4.7058361768722534e-01" purity="6.6897058486938477e-01" nType="0">
          <Node pos="l" depth="2" NCoef="0" IVar="1" Cut="1.9664603471755981e+00" cType="1" res="0.0000000000000000e+00" rms="0.0000000000000000e+00" purity="7.3766684532165527e-01" nType="0">
            <Node pos="l" depth="3" NCoef="0" IVar="-1" Cut="0.0000000000000000e+00" cType="1" res="4.9429904669523239e-02" rms="4.0033566951751709e-01" purity="7.7126991748809814e-01" nType="-99"/>
            <Node pos="r" depth="3" NCoef="0" IVar="-1" Cut="0.0000000000000000e+00" cType="1" res="-2.4882992147468030e-04" rms="4.5768830180168152e-01" purity="6.0200786590576172e-01" nType="-99"/>
          </Node>
          <Node pos="r" depth="2" NCoef="0" IVar="7" Cut="2.5769376754760742e+00" cType="1" res="8.1307274103164673e-01" rms="3.8985309004783630e-01" purity="5.4908758401870728e-01" nType="0">
            <Node pos="l" depth="3" NCoef="0" IVar="-1" Cut="0.0000000000000000e+00" cType="1" res="5.0149438902735710e-03" rms="4.6328756213188171e-01" purity="6.1456495523452759e-01" nType="-99"/>
            <Node pos="r" depth="3" NCoef="0" IVar="-1" Cut="0.0000000000000000e+00" cType="1" res="-1.3623719103634357e-02" rms="4.7803834080696106e-01" purity="4.6279740333557129e-01" nType="-99"/>
          </Node>
        </Node>
      </Node>
    </BinaryTree>
    <BinaryTree type="DecisionTree" boostWeight="1.0000000000000000e+00" itree="7">
      <Node pos="s" depth="0" NCoef="0" IVar="9" Cut="3.2640717029571533e+00" cType="1" res="4.9003601074218750e-01" rms="4.9990069866180420e-01" purity="4.9003601074218750e-01" nType="0">
        <Node pos="l" depth="1" NCoef="0" IVar="5" Cut="2.6702724456787109e+01" cType="1" res="5.1353210210800171e-01" rms="4.9981683492660522e-01" purity="5.1353210210800171e-01" nType="0">
          <Node pos="l" depth="2" NCoef="0" IVar="3" Cut="2.6655204296112061e+00" cType="1" res="3.6947876214981079e-01" rms="4.8271515965461731e-01" purity="3.6952847242355347e-01" nType="0">
            <Node pos="l" depth="3" NCoef="0" IVar="-1" Cut="0.0000000000000000e+00" cType="1" res="-8.1001268699765205e-03" rms="4.8711082339286804e-01" purity="4.2160966992378235e-01" nType="-99"/>
            <Node pos="r" depth="3" NCoef="0" IVar="-1" Cut="0.0000000000000000e+00" cType="1" res="-2.7028882876038551e-02" rms="4.2819559574127197e-01" purity="2.4538785219192505e-01" nType="-99"/>
          </Node>
          <Node pos="r" depth="2" NCoef="0" IVar="1" Cut="1.2026039361953735e+00" cType="1" res="6.2723863124847412e-01" rms="4.8353937268257141e-01" purity="6.2723857164382935e-01" nType="0">
            <Node pos="l" depth="3" NCoef="0" IVar="-1" Cut="0.0000000000000000e+00" cType="1" res="2.4921748787164688e-02" rms="4.2727124691009521e-01" purity="7.1050995588302612e-01" nType="-99"/>
            <Node pos="r" depth="3" NCoef="0" IVar="-1" Cut="0.0000000000000000e+00" cType="1" res="-1.2246745172888041e-03" rms="4.6686089038848877e-01" purity="5.6279242038726807e-01" nType="-99"/>
          </Node>
        </Node>
        <Node pos="r" depth="1" NCoef="0" IVar="-1" Cut="0.0000000000000000e+00" cType="1" res="-1.3633443973958492e-02" rms="4.3926954269409180e-01" purity="2.7997341752052307e-01" nType="-99"/>
      </Node>
    </BinaryTree>
    <BinaryTree type="DecisionTree" boostWeight="1.0000000000000000e+00" itree="8">
      <Node pos="s" depth="0" NCoef="0" IVar="7" Cut="3.2216548919677734e+00" cType="1" res="1.1208999902009964e-01" rms="3.5027316212654114e-01" purity="4.9431857466697693e-01" nType="0">
        <Node pos="l" depth="1" NCoef="0" IVar="5" Cut="4.2854732513427734e+01" cType="1" res="5.1939094066619873e-01" rms="4.9962392449378967e-01" purity="5.1939100027084351e-01" nType="0">
          <Node pos="l" depth="2" NCoef="0" IVar="1" Cut="1.5001690387725830e+00" cType="1" res="0.0000000000000000e+00" rms="0.0000000000000000e+00" purity="4.4527414441108704e-01" nType="0">
            <Node pos="l" depth="3" NCoef="0" IVar="-1" Cut="0.0000000000000000e+00" cType="1" res="1.6627075383439660e-03" rms="4.8877251148223877e-01" purity="5.0807702541351318e-01" nType="-99"/>
            <Node pos="r" depth="3" NCoef="0" IVar="-1" Cut="0.0000000000000000e+00" cType="1" res="-9.8881302401423454e-03" rms="4.7207254171371460e-01" purity="3.6420172452926636e-01" nType="-99"/>
          </Node>
          <Node pos="r" depth="2" NCoef="0" IVar="5" Cut="6.4666000366210938e+01" cType="1" res="8.2848662137985229e-01" rms="3.7695696949958801e-01" purity="8.2848662137985229e-01" nType="0">
            <Node pos="l" depth="3" NCoef="0" IVar="-1" Cut="0.0000000000000000e+00" cType="1" res="2.8692739084362984e-02" rms="4.0789619088172913e-01" purity="7.7669239044189453e-01" nType="-99"/>
            <Node pos="r" depth="3" NCoef="0" IVar="-1" Cut="0.0000000000000000e+00" cType="1" res="7.4558563530445099e-02" rms="3.0032739043235779e-01" purity="8.8880455493927002e-01" nType="-99"/>
          </Node>
        </Node>
        <Node pos="r" depth="1" NCoef="0" IVar="-1" Cut="0.0000000000000000e+00" cType="1" res="-1.3966277241706848e-02" rms="4.3291893601417542e-01" purity="2.9856014251708984e-01" nType="-99"/>
      </Node>
    </BinaryTree>
    <BinaryTree type="DecisionTree" boostWeight="1.0000000000000000e+00" itree="9">
      <Node pos="s" depth="0" NCoef="0" IVar="5" Cut="3.1924001693725586e+01" cType="1" res="5.0023126602172852e-01" rms="4.9999994039535522e-01" purity="5.0023126602172852e-01" nType="0">
        <Node pos="l" depth="1" NCoef="0" IVar="0" Cut="3.0000000000000000e+00" cType="1" res="-6.9311082363128662e-02" rms="4.7892478108406067e-01" purity="3.8953638076782227e-01" nType="0">
          <Node pos="l" depth="2" NCoef="0" IVar="7" Cut="2.3988044261932373e+00" cType="1" res="6.8589677810668945e+00" rms="0.0000000000000000e+00" purity="2.9126283526420593e-01" nType="0">
            <Node pos="l" depth="3" NCoef="0" IVar="-1" Cut="0.0000000000000000e+00" cType="1" res="-2.1215574815869331e-02" rms="4.6972882747650146e-01" purity="3.3667907118797302e-01" nType="-99"/>
            <Node pos="r" depth="3" NCoef="0" IVar="-1" Cut="0.0000000000000000e+00" cType="1" res="-2.4120802059769630e-02" rms="4.2593389749526978e-01" purity="2.4319654703140259e-01" nType="-99"/>
          </Node>
          <Node pos="r" depth="2" NCoef="0" IVar="3" Cut="2.4217031002044678e+00" cType="1" res="4.5144549012184143e-01" rms="4.9763688445091248e-01" purity="4.5149469375610352e-01" nType="0">
            <Node pos="l" depth="3" NCoef="0" IVar="-1" Cut="0.0000000000000000e+00" cType="1" res="2.3710664827376604e-03" rms="4.9533808231353760e-01" purity="5.0453305244445801e-01" nType="-99"/>
            <Node pos="r" depth="3" NCoef="0" IVar="-1" Cut="0.0000000000000000e+00" cType="1" res="-1.5999460592865944e-02" rms="4.7672396898269653e-01" purity="3.6559689044952393e-01" nType="-99"/>
          </Node>
        </Node>
        <Node pos="r" depth="1" NCoef="0" IVar="8" Cut="2.9155764579772949e+00" cType="1" res="7.1271449327468872e-01" rms="4.5249590277671814e-01" purity="7.1271502971649170e-01" nType="0">
          <Node pos="l" depth="2" NCoef="0" IVar="9" Cut="2.8409297466278076e+00" cType="1" res="0.0000000000000000e+00" rms="0.0000000000000000e+00" purity="7.5200533866882324e-01" nType="0">
            <Node pos="l" depth="3" NCoef="0" IVar="-1" Cut="0.0000000000000000e+00" cType="1" res="3.9578679949045181e-02" rms="3.9417022466659546e-01" purity="7.8061443567276001e-01" nType="-99"/>
            <Node pos="r" depth="3" NCoef="0" IVar="-1" Cut="0.0000000000000000e+00" cType="1" res="-1.4030545717105269e-03" rms="4.5898190140724182e-01" purity="6.4296972751617432e-01" nType="-99"/>
          </Node>
          <Node pos="r" depth="2" NCoef="0" IVar="-1" Cut="0.0000000000000000e+00" cType="1" res="-1.6394346952438354e-02" rms="4.7374168038368225e-01" purity="5.5952906608581543e-01" nType="-99"/>
        </Node>
      </Node>
    </BinaryTree>
    <BinaryTree type="DecisionTree" boostWeight="1.0000000000000000e+00" itree="10">
      <Node pos="s" depth="0" NCoef="0" IVar="7" Cut="3.3266708850860596e+00" cType="1" res="4.9325591325759888e-01" rms="4.9995452165603638e-01" purity="4.9325591325759888e-01" nType="0">
        <Node pos="l" depth="1" NCoef="0" IVar="3" Cut="3.0625112056732178e+00" cType="1" res="5.1396036148071289e-01" rms="4.9980506300926208e-01" purity="5.1396036148071289e-01" nType="0">
          <Node pos="l" depth="2" NCoef="0" IVar="4" Cut="1.6993385553359985e+00" cType="1" res="5.4014313220977783e-01" rms="4.9838593602180481e-01" purity="5.4014313220977783e-01" nType="0">
            <Node pos="l" depth="3" NCoef="0" IVar="-1" Cut="0.0000000000000000e+00" cType="1" res="8.8106514886021614e-03" rms="4.6169859170913696e-01" purity="5.8209288120269775e-01" nType="-99"/>
            <Node pos="r" depth="3" NCoef="0" IVar="-1" Cut="0.0000000000000000e+00" cType="1" res="-1.1498999781906605e-02" rms="4.5907542109489441e-01" purity="4.5705607533454895e-01" nType="-99"/>
          </Node>
          <Node pos="r" depth="2" NCoef="0" IVar="-1" Cut="0.0000000000000000e+00" cType="1" res="-1.2061585672199726e-02" rms="4.3723568320274353e-01" purity="3.2779583334922791e-01" nType="-99"/>
        </Node>
        <Node pos="r" depth="1" NCoef="0" IVar="-1" Cut="0.0000000000000000e+00" cType="1" res="-2.0840318873524666e-02" rms="4.2535489797592163e-01" purity="2.7836725115776062e-01" nType="-99"/>
      </Node>
    </BinaryTree>
    <BinaryTree type="DecisionTree" boostWeight="1.0000000000000000e+00" itree="11">
      <Node pos="s" depth="0" NCoef="0" IVar="8" Cut="3.3015570640563965e+00" cType="1" res="5.0528669357299805e-01" rms="4.9997204542160034e-01" purity="5.0528669357299805e-01" nType="0">
        <Node pos="l" depth="1" NCoef="0" IVar="9" Cut="3.3365473747253418e+00" cType="1" res="5.2804797887802124e-01" rms="4.9921268224716187e-01" purity="5.2804791927337646e-01" nType="0">
          <Node pos="l" depth="2" NCoef="0" IVar="1" Cut="1.5689517259597778e+00" cType="1" res="5.4541522264480591e-01" rms="4.9793317914009094e-01" purity="5.4541516304016113e-01" nType="0">
            <Node pos="l" depth="3" NCoef="0" IVar="-1" Cut="0.0000000000000000e+00" cType="1" res="9.3813193961977959e-03" rms="4.5639878511428833e-01" purity="6.0150080919265747e-01" nType="-99"/>
            <Node pos="r" depth="3" NCoef="0" IVar="-1" Cut="0.0000000000000000e+00" cType="1" res="-9.1276858001947403e-03" rms="4.6561324596405029e-01" purity="4.5401266217231750e-01" nType="-99"/>
          </Node>
          <Node pos="r" depth="2" NCoef="0" IVar="-1" Cut="0.0000000000000000e+00" cType="1" res="-3.9754681289196014e-02" rms="4.3968349695205688e-01" purity="3.0533710122108459e-01" nType="-99"/>
        </Node>
        <Node pos="r" depth="1" NCoef="0" IVar="-1" Cut="0.0000000000000000e+00" cType="1" res="-1.3167400844395161e-02" rms="4.1902452707290649e-01" purity="2.7099856734275818e-01" nType="-99"/>
      </Node>
    </BinaryTree>
    <BinaryTree type="DecisionTree" boostWeight="1.0000000000000000e+00" itree="12">
      <Node pos="s" depth="0" NCoef="0" IVar="8" Cut="3.3126862049102783e+00" cType="1" res="0.0000000000000000e+00" rms="0.0000000000000000e+00" purity="5.0513678789138794e-01" nType="0">
        <Node pos="l" depth="1" NCoef="0" IVar="5" Cut="2.9573490142822266e+01" cType="1" res="3.2867923001344000e+13" rms="0.0000000000000000e+00" purity="5.2604478597640991e-01" nType="0">
          <Node pos="l" depth="2" NCoef="0" IVar="2" Cut="1.4822766780853271e+00" cType="1" res="3.9881432056427002e-01" rms="4.8965442180633545e-01" purity="3.9881432056427002e-01" nType="0">
            <Node pos="l" depth="3" NCoef="0" IVar="-1" Cut="0.0000000000000000e+00" cType="1" res="3.3810702734626830e-04" rms="4.8939570784568787e-01" purity="4.6309992671012878e-01" nType="-99"/>
            <Node pos="r" depth="3" NCoef="0" IVar="-1" Cut="0.0000000000000000e+00" cType="1" res="-1.1661342345178127e-02" rms="4.5858860015869141e-01" purity="3.2089707255363464e-01" nType="-99"/>
          </Node>
          <Node pos="r" depth="2" NCoef="0" IVar="1" Cut="2.1960206031799316e+00" cType="1" res="-3.6863580346107483e-02" rms="0.0000000000000000e+00" purity="6.9808566570281982e-01" nType="0">
            <Node pos="l" depth="3" NCoef="0" IVar="-1" Cut="0.0000000000000000e+00" cType="1" res="2.7279738336801529e-02" rms="4.1822433471679688e-01" purity="7.2716754674911499e-01" nType="-99"/>
            <Node pos="r" depth="3" NCoef="0" IVar="-1" Cut="0.0000000000000000e+00" cType="1" res="-1.3819798827171326e-02" rms="4.7557306289672852e-01" purity="5.3143662214279175e-01" nType="-99"/>
          </Node>
        </Node>
        <Node pos="r" depth="1" NCoef="0" IVar="-1" Cut="0.0000000000000000e+00" cType="1" res="-2.2875873371958733e-02" rms="4.2415741086006165e-01" purity="2.7014994621276855e-01" nType="-99"/>
      </Node>
    </BinaryTree>
    <BinaryTree type="DecisionTree" boostWeight="1.0000000000000000e+00" itree="13">
      <Node pos="s" depth="0" NCoef="0" IVar="7" Cut="3.2848792076110840e+00" cType="1" res="4.9527183175086975e-01" rms="4.9999761581420898e-01" purity="4.9529188871383667e-01" nType="0">
        <Node pos="l" depth="1" NCoef="0" IVar="2" Cut="2.3565196990966797e+00" cType="1" res="5.1694506406784058e-01" rms="4.9973484873771667e-01" purity="5.1696723699569702e-01" nType="0">
          <Node pos="l" depth="2" NCoef="0" IVar="1" Cut="9.0803444385528564e-01" cType="1" res="5.4087895154953003e-01" rms="4.9835109710693359e-01" purity="5.4090398550033569e-01" nType="0">
            <Node pos="l" depth="3" NCoef="0" IVar="-1" Cut="0.0000000000000000e+00" cType="1" res="2.6134259998798370e-02" rms="4.4986215233802795e-01" purity="6.5658926963806152e-01" nType="-99"/>
            <Node pos="r" depth="3" NCoef="0" IVar="-1" Cut="0.0000000000000000e+00" cType="1" res="-3.8119831588119268e-03" rms="4.6285945177078247e-01" purity="5.0346517562866211e-01" nType="-99"/>
          </Node>
          <Node pos="r" depth="2" NCoef="0" IVar="-1" Cut="0.0000000000000000e+00" cType="1" res="-2.3701155558228493e-02" rms="4.4162246584892273e-01" purity="3.3280608057975769e-01" nType="-99"/>
        </Node>
        <Node pos="r" depth="1" NCoef="0" IVar="-1" Cut="0.0000000000000000e+00" cType="1" res="-1.9688393920660019e-02" rms="4.3322408199310303e-01" purity="2.8820493817329407e-01" nType="-99"/>
      </Node>
    </BinaryTree>
    <BinaryTree type="DecisionTree" boostWeight="1.0000000000000000e+00" itree="14">
      <Node pos="s" depth="0" NCoef="0" IVar="9" Cut="3.2639448642730713e+00" cType="1" res="5.0044375658035278e-01" rms="4.9999979138374329e-01" purity="5.0044375658035278e-01" nType="0">
        <Node pos="l" depth="1" NCoef="0" IVar="7" Cut="3.1748516559600830e+00" cType="1" res="5.2135640382766724e-01" rms="4.9954369664192200e-01" purity="5.2135646343231201e-01" nType="0">
          <Node pos="l" depth="2" NCoef="0" IVar="5" Cut="2.5962810516357422e+01" cType="1" res="5.4490578174591064e-01" rms="4.9797937273979187e-01" purity="5.4490590095520020e-01" nType="0">
            <Node pos="l" depth="3" NCoef="0" IVar="-1" Cut="0.0000000000000000e+00" cType="1" res="-9.2204716056585312e-03" rms="4.7932299971580505e-01" purity="3.9678442478179932e-01" nType="-99"/>
            <Node pos="r" depth="3" NCoef="0" IVar="-1" Cut="0.0000000000000000e+00" cType="1" res="7.2860238142311573e-03" rms="4.4568219780921936e-01" purity="6.4295071363449097e-01" nType="-99"/>
          </Node>
          <Node pos="r" depth="2" NCoef="0" IVar="-1" Cut="0.0000000000000000e+00" cType="1" res="-1.4305728487670422e-02" rms="4.4423782825469971e-01" purity="3.4465083479881287e-01" nType="-99"/>
        </Node>
        <Node pos="r" depth="1" NCoef="0" IVar="-1" Cut="0.0000000000000000e+00" cType="1" res="-1.5678502619266510e-02" rms="4.4086992740631104e-01" purity="3.0323725938796997e-01" nType="-99"/>
      </Node>
    </BinaryTree>
    <BinaryTree type="DecisionTree" boostWeight="1.0000000000000000e+00" itree="15">
      <Node pos="s" depth="0" NCoef="0" IVar="9" Cut="3.2229106426239014e+00" cType="1" res="5.0177985429763794e-01" rms="4.9999684095382690e-01" purity="5.0180256366729736e-01" nType="0">
        <Node pos="l" depth="1" NCoef="0" IVar="7" Cut="2.1113348007202148e+00" cType="1" res="5.2315944433212280e-01" rms="4.9946334958076477e-01" purity="5.2318483591079712e-01" nType="0">
          <Node pos="l" depth="2" NCoef="0" IVar="3" Cut="2.8281240463256836e+00" cType="1" res="5.8140951395034790e-01" rms="4.9332797527313232e-01" purity="5.8140951395034790e-01" nType="0">
            <Node pos="l" depth="3" NCoef="0" IVar="-1" Cut="0.0000000000000000e+00" cType="1" res="1.7712837085127831e-02" rms="4.5853683352470398e-01" purity="6.1017763614654541e-01" nType="-99"/>
            <Node pos="r" depth="3" NCoef="0" IVar="-1" Cut="0.0000000000000000e+00" cType="1" res="-1.5506637282669544e-02" rms="4.5661309361457825e-01" purity="4.5049381256103516e-01" nType="-99"/>
          </Node>
          <Node pos="r" depth="2" NCoef="0" IVar="4" Cut="1.6576175689697266e+00" cType="1" res="4.7676789760589600e-01" rms="4.9945998191833496e-01" purity="4.7681355476379395e-01" nType="0">
            <Node pos="l" depth="3" NCoef="0" IVar="-1" Cut="0.0000000000000000e+00" cType="1" res="-1.8251631408929825e-03" rms="4.6190965175628662e-01" purity="5.2851772308349609e-01" nType="-99"/>
            <Node pos="r" depth="3" NCoef="0" IVar="-1" Cut="0.0000000000000000e+00" cType="1" res="-2.0518874749541283e-02" rms="4.3504619598388672e-01" purity="3.7200829386711121e-01" nType="-99"/>
          </Node>
        </Node>
        <Node pos="r" depth="1" NCoef="0" IVar="-1" Cut="0.0000000000000000e+00" cType="1" res="-1.4968493953347206e-02" rms="4.4497972726821899e-01" purity="3.1730398535728455e-01" nType="-99"/>
      </Node>
    </BinaryTree>
    <BinaryTree type="DecisionTree" boostWeight="1.0000000000000000e+00" itree="16">
      <Node pos="s" depth="0" NCoef="0" IVar="8" Cut="3.2293179035186768e+00" cType="1" res="0.0000000000000000e+00" rms="1.6865850193426013e-03" purity="5.0074845552444458e-01" nType="0">
        <Node pos="l" depth="1" NCoef="0" IVar="5" Cut="4.5836639404296875e+01" cType="1" res="0.0000000000000000e+00" rms="1.3276768798828125e+03" purity="5.2256727218627930e-01" nType="0">
          <Node pos="l" depth="2" NCoef="0" IVar="1" Cut="1.4105380773544312e+00" cType="1" res="0.0000000000000000e+00" rms="0.0000000000000000e+00" purity="4.5556232333183289e-01" nType="0">
            <Node pos="l" depth="3" NCoef="0" IVar="-1" Cut="0.0000000000000000e+00" cType="1" res="1.6870625549927354e-03" rms="4.8017880320549011e-01" purity="5.2034282684326172e-01" nType="-99"/>
            <Node pos="r" depth="3" NCoef="0" IVar="-1" Cut="0.0000000000000000e+00" cType="1" res="-1.1675600893795490e-02" rms="4.7132763266563416e-01" purity="3.8293594121932983e-01" nType="-99"/>
          </Node>
          <Node pos="r" depth="2" NCoef="0" IVar="3" Cut="2.3757436275482178e+00" cType="1" res="0.0000000000000000e+00" rms="5.6688283648000000e+10" purity="8.3139324188232422e-01" nType="0">
            <Node pos="l" depth="3" NCoef="0" IVar="-1" Cut="0.0000000000000000e+00" cType="1" res="5.1284808665513992e-02" rms="3.3251234889030457e-01" purity="8.6092412471771240e-01" nType="-99"/>
            <Node pos="r" depth="3" NCoef="0" IVar="-1" Cut="0.0000000000000000e+00" cType="1" res="1.4316861517727375e-02" rms="3.8838845491409302e-01" purity="7.9541367292404175e-01" nType="-99"/>
          </Node>
        </Node>
        <Node pos="r" depth="1" NCoef="0" IVar="-1" Cut="0.0000000000000000e+00" cType="1" res="-2.0395668223500252e-02" rms="4.3151736259460449e-01" purity="3.0628609657287598e-01" nType="-99"/>
      </Node>
    </BinaryTree>
    <BinaryTree type="DecisionTree" boostWeight="1.0000000000000000e+00" itree="17">
      <Node pos="s" depth="0" NCoef="0" IVar="8" Cut="3.1729321479797363e+00" cType="1" res="4.9842250347137451e-01" rms="4.9999752640724182e-01" purity="4.9842357635498047e-01" nType="0">
        <Node pos="l" depth="1" NCoef="0" IVar="2" Cut="1.4994882345199585e+00" cType="1" res="5.2392464876174927e-01" rms="4.9942728877067566e-01" purity="5.2392584085464478e-01" nType="0">
          <Node pos="l" depth="2" NCoef="0" IVar="7" Cut="1.7662266492843628e+00" cType="1" res="2.7654843404889107e-02" rms="1.6793705523014069e-01" purity="5.7602179050445557e-01" nType="0">
            <Node pos="l" depth="3" NCoef="0" IVar="-1" Cut="0.0000000000000000e+00" cType="1" res="1.9235014915466309e-02" rms="4.4097942113876343e-01" purity="6.4222896099090576e-01" nType="-99"/>
            <Node pos="r" depth="3" NCoef="0" IVar="-1" Cut="0.0000000000000000e+00" cType="1" res="-1.3241810956969857e-03" rms="4.6239742636680603e-01" purity="5.3908246755599976e-01" nType="-99"/>
          </Node>
          <Node pos="r" depth="2" NCoef="0" IVar="8" Cut="2.2271573543548584e+00" cType="1" res="4.5141392946243286e-01" rms="4.9763378500938416e-01" purity="4.5141682028770447e-01" nType="0">
            <Node pos="l" depth="3" NCoef="0" IVar="-1" Cut="0.0000000000000000e+00" cType="1" res="-3.4223517868667841e-03" rms="4.5886498689651489e-01" purity="4.9293139576911926e-01" nType="-99"/>
            <Node pos="r" depth="3" NCoef="0" IVar="-1" Cut="0.0000000000000000e+00" cType="1" res="-2.5136722251772881e-02" rms="4.5831862092018127e-01" purity="3.8508540391921997e-01" nType="-99"/>
          </Node>
        </Node>
        <Node pos="r" depth="1" NCoef="0" IVar="-1" Cut="0.0000000000000000e+00" cType="1" res="-1.0301006026566029e-02" rms="4.3826535344123840e-01" purity="3.0988687276840210e-01" nType="-99"/>
      </Node>
    </BinaryTree>
    <BinaryTree type="DecisionTree" boostWeight="1.0000000000000000e+00" itree="18">
      <Node pos="s" depth="0" NCoef="0" IVar="7" Cut="3.3469135761260986e+00" cType="1" res="4.9830541014671326e-01" rms="4.9999713897705078e-01" purity="4.9830648303031921e-01" nType="0">
        <Node pos="l" depth="1" NCoef="0" IVar="5" Cut="3.1362342834472656e+01" cType="1" res="5.1952129602432251e-01" rms="4.9961876869201660e-01" purity="5.1952242851257324e-01" nType="0">
          <Node pos="l" depth="2" NCoef="0" IVar="2" Cut="1.5693136453628540e+00" cType="1" res="4.0493696928024292e-01" rms="4.9087983369827271e-01" purity="4.0493696928024292e-01" nType="0">
            <Node pos="l" depth="3" NCoef="0" IVar="-1" Cut="0.0000000000000000e+00" cType="1" res="-1.1621492449194193e-03" rms="4.8593214154243469e-01" purity="4.5600953698158264e-01" nType="-99"/>
            <Node pos="r" depth="3" NCoef="0" IVar="-1" Cut="0.0000000000000000e+00" cType="1" res="-1.4999255537986755e-02" rms="4.5939123630523682e-01" purity="3.2557049393653870e-01" nType="-99"/>
          </Node>
          <Node pos="r" depth="2" NCoef="0" IVar="1" Cut="2.0709357261657715e+00" cType="1" res="7.2185355424880981e-01" rms="4.4808590412139893e-01" purity="7.2185677289962769e-01" nType="0">
            <Node pos="l" depth="3" NCoef="0" IVar="-1" Cut="0.0000000000000000e+00" cType="1" res="1.8121510744094849e-02" rms="4.0715053677558899e-01" purity="7.5152307748794556e-01" nType="-99"/>
            <Node pos="r" depth="3" NCoef="0" IVar="-1" Cut="0.0000000000000000e+00" cType="1" res="-7.9313805326819420e-03" rms="4.6253040432929993e-01" purity="5.7920038700103760e-01" nType="-99"/>
          </Node>
        </Node>
        <Node pos="r" depth="1" NCoef="0" IVar="-1" Cut="0.0000000000000000e+00" cType="1" res="-1.3358846306800842e-02" rms="4.2226034402847290e-01" purity="2.7508264780044556e-01" nType="-99"/>
      </Node>
    </BinaryTree>
    <BinaryTree type="DecisionTree" boostWeight="1.0000000000000000e+00" itree="19">
      <Node pos="s" depth="0" NCoef="0" IVar="6" Cut="1.6983975172042847e+00" cType="1" res="4.9805429577827454e-01" rms="4.9999621510505676e-01" purity="4.9805426597595215e-01" nType="0">
        <Node pos="l" depth="1" NCoef="0" IVar="5" Cut="2.5962032318115234e+01" cType="1" res="5.2169030904769897e-01" rms="4.9952930212020874e-01" purity="5.2169036865234375e-01" nType="0">
          <Node pos="l" depth="2" NCoef="0" IVar="0" Cut="3.0000000000000000e+00" cType="1" res="-6.3036009669303894e-02" rms="4.6593663096427917e-01" purity="3.6185333132743835e-01" nType="0">
            <Node pos="l" depth="3" NCoef="0" IVar="-1" Cut="0.0000000000000000e+00" cType="1" res="-1.4989864081144333e-02" rms="4.2938414216041565e-01" purity="2.5093942880630493e-01" nType="-99"/>
            <Node pos="r" depth="3" NCoef="0" IVar="-1" Cut="0.0000000000000000e+00" cType="1" res="-3.0424667056649923e-03" rms="4.8438733816146851e-01" purity="4.3734121322631836e-01" nType="-99"/>
          </Node>
          <Node pos="r" depth="2" NCoef="0" IVar="2" Cut="2.2304093837738037e+00" cType="1" res="6.3354212045669556e-01" rms="4.8183658719062805e-01" purity="6.3358074426651001e-01" nType="0">
            <Node pos="l" depth="3" NCoef="0" IVar="-1" Cut="0.0000000000000000e+00" cType="1" res="1.2157420627772808e-02" rms="4.3735116720199585e-01" purity="6.5940070152282715e-01" nType="-99"/>
            <Node pos="r" depth="3" NCoef="0" IVar="-1" Cut="0.0000000000000000e+00" cType="1" res="-1.7057660967111588e-02" rms="4.6016263961791992e-01" purity="4.6537294983863831e-01" nType="-99"/>
          </Node>
        </Node>
        <Node pos="r" depth="1" NCoef="0" IVar="8" Cut="2.4741551876068115e+00" cType="1" res="3.3315104246139526e-01" rms="4.7134003043174744e-01" purity="3.3315104246139526e-01" nType="0">
          <Node pos="l" depth="2" NCoef="0" IVar="-1" Cut="0.0000000000000000e+00" cType="1" res="-1.1814241297543049e-02" rms="4.5868125557899475e-01" purity="3.9780178666114807e-01" nType="-99"/>
          <Node pos="r" depth="2" NCoef="0" IVar="-1" Cut="0.0000000000000000e+00" cType="1" res="-1.3261598534882069e-02" rms="4.2444729804992676e-01" purity="2.7769753336906433e-01" nType="-99"/>
        </Node>
      </Node>
    </BinaryTree>
    <BinaryTree type="DecisionTree" boostWeight="1.0000000000000000e+00" itree="20">
      <Node pos="s" depth="0" NCoef="0" IVar="3" Cut="2.4102790355682373e+00" cType="1" res="4.9823403358459473e-01" rms="4.9999722838401794e-01" purity="4.9825435876846313e-01" nType="0">
        <Node pos="l" depth="1" NCoef="0" IVar="4" Cut="2.4247586727142334e+00" cType="1" res="5.4813063144683838e-01" rms="4.9767866730690002e-01" purity="5.4816675186157227e-01" nType="0">
          <Node pos="l" depth="2" NCoef="0" IVar="1" Cut="2.0308334827423096e+00" cType="1" res="5.7837659120559692e-01" rms="4.9381890892982483e-01" purity="5.7837659120559692e-01" nType="0">
            <Node pos="l" depth="3" NCoef="0" IVar="-1" Cut="0.0000000000000000e+00" cType="1" res="1.6076933592557907e-02" rms="4.5228356122970581e-01" purity="6.2443965673446655e-01" nType="-99"/>
            <Node pos="r" depth="3" NCoef="0" IVar="-1" Cut="0.0000000000000000e+00" cType="1" res="-1.2315975502133369e-02" rms="4.6252083778381348e-01" purity="4.1345974802970886e-01" nType="-99"/>
          </Node>
          <Node pos="r" depth="2" NCoef="0" IVar="-1" Cut="0.0000000000000000e+00" cType="1" res="-2.6157829910516739e-02" rms="4.4698938727378845e-01" purity="3.5865730047225952e-01" nType="-99"/>
        </Node>
        <Node pos="r" depth="1" NCoef="0" IVar="4" Cut="6.8187993764877319e-01" cType="1" res="4.3446630239486694e-01" rms="4.9568673968315125e-01" purity="4.3446630239486694e-01" nType="0">
          <Node pos="l" depth="2" NCoef="0" IVar="-1" Cut="0.0000000000000000e+00" cType="1" res="-9.2970458790659904e-03" rms="4.3655884265899658e-01" purity="3.3250874280929565e-01" nType="-99"/>
          <Node pos="r" depth="2" NCoef="0" IVar="8" Cut="2.8149721622467041e+00" cType="1" res="4.5388078689575195e-01" rms="4.9786847829818726e-01" purity="4.5388081669807434e-01" nType="0">
            <Node pos="l" depth="3" NCoef="0" IVar="-1" Cut="0.0000000000000000e+00" cType="1" res="-7.8870421275496483e-03" rms="4.5319452881813049e-01" purity="4.9715733528137207e-01" nType="-99"/>
            <Node pos="r" depth="3" NCoef="0" IVar="-1" Cut="0.0000000000000000e+00" cType="1" res="-1.0600733570754528e-02" rms="4.3860211968421936e-01" purity="3.4319174289703369e-01" nType="-99"/>
          </Node>
        </Node>
      </Node>
    </BinaryTree>
    <BinaryTree type="DecisionTree" boostWeight="1.0000000000000000e+00" itree="21">
      <Node pos="s" depth="0" NCoef="0" IVar="6" Cut="1.9325093030929565e+00" cType="1" res="-3.5241604465379343e+37" rms="0.0000000000000000e+00" purity="5.0537306070327759e-01" nType="0">
        <Node pos="l" depth="1" NCoef="0" IVar="5" Cut="3.0931110382080078e+01" cType="1" res="1.5755875036120415e-02" rms="7.2253978252410889e-01" purity="5.2231198549270630e-01" nType="0">
          <Node pos="l" depth="2" NCoef="0" IVar="3" Cut="2.5257153511047363e+00" cType="1" res="3.9863148331642151e-01" rms="4.8966348171234131e-01" purity="3.9867737889289856e-01" nType="0">
            <Node pos="l" depth="3" NCoef="0" IVar="-1" Cut="0.0000000000000000e+00" cType="1" res="-5.9562741080299020e-04" rms="4.8259705305099487e-01" purity="4.4993442296981812e-01" nType="-99"/>
            <Node pos="r" depth="3" NCoef="0" IVar="-1" Cut="0.0000000000000000e+00" cType="1" res="-1.0688047856092453e-02" rms="4.5410615205764771e-01" purity="3.1097552180290222e-01" nType="-99"/>
          </Node>
          <Node pos="r" depth="2" NCoef="0" IVar="2" Cut="1.6084487438201904e+00" cType="1" res="7.2967678308486938e-01" rms="4.4412732124328613e-01" purity="7.2967725992202759e-01" nType="0">
            <Node pos="l" depth="3" NCoef="0" IVar="-1" Cut="0.0000000000000000e+00" cType="1" res="2.9375329613685608e-02" rms="3.9325067400932312e-01" purity="7.7100521326065063e-01" nType="-99"/>
            <Node pos="r" depth="3" NCoef="0" IVar="-1" Cut="0.0000000000000000e+00" cType="1" res="-1.9965237006545067e-03" rms="4.4863393902778625e-01" purity="6.5374916791915894e-01" nType="-99"/>
          </Node>
        </Node>
        <Node pos="r" depth="1" NCoef="0" IVar="-1" Cut="0.0000000000000000e+00" cType="1" res="-3.3471960574388504e-02" rms="4.2937168478965759e-01" purity="2.9606428742408752e-01" nType="-99"/>
      </Node>
    </BinaryTree>
    <BinaryTree type="DecisionTree" boostWeight="1.0000000000000000e+00" itree="22">
      <Node pos="s" depth="0" NCoef="0" IVar="7" Cut="3.3084585666656494e+00" cType="1" res="5.0121688842773438e-01" rms="4.9999850988388062e-01" purity="5.0123953819274902e-01" nType="0">
        <Node pos="l" depth="1" NCoef="0" IVar="5" Cut="3.0415115356445312e+01" cType="1" res="5.2292007207870483e-01" rms="4.9947440624237061e-01" purity="5.2292126417160034e-01" nType="0">
          <Node pos="l" depth="2" NCoef="0" IVar="0" Cut="3.0000000000000000e+00" cType="1" res="-3.9065256714820862e-02" rms="4.7380855679512024e-01" purity="3.9620429277420044e-01" nType="0">
            <Node pos="l" depth="3" NCoef="0" IVar="-1" Cut="0.0000000000000000e+00" cType="1" res="-1.5920571982860565e-02" rms="4.4825175404548645e-01" purity="2.9188206791877747e-01" nType="-99"/>
            <Node pos="r" depth="3" NCoef="0" IVar="-1" Cut="0.0000000000000000e+00" cType="1" res="-9.6841406775638461e-04" rms="4.8644030094146729e-01" purity="4.6257114410400391e-01" nType="-99"/>
          </Node>
          <Node pos="r" depth="2" NCoef="0" IVar="4" Cut="1.9708068370819092e+00" cType="1" res="7.2512215375900269e-01" rms="4.4645270705223083e-01" purity="7.2512525320053101e-01" nType="0">
            <Node pos="l" depth="3" NCoef="0" IVar="-1" Cut="0.0000000000000000e+00" cType="1" res="2.4351455271244049e-02" rms="4.0385466814041138e-01" purity="7.5641506910324097e-01" nType="-99"/>
            <Node pos="r" depth="3" NCoef="0" IVar="-1" Cut="0.0000000000000000e+00" cType="1" res="-5.4771420545876026e-03" rms="4.5520117878913879e-01" purity="6.1681729555130005e-01" nType="-99"/>
          </Node>
        </Node>
        <Node pos="r" depth="1" NCoef="0" IVar="-1" Cut="0.0000000000000000e+00" cType="1" res="-2.1561177447438240e-02" rms="4.3300175666809082e-01" purity="2.8466525673866272e-01" nType="-99"/>
      </Node>
    </BinaryTree>
    <BinaryTree type="DecisionTree" boostWeight="1.0000000000000000e+00" itree="23">
      <Node pos="s" depth="0" NCoef="0" IVar="4" Cut="2.0986664295196533e+00" cType="1" res="9.9169515073299408e-02" rms="3.0912828445434570e-01" purity="5.0786036252975464e-01" nType="0">
        <Node pos="l" depth="1" NCoef="0" IVar="4" Cut="6.2050229310989380e-01" cType="1" res="0.0000000000000000e+00" rms="inf" purity="5.3943520784378052e-01" nType="0">
          <Node pos="l" depth="2" NCoef="0" IVar="2" Cut="1.1833111047744751e+00" cType="1" res="4.2557018995285034e-01" rms="4.9522149562835693e-01" purity="4.2763993144035339e-01" nType="0">
            <Node pos="l" depth="3" NCoef="0" IVar="-1" Cut="0.0000000000000000e+00" cType="1" res="-3.8268796633929014e-03" rms="4.6147063374519348e-01" purity="4.9826002120971680e-01" nType="-99"/>
            <Node pos="r" depth="3" NCoef="0" IVar="-1" Cut="0.0000000000000000e+00" cType="1" res="-9.4663342460989952e-03" rms="4.3078407645225525e-01" purity="3.6529603600502014e-01" nType="-99"/>
          </Node>
          <Node pos="r" depth="2" NCoef="0" IVar="1" Cut="2.0701138973236084e+00" cType="1" res="-inf" rms="0.0000000000000000e+00" purity="5.5781841278076172e-01" nType="0">
            <Node pos="l" depth="3" NCoef="0" IVar="-1" Cut="0.0000000000000000e+00" cType="1" res="9.5277074724435806e-03" rms="4.4975724816322327e-01" purity="5.9204518795013428e-01" nType="-99"/>
            <Node pos="r" depth="3" NCoef="0" IVar="-1" Cut="0.0000000000000000e+00" cType="1" res="-1.5777682885527611e-02" rms="4.5387387275695801e-01" purity="3.8742890954017639e-01" nType="-99"/>
          </Node>
        </Node>
        <Node pos="r" depth="1" NCoef="0" IVar="7" Cut="1.5868456363677979e+00" cType="1" res="5.8751589059829712e-01" rms="0.0000000000000000e+00" purity="3.8359683752059937e-01" nType="0">
          <Node pos="l" depth="2" NCoef="0" IVar="-1" Cut="0.0000000000000000e+00" cType="1" res="-4.3170833960175514e-03" rms="4.5820933580398560e-01" purity="4.7105035185813904e-01" nType="-99"/>
          <Node pos="r" depth="2" NCoef="0" IVar="9" Cut="2.0531456470489502e+00" cType="1" res="0.0000000000000000e+00" rms="0.0000000000000000e+00" purity="3.4434601664543152e-01" nType="0">
            <Node pos="l" depth="3" NCoef="0" IVar="-1" Cut="0.0000000000000000e+00" cType="1" res="-1.7061259597539902e-02" rms="4.3726530671119690e-01" purity="4.1489157080650330e-01" nType="-99"/>
            <Node pos="r" depth="3" NCoef="0" IVar="-1" Cut="0.0000000000000000e+00" cType="1" res="-3.5804621875286102e-02" rms="4.2116788029670715e-01" purity="2.8257849812507629e-01" nType="-99"/>
          </Node>
        </Node>
      </Node>
    </BinaryTree>
    <BinaryTree type="DecisionTree" boostWeight="1.0000000000000000e+00" itree="24">
      <Node pos="s" depth="0" NCoef="0" IVar="7" Cut="1.8504731655120850e+00" cType="1" res="5.0641208887100220e-01" rms="4.9995887279510498e-01" purity="5.0643324851989746e-01" nType="0">
        <Node pos="l" depth="1" NCoef="0" IVar="2" Cut="1.4252600669860840e+00" cType="1" res="0.0000000000000000e+00" rms="2.1823119360000000e+10" purity="5.7703197002410889e-01" nType="0">
          <Node pos="l" depth="2" NCoef="0" IVar="8" Cut="2.0130856037139893e+00" cType="1" res="0.0000000000000000e+00" rms="0.0000000000000000e+00" purity="6.4010137319564819e-01" nType="0">
            <Node pos="l" depth="3" NCoef="0" IVar="-1" Cut="0.0000000000000000e+00" cType="1" res="4.3132208287715912e-02" rms="4.1839715838432312e-01" purity="7.0775228738784790e-01" nType="-99"/>
            <Node pos="r" depth="3" NCoef="0" IVar="-1" Cut="0.0000000000000000e+00" cType="1" res="1.1864986270666122e-02" rms="4.4625139236450195e-01" purity="6.0298883914947510e-01" nType="-99"/>
          </Node>
          <Node pos="r" depth="2" NCoef="0" IVar="9" Cut="1.9937369823455811e+00" cType="1" res="0.0000000000000000e+00" rms="7.9028006822741301e+36" purity="4.9446523189544678e-01" nType="0">
            <Node pos="l" depth="3" NCoef="0" IVar="-1" Cut="0.0000000000000000e+00" cType="1" res="9.6419677138328552e-03" rms="4.6310731768608093e-01" purity="5.6967854499816895e-01" nType="-99"/>
            <Node pos="r" depth="3" NCoef="0" IVar="-1" Cut="0.0000000000000000e+00" cType="1" res="-1.4866203069686890e-02" rms="4.5566529035568237e-01" purity="4.4357141852378845e-01" nType="-99"/>
          </Node>
        </Node>
        <Node pos="r" depth="1" NCoef="0" IVar="1" Cut="1.4979196786880493e+00" cType="1" res="4.6814328432083130e-01" rms="4.9898412823677063e-01" purity="4.6817594766616821e-01" nType="0">
          <Node pos="l" depth="2" NCoef="0" IVar="8" Cut="1.8821426630020142e+00" cType="1" res="0.0000000000000000e+00" rms="2.8862995200000000e+08" purity="5.3221076726913452e-01" nType="0">
            <Node pos="l" depth="3" NCoef="0" IVar="-1" Cut="0.0000000000000000e+00" cType="1" res="1.1042989790439606e-02" rms="4.3949818611145020e-01" purity="6.0541617870330811e-01" nType="-99"/>
            <Node pos="r" depth="3" NCoef="0" IVar="-1" Cut="0.0000000000000000e+00" cType="1" res="-6.5512964501976967e-03" rms="4.6335718035697937e-01" purity="4.7104412317276001e-01" nType="-99"/>
          </Node>
          <Node pos="r" depth="2" NCoef="0" IVar="4" Cut="1.6783175468444824e+00" cType="1" res="3.6596605181694031e-01" rms="4.8170000314712524e-01" purity="3.6605077981948853e-01" nType="0">
            <Node pos="l" depth="3" NCoef="0" IVar="-1" Cut="0.0000000000000000e+00" cType="1" res="-1.0632442310452461e-02" rms="4.5889133214950562e-01" purity="4.1014158725738525e-01" nType="-99"/>
            <Node pos="r" depth="3" NCoef="0" IVar="-1" Cut="0.0000000000000000e+00" cType="1" res="-3.0131315812468529e-02" rms="4.1780471801757812e-01" purity="2.7586191892623901e-01" nType="-99"/>
          </Node>
        </Node>
      </Node>
    </BinaryTree>
    <BinaryTree type="DecisionTree" boostWeight="1.0000000000000000e+00" itree="25">
      <Node pos="s" depth="0" NCoef="0" IVar="7" Cut="3.2849419116973877e+00" cType="1" res="5.0340783596038818e-01" rms="4.9998837709426880e-01" purity="5.0340795516967773e-01" nType="0">
        <Node pos="l" depth="1" NCoef="0" IVar="5" Cut="4.0764221191406250e+01" cType="1" res="5.2899193763732910e-01" rms="4.9915876984596252e-01" purity="5.2899205684661865e-01" nType="0">
          <Node pos="l" depth="2" NCoef="0" IVar="0" Cut="3.0000000000000000e+00" cType="1" res="-2.1548705175518990e-02" rms="4.7520831227302551e-01" purity="4.4680228829383850e-01" nType="0">
            <Node pos="l" depth="3" NCoef="0" IVar="-1" Cut="0.0000000000000000e+00" cType="1" res="-1.0814036242663860e-02" rms="4.5926484465599060e-01" purity="3.4802478551864624e-01" nType="-99"/>
            <Node pos="r" depth="3" NCoef="0" IVar="-1" Cut="0.0000000000000000e+00" cType="1" res="1.1255046119913459e-03" rms="4.8337602615356445e-01" purity="5.1140290498733521e-01" nType="-99"/>
          </Node>
          <Node pos="r" depth="2" NCoef="0" IVar="7" Cut="1.8563227653503418e+00" cType="1" res="8.2575172185897827e-01" rms="3.7932282686233521e-01" purity="8.2593411207199097e-01" nType="0">
            <Node pos="l" depth="3" NCoef="0" IVar="-1" Cut="0.0000000000000000e+00" cType="1" res="5.0786782056093216e-02" rms="3.2092195749282837e-01" purity="8.7220007181167603e-01" nType="-99"/>
            <Node pos="r" depth="3" NCoef="0" IVar="-1" Cut="0.0000000000000000e+00" cType="1" res="1.2773218564689159e-02" rms="3.7571620941162109e-01" purity="7.9475736618041992e-01" nType="-99"/>
          </Node>
        </Node>
        <Node pos="r" depth="1" NCoef="0" IVar="-1" Cut="0.0000000000000000e+00" cType="1" res="-9.8483311012387276e-03" rms="4.1553935408592224e-01" purity="2.7864775061607361e-01" nType="-99"/>
      </Node>
    </BinaryTree>
    <BinaryTree type="DecisionTree" boostWeight="1.0000000000000000e+00" itree="26">
      <Node pos="s" depth="0" NCoef="0" IVar="5" Cut="3.6444824218750000e+01" cType="1" res="4.9649628996849060e-01" rms="4.9998772144317627e-01" purity="4.9649626016616821e-01" nType="0">
        <Node pos="l" depth="1" NCoef="0" IVar="8" Cut="2.4664902687072754e+00" cType="1" res="3.9803671836853027e-01" rms="4.8949310183525085e-01" purity="3.9803668856620789e-01" nType="0">
          <Node pos="l" depth="2" NCoef="0" IVar="1" Cut="8.5119420289993286e-01" cType="1" res="0.0000000000000000e+00" rms="1.4910725440131500e-05" purity="4.4359835982322693e-01" nType="0">
            <Node pos="l" depth="3" NCoef="0" IVar="-1" Cut="0.0000000000000000e+00" cType="1" res="2.4233032017946243e-02" rms="4.7422230243682861e-01" purity="5.8227825164794922e-01" nType="-99"/>
            <Node pos="r" depth="3" NCoef="0" IVar="-1" Cut="0.0000000000000000e+00" cType="1" res="-3.5917425993829966e-03" rms="4.7410145401954651e-01" purity="4.0799149870872498e-01" nType="-99"/>
          </Node>
          <Node pos="r" depth="2" NCoef="0" IVar="3" Cut="2.5285634994506836e+00" cType="1" res="3.3099883794784546e-01" rms="4.7057265043258667e-01" purity="3.3099880814552307e-01" nType="0">
            <Node pos="l" depth="3" NCoef="0" IVar="-1" Cut="0.0000000000000000e+00" cType="1" res="-1.0493296198546886e-02" rms="4.6666646003723145e-01" purity="3.8312670588493347e-01" nType="-99"/>
            <Node pos="r" depth="3" NCoef="0" IVar="-1" Cut="0.0000000000000000e+00" cType="1" res="-1.2019013054668903e-02" rms="4.2440363764762878e-01" purity="2.5017207860946655e-01" nType="-99"/>
          </Node>
        </Node>
        <Node pos="r" depth="1" NCoef="0" IVar="2" Cut="8.1993108987808228e-01" cType="1" res="7.9234188795089722e-01" rms="4.0563064813613892e-01" purity="7.9234206676483154e-01" nType="0">
          <Node pos="l" depth="2" NCoef="0" IVar="-1" Cut="0.0000000000000000e+00" cType="1" res="5.1111154258251190e-02" rms="3.1672894954681396e-01" purity="8.6847352981567383e-01" nType="-99"/>
          <Node pos="r" depth="2" NCoef="0" IVar="8" Cut="1.7185807228088379e+00" cType="1" res="7.7169477939605713e-01" rms="4.1974034905433655e-01" purity="7.7169507741928101e-01" nType="0">
            <Node pos="l" depth="3" NCoef="0" IVar="-1" Cut="0.0000000000000000e+00" cType="1" res="2.7565915137529373e-02" rms="3.6779075860977173e-01" purity="8.2306420803070068e-01" nType="-99"/>
            <Node pos="r" depth="3" NCoef="0" IVar="-1" Cut="0.0000000000000000e+00" cType="1" res="2.8538953047245741e-03" rms="4.1053429245948792e-01" purity="7.3549234867095947e-01" nType="-99"/>
          </Node>
        </Node>
      </Node>
    </BinaryTree>
    <BinaryTree type="DecisionTree" boostWeight="1.0000000000000000e+00" itree="27">
      <Node pos="s" depth="0" NCoef="0" IVar="7" Cut="3.3881580829620361e+00" cType="1" res="4.9315032362937927e-01" rms="4.9995315074920654e-01" purity="4.9315041303634644e-01" nType="0">
        <Node pos="l" depth="1" NCoef="0" IVar="3" Cut="3.0651359558105469e+00" cType="1" res="5.1037627458572388e-01" rms="4.9989238381385803e-01" purity="5.1037633419036865e-01" nType="0">
          <Node pos="l" depth="2" NCoef="0" IVar="8" Cut="3.1701276302337646e+00" cType="1" res="5.2860808372497559e-01" rms="4.9918097257614136e-01" purity="5.2860814332962036e-01" nType="0">
            <Node pos="l" depth="3" NCoef="0" IVar="-1" Cut="0.0000000000000000e+00" cType="1" res="7.0922287704888731e-05" rms="4.5682451128959656e-01" purity="5.4757833480834961e-01" nType="-99"/>
            <Node pos="r" depth="3" NCoef="0" IVar="-1" Cut="0.0000000000000000e+00" cType="1" res="-2.2737469524145126e-02" rms="4.5127615332603455e-01" purity="3.6134085059165955e-01" nType="-99"/>
          </Node>
          <Node pos="r" depth="2" NCoef="0" IVar="-1" Cut="0.0000000000000000e+00" cType="1" res="-1.7480613663792610e-02" rms="4.2980659008026123e-01" purity="3.6758416891098022e-01" nType="-99"/>
        </Node>
        <Node pos="r" depth="1" NCoef="0" IVar="-1" Cut="0.0000000000000000e+00" cType="1" res="-2.9452549293637276e-02" rms="4.1557586193084717e-01" purity="2.7130305767059326e-01" nType="-99"/>
      </Node>
    </BinaryTree>
    <BinaryTree type="DecisionTree" boostWeight="1.0000000000000000e+00" itree="28">
      <Node pos="s" depth="0" NCoef="0" IVar="9" Cut="3.1774272918701172e+00" cType="1" res="5.0461571663618088e-02" rms="0.0000000000000000e+00" purity="4.9261912703514099e-01" nType="0">
        <Node pos="l" depth="1" NCoef="0" IVar="0" Cut="5.0000000000000000e+00" cType="1" res="-1.3361907564103603e-02" rms="4.5261102914810181e-01" purity="5.1645052433013916e-01" nType="0">
          <Node pos="l" depth="2" NCoef="0" IVar="7" Cut="2.7227985858917236e+00" cType="1" res="3.5477694123983383e-02" rms="0.0000000000000000e+00" purity="4.9641779065132141e-01" nType="0">
            <Node pos="l" depth="3" NCoef="0" IVar="-1" Cut="0.0000000000000000e+00" cType="1" res="-5.6521029910072684e-04" rms="4.5718750357627869e-01" purity="5.3320229053497314e-01" nType="-99"/>
            <Node pos="r" depth="3" NCoef="0" IVar="-1" Cut="0.0000000000000000e+00" cType="1" res="-7.5725796632468700e-03" rms="4.4043859839439392e-01" purity="4.2200767993927002e-01" nType="-99"/>
          </Node>
          <Node pos="r" depth="2" NCoef="0" IVar="3" Cut="2.2487721443176270e+00" cType="1" res="inf" rms="0.0000000000000000e+00" purity="6.5954071283340454e-01" nType="0">
            <Node pos="l" depth="3" NCoef="0" IVar="-1" Cut="0.0000000000000000e+00" cType="1" res="3.9926663041114807e-02" rms="4.2755874991416931e-01" purity="7.1837842464447021e-01" nType="-99"/>
            <Node pos="r" depth="3" NCoef="0" IVar="-1" Cut="0.0000000000000000e+00" cType="1" res="4.9271127209067345e-03" rms="4.5322245359420776e-01" purity="6.0970157384872437e-01" nType="-99"/>
          </Node>
        </Node>
        <Node pos="r" depth="1" NCoef="0" IVar="3" Cut="2.2631971836090088e+00" cType="1" res="3.1736041015625000e+04" rms="7.9459352000000000e+07" purity="3.1883504986763000e-01" nType="0">
          <Node pos="l" depth="2" NCoef="0" IVar="-1" Cut="0.0000000000000000e+00" cType="1" res="-2.1585058420896530e-02" rms="4.4034737348556519e-01" purity="3.5521838068962097e-01" nType="-99"/>
          <Node pos="r" depth="2" NCoef="0" IVar="-1" Cut="0.0000000000000000e+00" cType="1" res="-1.3655784539878368e-02" rms="4.3133255839347839e-01" purity="2.8928098082542419e-01" nType="-99"/>
        </Node>
      </Node>
    </BinaryTree>
    <BinaryTree type="DecisionTree" boostWeight="1.0000000000000000e+00" itree="29">
      <Node pos="s" depth="0" NCoef="0" IVar="7" Cut="3.2237637042999268e+00" cType="1" res="5.0198149681091309e-01" rms="4.9999606609344482e-01" purity="5.0200271606445312e-01" nType="0">
        <Node pos="l" depth="1" NCoef="0" IVar="8" Cut="3.2993981838226318e+00" cType="1" res="5.2862638235092163e-01" rms="4.9917986989021301e-01" purity="5.2862638235092163e-01" nType="0">
          <Node pos="l" depth="2" NCoef="0" IVar="3" Cut="2.4239873886108398e+00" cType="1" res="5.4414981603622437e-01" rms="4.9809008836746216e-01" purity="5.4432505369186401e-01" nType="0">
            <Node pos="l" depth="3" NCoef="0" IVar="-1" Cut="0.0000000000000000e+00" cType="1" res="6.2107550911605358e-03" rms="4.4999963045120239e-01" purity="5.7954531908035278e-01" nType="-99"/>
            <Node pos="r" depth="3" NCoef="0" IVar="-1" Cut="0.0000000000000000e+00" cType="1" res="-6.8685156293213367e-03" rms="4.5028430223464966e-01" purity="4.9411711096763611e-01" nType="-99"/>
          </Node>
          <Node pos="r" depth="2" NCoef="0" IVar="-1" Cut="0.0000000000000000e+00" cType="1" res="-2.5381844490766525e-02" rms="4.3486520648002625e-01" purity="3.2041898369789124e-01" nType="-99"/>
        </Node>
        <Node pos="r" depth="1" NCoef="0" IVar="-1" Cut="0.0000000000000000e+00" cType="1" res="-7.8824879601597786e-03" rms="4.2053946852684021e-01" purity="2.9491046071052551e-01" nType="-99"/>
      </Node>
    </BinaryTree>
    <BinaryTree type="DecisionTree" boostWeight="1.0000000000000000e+00" itree="30">
      <Node pos="s" depth="0" NCoef="0" IVar="8" Cut="2.7301688194274902e+00" cType="1" res="5.0111889839172363e-01" rms="4.9999874830245972e-01" purity="5.0111889839172363e-01" nType="0">
        <Node pos="l" depth="1" NCoef="0" IVar="2" Cut="1.3238673210144043e+00" cType="1" res="-0.0000000000000000e+00" rms="0.0000000000000000e+00" purity="5.4196465015411377e-01" nType="0">
          <Node pos="l" depth="2" NCoef="0" IVar="1" Cut="1.8650150299072266e+00" cType="1" res="2.9212388396263123e-01" rms="0.0000000000000000e+00" purity="6.1015093326568604e-01" nType="0">
            <Node pos="l" depth="3" NCoef="0" IVar="-1" Cut="0.0000000000000000e+00" cType="1" res="1.8790539354085922e-02" rms="4.4178500771522522e-01" purity="6.5085262060165405e-01" nType="-99"/>
            <Node pos="r" depth="3" NCoef="0" IVar="-1" Cut="0.0000000000000000e+00" cType="1" res="-4.9185901880264282e-03" rms="4.5360678434371948e-01" purity="4.5206207036972046e-01" nType="-99"/>
          </Node>
          <Node pos="r" depth="2" NCoef="0" IVar="5" Cut="2.2412939071655273e+01" cType="1" res="0.0000000000000000e+00" rms="0.0000000000000000e+00" purity="4.8267611861228943e-01" nType="0">
            <Node pos="l" depth="3" NCoef="0" IVar="-1" Cut="0.0000000000000000e+00" cType="1" res="-2.0373951643705368e-02" rms="4.4166120886802673e-01" purity="2.8717434406280518e-01" nType="-99"/>
            <Node pos="r" depth="3" NCoef="0" IVar="-1" Cut="0.0000000000000000e+00" cType="1" res="-1.2203488731756806e-03" rms="4.5110461115837097e-01" purity="5.2768635749816895e-01" nType="-99"/>
          </Node>
        </Node>
        <Node pos="r" depth="1" NCoef="0" IVar="9" Cut="2.7082378864288330e+00" cType="1" res="4.0273410081863403e-01" rms="4.9044811725616455e-01" purity="4.0273413062095642e-01" nType="0">
          <Node pos="l" depth="2" NCoef="0" IVar="2" Cut="9.9737155437469482e-01" cType="1" res="0.0000000000000000e+00" rms="0.0000000000000000e+00" purity="4.5095610618591309e-01" nType="0">
            <Node pos="l" depth="3" NCoef="0" IVar="-1" Cut="0.0000000000000000e+00" cType="1" res="4.4828834943473339e-03" rms="4.5099657773971558e-01" purity="5.4933792352676392e-01" nType="-99"/>
            <Node pos="r" depth="3" NCoef="0" IVar="-1" Cut="0.0000000000000000e+00" cType="1" res="-1.6511924564838409e-02" rms="4.5147779583930969e-01" purity="4.0405118465423584e-01" nType="-99"/>
          </Node>
          <Node pos="r" depth="2" NCoef="0" IVar="-1" Cut="0.0000000000000000e+00" cType="1" res="-1.3539913110435009e-02" rms="4.3513184785842896e-01" purity="3.1335407495498657e-01" nType="-99"/>
        </Node>
      </Node>
    </BinaryTree>
    <BinaryTree type="DecisionTree" boostWeight="1.0000000000000000e+00" itree="31">
      <Node pos="s" depth="0" NCoef="0" IVar="9" Cut="3.4252772331237793e+00" cType="1" res="4.9718993902206421e-01" rms="4.9999216198921204e-01" purity="4.9719002842903137e-01" nType="0">
        <Node pos="l" depth="1" NCoef="0" IVar="7" Cut="3.1649942398071289e+00" cType="1" res="5.1303803920745850e-01" rms="4.9983003735542297e-01" purity="5.1303809881210327e-01" nType="0">
          <Node pos="l" depth="2" NCoef="0" IVar="5" Cut="2.2981048583984375e+01" cType="1" res="5.3843498229980469e-01" rms="4.9852064251899719e-01" purity="5.3843510150909424e-01" nType="0">
            <Node pos="l" depth="3" NCoef="0" IVar="-1" Cut="0.0000000000000000e+00" cType="1" res="-7.8910943120718002e-03" rms="4.6659332513809204e-01" purity="3.6533606052398682e-01" nType="-99"/>
            <Node pos="r" depth="3" NCoef="0" IVar="-1" Cut="0.0000000000000000e+00" cType="1" res="2.8614129405468702e-03" rms="4.4768705964088440e-01" purity="5.8670109510421753e-01" nType="-99"/>
          </Node>
          <Node pos="r" depth="2" NCoef="0" IVar="-1" Cut="0.0000000000000000e+00" cType="1" res="-1.1233397759497166e-02" rms="4.3202495574951172e-01" purity="3.3338531851768494e-01" nType="-99"/>
        </Node>
        <Node pos="r" depth="1" NCoef="0" IVar="-1" Cut="0.0000000000000000e+00" cType="1" res="-3.3939927816390991e-02" rms="4.1628184914588928e-01" purity="2.6450952887535095e-01" nType="-99"/>
      </Node>
    </BinaryTree>
    <BinaryTree type="DecisionTree" boostWeight="1.0000000000000000e+00" itree="32">
      <Node pos="s" depth="0" NCoef="0" IVar="3" Cut="2.8366711139678955e+00" cType="1" res="4.9787312746047974e-01" rms="4.9999547004699707e-01" purity="4.9787414073944092e-01" nType="0">
        <Node pos="l" depth="1" NCoef="0" IVar="4" Cut="2.4426393508911133e+00" cType="1" res="5.2475899457931519e-01" rms="4.9938660860061646e-01" purity="5.2476030588150024e-01" nType="0">
          <Node pos="l" depth="2" NCoef="0" IVar="4" Cut="5.8358830213546753e-01" cType="1" res="5.4561442136764526e-01" rms="4.9791496992111206e-01" purity="5.4561442136764526e-01" nType="0">
            <Node pos="l" depth="3" NCoef="0" IVar="-1" Cut="0.0000000000000000e+00" cType="1" res="-8.7423268705606461e-03" rms="4.5744976401329041e-01" purity="4.5320791006088257e-01" nType="-99"/>
            <Node pos="r" depth="3" NCoef="0" IVar="-1" Cut="0.0000000000000000e+00" cType="1" res="1.8905486213043332e-03" rms="4.5350638031959534e-01" purity="5.5680465698242188e-01" nType="-99"/>
          </Node>
          <Node pos="r" depth="2" NCoef="0" IVar="-1" Cut="0.0000000000000000e+00" cType="1" res="-1.7375113442540169e-02" rms="4.4001829624176025e-01" purity="3.6439734697341919e-01" nType="-99"/>
        </Node>
        <Node pos="r" depth="1" NCoef="0" IVar="8" Cut="2.6316456794738770e+00" cType="1" res="0.0000000000000000e+00" rms="0.0000000000000000e+00" purity="3.8748294115066528e-01" nType="0">
          <Node pos="l" depth="2" NCoef="0" IVar="5" Cut="2.8587732315063477e+01" cType="1" res="4.5759207569062710e-04" rms="0.0000000000000000e+00" purity="4.3700096011161804e-01" nType="0">
            <Node pos="l" depth="3" NCoef="0" IVar="-1" Cut="0.0000000000000000e+00" cType="1" res="-1.0207451879978180e-02" rms="4.4830396771430969e-01" purity="2.8939744830131531e-01" nType="-99"/>
            <Node pos="r" depth="3" NCoef="0" IVar="-1" Cut="0.0000000000000000e+00" cType="1" res="-4.2039812542498112e-03" rms="4.3910205364227295e-01" purity="6.1721599102020264e-01" nType="-99"/>
          </Node>
          <Node pos="r" depth="2" NCoef="0" IVar="-1" Cut="0.0000000000000000e+00" cType="1" res="-1.6937348991632462e-02" rms="4.2044413089752197e-01" purity="3.0266046524047852e-01" nType="-99"/>
        </Node>
      </Node>
    </BinaryTree>
    <BinaryTree type="DecisionTree" boostWeight="1.0000000000000000e+00" itree="33">
      <Node pos="s" depth="0" NCoef="0" IVar="5" Cut="2.2239307403564453e+01" cType="1" res="4.9638170003890991e-01" rms="4.9998691678047180e-01" purity="4.9642705917358398e-01" nType="0">
        <Node pos="l" depth="1" NCoef="0" IVar="2" Cut="1.5384433269500732e+00" cType="1" res="3.1241250038146973e-01" rms="4.6348965167999268e-01" purity="3.1257835030555725e-01" nType="0">
          <Node pos="l" depth="2" NCoef="0" IVar="-1" Cut="0.0000000000000000e+00" cType="1" res="-7.0316945202648640e-03" rms="4.7051408886909485e-01" purity="3.8162907958030701e-01" nType="-99"/>
          <Node pos="r" depth="2" NCoef="0" IVar="-1" Cut="0.0000000000000000e+00" cType="1" res="-1.2664595618844032e-02" rms="4.0974581241607666e-01" purity="2.2306366264820099e-01" nType="-99"/>
        </Node>
        <Node pos="r" depth="1" NCoef="0" IVar="9" Cut="3.3651790618896484e+00" cType="1" res="5.3539967536926270e-01" rms="4.9874529242515564e-01" purity="5.3545469045639038e-01" nType="0">
          <Node pos="l" depth="2" NCoef="0" IVar="3" Cut="2.4279730319976807e+00" cType="1" res="5.5495113134384155e-01" rms="4.9697118997573853e-01" purity="5.5501067638397217e-01" nType="0">
            <Node pos="l" depth="3" NCoef="0" IVar="-1" Cut="0.0000000000000000e+00" cType="1" res="4.7202501446008682e-03" rms="4.4813191890716553e-01" purity="5.9578073024749756e-01" nType="-99"/>
            <Node pos="r" depth="3" NCoef="0" IVar="-1" Cut="0.0000000000000000e+00" cType="1" res="-5.2992426790297031e-03" rms="4.5256125926971436e-01" purity="4.9644330143928528e-01" nType="-99"/>
          </Node>
          <Node pos="r" depth="2" NCoef="0" IVar="-1" Cut="0.0000000000000000e+00" cType="1" res="-2.8014108538627625e-02" rms="4.2565771937370300e-01" purity="2.9722720384597778e-01" nType="-99"/>
        </Node>
      </Node>
    </BinaryTree>
    <BinaryTree type="DecisionTree" boostWeight="1.0000000000000000e+00" itree="34">
      <Node pos="s" depth="0" NCoef="0" IVar="9" Cut="3.2658972740173340e+00" cType="1" res="4.9797895550727844e-01" rms="4.9999591708183289e-01" purity="4.9797898530960083e-01" nType="0">
        <Node pos="l" depth="1" NCoef="0" IVar="1" Cut="2.3055799007415771e+00" cType="1" res="5.2404803037643433e-01" rms="4.9942135810852051e-01" purity="5.2404803037643433e-01" nType="0">
          <Node pos="l" depth="2" NCoef="0" IVar="2" Cut="2.3676452636718750e+00" cType="1" res="5.3048431873321533e-01" rms="5.0655174255371094e-01" purity="5.5151063203811646e-01" nType="0">
            <Node pos="l" depth="3" NCoef="0" IVar="-1" Cut="0.0000000000000000e+00" cType="1" res="3.4285562578588724e-03" rms="4.5253419876098633e-01" purity="5.7173675298690796e-01" nType="-99"/>
            <Node pos="r" depth="3" NCoef="0" IVar="-1" Cut="0.0000000000000000e+00" cType="1" res="-1.4277638867497444e-02" rms="4.4273582100868225e-01" purity="3.5718318819999695e-01" nType="-99"/>
          </Node>
          <Node pos="r" depth="2" NCoef="0" IVar="7" Cut="1.8793578147888184e+00" cType="1" res="0.0000000000000000e+00" rms="0.0000000000000000e+00" purity="3.5082054138183594e-01" nType="0">
            <Node pos="l" depth="3" NCoef="0" IVar="-1" Cut="0.0000000000000000e+00" cType="1" res="1.2986885849386454e-04" rms="4.7010192275047302e-01" purity="4.6876236796379089e-01" nType="-99"/>
            <Node pos="r" depth="3" NCoef="0" IVar="-1" Cut="0.0000000000000000e+00" cType="1" res="-2.6779461652040482e-02" rms="4.1674989461898804e-01" purity="2.6501473784446716e-01" nType="-99"/>
          </Node>
        </Node>
        <Node pos="r" depth="1" NCoef="0" IVar="-1" Cut="0.0000000000000000e+00" cType="1" res="-7.1271797642111778e-03" rms="4.4818583130836487e-01" purity="2.7196988463401794e-01" nType="-99"/>
      </Node>
    </BinaryTree>
    <BinaryTree type="DecisionTree" boostWeight="1.0000000000000000e+00" itree="35">
      <Node pos="s" depth="0" NCoef="0" IVar="7" Cut="2.0930879116058350e+00" cType="1" res="0.0000000000000000e+00" rms="0.0000000000000000e+00" purity="5.0402563810348511e-01" nType="0">
        <Node pos="l" depth="1" NCoef="0" IVar="8" Cut="2.3456754684448242e+00" cType="1" res="5.6793695688247681e-01" rms="4.9536308646202087e-01" purity="5.6793695688247681e-01" nType="0">
          <Node pos="l" depth="2" NCoef="0" IVar="1" Cut="1.0956015586853027e+00" cType="1" res="6.2001037597656250e-01" rms="4.8538386821746826e-01" purity="6.2001031637191772e-01" nType="0">
            <Node pos="l" depth="3" NCoef="0" IVar="-1" Cut="0.0000000000000000e+00" cType="1" res="3.8336154073476791e-02" rms="4.1059157252311707e-01" purity="7.2374433279037476e-01" nType="-99"/>
            <Node pos="r" depth="3" NCoef="0" IVar="-1" Cut="0.0000000000000000e+00" cType="1" res="6.7056282423436642e-03" rms="4.5987978577613831e-01" purity="5.7403004169464111e-01" nType="-99"/>
          </Node>
          <Node pos="r" depth="2" NCoef="0" IVar="5" Cut="2.5245952606201172e+01" cType="1" res="5.0460582971572876e-01" rms="4.9997878074645996e-01" purity="5.0460588932037354e-01" nType="0">
            <Node pos="l" depth="3" NCoef="0" IVar="-1" Cut="0.0000000000000000e+00" cType="1" res="-1.2530160136520863e-02" rms="4.5874163508415222e-01" purity="3.4917935729026794e-01" nType="-99"/>
            <Node pos="r" depth="3" NCoef="0" IVar="-1" Cut="0.0000000000000000e+00" cType="1" res="4.4199731200933456e-03" rms="4.4375112652778625e-01" purity="5.9962540864944458e-01" nType="-99"/>
          </Node>
        </Node>
        <Node pos="r" depth="1" NCoef="0" IVar="4" Cut="1.3645516633987427e+00" cType="1" res="0.0000000000000000e+00" rms="0.0000000000000000e+00" purity="4.5568606257438660e-01" nType="0">
          <Node pos="l" depth="2" NCoef="0" IVar="4" Cut="6.0841119289398193e-01" cType="1" res="2.8179603815078735e-01" rms="0.0000000000000000e+00" purity="5.1395255327224731e-01" nType="0">
            <Node pos="l" depth="3" NCoef="0" IVar="-1" Cut="0.0000000000000000e+00" cType="1" res="-2.1440630778670311e-02" rms="4.5530101656913757e-01" purity="4.1067421436309814e-01" nType="-99"/>
            <Node pos="r" depth="3" NCoef="0" IVar="-1" Cut="0.0000000000000000e+00" cType="1" res="3.7851345259696245e-03" rms="4.4922539591789246e-01" purity="5.4284417629241943e-01" nType="-99"/>
          </Node>
          <Node pos="r" depth="2" NCoef="0" IVar="1" Cut="1.0933707952499390e+00" cType="1" res="0.0000000000000000e+00" rms="1.2133666229248047e+02" purity="3.8885670900344849e-01" nType="0">
            <Node pos="l" depth="3" NCoef="0" IVar="-1" Cut="0.0000000000000000e+00" cType="1" res="-4.5192101970314980e-03" rms="4.4643989205360413e-01" purity="4.8914542794227600e-01" nType="-99"/>
            <Node pos="r" depth="3" NCoef="0" IVar="-1" Cut="0.0000000000000000e+00" cType="1" res="-1.0107085108757019e-02" rms="4.2374911904335022e-01" purity="3.2216367125511169e-01" nType="-99"/>
          </Node>
        </Node>
      </Node>
    </BinaryTree>
    <BinaryTree type="DecisionTree" boostWeight="1.0000000000000000e+00" itree="36">
      <Node pos="s" depth="0" NCoef="0" IVar="3" Cut="2.7335970401763916e+00" cType="1" res="1.0647457915347047e-10" rms="6.8090805000000000e+06" purity="4.9944239854812622e-01" nType="0">
        <Node pos="l" depth="1" NCoef="0" IVar="1" Cut="1.7862244844436646e+00" cType="1" res="0.0000000000000000e+00" rms="0.0000000000000000e+00" purity="5.3474950790405273e-01" nType="0">
          <Node pos="l" depth="2" NCoef="0" IVar="4" Cut="1.9704502820968628e+00" cType="1" res="5.6397610902786255e-01" rms="5.0490188598632812e-01" purity="5.9288924932479858e-01" nType="0">
            <Node pos="l" depth="3" NCoef="0" IVar="-1" Cut="0.0000000000000000e+00" cType="1" res="1.2472474947571754e-02" rms="4.4469645619392395e-01" purity="6.3207662105560303e-01" nType="-99"/>
            <Node pos="r" depth="3" NCoef="0" IVar="-1" Cut="0.0000000000000000e+00" cType="1" res="-1.2411918491125107e-02" rms="4.4731286168098450e-01" purity="4.3853038549423218e-01" nType="-99"/>
          </Node>
          <Node pos="r" depth="2" NCoef="0" IVar="3" Cut="1.9848331212997437e+00" cType="1" res="4.0486681461334229e-01" rms="4.9086624383926392e-01" purity="4.0486681461334229e-01" nType="0">
            <Node pos="l" depth="3" NCoef="0" IVar="-1" Cut="0.0000000000000000e+00" cType="1" res="-1.1266523506492376e-03" rms="4.4723886251449585e-01" purity="4.3723335862159729e-01" nType="-99"/>
            <Node pos="r" depth="3" NCoef="0" IVar="-1" Cut="0.0000000000000000e+00" cType="1" res="-8.5310637950897217e-03" rms="4.5009535551071167e-01" purity="3.6332243680953979e-01" nType="-99"/>
          </Node>
        </Node>
        <Node pos="r" depth="1" NCoef="0" IVar="5" Cut="2.6431596755981445e+01" cType="1" res="0.0000000000000000e+00" rms="0.0000000000000000e+00" purity="3.9178365468978882e-01" nType="0">
          <Node pos="l" depth="2" NCoef="0" IVar="-1" Cut="0.0000000000000000e+00" cType="1" res="-9.9287992343306541e-03" rms="4.1581794619560242e-01" purity="2.3244757950305939e-01" nType="-99"/>
          <Node pos="r" depth="2" NCoef="0" IVar="1" Cut="1.2449295520782471e+00" cType="1" res="0.0000000000000000e+00" rms="0.0000000000000000e+00" purity="5.3383654356002808e-01" nType="0">
            <Node pos="l" depth="3" NCoef="0" IVar="-1" Cut="0.0000000000000000e+00" cType="1" res="9.2790666967630386e-03" rms="4.3707188963890076e-01" purity="6.4728379249572754e-01" nType="-99"/>
            <Node pos="r" depth="3" NCoef="0" IVar="-1" Cut="0.0000000000000000e+00" cType="1" res="-1.7802854999899864e-02" rms="4.4502726197242737e-01" purity="4.5204955339431763e-01" nType="-99"/>
          </Node>
        </Node>
      </Node>
    </BinaryTree>
    <BinaryTree type="DecisionTree" boostWeight="1.0000000000000000e+00" itree="37">
      <Node pos="s" depth="0" NCoef="0" IVar="9" Cut="2.8643450736999512e+00" cType="1" res="4.9978402256965637e-01" rms="5.0000000000000000e-01" purity="4.9978411197662354e-01" nType="0">
        <Node pos="l" depth="1" NCoef="0" IVar="7" Cut="2.1019966602325439e+00" cType="1" res="8.2354359328746796e-02" rms="3.4052312374114990e-01" purity="5.3247386217117310e-01" nType="0">
          <Node pos="l" depth="2" NCoef="0" IVar="4" Cut="7.4051874876022339e-01" cType="1" res="-3.8118787297073557e+26" rms="0.0000000000000000e+00" purity="5.9096437692642212e-01" nType="0">
            <Node pos="l" depth="3" NCoef="0" IVar="-1" Cut="0.0000000000000000e+00" cType="1" res="-4.3826019391417503e-03" rms="4.5358902215957642e-01" purity="5.1042574644088745e-01" nType="-99"/>
            <Node pos="r" depth="3" NCoef="0" IVar="-1" Cut="0.0000000000000000e+00" cType="1" res="1.6568802297115326e-02" rms="4.4325208663940430e-01" purity="6.0755336284637451e-01" nType="-99"/>
          </Node>
          <Node pos="r" depth="2" NCoef="0" IVar="4" Cut="1.3641932010650635e+00" cType="1" res="0.0000000000000000e+00" rms="9.4679389953613281e+01" purity="4.8693534731864929e-01" nType="0">
            <Node pos="l" depth="3" NCoef="0" IVar="-1" Cut="0.0000000000000000e+00" cType="1" res="3.2906306441873312e-03" rms="4.4793206453323364e-01" purity="5.5462235212326050e-01" nType="-99"/>
            <Node pos="r" depth="3" NCoef="0" IVar="-1" Cut="0.0000000000000000e+00" cType="1" res="-6.7616389133036137e-03" rms="4.4121101498603821e-01" purity="4.0914443135261536e-01" nType="-99"/>
          </Node>
        </Node>
        <Node pos="r" depth="1" NCoef="0" IVar="6" Cut="7.6708477735519409e-01" cType="1" res="3.9593723416328430e-01" rms="4.8905107378959656e-01" purity="3.9593723416328430e-01" nType="0">
          <Node pos="l" depth="2" NCoef="0" IVar="-1" Cut="0.0000000000000000e+00" cType="1" res="-5.7248990051448345e-03" rms="4.5228254795074463e-01" purity="4.9520513415336609e-01" nType="-99"/>
          <Node pos="r" depth="2" NCoef="0" IVar="3" Cut="2.3830451965332031e+00" cType="1" res="0.0000000000000000e+00" rms="7.3432880640029907e-01" purity="3.3987575769424438e-01" nType="0">
            <Node pos="l" depth="3" NCoef="0" IVar="-1" Cut="0.0000000000000000e+00" cType="1" res="-1.0729442350566387e-02" rms="4.6398246288299561e-01" purity="3.8974034786224365e-01" nType="-99"/>
            <Node pos="r" depth="3" NCoef="0" IVar="-1" Cut="0.0000000000000000e+00" cType="1" res="-9.1483900323510170e-03" rms="4.2845532298088074e-01" purity="2.8923690319061279e-01" nType="-99"/>
          </Node>
        </Node>
      </Node>
    </BinaryTree>
    <BinaryTree type="DecisionTree" boostWeight="1.0000000000000000e+00" itree="38">
      <Node pos="s" depth="0" NCoef="0" IVar="6" Cut="1.7810347080230713e+00" cType="1" res="4.9689462780952454e-01" rms="4.9999034404754639e-01" purity="4.9689462780952454e-01" nType="0">
        <Node pos="l" depth="1" NCoef="0" IVar="4" Cut="6.2491774559020996e-01" cType="1" res="5.1728260517120361e-01" rms="4.9970123171806335e-01" purity="5.1730650663375854e-01" nType="0">
          <Node pos="l" depth="2" NCoef="0" IVar="7" Cut="2.4227869510650635e+00" cType="1" res="4.4198030233383179e-01" rms="4.9662229418754578e-01" purity="4.4198030233383179e-01" nType="0">
            <Node pos="l" depth="3" NCoef="0" IVar="-1" Cut="0.0000000000000000e+00" cType="1" res="-7.1696639060974121e-03" rms="4.4762474298477173e-01" purity="4.4473236799240112e-01" nType="-99"/>
            <Node pos="r" depth="3" NCoef="0" IVar="-1" Cut="0.0000000000000000e+00" cType="1" res="-1.6062445938587189e-02" rms="4.5463615655899048e-01" purity="4.3903580307960510e-01" nType="-99"/>
          </Node>
          <Node pos="r" depth="2" NCoef="0" IVar="2" Cut="1.5751663446426392e+00" cType="1" res="5.2742445468902588e-01" rms="4.9924734234809875e-01" purity="5.2745157480239868e-01" nType="0">
            <Node pos="l" depth="3" NCoef="0" IVar="-1" Cut="0.0000000000000000e+00" cType="1" res="7.1026929654181004e-03" rms="4.4629201292991638e-01" purity="5.8820652961730957e-01" nType="-99"/>
            <Node pos="r" depth="3" NCoef="0" IVar="-1" Cut="0.0000000000000000e+00" cType="1" res="-5.8707650750875473e-03" rms="4.4668072462081909e-01" purity="4.3634074926376343e-01" nType="-99"/>
          </Node>
        </Node>
        <Node pos="r" depth="1" NCoef="0" IVar="-1" Cut="0.0000000000000000e+00" cType="1" res="-8.5820909589529037e-03" rms="4.3556073307991028e-01" purity="3.2675656676292419e-01" nType="-99"/>
      </Node>
    </BinaryTree>
    <BinaryTree type="DecisionTree" boostWeight="1.0000000000000000e+00" itree="39">
      <Node pos="s" depth="0" NCoef="0" IVar="2" Cut="2.3911471366882324e+00" cType="1" res="3.9870131760835648e-02" rms="0.0000000000000000e+00" purity="5.0081551074981689e-01" nType="0">
        <Node pos="l" depth="1" NCoef="0" IVar="9" Cut="2.9759440422058105e+00" cType="1" res="3.4594838507473469e-03" rms="0.0000000000000000e+00" purity="5.2407872676849365e-01" nType="0">
          <Node pos="l" depth="2" NCoef="0" IVar="7" Cut="2.9835183620452881e+00" cType="1" res="5.5695438385009766e-01" rms="4.9677368998527527e-01" purity="5.5698233842849731e-01" nType="0">
            <Node pos="l" depth="3" NCoef="0" IVar="-1" Cut="0.0000000000000000e+00" cType="1" res="4.6093058772385120e-03" rms="4.4978791475296021e-01" purity="5.8647406101226807e-01" nType="-99"/>
            <Node pos="r" depth="3" NCoef="0" IVar="-1" Cut="0.0000000000000000e+00" cType="1" res="-7.8913653269410133e-03" rms="4.4537210464477539e-01" purity="4.3982353806495667e-01" nType="-99"/>
          </Node>
          <Node pos="r" depth="2" NCoef="0" IVar="8" Cut="2.4626832008361816e+00" cType="1" res="3.8819053769111633e-01" rms="4.8733833432197571e-01" purity="3.8819366693496704e-01" nType="0">
            <Node pos="l" depth="3" NCoef="0" IVar="-1" Cut="0.0000000000000000e+00" cType="1" res="-9.2850206419825554e-03" rms="4.4876617193222046e-01" purity="4.4832554459571838e-01" nType="-99"/>
            <Node pos="r" depth="3" NCoef="0" IVar="-1" Cut="0.0000000000000000e+00" cType="1" res="-8.0783143639564514e-03" rms="4.4776070117950439e-01" purity="3.2034596800804138e-01" nType="-99"/>
          </Node>
        </Node>
        <Node pos="r" depth="1" NCoef="0" IVar="-1" Cut="0.0000000000000000e+00" cType="1" res="-2.2059932351112366e-02" rms="4.3069079518318176e-01" purity="3.1554287672042847e-01" nType="-99"/>
      </Node>
    </BinaryTree>
    <BinaryTree type="DecisionTree" boostWeight="1.0000000000000000e+00" itree="40">
      <Node pos="s" depth="0" NCoef="0" IVar="6" Cut="1.7853438854217529e+00" cType="1" res="4.9501651525497437e-01" rms="4.9997517466545105e-01" purity="4.9501651525497437e-01" nType="0">
        <Node pos="l" depth="1" NCoef="0" IVar="1" Cut="9.2908811569213867e-01" cType="1" res="5.1530379056930542e-01" rms="4.9976575374603271e-01" purity="5.1530492305755615e-01" nType="0">
          <Node pos="l" depth="2" NCoef="0" IVar="9" Cut="2.3244264125823975e+00" cType="1" res="5.6671720743179321e-01" rms="5.1214766502380371e-01" purity="6.2180864810943604e-01" nType="0">
            <Node pos="l" depth="3" NCoef="0" IVar="-1" Cut="0.0000000000000000e+00" cType="1" res="1.5039680525660515e-02" rms="4.1627001762390137e-01" purity="6.6795706748962402e-01" nType="-99"/>
            <Node pos="r" depth="3" NCoef="0" IVar="-1" Cut="0.0000000000000000e+00" cType="1" res="-5.3933709859848022e-03" rms="4.5956417918205261e-01" purity="5.5098718404769897e-01" nType="-99"/>
          </Node>
          <Node pos="r" depth="2" NCoef="0" IVar="3" Cut="1.7274705171585083e+00" cType="1" res="4.7726485133171082e-01" rms="4.9948284029960632e-01" purity="4.7726646065711975e-01" nType="0">
            <Node pos="l" depth="3" NCoef="0" IVar="-1" Cut="0.0000000000000000e+00" cType="1" res="7.4352882802486420e-03" rms="4.5312157273292542e-01" purity="5.0609856843948364e-01" nType="-99"/>
            <Node pos="r" depth="3" NCoef="0" IVar="-1" Cut="0.0000000000000000e+00" cType="1" res="-6.3455002382397652e-03" rms="4.5062196254730225e-01" purity="4.7015377879142761e-01" nType="-99"/>
          </Node>
        </Node>
        <Node pos="r" depth="1" NCoef="0" IVar="-1" Cut="0.0000000000000000e+00" cType="1" res="-1.1642674915492535e-02" rms="4.3727168440818787e-01" purity="3.2367300987243652e-01" nType="-99"/>
      </Node>
    </BinaryTree>
    <BinaryTree type="DecisionTree" boostWeight="1.0000000000000000e+00" itree="41">
      <Node pos="s" depth="0" NCoef="0" IVar="9" Cut="3.2553305625915527e+00" cType="1" res="5.0019788742065430e-01" rms="4.9999997019767761e-01" purity="5.0022029876708984e-01" nType="0">
        <Node pos="l" depth="1" NCoef="0" IVar="4" Cut="7.4940299987792969e-01" cType="1" res="5.2339601516723633e-01" rms="4.9945232272148132e-01" purity="5.2342087030410767e-01" nType="0">
          <Node pos="l" depth="2" NCoef="0" IVar="6" Cut="4.4416013360023499e-01" cType="1" res="4.8153355717658997e-01" rms="4.9965888261795044e-01" purity="4.8165795207023621e-01" nType="0">
            <Node pos="l" depth="3" NCoef="0" IVar="-1" Cut="0.0000000000000000e+00" cType="1" res="1.9770334474742413e-03" rms="4.5256662368774414e-01" purity="5.5152118206024170e-01" nType="-99"/>
            <Node pos="r" depth="3" NCoef="0" IVar="-1" Cut="0.0000000000000000e+00" cType="1" res="-8.8153453543782234e-03" rms="4.5582330226898193e-01" purity="4.4837191700935364e-01" nType="-99"/>
          </Node>
          <Node pos="r" depth="2" NCoef="0" IVar="3" Cut="2.8559219837188721e+00" cType="1" res="5.3323119878768921e-01" rms="4.9889445304870605e-01" purity="5.3323268890380859e-01" nType="0">
            <Node pos="l" depth="3" NCoef="0" IVar="-1" Cut="0.0000000000000000e+00" cType="1" res="4.4332188554108143e-03" rms="4.4951286911964417e-01" purity="5.6585162878036499e-01" nType="-99"/>
            <Node pos="r" depth="3" NCoef="0" IVar="-1" Cut="0.0000000000000000e+00" cType="1" res="-6.9507574662566185e-03" rms="4.3658569455146790e-01" purity="4.0246316790580750e-01" nType="-99"/>
          </Node>
        </Node>
        <Node pos="r" depth="1" NCoef="0" IVar="-1" Cut="0.0000000000000000e+00" cType="1" res="-1.0512970387935638e-02" rms="4.2932039499282837e-01" purity="2.8955516219139099e-01" nType="-99"/>
      </Node>
    </BinaryTree>
    <BinaryTree type="DecisionTree" boostWeight="1.0000000000000000e+00" itree="42">
